{"learner":{"attributes":{"best_iteration":"30","best_score":"0.5296034916241964","scikit_learn":"{\"_estimator_type\": \"classifier\"}"},"feature_names":[],"feature_types":[],"gradient_booster":{"model":{"gbtree_model_param":{"num_parallel_tree":"1","num_trees":"51"},"iteration_indptr":[0,1,2,3,4,5,6,7,8,9,10,11,12,13,14,15,16,17,18,19,20,21,22,23,24,25,26,27,28,29,30,31,32,33,34,35,36,37,38,39,40,41,42,43,44,45,46,47,48,49,50,51],"tree_info":[0,0,0,0,0,0,0,0,0,0,0,0,0,0,0,0,0,0,0,0,0,0,0,0,0,0,0,0,0,0,0,0,0,0,0,0,0,0,0,0,0,0,0,0,0,0,0,0,0,0,0],"trees":[{"base_weights":[3.6124028E-8,-1.9581057E0,6.0519546E-1,-9.891892E-2,-1.2021857E-2,-1.1852112E0,9.728436E-1,-1.3558719E0,6.3819695E-1,1.2248654E0,1.14745565E-1,-1.5929189E-3,-7.702115E-2,-2.088452E-2,5.9000004E-2,2.8358517E-2,7.508824E-2,4.0435836E-2,-1.5857711E-2],"categories":[],"categories_nodes":[],"categories_segments":[],"categories_sizes":[],"default_left":[0,0,0,0,0,0,0,0,0,0,0,0,0,0,0,0,0,0,0],"id":0,"left_children":[1,3,5,-1,-1,7,9,11,13,15,17,-1,-1,-1,-1,-1,-1,-1,-1],"loss_changes":[4.704596E2,2.788208E0,2.0077623E2,0E0,0E0,1.7082947E1,5.438983E1,1.1673683E1,3.4335213E0,3.4625214E1,1.774477E1,0E0,0E0,0E0,0E0,0E0,0E0,0E0,0E0],"parents":[2147483647,0,0,1,1,2,2,5,5,6,6,7,7,8,8,9,9,10,10],"right_children":[2,4,6,-1,-1,8,10,12,14,16,18,-1,-1,-1,-1,-1,-1,-1,-1],"split_conditions":[1E0,6.8524754E-1,4.2258126E-1,-9.891892E-2,-1.2021857E-2,1E0,7.1E0,3E0,1E0,5.2885276E-1,1E0,-1.5929189E-3,-7.702115E-2,-2.088452E-2,5.9000004E-2,2.8358517E-2,7.508824E-2,4.0435836E-2,-1.5857711E-2],"split_indices":[10,97,97,0,0,41,76,77,12,97,48,0,0,0,0,0,0,0,0],"split_type":[0,0,0,0,0,0,0,0,0,0,0,0,0,0,0,0,0,0,0],"sum_hessian":[3.95E2,9.2731705E1,3.022683E2,9.15E1,1.2317073E0,5.1115852E1,2.5115245E2,4.697561E1,4.140244E0,1.9380489E2,5.734756E1,5.890244E0,4.1085365E1,1.4817073E0,2.6585367E0,5.8323174E1,1.354817E2,2.1664635E1,3.5682926E1],"tree_param":{"num_deleted":"0","num_feature":"100","num_nodes":"19","size_leaf_vector":"1"}},{"base_weights":[-6.902535E-5,-1.8659121E0,5.757616E-1,-9.4258144E-2,-1.1690341E-2,-1.1281283E0,9.25513E-1,-1.2913883E0,6.1400634E-1,1.1653899E0,1.0945213E-1,-1.5248432E-3,-7.3369585E-2,-2.0262409E-2,5.6892913E-2,2.6969923E-2,7.146298E-2,3.851856E-2,-1.5087386E-2],"categories":[],"categories_nodes":[],"categories_segments":[],"categories_sizes":[],"default_left":[0,0,0,0,0,0,0,0,0,0,0,0,0,0,0,0,0,0,0],"id":1,"left_children":[1,3,5,-1,-1,7,9,11,13,15,17,-1,-1,-1,-1,-1,-1,-1,-1],"loss_changes":[4.2600278E2,2.4971924E0,1.8160812E2,0E0,0E0,1.559774E1,4.919049E1,1.0588547E1,3.204368E0,3.1373535E1,1.6086548E1,0E0,0E0,0E0,0E0,0E0,0E0,0E0,0E0],"parents":[2147483647,0,0,1,1,2,2,5,5,6,6,7,7,8,8,9,9,10,10],"right_children":[2,4,6,-1,-1,8,10,12,14,16,18,-1,-1,-1,-1,-1,-1,-1,-1],"split_conditions":[1E0,6.8524754E-1,4.2258126E-1,-9.4258144E-2,-1.1690341E-2,1E0,7.1E0,3E0,1E0,5.2885276E-1,1E0,-1.5248432E-3,-7.3369585E-2,-2.0262409E-2,5.6892913E-2,2.6969923E-2,7.146298E-2,3.851856E-2,-1.5087386E-2],"split_indices":[10,97,97,0,0,41,76,77,12,97,48,0,0,0,0,0,0,0,0],"split_type":[0,0,0,0,0,0,0,0,0,0,0,0,0,0,0,0,0,0,0],"sum_hessian":[3.9449954E2,9.25082E1,3.0199133E2,9.1276535E1,1.2316629E0,5.1052505E1,2.5093883E2,4.6914734E1,4.13777E0,1.9360237E2,5.7336464E1,5.8902397E0,4.1024494E1,1.4815457E0,2.6562245E0,5.8311447E1,1.3529092E2,2.165578E1,3.5680683E1],"tree_param":{"num_deleted":"0","num_feature":"100","num_nodes":"19","size_leaf_vector":"1"}},{"base_weights":[-1.5781706E-4,-1.7859685E0,5.486952E-1,-9.022155E-2,-1.136842E-2,-1.076234E0,8.818855E-1,-1.2328876E0,5.912799E-1,1.1109525E0,1.0444359E-1,-7.19139E-2,-1.004446E-2,-1.966132E-2,5.492766E-2,2.5658721E-2,6.818952E-2,3.6718898E-2,-1.4356104E-2],"categories":[],"categories_nodes":[],"categories_segments":[],"categories_sizes":[],"default_left":[0,0,0,0,0,0,0,0,0,0,0,0,0,0,0,0,0,0,0],"id":2,"left_children":[1,3,5,-1,-1,7,9,11,13,15,17,-1,-1,-1,-1,-1,-1,-1,-1],"loss_changes":[3.8725494E2,2.2624512E0,1.6457187E2,0E0,0E0,1.4279842E1,4.4644287E1,9.831039E0,2.994327E0,2.86268E1,1.4592478E1,0E0,0E0,0E0,0E0,0E0,0E0,0E0,0E0],"parents":[2147483647,0,0,1,1,2,2,5,5,6,6,7,7,8,8,9,9,10,10],"right_children":[2,4,6,-1,-1,8,10,12,14,16,18,-1,-1,-1,-1,-1,-1,-1,-1],"split_conditions":[1E0,6.8524754E-1,4.2258126E-1,-9.022155E-2,-1.136842E-2,1E0,7.1E0,1E0,1E0,5.2885276E-1,1E0,-7.19139E-2,-1.004446E-2,-1.966132E-2,5.492766E-2,2.5658721E-2,6.818952E-2,3.6718898E-2,-1.4356104E-2],"split_indices":[10,97,97,0,0,41,76,47,12,97,48,0,0,0,0,0,0,0,0],"split_type":[0,0,0,0,0,0,0,0,0,0,0,0,0,0,0,0,0,0,0],"sum_hessian":[3.9309875E2,9.188318E1,3.0121558E2,9.065165E1,1.2315342E0,5.0874866E1,2.5034071E2,4.6744156E1,4.13071E0,1.9303542E2,5.730529E1,3.8656902E1,8.087255E0,1.4810804E0,2.6496296E0,5.827856E1,1.3475687E2,2.1630907E1,3.5674385E1],"tree_param":{"num_deleted":"0","num_feature":"100","num_nodes":"19","size_leaf_vector":"1"}},{"base_weights":[-2.860951E-4,-1.7160274E0,5.2359563E-1,-8.6694345E-2,-1.1055761E-2,-1.0284814E0,8.41458E-1,-1.1790929E0,5.6987697E-1,1.0608169E0,9.9697836E-2,7.32278E-4,-6.741177E-2,-1.908032E-2,5.3088624E-2,2.4418905E-2,6.5211214E-2,3.5025254E-2,-1.3661598E-2],"categories":[],"categories_nodes":[],"categories_segments":[],"categories_sizes":[],"default_left":[0,0,0,0,0,0,0,0,0,0,0,0,0,0,0,0,0,0,0],"id":3,"left_children":[1,3,5,-1,-1,7,9,11,13,15,17,-1,-1,-1,-1,-1,-1,-1,-1],"loss_changes":[3.5320724E2,2.0706787E0,1.493818E2,0E0,0E0,1.3099003E1,4.0639893E1,9.611084E0,2.8012962E0,2.627707E1,1.32443905E1,0E0,0E0,0E0,0E0,0E0,0E0,0E0,0E0],"parents":[2147483647,0,0,1,1,2,2,5,5,6,6,7,7,8,8,9,9,10,10],"right_children":[2,4,6,-1,-1,8,10,12,14,16,18,-1,-1,-1,-1,-1,-1,-1,-1],"split_conditions":[1E0,6.8524754E-1,4.2258126E-1,-8.6694345E-2,-1.1055761E-2,1E0,7.1E0,3E0,1E0,5.2885276E-1,1E0,7.32278E-4,-6.741177E-2,-1.908032E-2,5.3088624E-2,2.4418905E-2,6.5211214E-2,3.5025254E-2,-1.3661598E-2],"split_indices":[10,97,97,0,0,41,76,77,12,97,48,0,0,0,0,0,0,0,0],"split_type":[0,0,0,0,0,0,0,0,0,0,0,0,0,0,0,0,0,0,0],"sum_hessian":[3.909569E2,9.091844E1,3.0003848E2,8.968712E1,1.2313285E0,5.062213E1,2.4941634E2,4.6502556E1,4.1195755E0,1.921594E2,5.7256954E1,5.8846374E0,4.061792E1,1.4803386E0,2.6392367E0,5.8227642E1,1.3393175E2,2.1592327E1,3.5664627E1],"tree_param":{"num_deleted":"0","num_feature":"100","num_nodes":"19","size_leaf_vector":"1"}},{"base_weights":[-3.9417055E-4,-1.6543596E0,5.003312E-1,-8.358833E-2,-1.07520735E-2,-9.845522E-1,8.0381787E-1,-1.129723E0,5.496748E-1,1.0143852E0,9.519558E-2,-6.6392E-2,-7.3790858E-3,-1.8518528E-2,5.1362377E-2,2.3245208E-2,6.248281E-2,-3.7860803E-2,1.7637718E-2],"categories":[],"categories_nodes":[],"categories_segments":[],"categories_sizes":[],"default_left":[0,0,0,0,0,0,0,0,0,0,0,0,0,0,0,0,0,0,0],"id":4,"left_children":[1,3,5,-1,-1,7,9,11,13,15,17,-1,-1,-1,-1,-1,-1,-1,-1],"loss_changes":[3.2312155E2,1.9121246E0,1.3575421E2,0E0,0E0,1.2040737E1,3.7089783E1,8.981949E0,2.6234694E0,2.4243149E1,1.3043384E1,0E0,0E0,0E0,0E0,0E0,0E0,0E0,0E0],"parents":[2147483647,0,0,1,1,2,2,5,5,6,6,7,7,8,8,9,9,10,10],"right_children":[2,4,6,-1,-1,8,10,12,14,16,18,-1,-1,-1,-1,-1,-1,-1,-1],"split_conditions":[1E0,6.8524754E-1,4.2258126E-1,-8.358833E-2,-1.07520735E-2,1E0,7.1E0,1E0,1E0,5.2885276E-1,1E0,-6.6392E-2,-7.3790858E-3,-1.8518528E-2,5.1362377E-2,2.3245208E-2,6.248281E-2,-3.7860803E-2,1.7637718E-2],"split_indices":[10,97,97,0,0,41,76,47,12,97,60,0,0,0,0,0,0,0,0],"split_type":[0,0,0,0,0,0,0,0,0,0,0,0,0,0,0,0,0,0,0],"sum_hessian":[3.88158E2,8.966805E1,2.9848993E2,8.8437004E1,1.231052E0,5.0272945E1,2.4821698E2,4.616811E1,4.1048374E0,1.9102295E2,5.719403E1,3.8125477E1,8.042633E0,1.4793458E0,2.6254914E0,5.8161476E1,1.3286148E2,1.2821213E1,4.4372818E1],"tree_param":{"num_deleted":"0","num_feature":"100","num_nodes":"19","size_leaf_vector":"1"}},{"base_weights":[-6.424331E-4,-1.599612E0,4.7831053E-1,-8.083458E-2,-1.0457075E-2,-9.4368786E-1,7.682638E-1,-1.0838056E0,5.3056514E-1,9.7116625E-1,9.011057E-2,2.699448E-3,-6.2418737E-2,-1.7975125E-2,4.973726E-2,2.2132892E-2,5.9967645E-2,-7.223534E-3,4.870495E-2],"categories":[],"categories_nodes":[],"categories_segments":[],"categories_sizes":[],"default_left":[0,0,0,0,0,0,0,0,0,0,0,0,0,0,0,0,0,0,0],"id":5,"left_children":[1,3,5,-1,-1,7,9,11,13,15,17,-1,-1,-1,-1,-1,-1,-1,-1],"loss_changes":[2.9630185E2,1.7797699E0,1.23480446E2,0E0,0E0,1.1084072E1,3.4016342E1,8.828133E0,2.4592862E0,2.2463486E1,1.2205493E1,0E0,0E0,0E0,0E0,0E0,0E0,0E0,0E0],"parents":[2147483647,0,0,1,1,2,2,5,5,6,6,7,7,8,8,9,9,10,10],"right_children":[2,4,6,-1,-1,8,10,12,14,16,18,-1,-1,-1,-1,-1,-1,-1,-1],"split_conditions":[1E0,6.8524754E-1,4.2258126E-1,-8.083458E-2,-1.0457075E-2,1E0,7.1E0,3E0,1E0,5.2885276E-1,1E0,2.699448E-3,-6.2418737E-2,-1.7975125E-2,4.973726E-2,2.2132892E-2,5.9967645E-2,-7.223534E-3,4.870495E-2],"split_indices":[10,97,97,0,0,41,76,77,12,97,45,0,0,0,0,0,0,0,0],"split_type":[0,0,0,0,0,0,0,0,0,0,0,0,0,0,0,0,0,0,0],"sum_hessian":[3.849032E2,8.817935E1,2.9672385E2,8.694864E1,1.2307113E0,4.987426E1,2.4684958E2,4.578733E1,4.0869293E0,1.8966887E2,5.718071E1,5.870683E0,3.991665E1,1.4781258E0,2.6088035E0,5.8082508E1,1.3158636E2,4.5850166E1,1.1330547E1],"tree_param":{"num_deleted":"0","num_feature":"100","num_nodes":"19","size_leaf_vector":"1"}},{"base_weights":[-6.9758104E-4,-1.5507104E0,4.5798573E-1,-7.83784E-2,-1.0170481E-2,-9.057084E-1,7.3523307E-1,-1.0412183E0,5.124534E-1,9.3075424E-1,8.641494E-2,-6.172706E-2,-5.022931E-3,-1.7449325E-2,4.8203167E-2,2.107775E-2,5.7635773E-2,-2.269131E-2,2.305237E-2],"categories":[],"categories_nodes":[],"categories_segments":[],"categories_sizes":[],"default_left":[0,0,0,0,0,0,0,0,0,0,0,0,0,0,0,0,0,0,0],"id":6,"left_children":[1,3,5,-1,-1,7,9,11,13,15,17,-1,-1,-1,-1,-1,-1,-1,-1],"loss_changes":[2.7241278E2,1.668335E0,1.12451645E2,0E0,0E0,1.0219719E1,3.1160004E1,8.303226E0,2.3073926E0,2.0890549E1,1.1974052E1,0E0,0E0,0E0,0E0,0E0,0E0,0E0,0E0],"parents":[2147483647,0,0,1,1,2,2,5,5,6,6,7,7,8,8,9,9,10,10],"right_children":[2,4,6,-1,-1,8,10,12,14,16,18,-1,-1,-1,-1,-1,-1,-1,-1],"split_conditions":[1E0,6.8524754E-1,4.2258126E-1,-7.83784E-2,-1.0170481E-2,1E0,7.1E0,1E0,1E0,5.2885276E-1,8.5E0,-6.172706E-2,-5.022931E-3,-1.7449325E-2,4.8203167E-2,2.107775E-2,5.7635773E-2,-2.269131E-2,2.305237E-2],"split_indices":[10,97,97,0,0,41,76,47,12,97,76,0,0,0,0,0,0,0,0],"split_type":[0,0,0,0,0,0,0,0,0,0,0,0,0,0,0,0,0,0,0],"sum_hessian":[3.8116025E2,8.649382E1,2.946664E2,8.5263504E1,1.2303118E0,4.9402752E1,2.4526366E2,4.5336502E1,4.06625E0,1.8813477E2,5.7128902E1,3.7349102E1,7.987397E0,1.4767013E0,2.5895488E0,5.7992916E1,1.3014185E2,2.3307207E1,3.3821697E1],"tree_param":{"num_deleted":"0","num_feature":"100","num_nodes":"19","size_leaf_vector":"1"}},{"base_weights":[-8.9290144E-4,-1.5067906E0,4.3858892E-1,-7.617584E-2,-9.8920185E-3,-7.329845E-1,7.357593E-1,-9.0540093E-1,5.10551E-1,9.210489E-1,1.2015234E-1,-5.2409407E-2,1.9112471E-2,-3.7770703E-2,6.3757904E-2,2.2248289E-2,5.5775918E-2,4.0868774E-2,-1.4068997E-2],"categories":[],"categories_nodes":[],"categories_segments":[],"categories_sizes":[],"default_left":[0,0,0,0,0,0,0,0,0,0,0,0,0,0,0,0,0,0,0],"id":7,"left_children":[1,3,5,-1,-1,7,9,11,13,15,17,-1,-1,-1,-1,-1,-1,-1,-1],"loss_changes":[2.5090923E2,1.5737457E0,1.02715256E2,0E0,0E0,1.330088E1,2.6648743E1,1.0135891E1,8.640059E0,1.61846E1,1.5746534E1,0E0,0E0,0E0,0E0,0E0,0E0,0E0,0E0],"parents":[2147483647,0,0,1,1,2,2,5,5,6,6,7,7,8,8,9,9,10,10],"right_children":[2,4,6,-1,-1,8,10,12,14,16,18,-1,-1,-1,-1,-1,-1,-1,-1],"split_conditions":[1E0,6.8524754E-1,4.39743E-1,-7.617584E-2,-9.8920185E-3,6E-1,7.1E0,1E0,5E-1,5.3056747E-1,1E0,-5.2409407E-2,1.9112471E-2,-3.7770703E-2,6.3757904E-2,2.2248289E-2,5.5775918E-2,4.0868774E-2,-1.4068997E-2],"split_indices":[10,97,97,0,0,35,76,41,69,97,48,0,0,0,0,0,0,0,0],"split_type":[0,0,0,0,0,0,0,0,0,0,0,0,0,0,0,0,0,0,0],"sum_hessian":[3.7712454E2,8.464778E1,2.9247675E2,8.341792E1,1.229859E0,5.887999E1,2.3359677E2,5.1949142E1,6.9308457E0,1.7917215E2,5.4424614E1,4.6930954E1,5.0181894E0,2.6143205E0,4.316525E0,5.2915977E1,1.2625618E2,1.9510616E1,3.4913998E1],"tree_param":{"num_deleted":"0","num_feature":"100","num_nodes":"19","size_leaf_vector":"1"}},{"base_weights":[-9.267143E-4,-1.4671497E0,4.204943E-1,-7.419118E-2,-9.621439E-3,-8.38979E-1,6.7522967E-1,-9.6691144E-1,4.8066258E-1,8.580274E-1,7.870109E-2,5.0223805E-3,-5.635379E-2,-1.7497912E-2,4.6184592E-2,1.9256819E-2,5.3437807E-2,-3.6398314E-2,1.6151786E-2],"categories":[],"categories_nodes":[],"categories_segments":[],"categories_sizes":[],"default_left":[0,0,0,0,0,0,0,0,0,0,0,0,0,0,0,0,0,0,0],"id":8,"left_children":[1,3,5,-1,-1,7,9,11,13,15,17,-1,-1,-1,-1,-1,-1,-1,-1],"loss_changes":[2.3158276E2,1.4929047E0,9.396735E1,0E0,0E0,8.808273E0,2.6397385E1,7.8719788E0,2.1763182E0,1.8090805E1,1.1672328E1,0E0,0E0,0E0,0E0,0E0,0E0,0E0,0E0],"parents":[2147483647,0,0,1,1,2,2,5,5,6,6,7,7,8,8,9,9,10,10],"right_children":[2,4,6,-1,-1,8,10,12,14,16,18,-1,-1,-1,-1,-1,-1,-1,-1],"split_conditions":[1E0,6.8524754E-1,4.2258126E-1,-7.419118E-2,-9.621439E-3,1E0,7.1E0,3E0,1E0,5.2885276E-1,1E0,5.0223805E-3,-5.635379E-2,-1.7497912E-2,4.6184592E-2,1.9256819E-2,5.3437807E-2,-3.6398314E-2,1.6151786E-2],"split_indices":[10,97,97,0,0,41,76,77,12,97,60,0,0,0,0,0,0,0,0],"split_type":[0,0,0,0,0,0,0,0,0,0,0,0,0,0,0,0,0,0,0],"sum_hessian":[3.7279333E2,8.2673004E1,2.9012033E2,8.144365E1,1.2293577E0,4.842111E1,2.416992E2,4.438546E1,4.0356483E0,1.8467102E2,5.702819E1,5.839958E0,3.8545506E1,1.476843E0,2.5588055E0,5.7797256E1,1.26873764E2,1.27976265E1,4.4230564E1],"tree_param":{"num_deleted":"0","num_feature":"100","num_nodes":"19","size_leaf_vector":"1"}},{"base_weights":[-1.1541721E-3,-1.4312087E0,4.0315247E-1,-7.239505E-2,-9.358502E-3,-6.771296E-1,6.7668474E-1,-8.427484E-1,5.008067E-1,8.5023427E-1,1.1049949E-1,-4.8854467E-2,1.7623566E-2,-3.5565767E-2,6.109735E-2,2.0235065E-2,5.1823765E-2,3.8827334E-2,-1.3566749E-2],"categories":[],"categories_nodes":[],"categories_segments":[],"categories_sizes":[],"default_left":[0,0,0,0,0,0,0,0,0,0,0,0,0,0,0,0,0,0,0],"id":9,"left_children":[1,3,5,-1,-1,7,9,11,13,15,17,-1,-1,-1,-1,-1,-1,-1,-1],"loss_changes":[2.1404935E2,1.4234161E0,8.574215E1,0E0,0E0,1.1895901E1,2.2585045E1,8.683666E0,7.7546816E0,1.4226303E1,1.4274136E1,0E0,0E0,0E0,0E0,0E0,0E0,0E0,0E0],"parents":[2147483647,0,0,1,1,2,2,5,5,6,6,7,7,8,8,9,9,10,10],"right_children":[2,4,6,-1,-1,8,10,12,14,16,18,-1,-1,-1,-1,-1,-1,-1,-1],"split_conditions":[1E0,6.8524754E-1,4.39743E-1,-7.239505E-2,-9.358502E-3,6E-1,7.1E0,1E0,5E-1,5.3056747E-1,1E0,-4.8854467E-2,1.7623566E-2,-3.5565767E-2,6.109735E-2,2.0235065E-2,5.1823765E-2,3.8827334E-2,-1.3566749E-2],"split_indices":[10,97,97,0,0,35,76,41,69,97,48,0,0,0,0,0,0,0,0],"split_type":[0,0,0,0,0,0,0,0,0,0,0,0,0,0,0,0,0,0,0],"sum_hessian":[3.68214E2,8.059725E1,2.8761676E2,7.936844E1,1.2288128E0,5.7813583E1,2.2980318E2,5.0936436E1,6.877146E0,1.7550494E2,5.4298225E1,4.59538E1,4.9826365E0,2.5703764E0,4.3067694E0,5.2672577E1,1.2283237E2,1.9408892E1,3.4889336E1],"tree_param":{"num_deleted":"0","num_feature":"100","num_nodes":"19","size_leaf_vector":"1"}},{"base_weights":[-1.1920389E-3,-1.3984876E0,3.869288E-1,-7.0763074E-2,-9.102975E-3,-7.796326E-1,6.213659E-1,-9.777388E-1,5.3061977E-2,4.4972858E-1,1.2010002E0,-5.469327E-2,2.377047E-2,-4.3996405E-2,3.4193594E-2,2.7976895E-2,-1.9161029E-2,1.5734958E-2,6.605117E-2],"categories":[],"categories_nodes":[],"categories_segments":[],"categories_sizes":[],"default_left":[0,0,0,0,0,0,0,0,0,0,0,0,0,0,0,0,0,0,0],"id":10,"left_children":[1,3,5,-1,-1,7,9,11,13,15,17,-1,-1,-1,-1,-1,-1,-1,-1],"loss_changes":[1.9819563E2,1.363327E0,7.8705765E1,0E0,0E0,8.020252E0,2.3208618E1,7.1134605E0,6.623674E0,1.7206371E1,5.3220215E0,0E0,0E0,0E0,0E0,0E0,0E0,0E0,0E0],"parents":[2147483647,0,0,1,1,2,2,5,5,6,6,7,7,8,8,9,9,10,10],"right_children":[2,4,6,-1,-1,8,10,12,14,16,18,-1,-1,-1,-1,-1,-1,-1,-1],"split_conditions":[1E0,6.8524754E-1,4.2258126E-1,-7.0763074E-2,-9.102975E-3,1E0,6E-1,1E0,2E0,8E0,2.8525E2,-5.469327E-2,2.377047E-2,-4.3996405E-2,3.4193594E-2,2.7976895E-2,-1.9161029E-2,1.5734958E-2,6.605117E-2],"split_indices":[10,97,97,0,0,47,35,41,87,80,98,0,0,0,0,0,0,0,0],"split_type":[0,0,0,0,0,0,0,0,0,0,0,0,0,0,0,0,0,0,0],"sum_hessian":[3.6346136E2,7.844476E1,2.850166E2,7.721654E1,1.2282286E0,4.730431E1,2.377123E2,3.8072346E1,9.231967E0,1.8477415E2,5.2938152E1,3.5483932E1,2.5884125E0,3.5647128E0,5.667254E0,1.635423E2,2.123186E1,6.7458577E0,4.6192295E1],"tree_param":{"num_deleted":"0","num_feature":"100","num_nodes":"19","size_leaf_vector":"1"}},{"base_weights":[-1.3832144E-3,-1.3685833E0,3.7086573E-1,-6.927485E-2,-8.854609E-3,-6.303278E-1,6.234063E-1,-3.2930613E-1,-1.3044726E0,7.887203E-1,9.375621E-2,4.49899E-2,-2.8517192E-2,-2.765916E-3,-7.023525E-2,1.7068783E-2,4.841906E-2,3.6523737E-2,-1.3430069E-2],"categories":[],"categories_nodes":[],"categories_segments":[],"categories_sizes":[],"default_left":[0,0,0,0,0,0,0,0,0,0,0,0,0,0,0,0,0,0,0],"id":11,"left_children":[1,3,5,-1,-1,7,9,11,13,15,17,-1,-1,-1,-1,-1,-1,-1,-1],"loss_changes":[1.836828E2,1.311142E0,7.211902E1,0E0,0E0,1.1267235E1,1.9805382E1,1.2714458E1,2.1077309E0,1.35653305E1,1.2918545E1,0E0,0E0,0E0,0E0,0E0,0E0,0E0,0E0],"parents":[2147483647,0,0,1,1,2,2,5,5,6,6,7,7,8,8,9,9,10,10],"right_children":[2,4,6,-1,-1,8,10,12,14,16,18,-1,-1,-1,-1,-1,-1,-1,-1],"split_conditions":[1E0,6.8524754E-1,4.39743E-1,-6.927485E-2,-8.854609E-3,1E0,7.1E0,4E0,2.116238E-1,5.2885276E-1,1E0,4.49899E-2,-2.8517192E-2,-2.765916E-3,-7.023525E-2,1.7068783E-2,4.841906E-2,3.6523737E-2,-1.3430069E-2],"split_indices":[10,97,97,0,0,33,76,79,99,97,48,0,0,0,0,0,0,0,0],"split_type":[0,0,0,0,0,0,0,0,0,0,0,0,0,0,0,0,0,0,0],"sum_hessian":[3.5891608E2,7.6236664E1,2.826794E2,7.5009056E1,1.2276092E0,5.663899E1,2.2604042E2,4.0184242E1,1.6454744E1,1.7189847E2,5.4141956E1,6.140332E0,3.404391E1,1.3375332E0,1.5117211E1,5.0086426E1,1.2181204E2,1.9268435E1,3.4873524E1],"tree_param":{"num_deleted":"0","num_feature":"100","num_nodes":"19","size_leaf_vector":"1"}},{"base_weights":[-1.5766099E-3,-1.3411565E0,3.5588452E-1,-6.79132E-2,-8.613205E-3,-7.2696507E-1,5.7208544E-1,-9.1766137E-1,5.7393815E-2,4.073141E-1,1.1366936E0,-5.1628448E-2,2.371826E-2,-4.1347504E-2,3.2243934E-2,-8.52123E-3,2.8013349E-2,1.400148E-2,6.277056E-2],"categories":[],"categories_nodes":[],"categories_segments":[],"categories_sizes":[],"default_left":[0,0,0,0,0,0,0,0,0,0,0,0,0,0,0,0,0,0,0],"id":12,"left_children":[1,3,5,-1,-1,7,9,11,13,15,17,-1,-1,-1,-1,-1,-1,-1,-1],"loss_changes":[1.7047984E2,1.2655945E0,6.620938E1,0E0,0E0,7.1144714E0,2.1382637E1,6.574154E0,5.819459E0,1.6295885E1,4.9866257E0,0E0,0E0,0E0,0E0,0E0,0E0,0E0,0E0],"parents":[2147483647,0,0,1,1,2,2,5,5,6,6,7,7,8,8,9,9,10,10],"right_children":[2,4,6,-1,-1,8,10,12,14,16,18,-1,-1,-1,-1,-1,-1,-1,-1],"split_conditions":[1E0,6.8524754E-1,4.2258126E-1,-6.79132E-2,-8.613205E-3,1E0,6E-1,1E0,2E0,5.0005335E-1,2.8525E2,-5.1628448E-2,2.371826E-2,-4.1347504E-2,3.2243934E-2,-8.52123E-3,2.8013349E-2,1.400148E-2,6.277056E-2],"split_indices":[10,97,97,0,0,47,35,41,87,97,98,0,0,0,0,0,0,0,0],"split_type":[0,0,0,0,0,0,0,0,0,0,0,0,0,0,0,0,0,0,0],"sum_hessian":[3.540242E2,7.399126E1,2.8003296E2,7.27643E1,1.2269584E0,4.621269E1,2.3382027E2,3.7037937E1,9.174752E0,1.8233134E2,5.148892E1,3.4452236E1,2.5857024E0,3.4994307E0,5.675322E0,3.814281E1,1.4418854E2,6.675728E0,4.481319E1],"tree_param":{"num_deleted":"0","num_feature":"100","num_nodes":"19","size_leaf_vector":"1"}},{"base_weights":[-1.7186771E-3,-1.315918E0,3.412801E-1,-6.6663496E-2,-8.378553E-3,-7.011707E-1,5.481435E-1,-3.7524873E-1,-1.1709638E0,3.8895804E-1,1.1003846E0,2.8097064E-3,-5.0293725E-2,-6.318119E-2,9.388934E-3,3.746277E-2,7.0093013E-3,1.3427694E-2,6.087963E-2],"categories":[],"categories_nodes":[],"categories_segments":[],"categories_sizes":[],"default_left":[0,0,0,0,0,0,0,0,0,0,0,0,0,0,0,0,0,0,0],"id":13,"left_children":[1,3,5,-1,-1,7,9,11,13,15,17,-1,-1,-1,-1,-1,-1,-1,-1],"loss_changes":[1.5838635E2,1.2256927E0,6.047352E1,0E0,0E0,6.6924057E0,2.0060959E1,7.939011E0,2.5798645E0,1.6249805E1,4.704262E0,0E0,0E0,0E0,0E0,0E0,0E0,0E0,0E0],"parents":[2147483647,0,0,1,1,2,2,5,5,6,6,7,7,8,8,9,9,10,10],"right_children":[2,4,6,-1,-1,8,10,12,14,16,18,-1,-1,-1,-1,-1,-1,-1,-1],"split_conditions":[1E0,6.8524754E-1,4.2258126E-1,-6.6663496E-2,-8.378553E-3,1E0,6E-1,1E1,3.9433334E2,4E0,2.8525E2,2.8097064E-3,-5.0293725E-2,-6.318119E-2,9.388934E-3,3.746277E-2,7.0093013E-3,1.3427694E-2,6.087963E-2],"split_indices":[10,97,97,0,0,45,35,78,98,75,98,0,0,0,0,0,0,0,0],"split_type":[0,0,0,0,0,0,0,0,0,0,0,0,0,0,0,0,0,0,0],"sum_hessian":[3.493731E2,7.172446E1,2.7764865E2,7.049818E1,1.2262799E0,4.5577843E1,2.3207082E2,2.7971315E1,1.7606525E1,1.814667E2,5.060411E1,1.7149424E1,1.0821893E1,1.654803E1,1.0584955E0,7.3297646E1,1.0816906E2,6.6561785E0,4.3947933E1],"tree_param":{"num_deleted":"0","num_feature":"100","num_nodes":"19","size_leaf_vector":"1"}},{"base_weights":[-1.96535E-3,-1.2926202E0,3.271233E-1,-6.551322E-2,-8.150439E-3,-5.676284E-1,5.516643E-1,-2.784258E-1,-1.2275248E0,6.494448E-1,-2.696372E-1,9.915789E-3,-4.1938078E-2,-5.142495E-4,-6.647429E-2,1.2648637E-2,4.2198133E-2,4.0769547E-2,-4.634061E-2],"categories":[],"categories_nodes":[],"categories_segments":[],"categories_sizes":[],"default_left":[0,0,0,0,0,0,0,0,0,0,0,0,0,0,0,0,0,0,0],"id":14,"left_children":[1,3,5,-1,-1,7,9,11,13,15,17,-1,-1,-1,-1,-1,-1,-1,-1],"loss_changes":[1.4727838E2,1.190567E0,5.582496E1,0E0,0E0,1.0330618E1,1.7953705E1,1.0898586E1,2.0647926E0,1.5065895E1,1.8053892E1,0E0,0E0,0E0,0E0,0E0,0E0,0E0,0E0],"parents":[2147483647,0,0,1,1,2,2,5,5,6,6,7,7,8,8,9,9,10,10],"right_children":[2,4,6,-1,-1,8,10,12,14,16,18,-1,-1,-1,-1,-1,-1,-1,-1],"split_conditions":[1E0,6.8524754E-1,4.39743E-1,-6.551322E-2,-8.150439E-3,1E0,8E0,1E1,2.116238E-1,5.3056747E-1,1E0,9.915789E-3,-4.1938078E-2,-5.142495E-4,-6.647429E-2,1.2648637E-2,4.2198133E-2,4.0769547E-2,-4.634061E-2],"split_indices":[10,97,97,0,0,33,80,78,99,97,48,0,0,0,0,0,0,0,0],"split_type":[0,0,0,0,0,0,0,0,0,0,0,0,0,0,0,0,0,0,0],"sum_hessian":[3.4475406E2,6.944996E1,2.753041E2,6.822438E1,1.2255765E0,5.4922153E1,2.2038196E2,3.9175316E1,1.5746837E1,1.9712265E2,2.3259304E1,2.1515608E1,1.7659708E1,1.3021584E0,1.4444678E1,6.5637955E1,1.314847E2,8.682809E0,1.4576495E1],"tree_param":{"num_deleted":"0","num_feature":"100","num_nodes":"19","size_leaf_vector":"1"}},{"base_weights":[-2.3981356E-3,-1.2710497E0,3.1356272E-1,-6.4451635E-2,-7.928671E-3,-6.5544385E-1,5.0487286E-1,-3.399019E-1,-1.1220481E0,3.51061E-1,1.048086E0,3.181217E-3,-4.7190472E-2,-6.0810715E-2,1.0237949E-2,3.485472E-2,5.781346E-3,1.1953414E-2,5.8259625E-2],"categories":[],"categories_nodes":[],"categories_segments":[],"categories_sizes":[],"default_left":[0,0,0,0,0,0,0,0,0,0,0,0,0,0,0,0,0,0,0],"id":15,"left_children":[1,3,5,-1,-1,7,9,11,13,15,17,-1,-1,-1,-1,-1,-1,-1,-1],"loss_changes":[1.3706361E2,1.1595764E0,5.108139E1,0E0,0E0,6.3284054E0,1.8781559E1,7.034956E0,2.4918118E0,1.4593357E1,4.46529E0,0E0,0E0,0E0,0E0,0E0,0E0,0E0,0E0],"parents":[2147483647,0,0,1,1,2,2,5,5,6,6,7,7,8,8,9,9,10,10],"right_children":[2,4,6,-1,-1,8,10,12,14,16,18,-1,-1,-1,-1,-1,-1,-1,-1],"split_conditions":[1E0,6.8524754E-1,4.2258126E-1,-6.4451635E-2,-7.928671E-3,1E0,6E-1,1E1,3.9433334E2,4E0,2.8525E2,3.181217E-3,-4.7190472E-2,-6.0810715E-2,1.0237949E-2,3.485472E-2,5.781346E-3,1.1953414E-2,5.8259625E-2],"split_indices":[10,97,97,0,0,45,35,78,98,75,98,0,0,0,0,0,0,0,0],"split_type":[0,0,0,0,0,0,0,0,0,0,0,0,0,0,0,0,0,0,0],"sum_hessian":[3.3994302E2,6.717958E1,2.7276346E2,6.595473E1,1.2248518E0,4.457255E1,2.281909E2,2.7621752E1,1.6950798E1,1.7911922E2,4.9071682E1,1.7094194E1,1.0527558E1,1.5905317E1,1.0454803E0,7.173077E1,1.0738846E2,6.5895934E0,4.248209E1],"tree_param":{"num_deleted":"0","num_feature":"100","num_nodes":"19","size_leaf_vector":"1"}},{"base_weights":[-2.6193873E-3,-1.2510217E0,3.0063492E-1,-6.34694E-2,-7.713066E-3,-5.311239E-1,5.0903165E-1,-2.5096917E-1,-1.1815633E0,6.0287464E-1,-2.6792982E-1,5.0793864E-2,-2.1996886E-2,1.6418633E-4,-6.419663E-2,1.1004368E-2,3.972164E-2,3.87268E-2,-4.470605E-2],"categories":[],"categories_nodes":[],"categories_segments":[],"categories_sizes":[],"default_left":[0,0,0,0,0,0,0,0,0,0,0,0,0,0,0,0,0,0,0],"id":16,"left_children":[1,3,5,-1,-1,7,9,11,13,15,17,-1,-1,-1,-1,-1,-1,-1,-1],"loss_changes":[1.2770053E2,1.1321106E0,4.7312763E1,0E0,0E0,9.700925E0,1.6022228E1,9.930929E0,1.9748459E0,1.40794525E1,1.6447262E1,0E0,0E0,0E0,0E0,0E0,0E0,0E0,0E0],"parents":[2147483647,0,0,1,1,2,2,5,5,6,6,7,7,8,8,9,9,10,10],"right_children":[2,4,6,-1,-1,8,10,12,14,16,18,-1,-1,-1,-1,-1,-1,-1,-1],"split_conditions":[1E0,6.8524754E-1,4.39743E-1,-6.34694E-2,-7.713066E-3,1E0,8E0,3E0,2.116238E-1,5.3056747E-1,1E0,5.0793864E-2,-2.1996886E-2,1.6418633E-4,-6.419663E-2,1.1004368E-2,3.972164E-2,3.87268E-2,-4.470605E-2],"split_indices":[10,97,97,0,0,33,80,77,99,97,48,0,0,0,0,0,0,0,0],"split_type":[0,0,0,0,0,0,0,0,0,0,0,0,0,0,0,0,0,0,0],"sum_hessian":[3.3531802E2,6.492342E1,2.703946E2,6.3699318E1,1.2241083E0,5.3863693E1,2.1653088E2,3.8616707E1,1.5246988E1,1.9339616E2,2.3134724E1,4.4445443E0,3.417216E1,1.2895334E0,1.3957455E1,6.521904E1,1.2817712E2,8.592787E0,1.4541936E1],"tree_param":{"num_deleted":"0","num_feature":"100","num_nodes":"19","size_leaf_vector":"1"}},{"base_weights":[-2.8475006E-3,-1.2323751E0,2.884769E-1,-6.2558435E-2,-7.5034336E-3,-2.6833668E-1,5.771032E-1,-6.309949E-2,-1.226551E0,6.907524E-1,-2.8306913E-1,2.1002367E-2,-2.1920023E-2,-7.706364E-2,-4.105912E-3,3.720067E-2,-2.6338136E-2,4.654916E-2,-4.614475E-2],"categories":[],"categories_nodes":[],"categories_segments":[],"categories_sizes":[],"default_left":[0,0,0,0,0,0,0,0,0,0,0,0,0,0,0,0,0,0,0],"id":17,"left_children":[1,3,5,-1,-1,7,9,11,13,15,17,-1,-1,-1,-1,-1,-1,-1,-1],"loss_changes":[1.1909677E2,1.1077118E0,4.335594E1,0E0,0E0,1.8104504E1,1.7533802E1,1.4182127E1,5.728054E0,1.0569588E1,1.748849E1,0E0,0E0,0E0,0E0,0E0,0E0,0E0,0E0],"parents":[2147483647,0,0,1,1,2,2,5,5,6,6,7,7,8,8,9,9,10,10],"right_children":[2,4,6,-1,-1,8,10,12,14,16,18,-1,-1,-1,-1,-1,-1,-1,-1],"split_conditions":[1E0,6.8524754E-1,5.0005335E-1,-6.2558435E-2,-7.5034336E-3,3.8717546E0,8E0,9E0,2E0,1E0,1E0,2.1002367E-2,-2.1920023E-2,-7.706364E-2,-4.105912E-3,3.720067E-2,-2.6338136E-2,4.654916E-2,-4.614475E-2],"split_indices":[10,97,97,0,0,99,80,78,87,36,48,0,0,0,0,0,0,0,0],"split_type":[0,0,0,0,0,0,0,0,0,0,0,0,0,0,0,0,0,0,0],"sum_hessian":[3.3050223E2,6.269007E1,2.6781216E2,6.1466724E1,1.2233489E0,9.145289E1,1.7635928E2,7.619809E1,1.52548E1,1.5595135E2,2.040792E1,3.326058E1,4.293751E1,1.169256E1,3.5622396E0,1.4978772E2,6.1636477E0,6.8862987E0,1.3521622E1],"tree_param":{"num_deleted":"0","num_feature":"100","num_nodes":"19","size_leaf_vector":"1"}},{"base_weights":[-3.304003E-3,-1.2149686E0,2.7629283E-1,-6.1711617E-2,-7.299607E-3,-5.995087E-1,4.4826496E-1,-7.2004694E-1,4.885141E-1,3.005104E-1,9.832354E-1,9.638911E-3,-4.3761782E-2,-1.5411416E-2,4.530872E-2,-4.626191E-3,2.4748638E-2,-2.9703444E-2,5.1659048E-2],"categories":[],"categories_nodes":[],"categories_segments":[],"categories_sizes":[],"default_left":[0,0,0,0,0,0,0,0,0,0,0,0,0,0,0,0,0,0,0],"id":18,"left_children":[1,3,5,-1,-1,7,9,11,13,15,17,-1,-1,-1,-1,-1,-1,-1,-1],"loss_changes":[1.1110193E2,1.0859833E0,4.040298E1,0E0,0E0,6.1438026E0,1.7355732E1,5.8582973E0,1.943341E0,1.3529633E1,4.3863525E0,0E0,0E0,0E0,0E0,0E0,0E0,0E0,0E0],"parents":[2147483647,0,0,1,1,2,2,5,5,6,6,7,7,8,8,9,9,10,10],"right_children":[2,4,6,-1,-1,8,10,12,14,16,18,-1,-1,-1,-1,-1,-1,-1,-1],"split_conditions":[1E0,6.8524754E-1,4.2258126E-1,-6.1711617E-2,-7.299607E-3,1E0,6E-1,3E0,1E0,5.877508E-1,2.4333333E2,9.638911E-3,-4.3761782E-2,-1.5411416E-2,4.530872E-2,-4.626191E-3,2.4748638E-2,-2.9703444E-2,5.1659048E-2],"split_indices":[10,97,97,0,0,41,35,77,12,99,98,0,0,0,0,0,0,0,0],"split_type":[0,0,0,0,0,0,0,0,0,0,0,0,0,0,0,0,0,0,0],"sum_hessian":[3.2595862E2,6.04868E1,2.6547183E2,5.9264225E1,1.2225759E0,4.3164112E1,2.2230772E2,3.916353E1,4.0005836E0,1.7541989E2,4.6887833E1,5.655495E0,3.3508034E1,1.4660021E0,2.5345817E0,5.8237793E1,1.171821E2,1.1047565E0,4.5783073E1],"tree_param":{"num_deleted":"0","num_feature":"100","num_nodes":"19","size_leaf_vector":"1"}},{"base_weights":[-3.4214756E-3,-1.1986777E0,2.6494616E-1,-6.0922712E-2,-7.101414E-3,-2.5700995E-1,5.3719586E-1,-6.1527625E-2,-1.1838677E0,6.4707875E-1,-2.831048E-1,1.9708978E-2,-2.08199E-2,-7.487251E-2,-3.5427415E-3,3.4964263E-2,-2.5733754E-2,4.427078E-2,-4.457743E-2],"categories":[],"categories_nodes":[],"categories_segments":[],"categories_sizes":[],"default_left":[0,0,0,0,0,0,0,0,0,0,0,0,0,0,0,0,0,0,0],"id":19,"left_children":[1,3,5,-1,-1,7,9,11,13,15,17,-1,-1,-1,-1,-1,-1,-1,-1],"loss_changes":[1.0377512E2,1.0665436E0,3.7683075E1,0E0,0E0,1.6459604E1,1.5863819E1,1.2520705E1,5.4216805E0,9.683098E0,1.5894934E1,0E0,0E0,0E0,0E0,0E0,0E0,0E0,0E0],"parents":[2147483647,0,0,1,1,2,2,5,5,6,6,7,7,8,8,9,9,10,10],"right_children":[2,4,6,-1,-1,8,10,12,14,16,18,-1,-1,-1,-1,-1,-1,-1,-1],"split_conditions":[1E0,6.8524754E-1,5.0005335E-1,-6.0922712E-2,-7.101414E-3,3.8717546E0,8E0,9E0,2E0,1E0,1E0,1.9708978E-2,-2.08199E-2,-7.487251E-2,-3.5427415E-3,3.4964263E-2,-2.5733754E-2,4.427078E-2,-4.457743E-2],"split_indices":[10,97,97,0,0,99,80,78,87,36,48,0,0,0,0,0,0,0,0],"split_type":[0,0,0,0,0,0,0,0,0,0,0,0,0,0,0,0,0,0,0],"sum_hessian":[3.2153067E2,5.8319714E1,2.6321097E2,5.709792E1,1.2217916E0,9.024655E1,1.729644E2,7.540861E1,1.4837946E1,1.5271829E2,2.0246119E1,3.296535E1,4.2443256E1,1.1306911E1,3.5310342E0,1.4653157E2,6.1867094E0,6.7765307E0,1.3469587E1],"tree_param":{"num_deleted":"0","num_feature":"100","num_nodes":"19","size_leaf_vector":"1"}},{"base_weights":[-3.862404E-3,-1.1833925E0,2.5377098E-1,-6.018622E-2,-6.908685E-3,-5.666025E-1,4.1377503E-1,-7.55012E-1,1.4334628E-1,2.7182236E-1,9.388459E-1,-4.360349E-2,2.4717337E-2,-3.6039956E-2,3.4473162E-2,3.0091265E-2,2.6459713E-3,7.8119994E-3,5.299559E-2],"categories":[],"categories_nodes":[],"categories_segments":[],"categories_sizes":[],"default_left":[0,0,0,0,0,0,0,0,0,0,0,0,0,0,0,0,0,0,0],"id":20,"left_children":[1,3,5,-1,-1,7,9,11,13,15,17,-1,-1,-1,-1,-1,-1,-1,-1],"loss_changes":[9.6954735E1,1.0491257E0,3.4607956E1,0E0,0E0,5.881425E0,1.612069E1,5.442732E0,5.165399E0,1.2563484E1,4.225857E0,0E0,0E0,0E0,0E0,0E0,0E0,0E0,0E0],"parents":[2147483647,0,0,1,1,2,2,5,5,6,6,7,7,8,8,9,9,10,10],"right_children":[2,4,6,-1,-1,8,10,12,14,16,18,-1,-1,-1,-1,-1,-1,-1,-1],"split_conditions":[1E0,6.8524754E-1,4.2258126E-1,-6.018622E-2,-6.908685E-3,1E0,6E-1,1E0,2E0,4E0,2.8525E2,-4.360349E-2,2.4717337E-2,-3.6039956E-2,3.4473162E-2,3.0091265E-2,2.6459713E-3,7.8119994E-3,5.299559E-2],"split_indices":[10,97,97,0,0,47,35,41,87,75,98,0,0,0,0,0,0,0,0],"split_type":[0,0,0,0,0,0,0,0,0,0,0,0,0,0,0,0,0,0,0],"sum_hessian":[3.1706113E2,5.619387E1,2.6086728E2,5.497287E1,1.2209979E0,4.216052E1,2.1870676E2,3.326818E1,8.892336E0,1.7335736E2,4.5349396E1,3.0694286E1,2.5738945E0,3.3196473E0,5.572689E0,6.843708E1,1.0492028E2,6.382375E0,3.8967022E1],"tree_param":{"num_deleted":"0","num_feature":"100","num_nodes":"19","size_leaf_vector":"1"}},{"base_weights":[-3.8315644E-3,-1.1690154E0,2.4364366E-1,-5.9497267E-2,-6.7212703E-3,-7.564781E-2,6.418967E-1,6.865096E-2,-8.78316E-1,-8.820326E-1,6.854736E-1,1.7183717E-2,-2.5834674E-2,-6.779174E-2,-1.0855707E-2,1.034934E-2,-6.861224E-2,3.884105E-2,1.1162398E-3],"categories":[],"categories_nodes":[],"categories_segments":[],"categories_sizes":[],"default_left":[0,0,0,0,0,0,0,0,0,0,0,0,0,0,0,0,0,0,0],"id":21,"left_children":[1,3,5,-1,-1,7,9,11,13,15,17,-1,-1,-1,-1,-1,-1,-1,-1],"loss_changes":[9.071805E1,1.0334702E0,3.304693E1,0E0,0E0,1.6846176E1,8.280022E0,2.0102394E1,6.7011642E0,2.2328212E0,6.823555E0,0E0,0E0,0E0,0E0,0E0,0E0,0E0,0E0],"parents":[2147483647,0,0,1,1,2,2,5,5,6,6,7,7,8,8,9,9,10,10],"right_children":[2,4,6,-1,-1,8,10,12,14,16,18,-1,-1,-1,-1,-1,-1,-1,-1],"split_conditions":[1E0,6.8524754E-1,5.6005126E-1,-5.9497267E-2,-6.7212703E-3,3.8717546E0,2.4433333E2,7.1E0,5.8E0,6.026685E-1,8E0,1.7183717E-2,-2.5834674E-2,-6.779174E-2,-1.0855707E-2,1.034934E-2,-6.861224E-2,3.884105E-2,1.1162398E-3],"split_indices":[10,97,97,0,0,99,98,76,76,99,80,0,0,0,0,0,0,0,0],"split_type":[0,0,0,0,0,0,0,0,0,0,0,0,0,0,0,0,0,0,0],"sum_hessian":[3.126186E2,5.4113422E1,2.585052E2,5.2893223E1,1.2201973E0,1.4392569E2,1.145795E2,1.2276942E2,2.1156263E1,2.6504302E0,1.1192907E2,8.38061E1,3.896332E1,1.1674442E1,9.481821E0,1.0020689E0,1.6483613E0,9.822708E1,1.3701987E1],"tree_param":{"num_deleted":"0","num_feature":"100","num_nodes":"19","size_leaf_vector":"1"}},{"base_weights":[-4.351977E-3,-1.1554593E0,2.3299192E-1,-5.88515E-2,-6.539008E-3,-2.3906012E-1,4.824658E-1,-4.111921E-1,6.7275655E-1,5.8618027E-1,-2.7209103E-1,-1.2512271E-2,-5.867189E-2,-3.315256E-2,5.0074924E-2,3.1900804E-2,-2.6556686E-2,4.2717963E-2,-4.273614E-2],"categories":[],"categories_nodes":[],"categories_segments":[],"categories_sizes":[],"default_left":[0,0,0,0,0,0,0,0,0,0,0,0,0,0,0,0,0,0,0],"id":22,"left_children":[1,3,5,-1,-1,7,9,11,13,15,17,-1,-1,-1,-1,-1,-1,-1,-1],"loss_changes":[8.483926E1,1.0193329E0,3.0435314E1,0E0,0E0,1.4353504E1,1.3367477E1,9.038273E0,7.085078E0,8.950874E0,1.456372E1,0E0,0E0,0E0,0E0,0E0,0E0,0E0,0E0],"parents":[2147483647,0,0,1,1,2,2,5,5,6,6,7,7,8,8,9,9,10,10],"right_children":[2,4,6,-1,-1,8,10,12,14,16,18,-1,-1,-1,-1,-1,-1,-1,-1],"split_conditions":[1E0,6.8524754E-1,5.0005335E-1,-5.88515E-2,-6.539008E-3,6E-1,8E0,3.8717568E0,5E-1,1E0,1E0,-1.2512271E-2,-5.867189E-2,-3.315256E-2,5.0074924E-2,3.1900804E-2,-2.6556686E-2,4.2717963E-2,-4.273614E-2],"split_indices":[10,97,97,0,0,35,80,99,69,36,48,0,0,0,0,0,0,0,0],"split_type":[0,0,0,0,0,0,0,0,0,0,0,0,0,0,0,0,0,0,0],"sum_hessian":[3.085442E2,5.2081745E1,2.5646243E2,5.0862354E1,1.2193911E0,8.868856E1,1.6777388E2,7.506659E1,1.3621968E1,1.4769608E2,2.00778E1,6.3076427E1,1.1990165E1,2.4894438E0,1.11325245E1,1.4155774E2,6.138346E0,6.685598E0,1.3392202E1],"tree_param":{"num_deleted":"0","num_feature":"100","num_nodes":"19","size_leaf_vector":"1"}},{"base_weights":[-4.6765194E-3,-1.142646E0,2.2329287E-1,-5.824503E-2,-6.36175E-3,-7.581608E-2,6.0196406E-1,5.809789E-2,-8.303868E-1,-8.7623084E-1,6.456056E-1,1.5827633E-2,-2.4497217E-2,-6.469462E-2,-1.0019228E-2,-4.679185E-3,-6.1762024E-2,5.0412066E-2,2.3612227E-2],"categories":[],"categories_nodes":[],"categories_segments":[],"categories_sizes":[],"default_left":[0,0,0,0,0,0,0,0,0,0,0,0,0,0,0,0,0,0,0],"id":23,"left_children":[1,3,5,-1,-1,7,9,11,13,15,17,-1,-1,-1,-1,-1,-1,-1,-1],"loss_changes":[7.9433014E1,1.0065613E0,2.8940067E1,0E0,0E0,1.453995E1,7.8355675E0,1.7539587E1,6.0718155E0,9.11628E-1,6.441517E0,0E0,0E0,0E0,0E0,0E0,0E0,0E0,0E0],"parents":[2147483647,0,0,1,1,2,2,5,5,6,6,7,7,8,8,9,9,10,10],"right_children":[2,4,6,-1,-1,8,10,12,14,16,18,-1,-1,-1,-1,-1,-1,-1,-1],"split_conditions":[1E0,6.8524754E-1,5.6005126E-1,-5.824503E-2,-6.36175E-3,3.8717546E0,2.4433333E2,7.1E0,5.8E0,5.92886E-1,3.27E2,1.5827633E-2,-2.4497217E-2,-6.469462E-2,-1.0019228E-2,-4.679185E-3,-6.1762024E-2,5.0412066E-2,2.3612227E-2],"split_indices":[10,97,97,0,0,99,98,76,76,97,98,0,0,0,0,0,0,0,0],"split_type":[0,0,0,0,0,0,0,0,0,0,0,0,0,0,0,0,0,0,0],"sum_hessian":[3.0420853E2,5.0101482E1,2.5410704E2,4.88829E1,1.2185811E0,1.4241472E2,1.1169233E2,1.2173361E2,2.0681108E1,2.6558983E0,1.0903643E2,8.300917E1,3.872444E1,1.1307879E1,9.373228E0,1.2316191E0,1.4242793E0,3.370878E1,7.532765E1],"tree_param":{"num_deleted":"0","num_feature":"100","num_nodes":"19","size_leaf_vector":"1"}},{"base_weights":[-5.085506E-3,-1.1305051E0,2.1340631E-1,-5.7674374E-2,-6.189364E-3,-7.290671E-2,5.7871443E-1,5.527522E-2,-7.9950154E-1,-8.414148E-1,6.216489E-1,1.5088259E-2,-2.336132E-2,-6.2733725E-2,-9.560693E-3,1.02901375E-2,-6.5336734E-2,2.4042062E-2,5.3204488E-2],"categories":[],"categories_nodes":[],"categories_segments":[],"categories_sizes":[],"default_left":[0,0,0,0,0,0,0,0,0,0,0,0,0,0,0,0,0,0,0],"id":24,"left_children":[1,3,5,-1,-1,7,9,11,13,15,17,-1,-1,-1,-1,-1,-1,-1,-1],"loss_changes":[7.437602E1,9.94957E-1,2.6537025E1,0E0,0E0,1.3353381E1,7.3163033E0,1.5905854E1,5.711231E0,2.0691922E0,6.2615204E0,0E0,0E0,0E0,0E0,0E0,0E0,0E0,0E0],"parents":[2147483647,0,0,1,1,2,2,5,5,6,6,7,7,8,8,9,9,10,10],"right_children":[2,4,6,-1,-1,8,10,12,14,16,18,-1,-1,-1,-1,-1,-1,-1,-1],"split_conditions":[1E0,6.8524754E-1,5.6005126E-1,-5.7674374E-2,-6.189364E-3,3.8717546E0,2.4433333E2,7.1E0,5.8E0,6.026685E-1,6E-1,1.5088259E-2,-2.336132E-2,-6.2733725E-2,-9.560693E-3,1.02901375E-2,-6.5336734E-2,2.4042062E-2,5.3204488E-2],"split_indices":[10,97,97,0,0,99,98,76,76,99,35,0,0,0,0,0,0,0,0],"split_type":[0,0,0,0,0,0,0,0,0,0,0,0,0,0,0,0,0,0,0],"sum_hessian":[3.0048956E2,4.8174675E1,2.5231488E2,4.6956905E1,1.2177689E0,1.4190005E2,1.10414825E2,1.21406166E2,2.0493893E1,2.6944292E0,1.077204E2,8.277809E1,3.8628075E1,1.1114466E1,9.379428E0,1.0004966E0,1.6939325E0,8.329758E1,2.442282E1],"tree_param":{"num_deleted":"0","num_feature":"100","num_nodes":"19","size_leaf_vector":"1"}},{"base_weights":[-5.408245E-3,-1.1189736E0,2.041128E-1,-5.7136405E-2,-6.0216966E-3,-5.081587E-1,3.4235016E-1,-2.0910697E-1,-9.869176E-1,2.1116169E-1,8.5170543E-1,8.370637E-3,-3.9958302E-2,-5.4404683E-2,1.1317314E-2,-8.924033E-3,2.0268654E-2,5.7313284E-3,4.8683133E-2],"categories":[],"categories_nodes":[],"categories_segments":[],"categories_sizes":[],"default_left":[0,0,0,0,0,0,0,0,0,0,0,0,0,0,0,0,0,0,0],"id":25,"left_children":[1,3,5,-1,-1,7,9,11,13,15,17,-1,-1,-1,-1,-1,-1,-1,-1],"loss_changes":[6.9694405E1,9.8439026E-1,2.493055E1,0E0,0E0,5.7022533E0,1.3930365E1,6.0591974E0,2.1610117E0,1.2879587E1,3.7463932E0,0E0,0E0,0E0,0E0,0E0,0E0,0E0,0E0],"parents":[2147483647,0,0,1,1,2,2,5,5,6,6,7,7,8,8,9,9,10,10],"right_children":[2,4,6,-1,-1,8,10,12,14,16,18,-1,-1,-1,-1,-1,-1,-1,-1],"split_conditions":[1E0,6.8524754E-1,4.2258126E-1,-5.7136405E-2,-6.0216966E-3,1E0,6E-1,1E1,3.9433334E2,5.877508E-1,2.8525E2,8.370637E-3,-3.9958302E-2,-5.4404683E-2,1.1317314E-2,-8.924033E-3,2.0268654E-2,5.7313284E-3,4.8683133E-2],"split_indices":[10,97,97,0,0,45,35,78,98,99,98,0,0,0,0,0,0,0,0],"split_type":[0,0,0,0,0,0,0,0,0,0,0,0,0,0,0,0,0,0,0],"sum_hessian":[2.9673438E2,4.6302826E1,2.5043153E2,4.508587E1,1.2169559E0,4.026892E1,2.1016261E2,2.5670734E1,1.4598185E1,1.6824449E2,4.191813E1,1.6108253E1,9.562481E0,1.356975E1,1.0284351E0,5.5991302E1,1.1225318E2,6.2265162E0,3.5691612E1],"tree_param":{"num_deleted":"0","num_feature":"100","num_nodes":"19","size_leaf_vector":"1"}},{"base_weights":[-5.574751E-3,-1.1079942E0,1.9545417E-1,-5.6628294E-2,-5.8586253E-3,-7.554486E-2,5.447117E-1,1.08225755E-1,-5.573016E-1,-8.189971E-1,5.872167E-1,1.0600452E-2,-6.815536E-2,-3.7488982E-2,5.3197104E-2,-3.8525988E-3,-5.802226E-2,4.7505103E-2,2.0763442E-2],"categories":[],"categories_nodes":[],"categories_segments":[],"categories_sizes":[],"default_left":[0,0,0,0,0,0,0,0,0,0,0,0,0,0,0,0,0,0,0],"id":26,"left_children":[1,3,5,-1,-1,7,9,11,13,15,17,-1,-1,-1,-1,-1,-1,-1,-1],"loss_changes":[6.5363434E1,9.7473145E-1,2.3653381E1,0E0,0E0,1.2574668E1,6.806019E0,1.6041313E1,1.3028377E1,8.51959E-1,6.244789E0,0E0,0E0,0E0,0E0,0E0,0E0,0E0,0E0],"parents":[2147483647,0,0,1,1,2,2,5,5,6,6,7,7,8,8,9,9,10,10],"right_children":[2,4,6,-1,-1,8,10,12,14,16,18,-1,-1,-1,-1,-1,-1,-1,-1],"split_conditions":[1E0,6.8524754E-1,5.6005126E-1,-5.6628294E-2,-5.8586253E-3,1E0,2.4433333E2,6E0,1E0,5.92886E-1,3.27E2,1.0600452E-2,-6.815536E-2,-3.7488982E-2,5.3197104E-2,-3.8525988E-3,-5.802226E-2,4.7505103E-2,2.0763442E-2],"split_indices":[10,97,97,0,0,33,98,75,46,97,98,0,0,0,0,0,0,0,0],"split_type":[0,0,0,0,0,0,0,0,0,0,0,0,0,0,0,0,0,0,0],"sum_hessian":[2.9295993E2,4.4486958E1,2.4847298E2,4.3270813E1,1.2161434E0,1.4035284E2,1.0812013E2,1.02158775E2,3.8194065E1,2.7159126E0,1.0540422E2,9.622712E1,5.9316573E0,3.4621273E1,3.5727942E0,1.2422483E0,1.4736643E0,3.243231E1,7.297192E1],"tree_param":{"num_deleted":"0","num_feature":"100","num_nodes":"19","size_leaf_vector":"1"}},{"base_weights":[-5.791192E-3,-1.0975146E0,1.8673645E-1,-5.6147475E-2,-5.7000113E-3,-3.937633E-1,3.382048E-1,-1.2330554E-1,-1.0756453E0,2.1784683E-1,8.193233E-1,5.2722186E-2,-1.4346954E-2,5.2716816E-3,-5.8725294E-2,-8.63609E-3,2.0574069E-2,8.247068E-3,4.699048E-2],"categories":[],"categories_nodes":[],"categories_segments":[],"categories_sizes":[],"default_left":[0,0,0,0,0,0,0,0,0,0,0,0,0,0,0,0,0,0,0],"id":27,"left_children":[1,3,5,-1,-1,7,9,11,13,15,17,-1,-1,-1,-1,-1,-1,-1,-1],"loss_changes":[6.1309372E1,9.6585464E-1,2.1938011E1,0E0,0E0,9.416418E0,1.1241146E1,7.665098E0,1.825676E0,1.210404E1,2.9277897E0,0E0,0E0,0E0,0E0,0E0,0E0,0E0,0E0],"parents":[2147483647,0,0,1,1,2,2,5,5,6,6,7,7,8,8,9,9,10,10],"right_children":[2,4,6,-1,-1,8,10,12,14,16,18,-1,-1,-1,-1,-1,-1,-1,-1],"split_conditions":[1E0,6.8524754E-1,4.4338408E-1,-5.6147475E-2,-5.7000113E-3,1E0,6E-1,4.9E0,2.1161842E-1,5.877508E-1,2.93E2,5.2722186E-2,-1.4346954E-2,5.2716816E-3,-5.8725294E-2,-8.63609E-3,2.0574069E-2,8.247068E-3,4.699048E-2],"split_indices":[10,97,97,0,0,33,35,76,99,99,98,0,0,0,0,0,0,0,0],"split_type":[0,0,0,0,0,0,0,0,0,0,0,0,0,0,0,0,0,0,0],"sum_hessian":[2.897147E2,4.2727703E1,2.4698698E2,4.151237E1,1.2153323E0,5.0778744E1,1.9620824E2,3.7203423E1,1.3575319E1,1.5810823E2,3.8100018E1,3.8742993E0,3.3329124E1,1.0434E0,1.25319195E1,5.2440876E1,1.0566735E2,6.2926254E0,3.1807394E1],"tree_param":{"num_deleted":"0","num_feature":"100","num_nodes":"19","size_leaf_vector":"1"}},{"base_weights":[-5.7129585E-3,-1.0874873E0,1.790431E-1,-5.569161E-2,-5.5457368E-3,-7.619204E-2,5.1152307E-1,4.4753596E-2,-7.710821E-1,-5.5420477E-2,5.450208E-1,1.3485394E-2,-2.1571426E-2,-6.0763188E-2,-9.631082E-3,2.0395903E-2,5.0175387E-2],"categories":[],"categories_nodes":[],"categories_segments":[],"categories_sizes":[],"default_left":[0,0,0,0,0,0,0,0,0,0,0,0,0,0,0,0,0],"id":28,"left_children":[1,3,5,-1,-1,7,9,11,13,-1,15,-1,-1,-1,-1,-1,-1],"loss_changes":[5.7579937E1,9.5767975E-1,2.0922785E1,0E0,0E0,1.1808271E1,6.410631E0,1.2999336E1,5.116192E0,0E0,6.2228336E0,0E0,0E0,0E0,0E0,0E0,0E0],"parents":[2147483647,0,0,1,1,2,2,5,5,6,6,7,7,8,8,10,10],"right_children":[2,4,6,-1,-1,8,10,12,14,-1,16,-1,-1,-1,-1,-1,-1],"split_conditions":[1E0,6.8524754E-1,5.6005126E-1,-5.569161E-2,-5.5457368E-3,3.8717546E0,2.2475E2,7.1E0,5.8E0,-5.5420477E-2,6E-1,1.3485394E-2,-2.1571426E-2,-6.0763188E-2,-9.631082E-3,2.0395903E-2,5.0175387E-2],"split_indices":[10,97,97,0,0,99,98,76,76,0,35,0,0,0,0,0,0],"split_type":[0,0,0,0,0,0,0,0,0,0,0,0,0,0,0,0,0],"sum_hessian":[2.8612088E2,4.1025337E1,2.4509554E2,3.981081E1,1.214524E0,1.3909059E2,1.06004944E2,1.19267654E2,1.9822943E1,1.4975011E0,1.0450745E2,8.129602E1,3.7971638E1,1.0590201E1,9.23274E0,8.190488E1,2.2602566E1],"tree_param":{"num_deleted":"0","num_feature":"100","num_nodes":"17","size_leaf_vector":"1"}},{"base_weights":[-6.029109E-3,-1.0778689E0,1.711384E-1,-5.5258583E-2,-5.3956746E-3,-7.324499E-2,4.921327E-1,-1.7103419E-1,7.386777E-1,5.8507645E-1,-1.2211009E-1,-4.3923315E-2,-2.0456472E-3,-7.319055E-3,5.226642E-2,3.181989E-2,-2.9966911E-2,-6.1769146E-2,3.0393943E-2],"categories":[],"categories_nodes":[],"categories_segments":[],"categories_sizes":[],"default_left":[0,0,0,0,0,0,0,0,0,0,0,0,0,0,0,0,0,0,0],"id":29,"left_children":[1,3,5,-1,-1,7,9,11,13,15,17,-1,-1,-1,-1,-1,-1,-1,-1],"loss_changes":[5.405895E1,9.500885E-1,1.9202408E1,0E0,0E0,1.1209193E1,6.108099E0,1.1506862E1,4.276431E0,5.9746056E0,1.2717118E1,0E0,0E0,0E0,0E0,0E0,0E0,0E0,0E0],"parents":[2147483647,0,0,1,1,2,2,5,5,6,6,7,7,8,8,9,9,10,10],"right_children":[2,4,6,-1,-1,8,10,12,14,16,18,-1,-1,-1,-1,-1,-1,-1,-1],"split_conditions":[1E0,6.8524754E-1,5.6005126E-1,-5.5258583E-2,-5.3956746E-3,1E0,8E0,3.5708705E-1,4.6666667E-1,2.5E-1,1E0,-4.3923315E-2,-2.0456472E-3,-7.319055E-3,5.226642E-2,3.181989E-2,-2.9966911E-2,-6.1769146E-2,3.0393943E-2],"split_indices":[10,97,97,0,0,41,80,97,71,32,13,0,0,0,0,0,0,0,0],"split_type":[0,0,0,0,0,0,0,0,0,0,0,0,0,0,0,0,0,0,0],"sum_hessian":[2.827064E2,3.937982E1,2.4332657E2,3.8166103E1,1.2137195E0,1.3858734E2,1.0473923E2,1.2439443E2,1.4192908E1,9.1014854E1,1.372437E1,1.8432274E1,1.0596215E2,3.786606E0,1.04063015E1,8.76784E1,3.3364623E0,5.1610923E0,8.563278E0],"tree_param":{"num_deleted":"0","num_feature":"100","num_nodes":"19","size_leaf_vector":"1"}},{"base_weights":[-6.2247813E-3,-1.0686197E0,1.6376431E-1,-5.4846454E-2,-5.249701E-3,-4.4912335E-1,2.8135222E-1,-6.419169E-1,2.2337456E-1,1.6197406E-1,7.722715E-1,1.769205E-2,-3.9239038E-2,-3.144264E-2,3.64565E-2,-3.389519E-2,1.2184569E-2,4.2977273E-3,4.474851E-2],"categories":[],"categories_nodes":[],"categories_segments":[],"categories_sizes":[],"default_left":[0,0,0,0,0,0,0,0,0,0,0,0,0,0,0,0,0,0,0],"id":30,"left_children":[1,3,5,-1,-1,7,9,11,13,15,17,-1,-1,-1,-1,-1,-1,-1,-1],"loss_changes":[5.078907E1,9.430313E-1,1.7600811E1,0E0,0E0,5.2539067E0,1.1833525E1,4.6724005E0,4.5636296E0,1.1517391E1,3.2619152E0,0E0,0E0,0E0,0E0,0E0,0E0,0E0,0E0],"parents":[2147483647,0,0,1,1,2,2,5,5,6,6,7,7,8,8,9,9,10,10],"right_children":[2,4,6,-1,-1,8,10,12,14,16,18,-1,-1,-1,-1,-1,-1,-1,-1],"split_conditions":[1E0,6.8524754E-1,4.2258126E-1,-5.4846454E-2,-5.249701E-3,1E0,6E-1,3E0,2E0,2.1161842E-1,2.8525E2,1.769205E-2,-3.9239038E-2,-3.144264E-2,3.64565E-2,-3.389519E-2,1.2184569E-2,4.2977273E-3,4.474851E-2],"split_indices":[10,97,97,0,0,47,35,77,87,99,98,0,0,0,0,0,0,0,0],"split_type":[0,0,0,0,0,0,0,0,0,0,0,0,0,0,0,0,0,0,0],"sum_hessian":[2.79262E2,3.779087E1,2.4147113E2,3.657795E1,1.2129197E0,3.8416817E1,2.030543E2,2.98926E1,8.524218E0,1.6440536E2,3.864895E1,3.565359E0,2.632724E1,3.0840392E0,5.4401784E0,1.3930821E1,1.5047453E2,6.1195683E0,3.252938E1],"tree_param":{"num_deleted":"0","num_feature":"100","num_nodes":"19","size_leaf_vector":"1"}},{"base_weights":[-6.2655085E-3,-1.059703E0,1.567938E-1,-5.445344E-2,-5.107712E-3,-7.398651E-2,4.631487E-1,4.039311E-2,-7.388849E-1,-8.2032496E-1,5.0578E-1,1.270879E-2,-2.0595806E-2,-5.8902394E-2,-9.126487E-3,-5.701382E-2,-4.7265305E-3,4.368181E-2,1.6662112E-2],"categories":[],"categories_nodes":[],"categories_segments":[],"categories_sizes":[],"default_left":[0,0,0,0,0,0,0,0,0,0,0,0,0,0,0,0,0,0,0],"id":31,"left_children":[1,3,5,-1,-1,7,9,11,13,15,17,-1,-1,-1,-1,-1,-1,-1,-1],"loss_changes":[4.7747177E1,9.36409E-1,1.7054878E1,0E0,0E0,1.0537734E1,6.081995E0,1.1595792E1,4.752658E0,7.539797E-1,6.1104546E0,0E0,0E0,0E0,0E0,0E0,0E0,0E0,0E0],"parents":[2147483647,0,0,1,1,2,2,5,5,6,6,7,7,8,8,9,9,10,10],"right_children":[2,4,6,-1,-1,8,10,12,14,16,18,-1,-1,-1,-1,-1,-1,-1,-1],"split_conditions":[1E0,6.8524754E-1,5.6005126E-1,-5.445344E-2,-5.107712E-3,3.8717546E0,2.4433333E2,7.1E0,5.8E0,9E0,3.27E2,1.270879E-2,-2.0595806E-2,-5.8902394E-2,-9.126487E-3,-5.701382E-2,-4.7265305E-3,4.368181E-2,1.6662112E-2],"split_indices":[10,97,97,0,0,99,98,76,76,78,98,0,0,0,0,0,0,0,0],"split_type":[0,0,0,0,0,0,0,0,0,0,0,0,0,0,0,0,0,0,0],"sum_hessian":[2.759998E2,3.625796E1,2.3974182E2,3.5045834E1,1.2121254E0,1.3716928E2,1.0257254E2,1.17837456E2,1.9331823E1,2.7110274E0,9.986151E1,8.0314896E1,3.752256E1,1.0179289E1,9.1525345E0,1.4852234E0,1.225804E0,3.0586544E1,6.927497E1],"tree_param":{"num_deleted":"0","num_feature":"100","num_nodes":"19","size_leaf_vector":"1"}},{"base_weights":[-6.618774E-3,-1.0510849E0,1.496552E-1,-5.40779E-2,-4.969592E-3,-7.112702E-2,4.447413E-1,-1.660687E-1,7.140984E-1,5.3792375E-1,-1.5330231E-1,-1.4621663E-2,2.3230454E-2,-6.7586824E-3,5.0564207E-2,2.9453903E-2,-2.9739475E-2,-6.0569245E-2,2.7485851E-2],"categories":[],"categories_nodes":[],"categories_segments":[],"categories_sizes":[],"default_left":[0,0,0,0,0,0,0,0,0,0,0,0,0,0,0,0,0,0,0],"id":32,"left_children":[1,3,5,-1,-1,7,9,11,13,15,17,-1,-1,-1,-1,-1,-1,-1,-1],"loss_changes":[4.4874336E1,9.3017197E-1,1.56143265E1,0E0,0E0,1.0382642E1,5.7947063E0,9.989331E0,3.9326158E0,5.5019436E0,1.1523548E1,0E0,0E0,0E0,0E0,0E0,0E0,0E0,0E0],"parents":[2147483647,0,0,1,1,2,2,5,5,6,6,7,7,8,8,9,9,10,10],"right_children":[2,4,6,-1,-1,8,10,12,14,16,18,-1,-1,-1,-1,-1,-1,-1,-1],"split_conditions":[1E0,6.8524754E-1,5.6005126E-1,-5.40779E-2,-4.969592E-3,1E0,8E0,6E-1,4.6666667E-1,2.5E-1,1E0,-1.4621663E-2,2.3230454E-2,-6.7586824E-3,5.0564207E-2,2.9453903E-2,-2.9739475E-2,-6.0569245E-2,2.7485851E-2],"split_indices":[10,97,97,0,0,41,80,35,71,32,13,0,0,0,0,0,0,0,0],"split_type":[0,0,0,0,0,0,0,0,0,0,0,0,0,0,0,0,0,0,0],"sum_hessian":[2.7296304E2,3.478039E1,2.3818265E2,3.3569054E1,1.2113373E0,1.3667897E2,1.01503685E2,1.2263917E2,1.4039804E1,8.79072E1,1.3596481E1,1.0261518E2,2.0023981E1,3.7807243E0,1.0259081E1,8.456798E1,3.3392217E0,5.138955E0,8.457526E0],"tree_param":{"num_deleted":"0","num_feature":"100","num_nodes":"19","size_leaf_vector":"1"}},{"base_weights":[-6.5606614E-3,-1.0427343E0,1.4327912E-1,-5.3718347E-2,-4.835231E-3,-1.9154024E-1,3.2693428E-1,1.3332522E-2,-7.43592E-1,4.8518136E-1,-1.11767255E-1,6.4640157E-3,-5.788858E-2,-6.515075E-2,-1.094271E-2,3.1773593E-2,-7.4126325E-3,3.9047655E-2,-2.1762526E-2],"categories":[],"categories_nodes":[],"categories_segments":[],"categories_sizes":[],"default_left":[0,0,0,0,0,0,0,0,0,0,0,0,0,0,0,0,0,0,0],"id":33,"left_children":[1,3,5,-1,-1,7,9,11,13,15,17,-1,-1,-1,-1,-1,-1,-1,-1],"loss_changes":[4.222316E1,9.2425156E-1,1.4674904E1,0E0,0E0,9.60139E0,1.0733374E1,8.681664E0,6.4580727E0,1.0874128E1,1.2350617E1,0E0,0E0,0E0,0E0,0E0,0E0,0E0,0E0],"parents":[2147483647,0,0,1,1,2,2,5,5,6,6,7,7,8,8,9,9,10,10],"right_children":[2,4,6,-1,-1,8,10,12,14,16,18,-1,-1,-1,-1,-1,-1,-1,-1],"split_conditions":[1E0,6.8524754E-1,5.0005335E-1,-5.3718347E-2,-4.835231E-3,1E0,7.1E0,6E0,3.0533334E2,1E0,1E0,6.4640157E-3,-5.788858E-2,-6.515075E-2,-1.094271E-2,3.1773593E-2,-7.4126325E-3,3.9047655E-2,-2.1762526E-2],"split_indices":[10,97,97,0,0,33,76,75,98,47,48,0,0,0,0,0,0,0,0],"split_type":[0,0,0,0,0,0,0,0,0,0,0,0,0,0,0,0,0,0,0],"sum_hessian":[2.6998898E2,3.335729E1,2.3663168E2,3.2146736E1,1.2105559E0,8.380498E1,1.528267E2,6.1833652E1,2.1971329E1,1.1223551E2,4.0591194E1,5.707265E1,4.7609982E0,9.916344E0,1.2054986E1,9.071014E1,2.1525377E1,1.0420214E1,3.017098E1],"tree_param":{"num_deleted":"0","num_feature":"100","num_nodes":"19","size_leaf_vector":"1"}},{"base_weights":[-6.916688E-3,-1.0346222E0,1.3684222E-1,-5.3373363E-2,-4.7045243E-3,2.4046116E-2,6.671135E-1,-3.2546356E-1,2.2524895E-1,3.544025E-1,1.0408854E0,-2.2287467E-2,2.111383E-2,4.5366897E-3,5.034641E-2,-2.5854811E-2,2.559559E-2,5.9892256E-2,5.4610823E-3],"categories":[],"categories_nodes":[],"categories_segments":[],"categories_sizes":[],"default_left":[0,0,0,0,0,0,0,0,0,0,0,0,0,0,0,0,0,0,0],"id":34,"left_children":[1,3,5,-1,-1,7,9,11,13,15,17,-1,-1,-1,-1,-1,-1,-1,-1],"loss_changes":[3.9715466E1,9.1861343E-1,1.4091988E1,0E0,0E0,1.3823834E1,4.4624634E0,6.6504183E0,1.301926E1,3.5622067E0,2.5471363E0,0E0,0E0,0E0,0E0,0E0,0E0,0E0,0E0],"parents":[2147483647,0,0,1,1,2,2,5,5,6,6,7,7,8,8,9,9,10,10],"right_children":[2,4,6,-1,-1,8,10,12,14,16,18,-1,-1,-1,-1,-1,-1,-1,-1],"split_conditions":[1E0,6.8524754E-1,6E-1,-5.3373363E-2,-4.7045243E-3,5.0005335E-1,3.55E2,1E0,1E0,4E0,1.6666667E-1,-2.2287467E-2,2.111383E-2,4.5366897E-3,5.034641E-2,-2.5854811E-2,2.559559E-2,5.9892256E-2,5.4610823E-3],"split_indices":[10,97,35,0,0,97,98,41,45,75,71,0,0,0,0,0,0,0,0],"split_type":[0,0,0,0,0,0,0,0,0,0,0,0,0,0,0,0,0,0,0],"sum_hessian":[2.6685843E2,3.1987667E1,2.3487076E2,3.0777884E1,1.2097822E0,1.9453566E2,4.0335102E1,7.084798E1,1.2368768E2,2.3022137E1,1.7312963E1,6.1378193E1,9.469779E0,1.0648014E2,1.7207544E1,3.1745276E0,1.9847609E1,1.457224E1,2.7407243E0],"tree_param":{"num_deleted":"0","num_feature":"100","num_nodes":"19","size_leaf_vector":"1"}},{"base_weights":[-6.449243E-3,-1.0267216E0,1.3145645E-1,-5.3041674E-2,-4.5773764E-3,-6.62153E-1,2.0299247E-1,-8.140873E-1,3.3436086E-2,9.4772846E-2,6.9176286E-1,-1.7664982E-2,-5.6733567E-2,-5.184091E-2,7.860722E-3,1.0462142E-2,4.597322E-2],"categories":[],"categories_nodes":[],"categories_segments":[],"categories_sizes":[],"default_left":[0,0,0,0,0,0,0,0,0,0,0,0,0,0,0,0,0],"id":35,"left_children":[1,3,5,-1,-1,7,9,11,-1,13,15,-1,-1,-1,-1,-1,-1],"loss_changes":[3.74244E1,9.131851E-1,1.34391365E1,0E0,0E0,4.510187E0,1.1346031E1,2.2660875E0,0E0,1.2725509E1,4.0870705E0,0E0,0E0,0E0,0E0,0E0,0E0],"parents":[2147483647,0,0,1,1,2,2,5,5,6,6,7,7,9,9,10,10],"right_children":[2,4,6,-1,-1,8,10,12,-1,14,16,-1,-1,-1,-1,-1,-1],"split_conditions":[1E0,6.8524754E-1,3.5708705E-1,-5.3041674E-2,-4.5773764E-3,1E0,6E-1,9.63724E-1,3.3436086E-2,4.2E0,3.138E2,-1.7664982E-2,-5.6733567E-2,-5.184091E-2,7.860722E-3,1.0462142E-2,4.597322E-2],"split_indices":[10,97,97,0,0,41,35,99,0,76,98,0,0,0,0,0,0],"split_type":[0,0,0,0,0,0,0,0,0,0,0,0,0,0,0,0,0],"sum_hessian":[2.640254E2,3.0670403E1,2.3335498E2,2.9461386E1,1.2090166E0,1.8612675E1,2.1474231E2,1.705407E1,1.5586064E0,1.7679228E2,3.795003E1,7.859442E0,9.194627E0,8.429262E0,1.6836302E2,1.2782242E1,2.516779E1],"tree_param":{"num_deleted":"0","num_feature":"100","num_nodes":"17","size_leaf_vector":"1"}},{"base_weights":[-6.6111074E-3,-1.0190077E0,1.2555772E-1,-5.2722074E-2,-4.453675E-3,-6.443352E-1,1.9390683E-1,-7.9463387E-1,3.254984E-2,8.99468E-2,6.717264E-1,-1.7012654E-2,-5.5923004E-2,-4.928158E-2,7.4851275E-3,1.0017936E-2,4.4962645E-2],"categories":[],"categories_nodes":[],"categories_segments":[],"categories_sizes":[],"default_left":[0,0,0,0,0,0,0,0,0,0,0,0,0,0,0,0,0],"id":36,"left_children":[1,3,5,-1,-1,7,9,11,-1,13,15,-1,-1,-1,-1,-1,-1],"loss_changes":[3.5231937E1,9.079323E-1,1.2382759E1,0E0,0E0,4.2601924E0,1.0605512E1,2.2204008E0,0E0,1.1556086E1,3.91823E0,0E0,0E0,0E0,0E0,0E0,0E0],"parents":[2147483647,0,0,1,1,2,2,5,5,6,6,7,7,9,9,10,10],"right_children":[2,4,6,-1,-1,8,10,12,-1,14,16,-1,-1,-1,-1,-1,-1],"split_conditions":[1E0,6.8524754E-1,3.5708705E-1,-5.2722074E-2,-4.453675E-3,1E0,6E-1,9.63724E-1,3.254984E-2,4.2E0,3.138E2,-1.7012654E-2,-5.5923004E-2,-4.928158E-2,7.4851275E-3,1.0017936E-2,4.4962645E-2],"split_indices":[10,97,97,0,0,41,35,99,0,76,98,0,0,0,0,0,0],"split_type":[0,0,0,0,0,0,0,0,0,0,0,0,0,0,0,0,0],"sum_hessian":[2.6134747E2,2.9404306E1,2.3194318E2,2.8196047E1,1.2082593E0,1.8225193E1,2.1371797E2,1.6676718E1,1.5484755E0,1.7650395E2,3.7214024E1,7.792833E0,8.883884E0,8.474379E0,1.6802957E2,1.2727337E1,2.4486687E1],"tree_param":{"num_deleted":"0","num_feature":"100","num_nodes":"17","size_leaf_vector":"1"}},{"base_weights":[-6.759958E-3,-1.0114568E0,1.1990834E-1,-5.241346E-2,-4.333343E-3,-7.276143E-2,3.840668E-1,-4.073857E-3,-1.0310897E0,-8.695191E-1,4.281901E-1,-5.347599E-3,4.234795E-2,1.9087743E-2,-7.4598126E-2,-7.2355606E-3,-5.791209E-2,4.0403932E-2,1.25568975E-2],"categories":[],"categories_nodes":[],"categories_segments":[],"categories_sizes":[],"default_left":[0,0,0,0,0,0,0,0,0,0,0,0,0,0,0,0,0,0,0],"id":37,"left_children":[1,3,5,-1,-1,7,9,11,13,15,17,-1,-1,-1,-1,-1,-1,-1,-1],"loss_changes":[3.3178326E1,9.0281487E-1,1.1813534E1,0E0,0E0,8.865225E0,5.783148E0,1.1186511E1,6.4348392E0,5.9748244E-1,6.1980095E0,0E0,0E0,0E0,0E0,0E0,0E0,0E0,0E0],"parents":[2147483647,0,0,1,1,2,2,5,5,6,6,7,7,8,8,9,9,10,10],"right_children":[2,4,6,-1,-1,8,10,12,14,16,18,-1,-1,-1,-1,-1,-1,-1,-1],"split_conditions":[1E0,6.8524754E-1,5.6005126E-1,-5.241346E-2,-4.333343E-3,6E0,2.4433333E2,1E0,1E0,5.92886E-1,3.27E2,-5.347599E-3,4.234795E-2,1.9087743E-2,-7.4598126E-2,-7.2355606E-3,-5.791209E-2,4.0403932E-2,1.25568975E-2],"split_indices":[10,97,97,0,0,75,98,41,11,97,98,0,0,0,0,0,0,0,0],"split_type":[0,0,0,0,0,0,0,0,0,0,0,0,0,0,0,0,0,0,0],"sum_hessian":[2.5875327E2,2.8188107E1,2.3056514E2,2.6980597E1,1.2075113E0,1.3374202E2,9.682313E1,1.2573434E2,8.007678E0,2.656036E0,9.416709E1,1.1295408E2,1.2780262E1,2.01185E0,5.9958277E0,1.1842678E0,1.4717683E0,2.8802814E1,6.536427E1],"tree_param":{"num_deleted":"0","num_feature":"100","num_nodes":"19","size_leaf_vector":"1"}},{"base_weights":[-6.8853446E-3,-1.0040475E0,1.1437736E-1,-5.2114774E-2,-4.2162663E-3,1.3609811E-2,6.0939777E-1,-3.981038E-1,1.4949201E-1,3.090312E-1,9.874559E-1,-7.295146E-3,-4.8692655E-2,-1.2105062E-2,1.735261E-2,-2.725256E-2,2.3420023E-2,5.780747E-2,1.8671083E-3],"categories":[],"categories_nodes":[],"categories_segments":[],"categories_sizes":[],"default_left":[0,0,0,0,0,0,0,0,0,0,0,0,0,0,0,0,0,0,0],"id":38,"left_children":[1,3,5,-1,-1,7,9,11,13,15,17,-1,-1,-1,-1,-1,-1,-1,-1],"loss_changes":[3.1250656E1,8.9780045E-1,1.1488189E1,0E0,0E0,1.0829717E1,4.1187496E0,6.834184E0,1.1338146E1,3.4084144E0,2.6483383E0,0E0,0E0,0E0,0E0,0E0,0E0,0E0,0E0],"parents":[2147483647,0,0,1,1,2,2,5,5,6,6,7,7,8,8,9,9,10,10],"right_children":[2,4,6,-1,-1,8,10,12,14,16,18,-1,-1,-1,-1,-1,-1,-1,-1],"split_conditions":[1E0,6.8524754E-1,6E-1,-5.2114774E-2,-4.2162663E-3,4.6024072E-1,3.55E2,4E-1,5.877508E-1,4E0,1.6666667E-1,-7.295146E-3,-4.8692655E-2,-1.2105062E-2,1.735261E-2,-2.725256E-2,2.3420023E-2,5.780747E-2,1.8671083E-3],"split_indices":[10,97,35,0,0,97,98,33,99,75,71,0,0,0,0,0,0,0,0],"split_type":[0,0,0,0,0,0,0,0,0,0,0,0,0,0,0,0,0,0,0],"sum_hessian":[2.5649408E2,2.7020485E1,2.294736E2,2.5813711E1,1.2067726E0,1.915157E2,3.7957905E1,4.7044464E1,1.4447124E2,2.2165146E1,1.5792757E1,3.3585922E1,1.3458543E1,4.8369785E1,9.610145E1,3.104994E0,1.9060152E1,1.3227372E1,2.5653841E0],"tree_param":{"num_deleted":"0","num_feature":"100","num_nodes":"19","size_leaf_vector":"1"}},{"base_weights":[-6.860434E-3,-9.9675906E-1,1.0942071E-1,-5.1825058E-2,-4.102381E-3,2.4758326E-1,-2.3131262E-1,4.1417128E-1,-1.9221032E-1,-9.723482E-1,8.386139E-3,2.560304E-2,-2.6538027E-2,4.457313E-3,-6.652885E-2,7.935016E-3,-7.6271676E-2,-1.4495067E-2,2.5693739E-2],"categories":[],"categories_nodes":[],"categories_segments":[],"categories_sizes":[],"default_left":[0,0,0,0,0,0,0,0,0,0,0,0,0,0,0,0,0,0,0],"id":39,"left_children":[1,3,5,-1,-1,7,9,11,13,15,17,-1,-1,-1,-1,-1,-1,-1,-1],"loss_changes":[2.9456482E1,8.9283943E-1,1.0840568E1,0E0,0E0,1.2055228E1,1.1838163E1,1.1267017E1,1.4720142E1,1.0430253E1,7.8862376E0,0E0,0E0,0E0,0E0,0E0,0E0,0E0,0E0],"parents":[2147483647,0,0,1,1,2,2,5,5,6,6,7,7,8,8,9,9,10,10],"right_children":[2,4,6,-1,-1,8,10,12,14,16,18,-1,-1,-1,-1,-1,-1,-1,-1],"split_conditions":[1E0,6.8524754E-1,7.1E0,-5.1825058E-2,-4.102381E-3,1E0,1E0,1E0,1E0,2E-1,4E0,2.560304E-2,-2.6538027E-2,4.457313E-3,-6.652885E-2,7.935016E-3,-7.6271676E-2,-1.4495067E-2,2.5693739E-2],"split_indices":[10,97,76,0,0,33,60,36,47,71,77,0,0,0,0,0,0,0,0],"split_type":[0,0,0,0,0,0,0,0,0,0,0,0,0,0,0,0,0,0,0],"sum_hessian":[2.539587E2,2.5900066E1,2.2805862E2,2.4694023E1,1.2060436E0,1.624577E2,6.560092E1,1.1786881E2,4.4588894E1,1.528631E1,5.0314613E1,1.07219574E2,1.0649236E1,3.649143E1,8.0974655E0,5.2543445E0,1.0031966E1,3.191069E1,1.8403921E1],"tree_param":{"num_deleted":"0","num_feature":"100","num_nodes":"19","size_leaf_vector":"1"}},{"base_weights":[-7.3284605E-3,-9.8957247E-1,1.03994735E-1,-5.1543396E-2,-3.9915717E-3,-6.2048477E-1,1.6744074E-1,-7.6595587E-1,3.0654922E-2,2.9986766E-1,-1.6097979E-1,-1.5797896E-2,-5.4860987E-2,2.3072569E-2,-6.584268E-3,-4.4790138E-2,3.4202945E-3],"categories":[],"categories_nodes":[],"categories_segments":[],"categories_sizes":[],"default_left":[0,0,0,0,0,0,0,0,0,0,0,0,0,0,0,0,0],"id":40,"left_children":[1,3,5,-1,-1,7,9,11,-1,13,15,-1,-1,-1,-1,-1,-1],"loss_changes":[2.7741175E1,8.879242E-1,1.0580913E1,0E0,0E0,3.8013468E0,9.197481E0,2.1952934E0,0E0,1.053911E1,1.0360273E1,0E0,0E0,0E0,0E0,0E0,0E0],"parents":[2147483647,0,0,1,1,2,2,5,5,6,6,7,7,9,9,10,10],"right_children":[2,4,6,-1,-1,8,10,12,-1,14,16,-1,-1,-1,-1,-1,-1],"split_conditions":[1E0,6.8524754E-1,3.5708705E-1,-5.1543396E-2,-3.9915717E-3,1E0,7.1E0,9.63724E-1,3.0654922E-2,1E0,1E0,-1.5797896E-2,-5.4860987E-2,2.3072569E-2,-6.584268E-3,-4.4790138E-2,3.4202945E-3],"split_indices":[10,97,97,0,0,41,76,99,0,33,60,0,0,0,0,0,0],"split_type":[0,0,0,0,0,0,0,0,0,0,0,0,0,0,0,0,0],"sum_hessian":[2.517585E2,2.4825462E1,2.2693303E2,2.3620136E1,1.2053248E0,1.7566324E1,2.093667E2,1.6052414E1,1.5139109E0,1.4926605E2,6.0100655E1,7.6348352E0,8.417579E0,1.0855223E2,4.0713825E1,1.360682E1,4.6493835E1],"tree_param":{"num_deleted":"0","num_feature":"100","num_nodes":"17","size_leaf_vector":"1"}},{"base_weights":[-7.6003303E-3,-9.824696E-1,9.915015E-2,-5.1268943E-2,-3.8837723E-3,-8.283515E-2,3.4906504E-1,1.7615763E-2,-6.81712E-1,6.4945406E-1,1.5324056E-1,4.6021263E-3,-4.6935108E-2,-4.990934E-2,1.3805359E-3,1.42315E-2,4.575891E-2,-1.6252134E-2,2.485539E-2],"categories":[],"categories_nodes":[],"categories_segments":[],"categories_sizes":[],"default_left":[0,0,0,0,0,0,0,0,0,0,0,0,0,0,0,0,0,0,0],"id":41,"left_children":[1,3,5,-1,-1,7,9,11,13,15,17,-1,-1,-1,-1,-1,-1,-1,-1],"loss_changes":[2.6145813E1,8.8300323E-1,1.0330644E1,0E0,0E0,7.945268E0,5.5259304E0,8.19379E0,4.2854414E0,3.3682137E0,9.898174E0,0E0,0E0,0E0,0E0,0E0,0E0,0E0,0E0],"parents":[2147483647,0,0,1,1,2,2,5,5,6,6,7,7,8,8,9,9,10,10],"right_children":[2,4,6,-1,-1,8,10,12,14,16,18,-1,-1,-1,-1,-1,-1,-1,-1],"split_conditions":[1E0,6.8524754E-1,5.576716E-1,-5.1268943E-2,-3.8837723E-3,3.8717546E0,4E0,6E0,2E0,6E0,5.877508E-1,4.6021263E-3,-4.6935108E-2,-4.990934E-2,1.3805359E-3,1.42315E-2,4.575891E-2,-1.6252134E-2,2.485539E-2],"split_indices":[10,97,97,0,0,99,75,75,87,80,99,0,0,0,0,0,0,0,0],"split_type":[0,0,0,0,0,0,0,0,0,0,0,0,0,0,0,0,0,0,0],"sum_hessian":[2.493023E2,2.379526E1,2.2550705E2,2.2590643E1,1.2046161E0,1.3087433E2,9.463272E1,1.12906815E2,1.796752E1,3.6431442E1,5.820128E1,1.05592674E2,7.3141418E0,1.2142656E1,5.8248634E0,1.6225674E1,2.020577E1,2.436578E1,3.38355E1],"tree_param":{"num_deleted":"0","num_feature":"100","num_nodes":"19","size_leaf_vector":"1"}},{"base_weights":[-7.6374267E-3,-9.7543377E-1,9.464272E-2,-2.258388E-1,-5.203234E-2,1.6937196E-3,5.634887E-1,-2.8889993E-2,1.3514874E-2,-9.411907E-1,5.4953735E-2,2.635777E-1,9.5470655E-1,3.8417675E-2,-6.7837946E-2,-1.4267269E-2,1.1970596E-2,-2.8579867E-2,2.1207776E-2,5.663265E-2,-2.4212454E-4],"categories":[],"categories_nodes":[],"categories_segments":[],"categories_sizes":[],"default_left":[0,0,0,0,0,0,0,0,0,0,0,0,0,0,0,0,0,0,0,0,0],"id":42,"left_children":[1,3,5,7,-1,9,11,-1,-1,13,15,17,19,-1,-1,-1,-1,-1,-1,-1,-1],"loss_changes":[2.4656702E1,9.288006E-1,9.819577E0,7.1193254E-1,0E0,9.546444E0,4.1226034E0,0E0,0E0,8.263309E0,1.1361181E1,3.2578845E0,2.702736E0,0E0,0E0,0E0,0E0,0E0,0E0,0E0,0E0],"parents":[2147483647,0,0,1,1,2,2,3,3,5,5,6,6,9,9,10,10,11,11,12,12],"right_children":[2,4,6,8,-1,10,12,-1,-1,14,16,18,20,-1,-1,-1,-1,-1,-1,-1,-1],"split_conditions":[1E0,1E0,6E-1,5E-1,-5.203234E-2,4.2E0,3.55E2,-2.8889993E-2,1.3514874E-2,9.6373326E-1,5.87754E-1,4E0,1.6666667E-1,3.8417675E-2,-6.7837946E-2,-1.4267269E-2,1.1970596E-2,-2.8579867E-2,2.1207776E-2,5.663265E-2,-2.4212454E-4],"split_indices":[10,74,35,69,0,76,98,0,0,99,99,75,71,0,0,0,0,0,0,0,0],"split_type":[0,0,0,0,0,0,0,0,0,0,0,0,0,0,0,0,0,0,0,0,0],"sum_hessian":[2.4715932E2,2.2808033E1,2.2435129E2,2.1826406E0,2.0625391E1,1.8806992E2,3.6281364E1,1.1805527E0,1.002088E0,9.164008E0,1.7890591E2,2.148472E1,1.4796642E1,1.6260244E0,7.537984E0,6.2695217E1,1.1621069E2,3.0519116E0,1.843281E1,1.2329719E1,2.4669228E0],"tree_param":{"num_deleted":"0","num_feature":"100","num_nodes":"21","size_leaf_vector":"1"}},{"base_weights":[-7.5332094E-3,-9.677203E-1,9.038204E-2,-2.2107303E-1,-5.1743116E-2,-8.26307E-2,3.3055347E-1,-2.8618664E-2,1.3433598E-2,-1.8976314E-2,-9.7156364E-1,-9.047659E-1,3.755857E-1,-5.811039E-3,3.939911E-2,1.9581033E-2,-7.16974E-2,-8.911914E-3,-5.8746975E-2,3.804018E-2,9.972229E-3],"categories":[],"categories_nodes":[],"categories_segments":[],"categories_sizes":[],"default_left":[0,0,0,0,0,0,0,0,0,0,0,0,0,0,0,0,0,0,0,0,0],"id":43,"left_children":[1,3,5,7,-1,9,11,-1,-1,13,15,17,19,-1,-1,-1,-1,-1,-1,-1,-1],"loss_changes":[2.3258646E1,9.188385E-1,9.358609E0,6.975181E-1,0E0,7.412972E0,5.5818844E0,0E0,0E0,9.788935E0,6.080661E0,4.9872375E-1,6.065239E0,0E0,0E0,0E0,0E0,0E0,0E0,0E0,0E0],"parents":[2147483647,0,0,1,1,2,2,3,3,5,5,6,6,9,9,10,10,11,11,12,12],"right_children":[2,4,6,8,-1,10,12,-1,-1,14,16,18,20,-1,-1,-1,-1,-1,-1,-1,-1],"split_conditions":[1E0,1E0,5.576716E-1,8E0,-5.1743116E-2,6E0,2.4433333E2,-2.8618664E-2,1.3433598E-2,1E0,1E0,9.638811E-1,3.27E2,-5.811039E-3,3.939911E-2,1.9581033E-2,-7.16974E-2,-8.911914E-3,-5.8746975E-2,3.804018E-2,9.972229E-3],"split_indices":[10,74,97,78,0,75,98,0,0,41,11,99,98,0,0,0,0,0,0,0,0],"split_type":[0,0,0,0,0,0,0,0,0,0,0,0,0,0,0,0,0,0,0,0,0],"sum_hessian":[2.4545746E2,2.1892231E1,2.2356522E2,2.1603909E0,1.973184E1,1.3033296E2,9.3232254E1,1.159762E0,1.0006288E0,1.2257687E2,7.756093E0,2.6076622E0,9.062459E1,1.10158E2,1.2418877E1,2.0032442E0,5.752849E0,1.1567491E0,1.450913E0,2.7394337E1,6.3230255E1],"tree_param":{"num_deleted":"0","num_feature":"100","num_nodes":"21","size_leaf_vector":"1"}},{"base_weights":[-7.6882998E-3,-9.600456E-1,8.611685E-2,-5.050203E-2,-2.3685216E-3,-3.5811814E-3,5.452581E-1,-8.96671E-1,4.703233E-2,2.5205842E-1,9.366468E-1,3.750102E-2,-6.4898E-2,-1.3719149E-2,1.1127117E-2,-2.7230678E-2,2.0426154E-2,5.5916626E-2,-4.240886E-4],"categories":[],"categories_nodes":[],"categories_segments":[],"categories_sizes":[],"default_left":[0,0,0,0,0,0,0,0,0,0,0,0,0,0,0,0,0,0,0],"id":44,"left_children":[1,3,5,-1,-1,7,9,11,13,15,17,-1,-1,-1,-1,-1,-1,-1,-1],"loss_changes":[2.193453E1,9.566746E-1,9.210219E0,0E0,0E0,8.542037E0,3.957981E0,7.6706705E0,1.0153386E1,2.9976177E0,2.634138E0,0E0,0E0,0E0,0E0,0E0,0E0,0E0,0E0],"parents":[2147483647,0,0,1,1,2,2,5,5,6,6,7,7,8,8,9,9,10,10],"right_children":[2,4,6,-1,-1,8,10,12,14,16,18,-1,-1,-1,-1,-1,-1,-1,-1],"split_conditions":[1E0,6.8524754E-1,6E-1,-5.050203E-2,-2.3685216E-3,4.2E0,3.55E2,9.6373326E-1,5.87754E-1,4E0,1.6666667E-1,3.750102E-2,-6.4898E-2,-1.3719149E-2,1.1127117E-2,-2.7230678E-2,2.0426154E-2,5.5916626E-2,-4.240886E-4],"split_indices":[10,97,35,0,0,76,98,99,99,75,71,0,0,0,0,0,0,0,0],"split_type":[0,0,0,0,0,0,0,0,0,0,0,0,0,0,0,0,0,0,0],"sum_hessian":[2.4360298E2,2.1014875E1,2.225881E2,1.9822355E1,1.1925193E0,1.8704007E2,3.5548027E1,9.134966E0,1.779051E2,2.1263205E1,1.4284822E1,1.6196586E0,7.515307E0,6.263568E1,1.1526943E2,3.0832844E0,1.817992E1,1.1827849E1,2.4569726E0],"tree_param":{"num_deleted":"0","num_feature":"100","num_nodes":"19","size_leaf_vector":"1"}},{"base_weights":[-7.5166174E-3,-9.530934E-1,8.225022E-2,-1.9437157E-1,-5.1253498E-2,-6.005648E-1,1.4138097E-1,-2.7278483E-2,1.3053711E-2,-8.0044436E-1,2.6653764E-1,2.685894E-1,-1.6815293E-1,-1.0871061E-2,-5.4846264E-2,4.830816E-2,-3.7364613E-2,-6.293476E-2,1.5472434E-2,-4.3837924E-2,2.6888426E-3],"categories":[],"categories_nodes":[],"categories_segments":[],"categories_sizes":[],"default_left":[0,0,0,0,0,0,0,0,0,0,0,0,0,0,0,0,0,0,0,0,0],"id":45,"left_children":[1,3,5,7,-1,9,11,-1,-1,13,15,17,19,-1,-1,-1,-1,-1,-1,-1,-1],"loss_changes":[2.0701832E1,9.555054E-1,9.081437E0,6.328687E-1,0E0,3.324162E0,8.1515E0,0E0,0E0,2.3260221E0,3.6390586E0,9.518826E0,9.573852E0,0E0,0E0,0E0,0E0,0E0,0E0,0E0,0E0],"parents":[2147483647,0,0,1,1,2,2,3,3,5,5,6,6,9,9,10,10,11,11,12,12],"right_children":[2,4,6,8,-1,10,12,-1,-1,14,16,18,20,-1,-1,-1,-1,-1,-1,-1,-1],"split_conditions":[1E0,1E0,3.5708705E-1,9.637303E-1,-5.1253498E-2,1E0,7.1E0,-2.7278483E-2,1.3053711E-2,4.7236985E-1,6.1E0,1E0,1E0,-1.0871061E-2,-5.4846264E-2,4.830816E-2,-3.7364613E-2,-6.293476E-2,1.5472434E-2,-4.3837924E-2,2.6888426E-3],"split_indices":[10,74,97,99,0,68,76,0,0,99,76,87,60,0,0,0,0,0,0,0,0],"split_type":[0,0,0,0,0,0,0,0,0,0,0,0,0,0,0,0,0,0,0,0,0],"sum_hessian":[2.419676E2,2.014533E1,2.2182228E2,2.0661418E0,1.807919E1,1.6948788E1,2.0487349E2,1.0548542E0,1.0112876E0,1.3836216E1,3.112572E0,1.4529443E2,5.9579052E1,5.2484984E0,8.587717E0,1.8694885E0,1.2430835E0,3.0091574E0,1.4228528E2,1.3505708E1,4.6073345E1],"tree_param":{"num_deleted":"0","num_feature":"100","num_nodes":"21","size_leaf_vector":"1"}},{"base_weights":[-8.165498E-3,-9.4541556E-1,7.795087E-2,-5.0010722E-2,-1.6139556E-3,-5.859455E-1,1.345457E-1,-7.827483E-1,2.58044E-1,2.56524E-1,-1.60517E-1,-1.0464197E-2,-5.4124016E-2,4.6918016E-2,-3.6739677E-2,-6.067049E-2,1.4802729E-2,-4.1865386E-2,2.5577561E-3],"categories":[],"categories_nodes":[],"categories_segments":[],"categories_sizes":[],"default_left":[0,0,0,0,0,0,0,0,0,0,0,0,0,0,0,0,0,0,0],"id":46,"left_children":[1,3,5,-1,-1,7,9,11,13,15,17,-1,-1,-1,-1,-1,-1,-1,-1],"loss_changes":[1.9511948E1,9.856205E-1,8.400928E0,0E0,0E0,3.1228275E0,7.415991E0,2.2671223E0,3.4434128E0,8.80565E0,8.71666E0,0E0,0E0,0E0,0E0,0E0,0E0,0E0,0E0],"parents":[2147483647,0,0,1,1,2,2,5,5,6,6,7,7,8,8,9,9,10,10],"right_children":[2,4,6,-1,-1,8,10,12,14,16,18,-1,-1,-1,-1,-1,-1,-1,-1],"split_conditions":[1E0,6.8524754E-1,3.5708705E-1,-5.0010722E-2,-1.6139556E-3,1E0,7.1E0,4.7236985E-1,6.1E0,1E0,1E0,-1.0464197E-2,-5.4124016E-2,4.6918016E-2,-3.6739677E-2,-6.067049E-2,1.4802729E-2,-4.1865386E-2,2.5577561E-3],"split_indices":[10,97,97,0,0,68,76,99,76,87,60,0,0,0,0,0,0,0,0],"split_type":[0,0,0,0,0,0,0,0,0,0,0,0,0,0,0,0,0,0,0],"sum_hessian":[2.3983301E2,1.9342289E1,2.204907E2,1.8157276E1,1.1850117E0,1.6584911E1,2.039058E2,1.3507721E1,3.0771897E0,1.443588E2,5.954701E1,5.219573E0,8.288148E0,1.858542E0,1.2186478E0,3.002859E0,1.4135594E2,1.3482619E1,4.606439E1],"tree_param":{"num_deleted":"0","num_feature":"100","num_nodes":"19","size_leaf_vector":"1"}},{"base_weights":[-8.720705E-3,-9.3845797E-1,7.384417E-2,-8.440345E-3,-5.0779518E-2,-1.034043E-2,5.1386577E-1,-8.8038653E-1,3.918683E-2,2.249431E-1,9.110478E-1,1.1743386E-2,-7.4147485E-2,-1.3477697E-2,1.0469878E-2,-2.7288843E-2,1.9027052E-2,5.4992773E-2,-1.4953268E-3],"categories":[],"categories_nodes":[],"categories_segments":[],"categories_sizes":[],"default_left":[0,0,0,0,0,0,0,0,0,0,0,0,0,0,0,0,0,0,0],"id":47,"left_children":[1,3,5,-1,-1,7,9,11,13,15,17,-1,-1,-1,-1,-1,-1,-1,-1],"loss_changes":[1.8395758E1,9.888401E-1,8.161967E0,0E0,0E0,8.041337E0,3.8552837E0,7.10219E0,9.345463E0,2.8232088E0,2.621666E0,0E0,0E0,0E0,0E0,0E0,0E0,0E0,0E0],"parents":[2147483647,0,0,1,1,2,2,5,5,6,6,7,7,8,8,9,9,10,10],"right_children":[2,4,6,-1,-1,8,10,12,14,16,18,-1,-1,-1,-1,-1,-1,-1,-1],"split_conditions":[1E0,1E0,6E-1,-8.440345E-3,-5.0779518E-2,4.2E0,3.55E2,1E-1,5.87754E-1,4E0,1.6666667E-1,1.1743386E-2,-7.4147485E-2,-1.3477697E-2,1.0469878E-2,-2.7288843E-2,1.9027052E-2,5.4992773E-2,-1.4953268E-3],"split_indices":[10,74,35,0,0,76,98,71,99,75,71,0,0,0,0,0,0,0,0],"split_type":[0,0,0,0,0,0,0,0,0,0,0,0,0,0,0,0,0,0,0],"sum_hessian":[2.3773878E2,1.8544838E1,2.1919395E2,1.979663E0,1.6565176E1,1.848123E2,3.438165E1,9.05027E0,1.7576202E2,2.0810087E1,1.3571561E1,3.3886342E0,5.6616364E0,6.2255238E1,1.1350679E2,3.0743525E0,1.7735735E1,1.1162811E1,2.4087503E0],"tree_param":{"num_deleted":"0","num_feature":"100","num_nodes":"19","size_leaf_vector":"1"}},{"base_weights":[-8.687445E-3,-9.303133E-1,7.036184E-2,-4.953442E-2,-6.599638E-4,-8.992546E-2,2.9584238E-1,-1.5905665E-1,6.9142246E-1,-9.052652E-1,3.4116438E-1,4.275839E-3,-2.3227671E-2,9.857636E-5,5.7181872E-2,-8.513777E-3,-5.8981765E-2,3.6328882E-2,8.333568E-3],"categories":[],"categories_nodes":[],"categories_segments":[],"categories_sizes":[],"default_left":[0,0,0,0,0,0,0,0,0,0,0,0,0,0,0,0,0,0,0],"id":48,"left_children":[1,3,5,-1,-1,7,9,11,13,15,17,-1,-1,-1,-1,-1,-1,-1,-1],"loss_changes":[1.7351439E1,1.0286503E0,7.9580946E0,0E0,0E0,7.0800424E0,5.2852945E0,8.958052E0,3.3262758E0,5.246632E-1,5.852187E0,0E0,0E0,0E0,0E0,0E0,0E0,0E0,0E0],"parents":[2147483647,0,0,1,1,2,2,5,5,6,6,7,7,8,8,9,9,10,10],"right_children":[2,4,6,-1,-1,8,10,12,14,16,18,-1,-1,-1,-1,-1,-1,-1,-1],"split_conditions":[1E0,6.8524754E-1,5.576716E-1,-4.953442E-2,-6.599638E-4,7E0,2.4433333E2,5E0,4.97447E-1,5.92886E-1,3.27E2,4.275839E-3,-2.3227671E-2,9.857636E-5,5.7181872E-2,-8.513777E-3,-5.8981765E-2,3.6328882E-2,8.333568E-3],"split_indices":[10,97,97,0,0,79,98,79,97,97,98,0,0,0,0,0,0,0,0],"split_type":[0,0,0,0,0,0,0,0,0,0,0,0,0,0,0,0,0,0,0],"sum_hessian":[2.3626921E2,1.7813622E1,2.184556E2,1.6638084E1,1.1755375E0,1.2803825E2,9.041734E1,1.1836236E2,9.675894E0,2.5977833E0,8.7819565E1,6.6135735E1,5.222662E1,4.2304583E0,5.445435E0,1.146667E0,1.4511163E0,2.638266E1,6.14369E1],"tree_param":{"num_deleted":"0","num_feature":"100","num_nodes":"19","size_leaf_vector":"1"}},{"base_weights":[-8.474716E-3,-9.2329824E-1,6.727383E-2,-7.122934E-3,-5.031684E-2,-6.8917227E-1,1.1261784E-1,2.8005077E-2,-8.60819E-1,2.842139E-2,5.4379624E-1,-5.007587E-2,1.1279784E-2,-4.2096533E-2,3.966994E-3,1.3954165E-2,4.4669315E-2],"categories":[],"categories_nodes":[],"categories_segments":[],"categories_sizes":[],"default_left":[0,0,0,0,0,0,0,0,0,0,0,0,0,0,0,0,0],"id":49,"left_children":[1,3,5,-1,-1,7,9,-1,11,13,15,-1,-1,-1,-1,-1,-1],"loss_changes":[1.6387207E1,1.0291262E0,7.5722346E0,0E0,0E0,3.1620107E0,7.4995117E0,0E0,1.9657402E0,7.788597E0,2.8751106E0,0E0,0E0,0E0,0E0,0E0,0E0],"parents":[2147483647,0,0,1,1,2,2,5,5,6,6,8,8,9,9,10,10],"right_children":[2,4,6,-1,-1,8,10,-1,12,14,16,-1,-1,-1,-1,-1,-1],"split_conditions":[1E0,1E0,3.3147472E-1,-7.122934E-3,-5.031684E-2,4E0,6E-1,2.8005077E-2,3.8733334E2,4.2E0,3.55E2,-5.007587E-2,1.1279784E-2,-4.2096533E-2,3.966994E-3,1.3954165E-2,4.4669315E-2],"split_indices":[10,74,97,0,0,79,35,0,98,76,98,0,0,0,0,0,0],"split_type":[0,0,0,0,0,0,0,0,0,0,0,0,0,0,0,0,0],"sum_hessian":[2.3458305E2,1.7082832E1,2.1750021E2,1.9030821E0,1.517975E1,1.1497402E1,2.0600282E2,1.1154997E0,1.0381903E1,1.7324005E2,3.2762768E1,9.260717E0,1.1211847E0,8.716343E0,1.6452371E2,1.9668167E1,1.3094603E1],"tree_param":{"num_deleted":"0","num_feature":"100","num_nodes":"17","size_leaf_vector":"1"}},{"base_weights":[-8.369392E-3,-9.1504914E-1,6.425627E-2,-4.9067166E-2,2.436721E-4,1.8181837E-1,-2.1369216E-1,-6.290055E-2,4.0636644E-1,-8.560976E-1,-7.3706647E-3,-1.9953463E-2,3.086096E-2,-2.027259E-2,2.7051581E-2,1.2069708E-2,-7.1171336E-2,-1.5400626E-2,2.5103817E-2],"categories":[],"categories_nodes":[],"categories_segments":[],"categories_sizes":[],"default_left":[0,0,0,0,0,0,0,0,0,0,0,0,0,0,0,0,0,0,0],"id":50,"left_children":[1,3,5,-1,-1,7,9,11,13,15,17,-1,-1,-1,-1,-1,-1,-1,-1],"loss_changes":[1.5463242E1,1.0668192E0,7.1467113E0,0E0,0E0,8.455463E0,8.62441E0,1.7227615E1,8.979972E0,1.0194324E1,7.8580265E0,0E0,0E0,0E0,0E0,0E0,0E0,0E0,0E0],"parents":[2147483647,0,0,1,1,2,2,5,5,6,6,7,7,8,8,9,9,10,10],"right_children":[2,4,6,-1,-1,8,10,12,14,16,18,-1,-1,-1,-1,-1,-1,-1,-1],"split_conditions":[1E0,6.8524754E-1,7.1E0,-4.9067166E-2,2.436721E-4,5.2885276E-1,1E0,2E0,2.93E2,2E-1,4E0,-1.9953463E-2,3.086096E-2,-2.027259E-2,2.7051581E-2,1.2069708E-2,-7.1171336E-2,-1.5400626E-2,2.5103817E-2],"split_indices":[10,97,76,0,0,97,60,87,98,71,77,0,0,0,0,0,0,0,0],"split_type":[0,0,0,0,0,0,0,0,0,0,0,0,0,0,0,0,0,0,0],"sum_hessian":[2.3293863E2,1.6414593E1,2.1652403E2,1.5248914E1,1.1656796E0,1.524072E2,6.411685E1,7.327255E1,7.913464E1,1.4820913E1,4.9295937E1,4.9311943E1,2.3960606E1,1.0973137E1,6.816151E1,5.246372E0,9.574541E0,3.1249784E1,1.8046154E1],"tree_param":{"num_deleted":"0","num_feature":"100","num_nodes":"19","size_leaf_vector":"1"}}]},"name":"gbtree"},"learner_model_param":{"base_score":"5E-1","boost_from_average":"1","num_class":"0","num_feature":"100","num_target":"1"},"objective":{"name":"binary:logistic","reg_loss_param":{"scale_pos_weight":"1.92682934"}}},"version":[2,1,3]}