{"learner":{"attributes":{"best_iteration":"1","best_score":"0.6917283924397903","scikit_learn":"{\"_estimator_type\": \"classifier\"}"},"feature_names":[],"feature_types":[],"gradient_booster":{"model":{"gbtree_model_param":{"num_parallel_tree":"1","num_trees":"22"},"iteration_indptr":[0,1,2,3,4,5,6,7,8,9,10,11,12,13,14,15,16,17,18,19,20,21,22],"tree_info":[0,0,0,0,0,0,0,0,0,0,0,0,0,0,0,0,0,0,0,0,0,0],"trees":[{"base_weights":[-4.2104826E-9,-9.775551E-1,9.2860955E-1,-1.5050291E0,-3.687169E-1,1.2713153E0,-2.511997E-1,-1.6987345E0,-1.134572E0,9.7816326E-2,-7.375544E-1,1.353776E0,-6.3231945E-2,-5.780721E-1,6.7350525E-1,-2.831068E-2,-8.6920805E-2,-3.0366734E-2,-7.224967E-2,-1.3362593E-2,5.4942127E-2,4.149365E-2,-4.2731594E-2,-9.5672365E-3,7.2831325E-2,-3.8833946E-2,2.3293607E-2,-2.4353696E-2,6.242038E-2],"categories":[],"categories_nodes":[],"categories_segments":[],"categories_sizes":[],"default_left":[0,0,0,0,0,0,0,0,0,0,0,0,0,0,0,0,0,0,0,0,0,0,0,0,0,0,0,0,0],"id":0,"left_children":[1,3,5,7,9,11,13,15,17,19,21,23,-1,25,27,-1,-1,-1,-1,-1,-1,-1,-1,-1,-1,-1,-1,-1,-1],"loss_changes":[2.0651698E2,3.503746E1,4.749257E1,2.3106384E0,9.152742E0,2.0652603E1,8.579585E0,6.6809845E-1,2.9339657E0,9.131074E0,6.1390266E0,1.4295883E1,0E0,4.6242156E0,5.6380134E0,0E0,0E0,0E0,0E0,0E0,0E0,0E0,0E0,0E0,0E0,0E0,0E0,0E0,0E0],"parents":[2147483647,0,0,1,1,2,2,3,3,4,4,5,5,6,6,7,7,8,8,9,9,10,10,11,11,13,13,14,14],"right_children":[2,4,6,8,10,12,14,16,18,20,22,24,-1,26,28,-1,-1,-1,-1,-1,-1,-1,-1,-1,-1,-1,-1,-1,-1],"split_conditions":[6.10873E-1,5.087407E-1,7.1E0,4.3360794E-1,7.1E0,1E0,8.5E0,1E0,9.222761E-1,2E0,1E0,1E0,-6.3231945E-2,7.505456E-1,4.028764E-1,-2.831068E-2,-8.6920805E-2,-3.0366734E-2,-7.224967E-2,-1.3362593E-2,5.4942127E-2,4.149365E-2,-4.2731594E-2,-9.5672365E-3,7.2831325E-2,-3.8833946E-2,2.3293607E-2,-2.4353696E-2,6.242038E-2],"split_indices":[97,97,76,97,76,45,76,11,99,87,1,87,0,97,99,0,0,0,0,0,0,0,0,0,0,0,0,0,0],"split_type":[0,0,0,0,0,0,0,0,0,0,0,0,0,0,0,0,0,0,0,0,0,0,0,0,0,0,0,0,0],"sum_hessian":[2.255E2,1.09829185E2,1.15670815E2,5.8058E1,5.1771187E1,8.957415E1,2.6096663E1,3.5769333E1,2.2288666E1,2.3182734E1,2.8588453E1,8.720471E1,2.3694386E0,1.9557999E1,6.5386653E0,1.7277542E0,3.404158E1,9.355403E0,1.2933263E1,1.752463E1,5.658104E0,1.5638242E0,2.702463E1,5.388771E0,8.181594E1,1.664698E1,2.911017E0,2.2166314E0,4.322034E0],"tree_param":{"num_deleted":"0","num_feature":"100","num_nodes":"29","size_leaf_vector":"1"}},{"base_weights":[-6.8390736E-4,-9.3115443E-1,8.8331896E-1,-1.4355369E0,-3.4963796E-1,1.2092588E0,-2.3790641E-1,-1.6031265E0,-1.0538707E0,9.466776E-2,-7.010323E-1,1.2884195E0,-6.1052293E-2,-5.501065E-1,6.4527905E-1,-3.3385213E-2,-8.1749946E-2,9.027005E-3,-5.8640208E-2,-1.2731077E-2,5.2641947E-2,4.023892E-2,-4.0689472E-2,7.735359E-2,3.2318573E-2,-3.701566E-2,2.2429025E-2,-2.3517013E-2,5.9934E-2],"categories":[],"categories_nodes":[],"categories_segments":[],"categories_sizes":[],"default_left":[0,0,0,0,0,0,0,0,0,0,0,0,0,0,0,0,0,0,0,0,0,0,0,0,0,0,0,0,0],"id":1,"left_children":[1,3,5,7,9,11,13,15,17,19,21,23,-1,25,27,-1,-1,-1,-1,-1,-1,-1,-1,-1,-1,-1,-1,-1,-1],"loss_changes":[1.8694347E2,3.197522E1,4.288066E1,2.0827026E0,8.302526E0,1.8976944E1,7.8232613E0,7.2891235E-2,3.2820454E0,8.359837E0,5.676565E0,1.3629898E1,0E0,4.235958E0,5.2152443E0,0E0,0E0,0E0,0E0,0E0,0E0,0E0,0E0,0E0,0E0,0E0,0E0,0E0,0E0],"parents":[2147483647,0,0,1,1,2,2,3,3,4,4,5,5,6,6,7,7,8,8,9,9,10,10,11,11,13,13,14,14],"right_children":[2,4,6,8,10,12,14,16,18,20,22,24,-1,26,28,-1,-1,-1,-1,-1,-1,-1,-1,-1,-1,-1,-1,-1,-1],"split_conditions":[6.10873E-1,5.087407E-1,7.1E0,4.423175E-1,7.1E0,1E0,8.5E0,1E0,4.508416E-1,2E0,1E0,5E-1,-6.1052293E-2,7.505456E-1,4.028764E-1,-3.3385213E-2,-8.1749946E-2,9.027005E-3,-5.8640208E-2,-1.2731077E-2,5.2641947E-2,4.023892E-2,-4.0689472E-2,7.735359E-2,3.2318573E-2,-3.701566E-2,2.2429025E-2,-2.3517013E-2,5.9934E-2],"split_indices":[97,97,76,97,76,45,76,11,97,87,1,68,0,97,99,0,0,0,0,0,0,0,0,0,0,0,0,0,0],"split_type":[0,0,0,0,0,0,0,0,0,0,0,0,0,0,0,0,0,0,0,0,0,0,0,0,0,0,0,0,0],"sum_hessian":[2.2527626E2,1.0972755E2,1.1554872E2,5.7974415E1,5.175313E1,8.946326E1,2.6085459E1,3.806134E1,1.9913074E1,2.3177683E1,2.8575449E1,8.709619E1,2.3670716E0,1.9551329E1,6.5341296E0,1.9773506E0,3.608399E1,1.7044624E0,1.8208612E1,1.7523848E1,5.653836E0,1.5631512E0,2.7012297E1,6.108015E1,2.6016037E1,1.6640707E1,2.9106221E0,2.2163029E0,4.3178267E0],"tree_param":{"num_deleted":"0","num_feature":"100","num_nodes":"29","size_leaf_vector":"1"}},{"base_weights":[-8.909288E-4,-8.958647E-1,8.3506334E-1,-1.3720738E0,-3.3773148E-1,1.1478636E0,-2.3083429E-1,-1.5502771E0,-1.0326017E0,8.4822364E-2,-6.673755E-1,1.2233747E0,-5.902752E-2,-5.2558035E-1,6.189469E-1,-2.6373291E-2,-7.929259E-2,-2.6672075E-2,-6.65014E-2,-1.2432856E-2,4.968849E-2,3.9042085E-2,-3.887755E-2,-1.1293062E-2,6.600513E-2,-3.364284E-2,3.0320495E-2,-2.2713553E-2,5.76331E-2],"categories":[],"categories_nodes":[],"categories_segments":[],"categories_sizes":[],"default_left":[0,0,0,0,0,0,0,0,0,0,0,0,0,0,0,0,0,0,0,0,0,0,0,0,0,0,0,0,0],"id":2,"left_children":[1,3,5,7,9,11,13,15,17,19,21,23,-1,25,27,-1,-1,-1,-1,-1,-1,-1,-1,-1,-1,-1,-1,-1,-1],"loss_changes":[1.6958234E2,2.8632042E1,3.9340378E1,1.9528427E0,7.2615895E0,1.7404518E1,7.193838E0,4.9258423E-1,2.7372646E0,7.387147E0,5.261467E0,1.2692337E1,0E0,3.8926058E0,4.8317432E0,0E0,0E0,0E0,0E0,0E0,0E0,0E0,0E0,0E0,0E0,0E0,0E0,0E0,0E0],"parents":[2147483647,0,0,1,1,2,2,3,3,4,4,5,5,6,6,7,7,8,8,9,9,10,10,11,11,13,13,14,14],"right_children":[2,4,6,8,10,12,14,16,18,20,22,24,-1,26,28,-1,-1,-1,-1,-1,-1,-1,-1,-1,-1,-1,-1,-1,-1],"split_conditions":[6.0967827E-1,5.087407E-1,7.1E0,4.3360794E-1,7.1E0,1E0,8.5E0,1E0,9.222761E-1,2E0,1E0,1E0,-5.902752E-2,7.639966E-1,4.028764E-1,-2.6373291E-2,-7.929259E-2,-2.6672075E-2,-6.65014E-2,-1.2432856E-2,4.968849E-2,3.9042085E-2,-3.887755E-2,-1.1293062E-2,6.600513E-2,-3.364284E-2,3.0320495E-2,-2.2713553E-2,5.76331E-2],"split_indices":[97,97,76,97,76,45,76,11,99,87,1,87,0,97,99,0,0,0,0,0,0,0,0,0,0,0,0,0,0],"split_type":[0,0,0,0,0,0,0,0,0,0,0,0,0,0,0,0,0,0,0,0,0,0,0,0,0,0,0,0,0],"sum_hessian":[2.2466678E2,1.08468544E2,1.1619824E2,5.774294E1,5.0725605E1,8.977563E1,2.6422615E1,3.5526714E1,2.2216227E1,2.2555521E1,2.8170084E1,8.741531E1,2.3603122E0,1.9901356E1,6.5212603E0,1.726111E0,3.3800602E1,9.338039E0,1.2878188E1,1.7032852E1,5.5226693E0,1.5612153E0,2.6608868E1,5.385873E0,8.202944E1,1.7969103E1,1.9322526E0,2.2153618E0,4.305898E0],"tree_param":{"num_deleted":"0","num_feature":"100","num_nodes":"29","size_leaf_vector":"1"}},{"base_weights":[-1.4434065E-3,-8.488759E-1,8.0423737E-1,-1.3151308E0,-3.1545845E-1,1.1016585E0,-2.1342853E-1,-8.207551E-2,-1.119964E0,8.749497E-2,-6.3471425E-1,1.1751136E0,-5.714023E-2,-4.705581E-1,6.859978E-1,-3.934479E-2,-7.042382E-2,-1.1648063E-2,4.8513826E-2,3.789884E-2,-3.6978487E-2,7.1161345E-2,2.8198902E-2,-3.0055126E-2,4.0027037E-2,-1.5653247E-2,5.988438E-2],"categories":[],"categories_nodes":[],"categories_segments":[],"categories_sizes":[],"default_left":[0,0,0,0,0,0,0,0,0,0,0,0,0,0,0,0,0,0,0,0,0,0,0,0,0,0,0],"id":3,"left_children":[1,3,5,7,9,11,13,-1,15,17,19,21,-1,23,25,-1,-1,-1,-1,-1,-1,-1,-1,-1,-1,-1,-1],"loss_changes":[1.5410902E2,2.6944603E1,3.5257286E1,1.8804626E0,6.82527E0,1.6131874E1,6.5685635E0,0E0,2.704979E0,7.0554132E0,4.865881E0,1.2442673E1,0E0,4.064642E0,3.6523402E0,0E0,0E0,0E0,0E0,0E0,0E0,0E0,0E0,0E0,0E0,0E0,0E0],"parents":[2147483647,0,0,1,1,2,2,3,3,4,4,5,5,6,6,8,8,9,9,10,10,11,11,13,13,14,14],"right_children":[2,4,6,8,10,12,14,-1,16,18,20,22,-1,24,26,-1,-1,-1,-1,-1,-1,-1,-1,-1,-1,-1,-1],"split_conditions":[6.10873E-1,5.087407E-1,7.1E0,3.6167184E-1,7.1E0,1E0,9.2E0,-8.207551E-2,7.5E0,2E0,1E0,5E-1,-5.714023E-2,2.5E-1,4.028764E-1,-3.934479E-2,-7.042382E-2,-1.1648063E-2,4.8513826E-2,3.789884E-2,-3.6978487E-2,7.1161345E-2,2.8198902E-2,-3.0055126E-2,4.0027037E-2,-1.5653247E-2,5.988438E-2],"split_indices":[97,97,76,97,76,45,76,0,76,87,1,68,0,32,99,0,0,0,0,0,0,0,0,0,0,0,0],"split_type":[0,0,0,0,0,0,0,0,0,0,0,0,0,0,0,0,0,0,0,0,0,0,0,0,0,0,0],"sum_hessian":[2.2371486E2,1.0900618E2,1.1470867E2,5.7382885E1,5.1623295E1,8.87022E1,2.6006466E1,1.8699957E1,3.868293E1,2.3141214E1,2.848208E1,8.635256E1,2.3496444E0,2.0595432E1,5.411034E0,1.9685154E1,1.8997776E1,1.7518114E1,5.6231003E0,1.5581353E0,2.6923946E1,6.0472622E1,2.587994E1,1.915525E1,1.4401827E0,1.9641838E0,3.44685E0],"tree_param":{"num_deleted":"0","num_feature":"100","num_nodes":"27","size_leaf_vector":"1"}},{"base_weights":[-1.6237419E-3,-8.1203306E-1,7.693184E-1,-1.2625812E0,-2.9956523E-1,1.0542842E0,-2.0110106E-1,-1.4197011E0,-9.1106415E-1,8.477169E-2,-6.045032E-1,1.1252367E0,-5.5375457E-2,-4.471142E-1,6.610345E-1,-7.300416E-2,-3.5698153E-2,1.2003829E-2,-5.132695E-2,-1.1099757E-2,4.6632487E-2,-4.606039E-2,-5.324449E-3,-1.2744985E-2,6.097883E-2,-2.8665125E-2,3.883402E-2,-1.51409255E-2,5.785034E-2],"categories":[],"categories_nodes":[],"categories_segments":[],"categories_sizes":[],"default_left":[0,0,0,0,0,0,0,0,0,0,0,0,0,0,0,0,0,0,0,0,0,0,0,0,0,0,0,0,0],"id":4,"left_children":[1,3,5,7,9,11,13,15,17,19,21,23,-1,25,27,-1,-1,-1,-1,-1,-1,-1,-1,-1,-1,-1,-1,-1,-1],"loss_changes":[1.4027417E2,2.4894318E1,3.203083E1,1.9063797E0,6.2065725E0,1.4913338E1,6.0133147E0,4.7599792E-2,2.9964352E0,6.4786553E0,4.540251E0,1.16082535E1,0E0,3.776289E0,3.40426E0,0E0,0E0,0E0,0E0,0E0,0E0,0E0,0E0,0E0,0E0,0E0,0E0,0E0,0E0],"parents":[2147483647,0,0,1,1,2,2,3,3,4,4,5,5,6,6,7,7,8,8,9,9,10,10,11,11,13,13,14,14],"right_children":[2,4,6,8,10,12,14,16,18,20,22,24,-1,26,28,-1,-1,-1,-1,-1,-1,-1,-1,-1,-1,-1,-1,-1,-1],"split_conditions":[6.10873E-1,5.087407E-1,7.1E0,4.423175E-1,7.1E0,1E0,9.2E0,7E0,4.508416E-1,2E0,1E0,1E0,-5.5375457E-2,2.5E-1,4.028764E-1,-7.300416E-2,-3.5698153E-2,1.2003829E-2,-5.132695E-2,-1.1099757E-2,4.6632487E-2,-4.606039E-2,-5.324449E-3,-1.2744985E-2,6.097883E-2,-2.8665125E-2,3.883402E-2,-1.51409255E-2,5.785034E-2],"split_indices":[97,97,76,97,76,45,76,79,97,87,33,87,0,32,99,0,0,0,0,0,0,0,0,0,0,0,0,0,0],"split_type":[0,0,0,0,0,0,0,0,0,0,0,0,0,0,0,0,0,0,0,0,0,0,0,0,0,0,0,0,0],"sum_hessian":[2.2251828E2,1.0845637E2,1.1406192E2,5.693601E1,5.1520355E1,8.810366E1,2.5958256E1,3.7248173E1,1.9687834E1,2.311223E1,2.8408127E1,8.576814E1,2.3355174E0,2.0569944E1,5.388312E0,3.422118E1,3.026995E0,1.6965278E0,1.7991306E1,1.7513815E1,5.598416E0,1.6845638E1,1.1562489E1,5.378722E0,8.038942E1,1.9129042E1,1.4409028E0,1.9629793E0,3.4253323E0],"tree_param":{"num_deleted":"0","num_feature":"100","num_nodes":"29","size_leaf_vector":"1"}},{"base_weights":[-2.0753115E-3,-7.846137E-1,7.301079E-1,-1.2137538E0,-2.9058087E-1,1.0050353E0,-1.9401072E-1,-6.1089873E-1,-1.291037E0,7.676117E-2,-5.781796E-1,1.0730574E0,-5.3720225E-2,-4.541929E-1,5.586329E-1,-1.836517E-2,-5.2430846E-2,-1.2583501E-2,-6.583928E-2,-5.144446E-2,1.518404E-2,3.704812E-2,-3.400171E-2,6.548799E-2,2.4563069E-2,-3.9923172E-3,-4.8013426E-2,-2.07948E-2,5.244878E-2],"categories":[],"categories_nodes":[],"categories_segments":[],"categories_sizes":[],"default_left":[0,0,0,0,0,0,0,0,0,0,0,0,0,0,0,0,0,0,0,0,0,0,0,0,0,0,0,0,0],"id":5,"left_children":[1,3,5,7,9,11,13,15,17,19,21,23,-1,25,27,-1,-1,-1,-1,-1,-1,-1,-1,-1,-1,-1,-1,-1,-1],"loss_changes":[1.2781521E2,2.2508232E1,2.9475674E1,1.8851395E0,5.478849E0,1.3739662E1,5.592559E0,5.125606E-1,1.005928E0,6.201217E0,4.3961334E0,1.1291664E1,0E0,3.8659792E0,3.997252E0,0E0,0E0,0E0,0E0,0E0,0E0,0E0,0E0,0E0,0E0,0E0,0E0,0E0,0E0],"parents":[2147483647,0,0,1,1,2,2,3,3,4,4,5,5,6,6,7,7,8,8,9,9,10,10,11,11,13,13,14,14],"right_children":[2,4,6,8,10,12,14,16,18,20,22,24,-1,26,28,-1,-1,-1,-1,-1,-1,-1,-1,-1,-1,-1,-1,-1,-1],"split_conditions":[6.0967827E-1,5.087407E-1,7.1E0,1E0,7.1E0,1E0,8.5E0,1E0,4.028738E-1,1E0,1E0,5E-1,-5.3720225E-2,1E0,4.028764E-1,-1.836517E-2,-5.2430846E-2,-1.2583501E-2,-6.583928E-2,-5.144446E-2,1.518404E-2,3.704812E-2,-3.400171E-2,6.548799E-2,2.4563069E-2,-3.9923172E-3,-4.8013426E-2,-2.07948E-2,5.244878E-2],"split_indices":[97,97,76,11,76,45,76,38,99,87,1,68,0,34,99,0,0,0,0,0,0,0,0,0,0,0,0,0,0],"split_type":[0,0,0,0,0,0,0,0,0,0,0,0,0,0,0,0,0,0,0,0,0,0,0,0,0,0,0,0,0],"sum_hessian":[2.2107835E2,1.0682981E2,1.1424855E2,5.638999E1,5.0439823E1,8.798519E1,2.6263355E1,7.4193344E0,4.8970657E1,2.247114E1,2.7968683E1,8.566685E1,2.3183455E0,1.9811302E1,6.4520535E0,5.9482145E0,1.4711195E0,1.4443024E0,4.7526356E1,3.2247262E0,1.9246414E1,1.5549879E0,2.6413694E1,6.0003384E1,2.5663465E1,1.2053239E1,7.758063E0,2.2105446E0,4.2415085E0],"tree_param":{"num_deleted":"0","num_feature":"100","num_nodes":"29","size_leaf_vector":"1"}},{"base_weights":[-2.7296469E-3,-7.4606574E-1,7.057162E-1,-1.1685125E0,-2.732084E-1,9.693161E-1,-1.8091996E-1,-7.4556135E-2,-9.804158E-1,-4.7093108E-1,2.2685075E-1,1.0357993E0,-5.2163273E-2,-4.0800574E-1,6.190446E-1,-3.2859486E-2,-6.329563E-2,3.849196E-2,-2.7472282E-2,3.586139E-2,-1.2932591E-2,6.354668E-2,2.3449615E-2,-2.647456E-2,3.789356E-2,-1.3968897E-2,5.4286927E-2],"categories":[],"categories_nodes":[],"categories_segments":[],"categories_sizes":[],"default_left":[0,0,0,0,0,0,0,0,0,0,0,0,0,0,0,0,0,0,0,0,0,0,0,0,0,0,0],"id":6,"left_children":[1,3,5,7,9,11,13,-1,15,17,19,21,-1,23,25,-1,-1,-1,-1,-1,-1,-1,-1,-1,-1,-1,-1],"loss_changes":[1.1663357E2,2.1269714E1,2.6679516E1,1.9833298E0,5.2779484E0,1.2797905E1,5.126748E0,0E0,2.7470894E0,4.105974E0,3.8744872E0,1.0768745E1,0E0,3.4466884E0,2.957331E0,0E0,0E0,0E0,0E0,0E0,0E0,0E0,0E0,0E0,0E0,0E0,0E0],"parents":[2147483647,0,0,1,1,2,2,3,3,4,4,5,5,6,6,8,8,9,9,10,10,11,11,13,13,14,14],"right_children":[2,4,6,8,10,12,14,-1,16,18,20,22,-1,24,26,-1,-1,-1,-1,-1,-1,-1,-1,-1,-1,-1,-1],"split_conditions":[6.10873E-1,5.087407E-1,7.1E0,3.6167184E-1,2.045E2,1E0,9.2E0,-7.4556135E-2,7.5E0,1E0,7.1E0,5E-1,-5.2163273E-2,2.5E-1,4.028764E-1,-3.2859486E-2,-6.329563E-2,3.849196E-2,-2.7472282E-2,3.586139E-2,-1.2932591E-2,6.354668E-2,2.3449615E-2,-2.647456E-2,3.789356E-2,-1.3968897E-2,5.4286927E-2],"split_indices":[97,97,76,97,98,45,76,0,76,1,76,68,0,32,99,0,0,0,0,0,0,0,0,0,0,0,0],"split_type":[0,0,0,0,0,0,0,0,0,0,0,0,0,0,0,0,0,0,0,0,0,0,0,0,0,0,0],"sum_hessian":[2.1947873E2,1.0707612E2,1.1240261E2,5.577555E1,5.1300568E1,8.6571396E1,2.5831217E1,1.7991074E1,3.7784477E1,3.680584E1,1.4494728E1,8.427288E1,2.2985108E0,2.0501446E1,5.329771E0,1.9269907E1,1.851457E1,1.6664102E0,3.5139427E1,6.973711E0,7.5210176E0,5.86855E1,2.558738E1,1.9061104E1,1.440342E0,1.9593109E0,3.37046E0],"tree_param":{"num_deleted":"0","num_feature":"100","num_nodes":"27","size_leaf_vector":"1"}},{"base_weights":[-2.8251358E-3,-7.152477E-1,6.7725295E-1,-1.1267599E0,-2.593506E-1,9.6834105E-1,-7.562121E-2,-1.2997154E0,-8.1093216E-1,8.202415E-2,-5.320426E-1,1.0384045E0,-5.06948E-2,-2.3421156E-1,7.832436E-1,-2.0030681E-2,-6.669499E-2,-1.6737798E-2,-5.551473E-2,-1.0343186E-2,4.4235613E-2,-4.169168E-2,-3.1377268E-3,6.496611E-2,2.292306E-2,-2.4072908E-2,2.610373E-2,5.9226096E-2,1.3667719E-2],"categories":[],"categories_nodes":[],"categories_segments":[],"categories_sizes":[],"default_left":[0,0,0,0,0,0,0,0,0,0,0,0,0,0,0,0,0,0,0,0,0,0,0,0,0,0,0,0,0],"id":7,"left_children":[1,3,5,7,9,11,13,15,17,19,21,23,-1,25,27,-1,-1,-1,-1,-1,-1,-1,-1,-1,-1,-1,-1,-1,-1],"loss_changes":[1.0646612E2,1.9841312E1,2.4711617E1,2.010727E0,4.904069E0,1.2323189E1,4.579578E0,5.288658E-1,2.8373842E0,5.7604775E0,4.077447E0,1.1339348E1,0E0,5.489728E0,7.526295E-1,0E0,0E0,0E0,0E0,0E0,0E0,0E0,0E0,0E0,0E0,0E0,0E0,0E0,0E0],"parents":[2147483647,0,0,1,1,2,2,3,3,4,4,5,5,6,6,7,7,8,8,9,9,10,10,11,11,13,13,14,14],"right_children":[2,4,6,8,10,12,14,16,18,20,22,24,-1,26,28,-1,-1,-1,-1,-1,-1,-1,-1,-1,-1,-1,-1,-1,-1],"split_conditions":[6.10873E-1,5.087407E-1,6.8E0,4.3360794E-1,7.1E0,1E0,7.505456E-1,1E0,9.222761E-1,2E0,1E0,5E-1,-5.06948E-2,8.5E0,1E1,-2.0030681E-2,-6.669499E-2,-1.6737798E-2,-5.551473E-2,-1.0343186E-2,4.4235613E-2,-4.169168E-2,-3.1377268E-3,6.496611E-2,2.292306E-2,-2.4072908E-2,2.610373E-2,5.9226096E-2,1.3667719E-2],"split_indices":[97,97,76,97,76,45,97,11,99,87,33,68,0,76,78,0,0,0,0,0,0,0,0,0,0,0,0,0,0],"split_type":[0,0,0,0,0,0,0,0,0,0,0,0,0,0,0,0,0,0,0,0,0,0,0,0,0,0,0,0,0],"sum_hessian":[2.1774318E2,1.06317505E2,1.11425674E2,5.5105453E1,5.1212048E1,8.015045E1,3.1275225E1,3.3593502E1,2.1511953E1,2.3052517E1,2.815953E1,7.7874084E1,2.276362E0,2.7014303E1,4.2609205E0,1.6963404E0,3.1897161E1,9.1213875E0,1.2390566E1,1.749746E1,5.555058E0,1.6665459E1,1.1494071E1,5.285436E1,2.5019728E1,2.0632483E1,6.381821E0,1.6440058E0,2.6169147E0],"tree_param":{"num_deleted":"0","num_feature":"100","num_nodes":"29","size_leaf_vector":"1"}},{"base_weights":[-2.9584363E-3,-6.483791E-1,6.91492E-1,-1.0879498E0,-2.2163983E-1,1.0320333E0,-1.971604E-2,-7.040848E-2,-9.049509E-1,1.105875E-1,-5.1566374E-1,1.1054504E0,-5.360653E-2,-8.670401E-1,2.4831025E-1,-2.93648E-2,-5.947276E-2,-1.9472476E-2,3.0320173E-2,-4.146433E-2,-3.1518766E-3,6.509061E-2,1.6667226E-2,-8.310077E-3,-5.8116563E-2,-4.618044E-3,3.8952496E-2],"categories":[],"categories_nodes":[],"categories_segments":[],"categories_sizes":[],"default_left":[0,0,0,0,0,0,0,0,0,0,0,0,0,0,0,0,0,0,0,0,0,0,0,0,0,0,0],"id":8,"left_children":[1,3,5,7,9,11,13,-1,15,17,19,21,-1,23,25,-1,-1,-1,-1,-1,-1,-1,-1,-1,-1,-1,-1],"loss_changes":[9.76541E1,2.094086E1,2.543951E1,1.970253E0,5.7766185E0,1.2151741E1,8.155688E0,0E0,2.7385216E0,7.2559037E0,4.382207E0,1.0040688E1,0E0,1.591692E0,5.0150394E0,0E0,0E0,0E0,0E0,0E0,0E0,0E0,0E0,0E0,0E0,0E0,0E0],"parents":[2147483647,0,0,1,1,2,2,3,3,4,4,5,5,6,6,8,8,9,9,10,10,11,11,13,13,14,14],"right_children":[2,4,6,8,10,12,14,-1,16,18,20,22,-1,24,26,-1,-1,-1,-1,-1,-1,-1,-1,-1,-1,-1,-1],"split_conditions":[6.1966664E-1,5.087407E-1,1E1,3.6167184E-1,7.1E0,1E0,1E0,-7.040848E-2,7.5E0,1.8466667E2,9.4E0,1E0,-5.360653E-2,5E-1,6.9856733E-1,-2.93648E-2,-5.947276E-2,-1.9472476E-2,3.0320173E-2,-4.146433E-2,-3.1518766E-3,6.509061E-2,1.6667226E-2,-8.310077E-3,-5.8116563E-2,-4.618044E-3,3.8952496E-2],"split_indices":[97,97,78,97,76,45,70,0,76,98,76,68,0,68,97,0,0,0,0,0,0,0,0,0,0,0,0],"split_type":[0,0,0,0,0,0,0,0,0,0,0,0,0,0,0,0,0,0,0,0,0,0,0,0,0,0,0],"sum_hessian":[2.1587416E2,1.11921196E2,1.03952965E2,5.4368484E1,5.755271E1,6.998945E1,3.3963512E1,1.7336805E1,3.703168E1,2.7313814E1,3.0238897E1,6.8088394E1,1.9010568E0,7.6246004E0,2.6338913E1,1.8944279E1,1.8087402E1,1.370583E1,1.3607985E1,1.7370667E1,1.2868231E1,5.3736168E1,1.4352225E1,2.7235107E0,4.9010897E0,1.6544992E1,9.7939205E0],"tree_param":{"num_deleted":"0","num_feature":"100","num_nodes":"27","size_leaf_vector":"1"}},{"base_weights":[-3.7319462E-3,-6.2277156E-1,6.632498E-1,-1.0512677E0,-2.1161711E-1,9.9417293E-1,-1.9657396E-2,-1.2241449E0,-7.420182E-1,1.055533E-1,-4.929587E-1,1.0656724E0,-5.229009E-2,-8.32304E-1,2.3744947E-1,-1.8440492E-2,-6.289016E-2,-1.3965013E-2,-5.1957954E-2,-1.8561587E-2,2.8965851E-2,-3.971699E-2,-3.0066508E-3,6.499001E-2,2.176527E-2,-6.052015E-2,-1.2938092E-2,-2.4945635E-2,2.368136E-2],"categories":[],"categories_nodes":[],"categories_segments":[],"categories_sizes":[],"default_left":[0,0,0,0,0,0,0,0,0,0,0,0,0,0,0,0,0,0,0,0,0,0,0,0,0,0,0,0,0],"id":9,"left_children":[1,3,5,7,9,11,13,15,17,19,21,23,-1,25,27,-1,-1,-1,-1,-1,-1,-1,-1,-1,-1,-1,-1,-1,-1],"loss_changes":[8.919303E1,1.9515583E1,2.3519604E1,2.0111465E0,5.2656E0,1.1333855E1,7.4943314E0,5.002022E-1,2.7511053E0,6.604851E0,4.014084E0,9.497673E0,0E0,1.555098E0,4.9854174E0,0E0,0E0,0E0,0E0,0E0,0E0,0E0,0E0,0E0,0E0,0E0,0E0,0E0,0E0],"parents":[2147483647,0,0,1,1,2,2,3,3,4,4,5,5,6,6,7,7,8,8,9,9,10,10,11,11,13,13,14,14],"right_children":[2,4,6,8,10,12,14,16,18,20,22,24,-1,26,28,-1,-1,-1,-1,-1,-1,-1,-1,-1,-1,-1,-1,-1,-1],"split_conditions":[6.1966664E-1,5.087407E-1,1E1,4.3360794E-1,7.1E0,1E0,1E0,1E0,9.222761E-1,1.8466667E2,9.4E0,5E-1,-5.229009E-2,5E0,1E0,-1.8440492E-2,-6.289016E-2,-1.3965013E-2,-5.1957954E-2,-1.8561587E-2,2.8965851E-2,-3.971699E-2,-3.0066508E-3,6.499001E-2,2.176527E-2,-6.052015E-2,-1.2938092E-2,-2.4945635E-2,2.368136E-2],"split_indices":[97,97,78,97,76,45,70,11,99,98,76,68,0,75,60,0,0,0,0,0,0,0,0,0,0,0,0,0,0],"split_type":[0,0,0,0,0,0,0,0,0,0,0,0,0,0,0,0,0,0,0,0,0,0,0,0,0,0,0,0,0],"sum_hessian":[2.1402188E2,1.1103462E2,1.0298727E2,5.360833E1,5.7426292E1,6.906429E1,3.392297E1,3.248825E1,2.1120079E1,2.7287994E1,3.0138298E1,6.718705E1,1.8772473E0,7.615429E0,2.630754E1,1.6827601E0,3.0805492E1,9.017569E0,1.210251E1,1.3708497E1,1.3579498E1,1.7274582E1,1.2863716E1,4.8216682E1,1.8970367E1,3.9204996E0,3.6949294E0,6.1185355E0,2.0189005E1],"tree_param":{"num_deleted":"0","num_feature":"100","num_nodes":"29","size_leaf_vector":"1"}},{"base_weights":[-4.5913383E-3,-5.985399E-1,6.3637674E-1,-1.0168952E0,-2.0210744E-1,9.587861E-1,-2.083821E-2,-6.691936E-2,-8.374269E-1,1.0077593E-1,-4.7140408E-1,1.0285016E0,-5.104528E-2,-7.9993534E-1,2.2602536E-1,-2.619837E-2,-5.612495E-2,-1.7696343E-2,2.7680686E-2,-3.8036875E-2,-1.3600345E-3,6.098832E-2,1.4938672E-2,-5.8183055E-2,-1.2432869E-2,2.2583392E-2,-2.664784E-2],"categories":[],"categories_nodes":[],"categories_segments":[],"categories_sizes":[],"default_left":[0,0,0,0,0,0,0,0,0,0,0,0,0,0,0,0,0,0,0,0,0,0,0,0,0,0,0],"id":10,"left_children":[1,3,5,7,9,11,13,-1,15,17,19,21,-1,23,25,-1,-1,-1,-1,-1,-1,-1,-1,-1,-1,-1,-1],"loss_changes":[8.148034E1,1.821769E1,2.1832626E1,1.9832993E0,4.8015003E0,1.0584614E1,6.8851805E0,0E0,2.7357635E0,6.013919E0,3.9672384E0,9.01918E0,0E0,1.4366465E0,4.9076376E0,0E0,0E0,0E0,0E0,0E0,0E0,0E0,0E0,0E0,0E0,0E0,0E0],"parents":[2147483647,0,0,1,1,2,2,3,3,4,4,5,5,6,6,8,8,9,9,10,10,11,11,13,13,14,14],"right_children":[2,4,6,8,10,12,14,-1,16,18,20,22,-1,24,26,-1,-1,-1,-1,-1,-1,-1,-1,-1,-1,-1,-1],"split_conditions":[6.1966664E-1,5.087407E-1,1E1,3.6167184E-1,7.1E0,1E0,1E0,-6.691936E-2,7.5E0,1.8466667E2,1E0,1E0,-5.104528E-2,5E0,1E0,-2.619837E-2,-5.612495E-2,-1.7696343E-2,2.7680686E-2,-3.8036875E-2,-1.3600345E-3,6.098832E-2,1.4938672E-2,-5.8183055E-2,-1.2432869E-2,2.2583392E-2,-2.664784E-2],"split_indices":[97,97,78,97,76,45,70,0,76,98,33,68,0,75,19,0,0,0,0,0,0,0,0,0,0,0,0],"split_type":[0,0,0,0,0,0,0,0,0,0,0,0,0,0,0,0,0,0,0,0,0,0,0,0,0,0,0],"sum_hessian":[2.1202603E2,1.1008383E2,1.019422E2,5.2799442E1,5.728439E1,6.8083626E1,3.3858578E1,1.6601923E1,3.6197517E1,2.7255432E1,3.0028955E1,6.623172E1,1.851902E0,7.607872E0,2.6250708E1,1.8592068E1,1.760545E1,1.3708699E1,1.3546734E1,1.7752934E1,1.2276022E1,5.1945156E1,1.4286566E1,3.9143763E0,3.6934958E0,2.054705E1,5.703656E0],"tree_param":{"num_deleted":"0","num_feature":"100","num_nodes":"27","size_leaf_vector":"1"}},{"base_weights":[-5.466962E-3,-6.1686766E-1,5.6936216E-1,-9.8415357E-1,-2.2106783E-1,8.3877194E-1,-9.3488626E-2,-1.1582031E0,-6.7973596E-1,-3.9898926E-1,2.2198656E-1,9.015135E-1,-4.591567E-2,-2.3475741E-1,6.951787E-1,-1.7004503E-2,-5.9583496E-2,-1.145263E-2,-4.8789196E-2,-2.6081293E-3,-3.5947524E-2,-2.4620667E-2,2.6777506E-2,-2.2656329E-2,4.9846534E-2,-2.3172816E-2,2.4040526E-2,4.4006094E-2,-6.219897E-4],"categories":[],"categories_nodes":[],"categories_segments":[],"categories_sizes":[],"default_left":[0,0,0,0,0,0,0,0,0,0,0,0,0,0,0,0,0,0,0,0,0,0,0,0,0,0,0,0,0],"id":11,"left_children":[1,3,5,7,9,11,13,15,17,19,21,23,-1,25,27,-1,-1,-1,-1,-1,-1,-1,-1,-1,-1,-1,-1,-1,-1],"loss_changes":[7.4495514E1,1.4713715E1,1.9589046E1,2.0200615E0,4.087263E0,9.402767E0,3.7811358E0,4.78817E-1,2.6710815E0,4.0184565E0,3.6634097E0,1.0224163E1,0E0,4.852058E0,6.895683E-1,0E0,0E0,0E0,0E0,0E0,0E0,0E0,0E0,0E0,0E0,0E0,0E0,0E0,0E0],"parents":[2147483647,0,0,1,1,2,2,3,3,4,4,5,5,6,6,7,7,8,8,9,9,10,10,11,11,13,13,14,14],"right_children":[2,4,6,8,10,12,14,16,18,20,22,24,-1,26,28,-1,-1,-1,-1,-1,-1,-1,-1,-1,-1,-1,-1,-1,-1],"split_conditions":[6.0967827E-1,5.087407E-1,6.8E0,4.3360794E-1,2.045E2,1E0,7.505456E-1,1E0,9.222761E-1,4.25E-1,8E0,1E0,-4.591567E-2,8.5E0,1E0,-1.7004503E-2,-5.9583496E-2,-1.145263E-2,-4.8789196E-2,-2.6081293E-3,-3.5947524E-2,-2.4620667E-2,2.6777506E-2,-2.2656329E-2,4.9846534E-2,-2.3172816E-2,2.4040526E-2,4.4006094E-2,-6.219897E-4],"split_indices":[97,97,76,97,98,45,97,11,99,71,78,87,0,76,55,0,0,0,0,0,0,0,0,0,0,0,0,0,0],"split_type":[0,0,0,0,0,0,0,0,0,0,0,0,0,0,0,0,0,0,0,0,0,0,0,0,0,0,0,0,0],"sum_hessian":[2.099663E2,1.0171107E2,1.08255226E2,5.198481E1,4.9726257E1,7.6782326E1,3.1472897E1,3.1290138E1,2.069467E1,3.5549698E1,1.417656E1,7.460527E1,2.1770601E0,2.7287416E1,4.185479E0,1.6683544E0,2.9621784E1,8.907775E0,1.1786896E1,1.7616768E1,1.793293E1,4.150345E0,1.0026216E1,4.6625133E0,6.994276E1,2.094547E1,6.341947E0,3.1249592E0,1.0605198E0],"tree_param":{"num_deleted":"0","num_feature":"100","num_nodes":"29","size_leaf_vector":"1"}},{"base_weights":[-5.948183E-3,-4.1289943E-1,8.076968E-1,-9.5325464E-1,-9.0987146E-2,1.0749501E0,1.1881252E-1,-7.535497E-1,-1.2376148E0,1.914965E-1,-4.189542E-1,1.1186653E0,-2.37075E-2,-3.36808E-1,7.9724205E-1,-3.0888838E-3,-4.7443707E-2,-6.479382E-2,-9.348032E-3,-5.049066E-2,1.851399E-2,-5.654952E-2,-8.926118E-3,2.8632889E-2,6.1428156E-2,2.109379E-2,-3.7628967E-2,5.7514656E-2,-1.1641864E-2],"categories":[],"categories_nodes":[],"categories_segments":[],"categories_sizes":[],"default_left":[0,0,0,0,0,0,0,0,0,0,0,0,0,0,0,0,0,0,0,0,0,0,0,0,0,0,0,0,0],"id":12,"left_children":[1,3,5,7,9,11,13,15,17,19,21,23,-1,25,27,-1,-1,-1,-1,-1,-1,-1,-1,-1,-1,-1,-1,-1,-1],"loss_changes":[6.9511955E1,2.4253902E1,1.2758846E1,2.0280647E0,8.306762E0,3.9371223E0,6.6635704E0,4.4250946E0,9.790478E-1,1.0767326E1,6.8862453E0,2.2500916E0,0E0,4.4433775E0,3.3986802E0,0E0,0E0,0E0,0E0,0E0,0E0,0E0,0E0,0E0,0E0,0E0,0E0,0E0,0E0],"parents":[2147483647,0,0,1,1,2,2,3,3,4,4,5,5,6,6,7,7,8,8,9,9,10,10,11,11,13,13,14,14],"right_children":[2,4,6,8,10,12,14,16,18,20,22,24,-1,26,28,-1,-1,-1,-1,-1,-1,-1,-1,-1,-1,-1,-1,-1,-1],"split_conditions":[6.6764075E-1,5.087407E-1,1E1,8.2E0,7.1E0,8E0,2.1366667E2,9.222761E-1,4.961335E-1,1E0,4E0,6.9013095E-1,-2.37075E-2,2.25E-1,1E0,-3.0888838E-3,-4.7443707E-2,-6.479382E-2,-9.348032E-3,-5.049066E-2,1.851399E-2,-5.654952E-2,-8.926118E-3,2.8632889E-2,6.1428156E-2,2.109379E-2,-3.7628967E-2,5.7514656E-2,-1.1641864E-2],"split_indices":[97,97,78,76,76,80,98,99,97,87,79,97,0,71,19,0,0,0,0,0,0,0,0,0,0,0,0,0,0],"split_type":[0,0,0,0,0,0,0,0,0,0,0,0,0,0,0,0,0,0,0,0,0,0,0,0,0,0,0,0,0],"sum_hessian":[2.0792648E2,1.3893135E2,6.899513E1,5.113537E1,8.779598E1,4.930629E1,1.9688839E1,3.2183216E1,1.8952154E1,4.7392296E1,4.040369E1,4.82233E1,1.0829883E0,1.2079812E1,7.6090274E0,7.3760514E0,2.4807163E1,1.7735287E1,1.2168678E0,5.537252E0,4.1855045E1,9.264117E0,3.1139572E1,9.120504E0,3.91028E1,4.271202E0,7.8086104E0,5.57987E0,2.029157E0],"tree_param":{"num_deleted":"0","num_feature":"100","num_nodes":"29","size_leaf_vector":"1"}},{"base_weights":[-6.3061654E-3,-3.971463E-1,7.793347E-1,-9.2344123E-1,-8.780707E-2,1.0408971E0,1.1471203E-1,-6.275304E-2,-7.4523395E-1,1.817541E-1,-4.0088072E-1,1.0841473E0,-2.306666E-2,-3.2108462E-1,7.685399E-1,-2.1884583E-2,-5.161121E-2,-4.84253E-2,1.7659338E-2,-5.451378E-2,-8.502339E-3,2.7495716E-2,5.9670616E-2,2.0268152E-2,-3.590944E-2,5.5615004E-2,-1.1255173E-2],"categories":[],"categories_nodes":[],"categories_segments":[],"categories_sizes":[],"default_left":[0,0,0,0,0,0,0,0,0,0,0,0,0,0,0,0,0,0,0,0,0,0,0,0,0,0,0],"id":13,"left_children":[1,3,5,7,9,11,13,-1,15,17,19,21,-1,23,25,-1,-1,-1,-1,-1,-1,-1,-1,-1,-1,-1,-1],"loss_changes":[6.3841515E1,2.2521065E1,1.1888344E1,2.0956535E0,7.5452056E0,3.7125359E0,6.1252165E0,0E0,2.7099342E0,9.859682E0,6.3832545E0,2.1664963E0,0E0,4.0657687E0,3.1694746E0,0E0,0E0,0E0,0E0,0E0,0E0,0E0,0E0,0E0,0E0,0E0,0E0],"parents":[2147483647,0,0,1,1,2,2,3,3,4,4,5,5,6,6,8,8,9,9,10,10,11,11,13,13,14,14],"right_children":[2,4,6,8,10,12,14,-1,16,18,20,22,-1,24,26,-1,-1,-1,-1,-1,-1,-1,-1,-1,-1,-1,-1],"split_conditions":[6.6764075E-1,5.087407E-1,1E1,3.6167184E-1,7.1E0,8E0,2.1366667E2,-6.275304E-2,7.5E0,1E0,4E0,6.9013095E-1,-2.306666E-2,2.25E-1,1E0,-2.1884583E-2,-5.161121E-2,-4.84253E-2,1.7659338E-2,-5.451378E-2,-8.502339E-3,2.7495716E-2,5.9670616E-2,2.0268152E-2,-3.590944E-2,5.5615004E-2,-1.1255173E-2],"split_indices":[97,97,78,97,76,80,98,0,76,87,79,97,0,71,19,0,0,0,0,0,0,0,0,0,0,0,0],"split_type":[0,0,0,0,0,0,0,0,0,0,0,0,0,0,0,0,0,0,0,0,0,0,0,0,0,0,0],"sum_hessian":[2.0590419E2,1.3783073E2,6.8073456E1,5.028798E1,8.7542755E1,4.844268E1,1.9630775E1,1.5465708E1,3.4822273E1,4.7265713E1,4.0277046E1,4.7357533E1,1.0851476E0,1.2084797E1,7.5459776E0,1.8028172E1,1.6794102E1,5.5276184E0,4.1738094E1,9.169314E0,3.110773E1,9.065603E0,3.829193E1,4.263857E0,7.82094E0,5.517672E0,2.0283058E0],"tree_param":{"num_deleted":"0","num_feature":"100","num_nodes":"27","size_leaf_vector":"1"}},{"base_weights":[-6.707506E-3,-3.8219222E-1,7.5247294E-1,-8.9514756E-1,-8.475739E-2,1.008666E0,1.10838E-1,-6.1429173E-2,-7.187625E-1,5.987898E-1,-1.9966333E-1,6.6581345E-1,1.2725549E0,-3.0622408E-1,7.4143744E-1,-2.098156E-2,-5.0054688E-2,5.014344E-2,-5.9316587E-2,-3.0206436E-2,-2.8160687E-3,5.4083645E-2,8.768354E-3,1.8480016E-2,6.502083E-2,1.9476952E-2,-3.4288805E-2,5.383072E-2,-1.0881721E-2],"categories":[],"categories_nodes":[],"categories_segments":[],"categories_sizes":[],"default_left":[0,0,0,0,0,0,0,0,0,0,0,0,0,0,0,0,0,0,0,0,0,0,0,0,0,0,0,0,0],"id":14,"left_children":[1,3,5,7,9,11,13,-1,15,17,19,21,23,25,27,-1,-1,-1,-1,-1,-1,-1,-1,-1,-1,-1,-1,-1,-1],"loss_changes":[5.867879E1,2.093554E1,1.1086262E1,2.0835228E0,7.052997E0,3.5461922E0,5.634808E0,0E0,2.5695343E0,1.0533689E1,4.3908415E0,4.545678E0,1.8209076E-1,3.7223773E0,2.9595556E0,0E0,0E0,0E0,0E0,0E0,0E0,0E0,0E0,0E0,0E0,0E0,0E0,0E0,0E0],"parents":[2147483647,0,0,1,1,2,2,3,3,4,4,5,5,6,6,8,8,9,9,10,10,11,11,12,12,13,13,14,14],"right_children":[2,4,6,8,10,12,14,-1,16,18,20,22,24,26,28,-1,-1,-1,-1,-1,-1,-1,-1,-1,-1,-1,-1,-1,-1],"split_conditions":[6.6764075E-1,5.087407E-1,1E1,3.6167184E-1,1E0,2.085E2,2.1366667E2,-6.1429173E-2,7.5E0,7.6666665E-1,6E0,5.6E0,6.745388E-1,2.25E-1,1E0,-2.098156E-2,-5.0054688E-2,5.014344E-2,-5.9316587E-2,-3.0206436E-2,-2.8160687E-3,5.4083645E-2,8.768354E-3,1.8480016E-2,6.502083E-2,1.9476952E-2,-3.4288805E-2,5.383072E-2,-1.0881721E-2],"split_indices":[97,97,78,97,74,98,98,0,76,71,80,76,97,71,19,0,0,0,0,0,0,0,0,0,0,0,0,0,0],"split_type":[0,0,0,0,0,0,0,0,0,0,0,0,0,0,0,0,0,0,0,0,0,0,0,0,0,0,0,0,0],"sum_hessian":[2.0383781E2,1.3671582E2,6.7122E1,4.9440796E1,8.7275024E1,4.75601E1,1.9561903E1,1.5041394E1,3.43994E1,1.1953783E1,7.532124E1,2.2217508E1,2.5342592E1,1.2084151E1,7.4777513E0,1.7909986E1,1.6489412E1,1.0104697E1,1.8490859E0,1.8867777E1,5.6453465E1,1.137063E1,1.0846877E1,1.1855738E0,2.4157019E1,4.256034E0,7.828118E0,5.4503884E0,2.0273628E0],"tree_param":{"num_deleted":"0","num_feature":"100","num_nodes":"29","size_leaf_vector":"1"}},{"base_weights":[-6.3905474E-3,-3.6705565E-1,7.278678E-1,-8.6808175E-1,-8.1069626E-2,9.791682E-1,1.0716992E-1,-1.0499607E0,-5.6461054E-1,1.7419915E-1,-3.7770867E-1,1.0227164E0,-2.3165872E-2,-7.4716187E-1,3.8945806E-1,-5.498698E-2,-1.9249579E-2,-6.4160065E-3,-4.3266412E-2,-4.6108503E-2,1.688831E-2,-5.1925678E-2,-7.964834E-3,2.5071172E-2,5.6631017E-2,1.8214682E-2,-5.8737915E-2,3.3453695E-2,-1.9243313E-2],"categories":[],"categories_nodes":[],"categories_segments":[],"categories_sizes":[],"default_left":[0,0,0,0,0,0,0,0,0,0,0,0,0,0,0,0,0,0,0,0,0,0,0,0,0,0,0,0,0],"id":15,"left_children":[1,3,5,7,9,11,13,15,17,19,21,23,-1,25,27,-1,-1,-1,-1,-1,-1,-1,-1,-1,-1,-1,-1,-1,-1],"loss_changes":[5.4008583E1,1.952451E1,1.0374126E1,2.1443367E0,6.741703E0,3.470089E0,5.2310314E0,5.6448364E-1,2.6109438E0,8.931851E0,5.7653747E0,2.1025543E0,0E0,3.0085719E0,3.733384E0,0E0,0E0,0E0,0E0,0E0,0E0,0E0,0E0,0E0,0E0,0E0,0E0,0E0,0E0],"parents":[2147483647,0,0,1,1,2,2,3,3,4,4,5,5,6,6,7,7,8,8,9,9,10,10,11,11,13,13,14,14],"right_children":[2,4,6,8,10,12,14,16,18,20,22,24,-1,26,28,-1,-1,-1,-1,-1,-1,-1,-1,-1,-1,-1,-1,-1,-1],"split_conditions":[6.6764075E-1,5.087407E-1,1E1,4.3360794E-1,7.1E0,8E0,1E0,7E0,9.222761E-1,1E0,4E0,6.9013095E-1,-2.3165872E-2,4E0,1E0,-5.498698E-2,-1.9249579E-2,-6.4160065E-3,-4.3266412E-2,-4.6108503E-2,1.688831E-2,-5.1925678E-2,-7.964834E-3,2.5071172E-2,5.6631017E-2,1.8214682E-2,-5.8737915E-2,3.3453695E-2,-1.9243313E-2],"split_indices":[97,97,78,97,76,80,70,79,99,87,79,97,0,79,19,0,0,0,0,0,0,0,0,0,0,0,0,0,0],"split_type":[0,0,0,0,0,0,0,0,0,0,0,0,0,0,0,0,0,0,0,0,0,0,0,0,0,0,0,0,0],"sum_hessian":[2.019346E2,1.357532E2,6.61814E1,4.859064E1,8.716257E1,4.6697548E1,1.948385E1,2.8843859E1,1.9746782E1,4.7069927E1,4.009264E1,4.5611553E1,1.0859958E0,4.429965E0,1.5053885E1,2.6226732E1,2.6171255E0,8.639315E0,1.1107469E1,5.5086007E0,4.156133E1,9.026911E0,3.1065727E1,8.910395E0,3.6701157E1,1.2719128E0,3.158052E0,1.1159875E1,3.8940105E0],"tree_param":{"num_deleted":"0","num_feature":"100","num_nodes":"29","size_leaf_vector":"1"}},{"base_weights":[-7.0302226E-3,-4.8311856E-1,5.1167405E-1,-1.0070823E0,-2.584285E-1,8.252455E-1,1.864913E-2,-1.0515559E0,-3.7313768E-1,4.7956437E-2,-5.019779E-1,9.133984E-1,-5.340882E-2,-3.679489E-1,5.2597123E-1,-1.8262552E-2,-5.426241E-2,7.4329893E-3,-3.278933E-2,1.1767896E-2,-4.407128E-2,-4.1286055E-2,-1.6167302E-3,-2.4130372E-2,5.2052278E-2,-6.860214E-2,-9.616951E-3,-2.1289536E-3,5.307218E-2],"categories":[],"categories_nodes":[],"categories_segments":[],"categories_sizes":[],"default_left":[0,0,0,0,0,0,0,0,0,0,0,0,0,0,0,0,0,0,0,0,0,0,0,0,0,0,0,0,0],"id":16,"left_children":[1,3,5,7,9,11,13,15,17,19,21,23,-1,25,27,-1,-1,-1,-1,-1,-1,-1,-1,-1,-1,-1,-1,-1,-1],"loss_changes":[4.9836292E1,1.2127125E1,1.4916969E1,4.882183E-1,5.6194677E0,1.082597E1,7.758752E0,2.6577377E-1,6.2807196E-1,6.150316E0,6.3384275E0,1.0646961E1,0E0,3.699845E0,5.249119E0,0E0,0E0,0E0,0E0,0E0,0E0,0E0,0E0,0E0,0E0,0E0,0E0,0E0,0E0],"parents":[2147483647,0,0,1,1,2,2,3,3,4,4,5,5,6,6,7,7,8,8,9,9,10,10,11,11,13,13,14,14],"right_children":[2,4,6,8,10,12,14,16,18,20,22,24,-1,26,28,-1,-1,-1,-1,-1,-1,-1,-1,-1,-1,-1,-1,-1,-1],"split_conditions":[6.1966664E-1,4.423175E-1,6.3E0,7E0,7.1E0,1E0,2.1133333E2,1E0,9.2227966E-1,7.6666665E-1,1E0,1E0,-5.340882E-2,6.6E0,6.844968E-1,-1.8262552E-2,-5.426241E-2,7.4329893E-3,-3.278933E-2,1.1767896E-2,-4.407128E-2,-4.1286055E-2,-1.6167302E-3,-2.4130372E-2,5.2052278E-2,-6.860214E-2,-9.616951E-3,-2.1289536E-3,5.307218E-2],"split_indices":[97,97,76,79,76,45,98,11,99,71,33,87,0,76,97,0,0,0,0,0,0,0,0,0,0,0,0,0,0],"split_type":[0,0,0,0,0,0,0,0,0,0,0,0,0,0,0,0,0,0,0,0,0,0,0,0,0,0,0,0,0],"sum_hessian":[1.9980698E2,1.0421903E2,9.558795E1,3.0233715E1,7.398531E1,5.801541E1,3.7572536E1,2.7636189E1,2.5975266E0,3.3121544E1,4.0863773E1,5.5929092E1,2.0863216E0,2.147927E1,1.6093266E1,1.8473314E0,2.5788858E1,1.079223E0,1.5183035E0,2.8185041E1,4.9365E0,2.374041E1,1.7123362E1,4.452609E0,5.1476482E1,2.1832085E0,1.9296062E1,8.251997E0,7.8412695E0],"tree_param":{"num_deleted":"0","num_feature":"100","num_nodes":"29","size_leaf_vector":"1"}},{"base_weights":[-7.849755E-3,-6.7436E-1,3.388212E-1,5.1819224E-2,-7.345382E-1,7.1406335E-2,8.129284E-1,-5.081888E-1,-1.0796024E0,-8.49439E-1,1.5326308E-1,1.0677218E0,-2.613214E-1,-4.1172974E-2,-1.0569073E-2,-6.441336E-2,-1.9441146E-2,-6.903154E-3,-6.0755618E-2,3.9646342E-2,4.9264218E-5,3.6865003E-2,6.1135083E-2,-3.1220546E-2,2.2005906E-2],"categories":[],"categories_nodes":[],"categories_segments":[],"categories_sizes":[],"default_left":[0,0,0,0,0,0,0,0,0,0,0,0,0,0,0,0,0,0,0,0,0,0,0,0,0],"id":17,"left_children":[1,3,5,-1,7,9,11,13,15,17,19,21,23,-1,-1,-1,-1,-1,-1,-1,-1,-1,-1,-1,-1],"loss_changes":[4.6133537E1,7.793972E0,1.659616E1,0E0,4.6512794E0,6.5435805E0,1.32189865E1,3.7647867E0,3.172226E0,1.6788473E0,7.6928787E0,1.0653877E0,2.787726E0,0E0,0E0,0E0,0E0,0E0,0E0,0E0,0E0,0E0,0E0,0E0,0E0],"parents":[2147483647,0,0,1,1,2,2,4,4,5,5,6,6,7,7,8,8,9,9,10,10,11,11,12,12],"right_children":[2,4,6,-1,8,10,12,14,16,18,20,22,24,-1,-1,-1,-1,-1,-1,-1,-1,-1,-1,-1,-1],"split_conditions":[5.590365E-1,1E0,6.9856733E-1,5.1819224E-2,7.8E0,1E0,8E0,4.423175E-1,1E0,1E0,5.2E0,2.0533333E2,2.112E2,-4.1172974E-2,-1.0569073E-2,-6.441336E-2,-1.9441146E-2,-6.903154E-3,-6.0755618E-2,3.9646342E-2,4.9264218E-5,3.6865003E-2,6.1135083E-2,-3.1220546E-2,2.2005906E-2],"split_indices":[97,1,97,0,76,87,81,97,33,13,76,98,98,0,0,0,0,0,0,0,0,0,0,0,0],"split_type":[0,0,0,0,0,0,0,0,0,0,0,0,0,0,0,0,0,0,0,0,0,0,0,0,0],"sum_hessian":[1.9767177E2,6.731212E1,1.3035965E2,1.736111E0,6.5576004E1,8.408376E1,4.6275894E1,4.1093143E1,2.4482862E1,6.098761E0,7.7985E1,3.7409164E1,8.86673E0,1.906635E1,2.2026794E1,1.8138721E1,6.344141E0,2.5383153E0,3.5604458E0,1.4186318E1,6.3798683E1,1.378229E1,2.3626873E1,5.914825E0,2.9519043E0],"tree_param":{"num_deleted":"0","num_feature":"100","num_nodes":"25","size_leaf_vector":"1"}},{"base_weights":[-7.6377424E-3,-3.303895E-1,6.620063E-1,-7.960674E-1,-7.5171925E-2,2.8085837E-1,1.0478573E0,-5.7250023E-2,-6.220812E-1,5.347556E-1,-1.761798E-1,6.480984E-1,-3.5836667E-1,1.0907295E0,-1.0497746E-3,-1.6390515E-2,-4.5516744E-2,4.6477918E-2,-5.7590555E-2,-2.9187435E-2,-1.6361269E-3,-2.3920374E-2,3.8902156E-2,1.605221E-2,-3.512824E-2,5.8613714E-2,1.2814948E-2],"categories":[],"categories_nodes":[],"categories_segments":[],"categories_sizes":[],"default_left":[0,0,0,0,0,0,0,0,0,0,0,0,0,0,0,0,0,0,0,0,0,0,0,0,0,0,0],"id":18,"left_children":[1,3,5,7,9,11,13,-1,15,17,19,21,23,25,-1,-1,-1,-1,-1,-1,-1,-1,-1,-1,-1,-1,-1],"loss_changes":[4.2736397E1,1.5795995E1,9.163885E0,2.1487865E0,5.4715743E0,8.147888E0,1.4706116E0,0E0,2.5547972E0,9.493109E0,4.4031973E0,3.5592794E0,3.2533655E0,1.7676201E0,0E0,0E0,0E0,0E0,0E0,0E0,0E0,0E0,0E0,0E0,0E0,0E0,0E0],"parents":[2147483647,0,0,1,1,2,2,3,3,4,4,5,5,6,6,8,8,9,9,10,10,11,11,12,12,13,13],"right_children":[2,4,6,8,10,12,14,-1,16,18,20,22,24,26,-1,-1,-1,-1,-1,-1,-1,-1,-1,-1,-1,-1,-1],"split_conditions":[6.6764075E-1,5.087407E-1,2.1133333E2,3.6167184E-1,1E0,6.4E0,1E0,-5.7250023E-2,7.5E0,7.6666665E-1,6E0,1E0,2.25E-1,8E0,-1.0497746E-3,-1.6390515E-2,-4.5516744E-2,4.6477918E-2,-5.7590555E-2,-2.9187435E-2,-1.6361269E-3,-2.3920374E-2,3.8902156E-2,1.605221E-2,-3.512824E-2,5.8613714E-2,1.2814948E-2],"split_indices":[97,97,98,97,74,76,36,0,76,71,80,87,71,80,0,0,0,0,0,0,0,0,0,0,0,0,0],"split_type":[0,0,0,0,0,0,0,0,0,0,0,0,0,0,0,0,0,0,0,0,0,0,0,0,0,0,0],"sum_hessian":[1.9572379E2,1.324114E2,6.331238E1,4.612717E1,8.628423E1,3.2719543E1,3.0592838E1,1.3490563E1,3.263661E1,1.1648932E1,7.46353E1,2.0771986E1,1.1947558E1,2.9393389E1,1.1994493E0,1.7207317E1,1.542929E1,9.803021E0,1.8459105E0,1.8631935E1,5.6003365E1,1.8709419E0,1.8901045E1,4.040098E0,7.90746E0,2.6407806E1,2.985582E0],"tree_param":{"num_deleted":"0","num_feature":"100","num_nodes":"27","size_leaf_vector":"1"}},{"base_weights":[-7.770637E-3,-6.3296163E-1,3.140385E-1,5.0769698E-2,-6.9274867E-1,6.549095E-2,7.6838213E-1,-4.7304106E-1,-1.0343031E0,-8.083788E-1,1.4341258E-1,1.019039E0,-2.4744903E-1,-3.8929846E-2,-9.664671E-3,-6.2350698E-2,-1.7764574E-2,-6.092062E-3,-5.8216948E-2,3.777333E-2,1.3997446E-5,9.062435E-3,5.300432E-2,-3.369962E-2,1.5316585E-2],"categories":[],"categories_nodes":[],"categories_segments":[],"categories_sizes":[],"default_left":[0,0,0,0,0,0,0,0,0,0,0,0,0,0,0,0,0,0,0,0,0,0,0,0,0],"id":19,"left_children":[1,3,5,-1,7,9,11,13,15,17,19,21,23,-1,-1,-1,-1,-1,-1,-1,-1,-1,-1,-1,-1],"loss_changes":[3.9386562E1,7.2590733E0,1.4546147E1,0E0,4.37249E0,5.8796186E0,1.1866388E1,3.377101E0,3.098196E0,1.588428E0,6.882343E0,1.0727196E0,2.5289254E0,0E0,0E0,0E0,0E0,0E0,0E0,0E0,0E0,0E0,0E0,0E0,0E0],"parents":[2147483647,0,0,1,1,2,2,4,4,5,5,6,6,7,7,8,8,9,9,10,10,11,11,12,12],"right_children":[2,4,6,-1,8,10,12,14,16,18,20,22,24,-1,-1,-1,-1,-1,-1,-1,-1,-1,-1,-1,-1],"split_conditions":[5.590365E-1,1E0,6.9856733E-1,5.0769698E-2,7.8E0,1E0,8E0,4.423175E-1,1E0,1E0,5.2E0,4.0287337E-1,1E0,-3.8929846E-2,-9.664671E-3,-6.2350698E-2,-1.7764574E-2,-6.092062E-3,-5.8216948E-2,3.777333E-2,1.3997446E-5,9.062435E-3,5.300432E-2,-3.369962E-2,1.5316585E-2],"split_indices":[97,1,97,0,76,87,81,97,33,13,76,99,13,0,0,0,0,0,0,0,0,0,0,0,0],"split_type":[0,0,0,0,0,0,0,0,0,0,0,0,0,0,0,0,0,0,0,0,0,0,0,0,0],"sum_hessian":[1.9377791E2,6.552095E1,1.2825696E2,1.7338697E0,6.3787083E1,8.364392E1,4.4613045E1,4.0268818E1,2.3518265E1,6.0803366E0,7.756358E1,3.5780922E1,8.832123E0,1.8394314E1,2.1874502E1,1.7271265E1,6.2470007E0,2.5344505E0,3.545886E0,1.3890003E1,6.3673576E1,1.9241378E0,3.3856785E1,4.8666024E0,3.9655204E0],"tree_param":{"num_deleted":"0","num_feature":"100","num_nodes":"25","size_leaf_vector":"1"}},{"base_weights":[-7.762618E-3,-3.067774E-1,6.2205154E-1,-6.7819625E-1,-2.5416303E-2,2.5087187E-1,1.0047008E0,5.9871342E-2,-7.380897E-1,1.0059509E0,-9.01433E-2,6.032514E-1,-3.450526E-1,1.0486037E0,-2.1038463E-3,-2.5209004E-2,-5.5193484E-2,-1.0803866E-2,7.130476E-2,-4.1613877E-2,7.6544995E-4,-2.2917273E-2,3.6492977E-2,1.5227345E-2,-3.3654723E-2,5.6424666E-2,1.2967104E-2],"categories":[],"categories_nodes":[],"categories_segments":[],"categories_sizes":[],"default_left":[0,0,0,0,0,0,0,0,0,0,0,0,0,0,0,0,0,0,0,0,0,0,0,0,0,0,0],"id":20,"left_children":[1,3,5,7,9,11,13,-1,15,17,19,21,23,25,-1,-1,-1,-1,-1,-1,-1,-1,-1,-1,-1,-1,-1],"loss_changes":[3.6510223E1,1.3718649E1,8.61297E0,7.2437305E0,5.1526117E0,7.141138E0,1.4412117E0,0E0,4.1903934E0,2.6493483E0,5.6682568E0,3.1720147E0,2.9548526E0,1.5494614E0,0E0,0E0,0E0,0E0,0E0,0E0,0E0,0E0,0E0,0E0,0E0,0E0,0E0],"parents":[2147483647,0,0,1,1,2,2,3,3,4,4,5,5,6,6,8,8,9,9,10,10,11,11,12,12,13,13],"right_children":[2,4,6,8,10,12,14,-1,16,18,20,22,24,26,-1,-1,-1,-1,-1,-1,-1,-1,-1,-1,-1,-1,-1],"split_conditions":[6.6764075E-1,5.3780013E-1,2.1133333E2,1E0,4.028727E-1,6.4E0,1E0,5.9871342E-2,7.8E0,1E0,4.0287647E-1,1E0,2.25E-1,8E0,-2.1038463E-3,-2.5209004E-2,-5.5193484E-2,-1.0803866E-2,7.130476E-2,-4.1613877E-2,7.6544995E-4,-2.2917273E-2,3.6492977E-2,1.5227345E-2,-3.3654723E-2,5.6424666E-2,1.2967104E-2],"split_indices":[97,97,98,1,99,76,36,0,76,70,99,87,71,80,0,0,0,0,0,0,0,0,0,0,0,0,0],"split_type":[0,0,0,0,0,0,0,0,0,0,0,0,0,0,0,0,0,0,0,0,0,0,0,0,0,0,0],"sum_hessian":[1.9185616E2,1.3044034E2,6.1415817E1,5.5614452E1,7.482588E1,3.2015533E1,2.940028E1,1.1332401E0,5.4481213E1,3.5599413E0,7.1265945E1,2.0111181E1,1.1904354E1,2.8215166E1,1.1851137E0,3.4681442E1,1.979977E1,1.0350652E0,2.524876E0,8.009014E0,6.3256927E1,1.8637375E0,1.8247444E1,4.018469E0,7.885885E0,2.5231413E1,2.9837534E0],"tree_param":{"num_deleted":"0","num_feature":"100","num_nodes":"27","size_leaf_vector":"1"}},{"base_weights":[-7.092716E-3,-2.9352763E-1,6.0181105E-1,-8.9541835E-1,-1.2741432E-1,8.437084E-1,5.0880536E-2,-1.0958767E0,-6.659333E-1,1.3152485E-1,-3.9571148E-1,5.187146E-1,1.1098313E0,-2.9228753E-1,5.91933E-1,-2.0483565E-2,-5.774154E-2,-4.868562E-2,-6.609781E-3,-4.642588E-2,1.4973069E-2,-5.4880665E-3,-3.877862E-2,4.6699528E-2,3.4905772E-3,1.3311266E-2,5.7018448E-2,4.3584146E-2,-2.4369417E-2,4.638223E-2,-1.3849556E-2],"categories":[],"categories_nodes":[],"categories_segments":[],"categories_sizes":[],"default_left":[0,0,0,0,0,0,0,0,0,0,0,0,0,0,0,0,0,0,0,0,0,0,0,0,0,0,0,0,0,0,0],"id":21,"left_children":[1,3,5,7,9,11,13,15,17,19,21,23,25,27,29,-1,-1,-1,-1,-1,-1,-1,-1,-1,-1,-1,-1,-1,-1,-1,-1],"loss_changes":[3.348982E1,1.2940592E1,8.144203E0,5.617504E-1,7.2421036E0,3.1109104E0,3.8507864E0,7.04689E-2,2.4403296E0,9.787236E0,5.463072E0,3.8621945E0,2.775364E-1,3.3293157E0,2.5958786E0,0E0,0E0,0E0,0E0,0E0,0E0,0E0,0E0,0E0,0E0,0E0,0E0,0E0,0E0,0E0,0E0],"parents":[2147483647,0,0,1,1,2,2,3,3,4,4,5,5,6,6,7,7,8,8,9,9,10,10,11,11,12,12,13,13,14,14],"right_children":[2,4,6,8,10,12,14,16,18,20,22,24,26,28,30,-1,-1,-1,-1,-1,-1,-1,-1,-1,-1,-1,-1,-1,-1,-1,-1],"split_conditions":[6.6764075E-1,4.423175E-1,1E1,3.6167184E-1,7.1E0,2.085E2,2.1366667E2,2.361111E-1,5E-1,1E0,9.2228144E-1,5.6E0,6.745388E-1,6.7871815E-1,1E0,-2.0483565E-2,-5.774154E-2,-4.868562E-2,-6.609781E-3,-4.642588E-2,1.4973069E-2,-5.4880665E-3,-3.877862E-2,4.6699528E-2,3.4905772E-3,1.3311266E-2,5.7018448E-2,4.3584146E-2,-2.4369417E-2,4.638223E-2,-1.3849556E-2],"split_indices":[97,97,78,97,76,98,98,97,71,87,99,76,97,97,19,0,0,0,0,0,0,0,0,0,0,0,0,0,0,0,0],"split_type":[0,0,0,0,0,0,0,0,0,0,0,0,0,0,0,0,0,0,0,0,0,0,0,0,0,0,0,0,0,0,0],"sum_hessian":[1.9000352E2,1.2957024E2,6.0433296E1,2.7075426E1,1.02494804E2,4.162539E1,1.8807905E1,1.2436552E1,1.4638874E1,5.2416416E1,5.007839E1,2.0067625E1,2.1557766E1,1.1789851E1,7.018054E0,1.612825E0,1.0823727E1,8.761968E0,5.876906E0,6.549012E0,4.5867405E1,2.9306278E1,2.0772112E1,9.862922E0,1.0204702E1,1.0925955E0,2.046517E1,1.1946597E0,1.0595191E1,5.013496E0,2.004558E0],"tree_param":{"num_deleted":"0","num_feature":"100","num_nodes":"31","size_leaf_vector":"1"}}]},"name":"gbtree"},"learner_model_param":{"base_score":"5E-1","boost_from_average":"1","num_class":"0","num_feature":"100","num_target":"1"},"objective":{"name":"binary:logistic","reg_loss_param":{"scale_pos_weight":"0.477754235"}}},"version":[2,1,3]}