{"learner":{"attributes":{"best_iteration":"4","best_score":"0.6824857039979874","scikit_learn":"{\"_estimator_type\": \"classifier\"}"},"feature_names":[],"feature_types":[],"gradient_booster":{"model":{"gbtree_model_param":{"num_parallel_tree":"1","num_trees":"25"},"iteration_indptr":[0,1,2,3,4,5,6,7,8,9,10,11,12,13,14,15,16,17,18,19,20,21,22,23,24,25],"tree_info":[0,0,0,0,0,0,0,0,0,0,0,0,0,0,0,0,0,0,0,0,0,0,0,0,0],"trees":[{"base_weights":[2.3340757E-8,-9.792534E-1,8.847417E-1,-1.4865208E0,-3.5600084E-1,1.253028E0,-2.9289633E-1,-1.7087148E0,-1.146288E0,6.4895086E-2,-6.859926E-1,1.3345518E0,-6.31007E-2,-6.2521094E-1,5.8958656E-1,-1.1676974E-2,-8.789004E-2,-2.8202832E-2,-7.3146E-2,-1.6985804E-2,5.48308E-2,4.216641E-2,-4.0529504E-2,-8.645095E-3,7.176127E-2,-3.9263476E-2,3.256453E-2,-2.3727959E-2,5.21931E-2],"categories":[],"categories_nodes":[],"categories_segments":[],"categories_sizes":[],"default_left":[0,0,0,0,0,0,0,0,0,0,0,0,0,0,0,0,0,0,0,0,0,0,0,0,0,0,0,0,0],"id":0,"left_children":[1,3,5,7,9,11,13,15,17,19,21,23,-1,25,27,-1,-1,-1,-1,-1,-1,-1,-1,-1,-1,-1,-1,-1,-1],"loss_changes":[1.9666971E2,3.3535034E1,5.20888E1,2.5079803E0,6.9419627E0,2.0349503E1,8.937931E0,2.030037E0,4.0381126E0,9.86433E0,6.004239E0,1.3703583E1,0E0,4.9476357E0,4.6083407E0,0E0,0E0,0E0,0E0,0E0,0E0,0E0,0E0,0E0,0E0,0E0,0E0,0E0,0E0],"parents":[2147483647,0,0,1,1,2,2,3,3,4,4,5,5,6,6,7,7,8,8,9,9,10,10,11,11,13,13,14,14],"right_children":[2,4,6,8,10,12,14,16,18,20,22,24,-1,26,28,-1,-1,-1,-1,-1,-1,-1,-1,-1,-1,-1,-1,-1,-1],"split_conditions":[6.1682343E-1,5.1871204E-1,7.1E0,4.2417988E-1,7.1E0,1E0,8.5E0,1E0,7.5E0,2E0,1E0,1E0,-6.31007E-2,7.737504E-1,4.0207455E-1,-1.1676974E-2,-8.789004E-2,-2.8202832E-2,-7.3146E-2,-1.6985804E-2,5.48308E-2,4.216641E-2,-4.0529504E-2,-8.645095E-3,7.176127E-2,-3.9263476E-2,3.256453E-2,-2.3727959E-2,5.21931E-2],"split_indices":[97,97,76,97,76,45,76,11,76,87,1,87,0,97,99,0,0,0,0,0,0,0,0,0,0,0,0,0,0],"split_type":[0,0,0,0,0,0,0,0,0,0,0,0,0,0,0,0,0,0,0,0,0,0,0,0,0,0,0,0,0],"sum_hessian":[2.25E2,1.0674512E2,1.1825489E2,5.808469E1,4.8660423E1,9.00342E1,2.8220684E1,3.27044E1,2.5380293E1,2.1737785E1,2.6922638E1,8.7662056E1,2.37215E0,2.0712542E1,7.5081434E0,1.2385993E0,3.1465797E1,9.920196E0,1.5460097E1,1.6096092E1,5.641694E0,1.5936482E0,2.532899E1,5.442997E0,8.2219055E1,1.8746742E1,1.9657981E0,2.232899E0,5.275244E0],"tree_param":{"num_deleted":"0","num_feature":"100","num_nodes":"29","size_leaf_vector":"1"}},{"base_weights":[-6.181699E-4,-9.326755E-1,8.415536E-1,-1.4176342E0,-3.3751914E-1,1.1918207E0,-2.776184E-1,-1.6292217E0,-1.0937736E0,6.333288E-2,-6.5189826E-1,1.270081E0,-6.092465E-2,-5.944752E-1,5.637186E-1,-1.1354151E-2,-8.3790265E-2,-2.6926769E-2,-6.9800034E-2,-1.6187308E-2,5.253614E-2,-5.111299E-2,-4.7387774E-3,7.649448E-2,3.2349624E-2,-3.7413653E-2,3.1490933E-2,-2.291081E-2,5.002844E-2],"categories":[],"categories_nodes":[],"categories_segments":[],"categories_sizes":[],"default_left":[0,0,0,0,0,0,0,0,0,0,0,0,0,0,0,0,0,0,0,0,0,0,0,0,0,0,0,0,0],"id":1,"left_children":[1,3,5,7,9,11,13,15,17,19,21,23,-1,25,27,-1,-1,-1,-1,-1,-1,-1,-1,-1,-1,-1,-1,-1,-1],"loss_changes":[1.7801166E2,3.0590782E1,4.7032906E1,2.261055E0,6.297389E0,1.8699112E1,8.121758E0,1.8169403E0,3.6712265E0,9.0284395E0,5.6622915E0,1.3345993E1,0E0,4.558155E0,4.255043E0,0E0,0E0,0E0,0E0,0E0,0E0,0E0,0E0,0E0,0E0,0E0,0E0,0E0,0E0],"parents":[2147483647,0,0,1,1,2,2,3,3,4,4,5,5,6,6,7,7,8,8,9,9,10,10,11,11,13,13,14,14],"right_children":[2,4,6,8,10,12,14,16,18,20,22,24,-1,26,28,-1,-1,-1,-1,-1,-1,-1,-1,-1,-1,-1,-1,-1,-1],"split_conditions":[6.1682343E-1,5.1871204E-1,7.1E0,4.2417988E-1,7.1E0,1E0,8.5E0,1E0,7.5E0,2E0,1E0,5E-1,-6.092465E-2,7.737504E-1,4.0207455E-1,-1.1354151E-2,-8.3790265E-2,-2.6926769E-2,-6.9800034E-2,-1.6187308E-2,5.253614E-2,-5.111299E-2,-4.7387774E-3,7.649448E-2,3.2349624E-2,-3.7413653E-2,3.1490933E-2,-2.291081E-2,5.002844E-2],"split_indices":[97,97,76,97,76,45,76,11,76,87,33,68,0,97,99,0,0,0,0,0,0,0,0,0,0,0,0,0,0],"split_type":[0,0,0,0,0,0,0,0,0,0,0,0,0,0,0,0,0,0,0,0,0,0,0,0,0,0,0,0,0],"sum_hessian":[2.2478026E2,1.0664525E2,1.1813502E2,5.8001328E1,4.8643917E1,8.992598E1,2.8209034E1,3.264367E1,2.535766E1,2.1732386E1,2.6911531E1,8.755619E1,2.3697903E0,2.0704798E1,7.504238E0,1.2385571E0,3.1405111E1,9.918223E0,1.5439437E1,1.609493E1,5.6374555E0,1.5663758E1,1.1247773E1,6.076411E1,2.6792078E1,1.873952E1,1.965277E0,2.2325847E0,5.271653E0],"tree_param":{"num_deleted":"0","num_feature":"100","num_nodes":"29","size_leaf_vector":"1"}},{"base_weights":[-1.2204105E-3,-8.903681E-1,8.0229366E-1,-1.3555148E0,-3.213162E-1,1.1364605E0,-2.6331142E-1,-8.285006E-2,-1.1307621E0,6.181808E-2,-6.219274E-1,1.2117643E0,-5.890292E-2,-5.6560683E-1,5.394489E-1,-3.8660206E-2,-7.066291E-2,-1.5428304E-2,5.039824E-2,4.113408E-2,-3.703773E-2,-1.0405899E-2,6.537627E-2,-3.5675284E-2,3.0463083E-2,-2.212594E-2,4.800548E-2],"categories":[],"categories_nodes":[],"categories_segments":[],"categories_sizes":[],"default_left":[0,0,0,0,0,0,0,0,0,0,0,0,0,0,0,0,0,0,0,0,0,0,0,0,0,0,0],"id":2,"left_children":[1,3,5,7,9,11,13,-1,15,17,19,21,-1,23,25,-1,-1,-1,-1,-1,-1,-1,-1,-1,-1,-1,-1],"loss_changes":[1.6159445E2,2.7984291E1,4.2607513E1,2.108406E0,5.7512884E0,1.7224876E1,7.38532E0,0E0,2.626114E0,8.271965E0,5.3960285E0,1.2274704E1,0E0,4.202385E0,3.9331863E0,0E0,0E0,0E0,0E0,0E0,0E0,0E0,0E0,0E0,0E0,0E0,0E0],"parents":[2147483647,0,0,1,1,2,2,3,3,4,4,5,5,6,6,8,8,9,9,10,10,11,11,13,13,14,14],"right_children":[2,4,6,8,10,12,14,-1,16,18,20,22,-1,24,26,-1,-1,-1,-1,-1,-1,-1,-1,-1,-1,-1,-1],"split_conditions":[6.1682343E-1,5.1871204E-1,7.1E0,3.8136688E-1,7.1E0,1E0,8.5E0,-8.285006E-2,7.5E0,2E0,1E0,1E0,-5.890292E-2,7.737504E-1,4.0207455E-1,-3.8660206E-2,-7.066291E-2,-1.5428304E-2,5.039824E-2,4.113408E-2,-3.703773E-2,-1.0405899E-2,6.537627E-2,-3.5675284E-2,3.0463083E-2,-2.212594E-2,4.800548E-2],"split_indices":[97,97,76,97,76,45,76,0,76,87,1,87,0,97,99,0,0,0,0,0,0,0,0,0,0,0,0],"split_type":[0,0,0,0,0,0,0,0,0,0,0,0,0,0,0,0,0,0,0,0,0,0,0,0,0,0,0],"sum_hessian":[2.2418268E2,1.063692E2,1.1781348E2,5.776756E1,4.8601643E1,8.963731E1,2.8176172E1,2.195042E1,3.581714E1,2.171713E1,2.6884512E1,8.7274254E1,2.363051E0,2.0682999E1,7.493173E0,1.7457747E1,1.8359392E1,1.6091665E1,5.625466E0,1.5931306E0,2.5291382E1,5.4400067E0,8.183424E1,1.8719215E1,1.963783E0,2.2316852E0,5.261488E0],"tree_param":{"num_deleted":"0","num_feature":"100","num_nodes":"27","size_leaf_vector":"1"}},{"base_weights":[-1.7680624E-3,-8.5069E-1,7.657087E-1,-1.2988995E0,-3.048914E-1,1.0852177E0,-2.4988127E-1,-1.5002167E0,-9.9374723E-1,6.034762E-2,-5.916625E-1,1.1578128E0,-5.7018187E-2,-5.384311E-1,5.166175E-1,-9.731668E-3,-7.723013E-2,-2.3993766E-2,-6.383111E-2,-1.4706499E-2,4.839885E-2,-4.716847E-2,-3.29453E-3,7.035171E-2,2.82317E-2,-7.4541317E-3,-5.1908266E-2,-2.1371612E-2,4.610845E-2],"categories":[],"categories_nodes":[],"categories_segments":[],"categories_sizes":[],"default_left":[0,0,0,0,0,0,0,0,0,0,0,0,0,0,0,0,0,0,0,0,0,0,0,0,0,0,0,0,0],"id":3,"left_children":[1,3,5,7,9,11,13,15,17,19,21,23,-1,25,27,-1,-1,-1,-1,-1,-1,-1,-1,-1,-1,-1,-1,-1,-1],"loss_changes":[1.4676154E2,2.5768059E1,3.8659966E1,2.09803E0,5.223786E0,1.58903885E1,6.719823E0,1.6253967E0,3.193449E0,7.5859313E0,5.0858736E0,1.2189346E1,0E0,4.057512E0,3.6392374E0,0E0,0E0,0E0,0E0,0E0,0E0,0E0,0E0,0E0,0E0,0E0,0E0,0E0,0E0],"parents":[2147483647,0,0,1,1,2,2,3,3,4,4,5,5,6,6,7,7,8,8,9,9,10,10,11,11,13,13,14,14],"right_children":[2,4,6,8,10,12,14,16,18,20,22,24,-1,26,28,-1,-1,-1,-1,-1,-1,-1,-1,-1,-1,-1,-1,-1,-1],"split_conditions":[6.1682343E-1,5.1871204E-1,7.1E0,4.2417988E-1,7.1E0,1E0,8.5E0,1E0,7.5E0,2E0,1E0,5E-1,-5.7018187E-2,1E0,4.0207455E-1,-9.731668E-3,-7.723013E-2,-2.3993766E-2,-6.383111E-2,-1.4706499E-2,4.839885E-2,-4.716847E-2,-3.29453E-3,7.035171E-2,2.82317E-2,-7.4541317E-3,-5.1908266E-2,-2.1371612E-2,4.610845E-2],"split_indices":[97,97,76,97,76,45,76,11,76,87,33,68,0,34,99,0,0,0,0,0,0,0,0,0,0,0,0,0,0],"split_type":[0,0,0,0,0,0,0,0,0,0,0,0,0,0,0,0,0,0,0,0,0,0,0,0,0,0,0,0,0],"sum_hessian":[2.2325772E2,1.0595276E2,1.1730497E2,5.7419823E1,4.8532932E1,8.918E1,2.8124973E1,3.223634E1,2.5183485E1,2.1693325E1,2.6839607E1,8.682758E1,2.3524153E0,2.064912E1,7.4758544E0,1.2369599E0,3.0999378E1,9.898411E0,1.5285074E1,1.608659E1,5.606734E0,1.5605978E1,1.123363E1,6.017381E1,2.6653772E1,1.23361845E1,8.312936E0,2.2302613E0,5.2455926E0],"tree_param":{"num_deleted":"0","num_feature":"100","num_nodes":"29","size_leaf_vector":"1"}},{"base_weights":[-2.5135318E-3,-8.1431955E-1,7.315595E-1,-1.2471697E0,-2.9051432E-1,1.0383534E0,-2.389909E-1,-1.4103401E0,-9.020839E-1,4.8568033E-2,-3.6632812E-1,1.1084602E0,-5.525555E-2,-5.149275E-1,4.9508607E-1,-2.4259869E-2,-7.207398E-2,1.2449789E-3,-5.325811E-2,9.5948856E-4,-3.3938847E-2,6.746772E-2,2.693277E-2,-3.294979E-2,3.0713705E-2,-2.0646224E-2,4.4323884E-2],"categories":[],"categories_nodes":[],"categories_segments":[],"categories_sizes":[],"default_left":[0,0,0,0,0,0,0,0,0,0,0,0,0,0,0,0,0,0,0,0,0,0,0,0,0,0,0],"id":4,"left_children":[1,3,5,7,9,11,13,15,17,-1,19,21,-1,23,25,-1,-1,-1,-1,-1,-1,-1,-1,-1,-1,-1,-1],"loss_changes":[1.3352782E2,2.3761452E1,3.528528E1,1.991005E0,5.0861387E0,1.4688454E1,6.1443014E0,3.8304138E-1,3.2586098E0,0E0,5.718845E0,1.1250175E1,0E0,3.9222794E0,3.3701763E0,0E0,0E0,0E0,0E0,0E0,0E0,0E0,0E0,0E0,0E0,0E0,0E0],"parents":[2147483647,0,0,1,1,2,2,3,3,4,4,5,5,6,6,7,7,8,8,10,10,11,11,13,13,14,14],"right_children":[2,4,6,8,10,12,14,16,18,-1,20,22,-1,24,26,-1,-1,-1,-1,-1,-1,-1,-1,-1,-1,-1,-1],"split_conditions":[6.1682343E-1,5.1871204E-1,7.1E0,4.4613752E-1,1E0,1E0,8.5E0,1E0,1.408E2,4.8568033E-2,7.1E0,5E-1,-5.525555E-2,7.737504E-1,4.0207455E-1,-2.4259869E-2,-7.207398E-2,1.2449789E-3,-5.325811E-2,9.5948856E-4,-3.3938847E-2,6.746772E-2,2.693277E-2,-3.294979E-2,3.0713705E-2,-2.0646224E-2,4.4323884E-2],"split_indices":[97,97,76,97,1,45,76,11,98,0,76,68,0,97,99,0,0,0,0,0,0,0,0,0,0,0,0],"split_type":[0,0,0,0,0,0,0,0,0,0,0,0,0,0,0,0,0,0,0,0,0,0,0,0,0,0,0],"sum_hessian":[2.220685E2,1.0539909E2,1.1666941E2,5.695388E1,4.8445217E1,8.859454E1,2.8074867E1,3.6573532E1,2.0380348E1,2.07617E0,4.6369045E1,8.625621E1,2.3383312E0,2.0621765E1,7.453102E0,1.7308912E0,3.484264E1,3.175757E0,1.720459E1,2.1177532E1,2.5191515E1,5.9664127E1,2.6592085E1,1.8657738E1,1.9640273E0,2.2283697E0,5.2247324E0],"tree_param":{"num_deleted":"0","num_feature":"100","num_nodes":"27","size_leaf_vector":"1"}},{"base_weights":[-2.7204962E-3,-7.7949893E-1,7.003209E-1,-1.198799E0,-2.7609918E-1,9.949321E-1,-2.2690718E-1,-7.5584285E-2,-1.0036687E0,4.701467E-2,-3.4922695E-1,1.062739E0,-5.36021E-2,-4.9042854E-1,4.747353E-1,-3.455973E-2,-6.36224E-2,9.1367395E-4,-3.2391913E-2,-1.3747505E-2,5.7772186E-2,-5.7469057E-3,-4.8824485E-2,-1.994829E-2,4.264025E-2],"categories":[],"categories_nodes":[],"categories_segments":[],"categories_sizes":[],"default_left":[0,0,0,0,0,0,0,0,0,0,0,0,0,0,0,0,0,0,0,0,0,0,0,0,0],"id":5,"left_children":[1,3,5,7,9,11,13,-1,15,-1,17,19,-1,21,23,-1,-1,-1,-1,-1,-1,-1,-1,-1,-1],"loss_changes":[1.21605156E2,2.199842E1,3.2156254E1,1.9882431E0,4.7201624E0,1.359761E1,5.594572E0,0E0,2.3403816E0,0E0,5.2027273E0,1.105304E1,0E0,3.8250422E0,3.1234012E0,0E0,0E0,0E0,0E0,0E0,0E0,0E0,0E0,0E0,0E0],"parents":[2147483647,0,0,1,1,2,2,3,3,4,4,5,5,6,6,8,8,10,10,11,11,13,13,14,14],"right_children":[2,4,6,8,10,12,14,-1,16,-1,18,20,-1,22,24,-1,-1,-1,-1,-1,-1,-1,-1,-1,-1],"split_conditions":[6.1682343E-1,5.1871204E-1,7.1E0,3.7180513E-1,1E0,1E0,8.5E0,-7.5584285E-2,7.5E0,4.701467E-2,7.1E0,1E0,-5.36021E-2,1E0,4.0207455E-1,-3.455973E-2,-6.36224E-2,9.1367395E-4,-3.2391913E-2,-1.3747505E-2,5.7772186E-2,-5.7469057E-3,-4.8824485E-2,-1.994829E-2,4.264025E-2],"split_indices":[97,97,76,97,1,45,76,0,76,0,76,87,0,34,99,0,0,0,0,0,0,0,0,0,0],"split_type":[0,0,0,0,0,0,0,0,0,0,0,0,0,0,0,0,0,0,0,0,0,0,0,0,0],"sum_hessian":[2.2067665E2,1.0478868E2,1.1588797E2,5.6416176E1,4.8372505E1,8.788953E1,2.7998447E1,1.9078E1,3.7338177E1,2.0706987E0,4.6301804E1,8.556831E1,2.3212116E0,2.0572792E1,7.4256563E0,1.8917229E1,1.8420948E1,2.1177498E1,2.5124308E1,5.4183254E0,8.014999E1,1.230412E1,8.268671E0,2.226062E0,5.1995945E0],"tree_param":{"num_deleted":"0","num_feature":"100","num_nodes":"25","size_leaf_vector":"1"}},{"base_weights":[-3.5067596E-3,-7.471159E-1,6.7012304E-1,-1.1544737E0,-2.6245227E-1,9.5388913E-1,-2.1721013E-1,-1.348337E0,-8.67436E-1,4.5544714E-2,-3.3300138E-1,1.0195369E0,-5.2046627E-2,-4.461651E-1,5.219881E-1,-7.854941E-3,-6.954047E-2,-1.9161383E-2,-5.764659E-2,8.700571E-4,-3.0928178E-2,6.277134E-2,2.3488611E-2,-4.151909E-2,6.3477515E-4,-1.915124E-2,4.7679324E-2],"categories":[],"categories_nodes":[],"categories_segments":[],"categories_sizes":[],"default_left":[0,0,0,0,0,0,0,0,0,0,0,0,0,0,0,0,0,0,0,0,0,0,0,0,0,0,0],"id":6,"left_children":[1,3,5,7,9,11,13,15,17,-1,19,21,-1,23,25,-1,-1,-1,-1,-1,-1,-1,-1,-1,-1,-1,-1],"loss_changes":[1.1075857E2,2.0445992E1,2.9419804E1,1.9914856E0,4.383283E0,1.2597267E1,5.128489E0,1.4057426E0,3.1114883E0,0E0,4.7361226E0,1.0535759E1,0E0,3.999349E0,3.2172444E0,0E0,0E0,0E0,0E0,0E0,0E0,0E0,0E0,0E0,0E0,0E0,0E0],"parents":[2147483647,0,0,1,1,2,2,3,3,4,4,5,5,6,6,7,7,8,8,10,10,11,11,13,13,14,14],"right_children":[2,4,6,8,10,12,14,16,18,-1,20,22,-1,24,26,-1,-1,-1,-1,-1,-1,-1,-1,-1,-1,-1,-1],"split_conditions":[6.1682343E-1,5.1871204E-1,7.1E0,4.2417988E-1,1E0,1E0,9.2E0,1E0,9.214741E-1,4.5544714E-2,7.1E0,5E-1,-5.2046627E-2,6.9518554E-1,5E-1,-7.854941E-3,-6.954047E-2,-1.9161383E-2,-5.764659E-2,8.700571E-4,-3.0928178E-2,6.277134E-2,2.3488611E-2,-4.151909E-2,6.3477515E-4,-1.915124E-2,4.7679324E-2],"split_indices":[97,97,76,97,1,45,76,11,99,0,76,68,0,97,69,0,0,0,0,0,0,0,0,0,0,0,0],"split_type":[0,0,0,0,0,0,0,0,0,0,0,0,0,0,0,0,0,0,0,0,0,0,0,0,0,0,0],"sum_hessian":[2.1911201E2,1.0409458E2,1.1501743E2,5.5807014E1,4.8287567E1,8.709102E1,2.7926413E1,3.1102888E1,2.4704124E1,2.0631151E0,4.622445E1,8.478958E1,2.3014367E0,2.162487E1,6.3015423E0,1.2325267E0,2.9870361E1,1.0031968E1,1.4672156E1,2.1177456E1,2.5046995E1,5.8433628E1,2.6355955E1,1.1329068E1,1.0295803E1,2.0711398E0,4.2304025E0],"tree_param":{"num_deleted":"0","num_feature":"100","num_nodes":"27","size_leaf_vector":"1"}},{"base_weights":[-3.8861218E-3,-9.005928E-1,5.10099E-1,4.6649184E-2,-9.548367E-1,8.2072186E-1,-2.351695E-1,-1.150576E0,-4.5355317E-1,4.1935584E-1,1.2606646E0,-5.1267046E-1,4.4551456E-1,-4.7099542E-2,-7.218274E-2,-3.3418488E-2,2.3666585E-2,-4.468091E-2,2.8656093E-2,6.7888014E-2,-5.812956E-2,-3.919964E-2,3.2639361E-3,3.7832774E-2,-3.0243728E-2],"categories":[],"categories_nodes":[],"categories_segments":[],"categories_sizes":[],"default_left":[0,0,0,0,0,0,0,0,0,0,0,0,0,0,0,0,0,0,0,0,0,0,0,0,0],"id":7,"left_children":[1,3,5,-1,7,9,11,13,15,17,19,21,23,-1,-1,-1,-1,-1,-1,-1,-1,-1,-1,-1,-1],"loss_changes":[1.0112372E2,8.841667E0,3.2480293E1,0E0,7.1450043E0,1.6893295E1,8.125364E0,2.0355835E0,5.0140157E0,1.1231074E1,1.253627E1,4.78125E0,4.5896015E0,0E0,0E0,0E0,0E0,0E0,0E0,0E0,0E0,0E0,0E0,0E0,0E0],"parents":[2147483647,0,0,1,1,2,2,4,4,5,5,6,6,7,7,8,8,9,9,10,10,11,11,12,12],"right_children":[2,4,6,-1,8,10,12,14,16,18,20,22,24,-1,-1,-1,-1,-1,-1,-1,-1,-1,-1,-1,-1],"split_conditions":[5.759099E-1,1E0,7.1E0,4.6649184E-2,5.1871204E-1,7.073E-1,9.4E0,8.2E0,1.95E2,1E0,8E0,1E0,1E0,-4.7099542E-2,-7.218274E-2,-3.3418488E-2,2.3666585E-2,-4.468091E-2,2.8656093E-2,6.7888014E-2,-5.812956E-2,-3.919964E-2,3.2639361E-3,3.7832774E-2,-3.0243728E-2],"split_indices":[97,1,76,0,97,97,76,76,98,87,81,33,55,0,0,0,0,0,0,0,0,0,0,0,0],"split_type":[0,0,0,0,0,0,0,0,0,0,0,0,0,0,0,0,0,0,0,0,0,0,0,0,0],"sum_hessian":[2.1741107E2,7.89396E1,1.3847148E2,1.8027415E0,7.7136856E1,9.766438E1,4.08071E1,5.454362E1,2.2593239E1,5.2092686E1,4.5571693E1,2.9164257E1,1.1642839E1,3.432706E1,2.021656E1,1.8568642E1,4.024596E0,4.956728E0,4.713596E1,4.4238815E1,1.332878E0,1.960435E1,9.559908E0,9.197921E0,2.4449184E0],"tree_param":{"num_deleted":"0","num_feature":"100","num_nodes":"25","size_leaf_vector":"1"}},{"base_weights":[-4.2520324E-3,-6.895432E-1,6.172726E-1,-1.0727147E0,-2.4316542E-1,8.807481E-1,-1.9414392E-1,-6.8112254E-2,-8.6751735E-1,4.3058183E-2,-3.0942288E-1,9.45126E-1,-5.15006E-2,-4.2779547E-1,4.2715028E-1,-3.0221954E-2,-6.1724514E-2,8.3904964E-4,-2.883302E-2,1.7510876E-2,5.7533484E-2,-2.841639E-2,3.1970114E-2,-2.0815339E-2,4.0035147E-2],"categories":[],"categories_nodes":[],"categories_segments":[],"categories_sizes":[],"default_left":[0,0,0,0,0,0,0,0,0,0,0,0,0,0,0,0,0,0,0,0,0,0,0,0,0],"id":8,"left_children":[1,3,5,7,9,11,13,-1,15,-1,17,19,-1,21,23,-1,-1,-1,-1,-1,-1,-1,-1,-1,-1],"loss_changes":[9.272788E1,1.7448566E1,2.4579174E1,2.1108665E0,3.860475E0,1.1597359E1,4.3641734E0,0E0,2.6509628E0,0E0,4.1133084E0,9.877289E0,0E0,3.5776715E0,2.9712987E0,0E0,0E0,0E0,0E0,0E0,0E0,0E0,0E0,0E0,0E0],"parents":[2147483647,0,0,1,1,2,2,3,3,4,4,5,5,6,6,8,8,10,10,11,11,13,13,14,14],"right_children":[2,4,6,8,10,12,14,-1,16,-1,18,20,-1,22,24,-1,-1,-1,-1,-1,-1,-1,-1,-1,-1],"split_conditions":[6.1682343E-1,5.1871204E-1,7.1E0,3.8136688E-1,1E0,1E0,8.5E0,-6.8112254E-2,1.2E1,4.3058183E-2,7.1E0,6.6795415E-1,-5.15006E-2,7.737504E-1,4.0207455E-1,-3.0221954E-2,-6.1724514E-2,8.3904964E-4,-2.883302E-2,1.7510876E-2,5.7533484E-2,-2.841639E-2,3.1970114E-2,-2.0815339E-2,4.0035147E-2],"split_indices":[97,97,76,97,1,45,76,0,78,0,76,97,0,97,99,0,0,0,0,0,0,0,0,0,0],"split_type":[0,0,0,0,0,0,0,0,0,0,0,0,0,0,0,0,0,0,0,0,0,0,0,0,0],"sum_hessian":[2.1570993E2,1.0254009E2,1.1316984E2,5.4421463E1,4.8118633E1,8.536536E1,2.7804476E1,2.0233528E1,3.4187935E1,2.0445406E0,4.6074093E1,8.3071846E1,2.2935162E0,2.0432009E1,7.372468E0,2.1454538E1,1.2733396E1,2.1170048E1,2.4904045E1,2.2025866E1,6.104598E1,1.846759E1,1.964418E0,2.2277975E0,5.144671E0],"tree_param":{"num_deleted":"0","num_feature":"100","num_nodes":"25","size_leaf_vector":"1"}},{"base_weights":[-4.5321113E-3,-8.3456284E-1,4.6880487E-1,-1.1992892E0,-5.265719E-1,7.554659E-1,-2.1045156E-1,-1.8978244E-2,-1.2295845E0,4.4825938E-2,-6.076252E-1,3.785409E-1,1.1766431E0,-4.7052428E-1,4.254592E-1,-6.379268E-2,-2.7428841E-2,-5.980359E-3,-4.5255627E-2,-4.3667875E-2,2.6354915E-2,6.370245E-2,-5.8109254E-2,-3.6630932E-2,4.1361325E-3,3.6306422E-2,-2.937471E-2],"categories":[],"categories_nodes":[],"categories_segments":[],"categories_sizes":[],"default_left":[0,0,0,0,0,0,0,0,0,0,0,0,0,0,0,0,0,0,0,0,0,0,0,0,0,0,0],"id":9,"left_children":[1,3,5,7,9,11,13,-1,15,-1,17,19,21,23,25,-1,-1,-1,-1,-1,-1,-1,-1,-1,-1,-1,-1],"loss_changes":[8.478154E1,8.171566E0,2.6918966E1,4.0485E-1,5.6511793E0,1.4931709E1,7.074865E0,0E0,3.524704E-1,0E0,6.0590916E0,1.0241121E1,1.1794235E1,4.407393E0,4.2613435E0,0E0,0E0,0E0,0E0,0E0,0E0,0E0,0E0,0E0,0E0,0E0,0E0],"parents":[2147483647,0,0,1,1,2,2,3,3,4,4,5,5,6,6,8,8,10,10,11,11,12,12,13,13,14,14],"right_children":[2,4,6,8,10,12,14,-1,16,-1,18,20,22,24,26,-1,-1,-1,-1,-1,-1,-1,-1,-1,-1,-1,-1],"split_conditions":[5.759099E-1,4.4613752E-1,7.1E0,1E0,1E0,7.073E-1,9.4E0,-1.8978244E-2,7E0,4.4825938E-2,7.1E0,1E0,8E0,1E0,1E0,-6.379268E-2,-2.7428841E-2,-5.980359E-3,-4.5255627E-2,-4.3667875E-2,2.6354915E-2,6.370245E-2,-5.8109254E-2,-3.6630932E-2,4.1361325E-3,3.6306422E-2,-2.937471E-2],"split_indices":[97,97,76,11,1,97,76,0,79,0,76,87,81,33,55,0,0,0,0,0,0,0,0,0,0,0,0],"split_type":[0,0,0,0,0,0,0,0,0,0,0,0,0,0,0,0,0,0,0,0,0,0,0,0,0,0,0],"sum_hessian":[2.1379683E2,7.736629E1,1.3643054E2,3.409577E1,4.327051E1,9.586234E1,4.05682E1,1.6973745E0,3.23984E1,1.789556E0,4.1480953E1,5.159082E1,4.427152E1,2.8977253E1,1.1590946E1,2.9519312E1,2.8790863E0,1.6240696E1,2.524026E1,4.9550996E0,4.663572E1,4.2938507E1,1.3330097E0,1.9442417E1,9.534837E0,9.156293E0,2.434653E0],"tree_param":{"num_deleted":"0","num_feature":"100","num_nodes":"27","size_leaf_vector":"1"}},{"base_weights":[-5.0623147E-3,-6.3859177E-1,5.7023054E-1,-1.0039207E0,-2.226991E-1,8.495979E-1,-9.1860116E-2,-6.595834E-2,-8.1746095E-1,-1.00258194E-1,-8.7124157E-1,9.1855025E-1,-5.0908495E-2,-7.1843445E-1,9.75868E-2,-2.6058221E-2,-5.4238487E-2,-9.564972E-3,5.3475875E-2,8.386404E-3,-5.3580143E-2,5.916032E-2,1.8290047E-2,-5.803576E-2,2.2421775E-2,1.8837912E-2,-4.0704045E-2],"categories":[],"categories_nodes":[],"categories_segments":[],"categories_sizes":[],"default_left":[0,0,0,0,0,0,0,0,0,0,0,0,0,0,0,0,0,0,0,0,0,0,0,0,0,0,0],"id":10,"left_children":[1,3,5,7,9,11,13,-1,15,17,19,21,-1,23,25,-1,-1,-1,-1,-1,-1,-1,-1,-1,-1,-1,-1],"loss_changes":[7.794608E1,1.5240154E1,2.0810654E1,2.0897446E0,3.7941031E0,1.109977E1,4.125399E0,0E0,2.3251972E0,4.703829E0,1.7686157E0,1.0778839E1,0E0,4.6754737E0,7.2071557E0,0E0,0E0,0E0,0E0,0E0,0E0,0E0,0E0,0E0,0E0,0E0,0E0],"parents":[2147483647,0,0,1,1,2,2,3,3,4,4,5,5,6,6,8,8,9,9,10,10,11,11,13,13,14,14],"right_children":[2,4,6,8,10,12,14,-1,16,18,20,22,-1,24,26,-1,-1,-1,-1,-1,-1,-1,-1,-1,-1,-1,-1],"split_conditions":[6.1682343E-1,5.1871204E-1,6.8E0,3.7180513E-1,6.333333E-1,1E0,4E0,-6.595834E-2,7.5E0,6E0,4.0207416E-1,5E-1,-5.0908495E-2,6.9012105E-1,1E0,-2.6058221E-2,-5.4238487E-2,-9.564972E-3,5.3475875E-2,8.386404E-3,-5.3580143E-2,5.916032E-2,1.8290047E-2,-5.803576E-2,2.2421775E-2,1.8837912E-2,-4.0704045E-2],"split_indices":[97,97,76,97,71,45,79,0,76,79,99,68,0,97,19,0,0,0,0,0,0,0,0,0,0,0,0],"split_type":[0,0,0,0,0,0,0,0,0,0,0,0,0,0,0,0,0,0,0,0,0,0,0,0,0,0,0],"sum_hessian":[2.118653E2,1.0077684E2,1.11088455E2,5.2897057E1,4.7879787E1,7.792501E1,3.316345E1,1.740155E1,3.5495506E1,4.124716E1,6.6326256E0,7.5640785E1,2.2842228E0,7.0509505E0,2.6112497E1,1.8233917E1,1.726159E1,3.9044846E1,2.2023149E0,1.0986204E0,5.534005E0,5.0378845E1,2.526194E1,5.116797E0,1.9341536E0,2.0440065E1,5.6724324E0],"tree_param":{"num_deleted":"0","num_feature":"100","num_nodes":"27","size_leaf_vector":"1"}},{"base_weights":[-5.690475E-3,-4.4596568E-1,7.686227E-1,-9.3600464E-1,-7.529889E-2,1.0862111E0,6.731709E-3,-5.6935793E-1,-1.117995E0,5.292399E-2,-1.3820279E-1,1.160317E0,-4.848215E-2,-4.0847605E-1,6.9269997E-1,-5.0576605E-2,1.8686688E-2,-5.961312E-2,-1.6220814E-2,4.445086E-2,-1.0664984E-2,5.997513E-2,-1.7979104E-2,-3.2342445E-2,2.2546496E-2,-8.404105E-3,5.0666776E-2],"categories":[],"categories_nodes":[],"categories_segments":[],"categories_sizes":[],"default_left":[0,0,0,0,0,0,0,0,0,0,0,0,0,0,0,0,0,0,0,0,0,0,0,0,0,0,0],"id":11,"left_children":[1,3,5,7,9,11,13,15,17,-1,19,21,-1,23,25,-1,-1,-1,-1,-1,-1,-1,-1,-1,-1,-1,-1],"loss_changes":[7.223965E1,2.4465885E1,1.8579395E1,3.239315E0,5.7088575E0,9.383919E0,7.00627E0,9.262741E0,1.8398666E0,0E0,5.958249E0,3.5747147E0,0E0,3.4329789E0,2.7292647E0,0E0,0E0,0E0,0E0,0E0,0E0,0E0,0E0,0E0,0E0,0E0,0E0],"parents":[2147483647,0,0,1,1,2,2,3,3,4,4,5,5,6,6,7,7,8,8,10,10,11,11,13,13,14,14],"right_children":[2,4,6,8,10,12,14,16,18,-1,20,22,-1,24,26,-1,-1,-1,-1,-1,-1,-1,-1,-1,-1,-1,-1],"split_conditions":[6.6795415E-1,5.3156775E-1,1E1,9.2147774E-1,4.2E0,1E0,2.0666667E2,1E0,1E0,5.292399E-2,4.0207076E-1,8E0,-4.848215E-2,6E0,6.915512E-1,-5.0576605E-2,1.8686688E-2,-5.961312E-2,-1.6220814E-2,4.445086E-2,-1.0664984E-2,5.997513E-2,-1.7979104E-2,-3.2342445E-2,2.2546496E-2,-8.404105E-3,5.0666776E-2],"split_indices":[97,97,78,99,76,45,98,33,36,0,99,80,0,79,97,0,0,0,0,0,0,0,0,0,0,0,0],"split_type":[0,0,0,0,0,0,0,0,0,0,0,0,0,0,0,0,0,0,0,0,0,0,0,0,0,0,0],"sum_hessian":[2.0989636E2,1.3408153E2,7.581483E1,5.708598E1,7.6995544E1,5.320928E1,2.260555E1,2.0305681E1,3.67803E1,3.2153425E0,7.3780205E1,5.177846E1,1.430816E0,1.4333933E1,8.271619E0,1.377474E1,6.5309405E0,3.3173374E1,3.6069276E0,4.288008E0,6.9492195E1,5.0682575E1,1.0958858E0,1.14150715E1,2.9188607E0,2.374036E0,5.897583E0],"tree_param":{"num_deleted":"0","num_feature":"100","num_nodes":"27","size_leaf_vector":"1"}},{"base_weights":[-5.4104766E-3,-4.2674157E-1,7.4000263E-1,-9.04442E-1,-7.0442274E-2,1.0497444E0,7.838375E-3,-5.475465E-1,-1.0830047E0,1.7172292E-1,-3.4904674E-1,1.1224672E0,-4.7366437E-2,-3.8888335E-1,6.6524714E-1,-4.6213754E-2,2.4704905E-2,-5.7809867E-2,-1.5633745E-2,-4.9765635E-2,1.8105153E-2,-5.3576738E-2,-6.330558E-3,5.805644E-2,-1.751067E-2,1.233537E-2,-3.5461586E-2,-8.103609E-3,4.8769962E-2],"categories":[],"categories_nodes":[],"categories_segments":[],"categories_sizes":[],"default_left":[0,0,0,0,0,0,0,0,0,0,0,0,0,0,0,0,0,0,0,0,0,0,0,0,0,0,0,0,0],"id":12,"left_children":[1,3,5,7,9,11,13,15,17,19,21,23,-1,25,27,-1,-1,-1,-1,-1,-1,-1,-1,-1,-1,-1,-1,-1,-1],"loss_changes":[6.598079E1,2.2779785E1,1.7197311E1,3.0556602E0,5.319691E0,8.805168E0,6.4038496E0,8.742658E0,1.7324257E0,9.775777E0,5.74327E0,3.3611145E0,0E0,3.2954018E0,2.5281067E0,0E0,0E0,0E0,0E0,0E0,0E0,0E0,0E0,0E0,0E0,0E0,0E0,0E0,0E0],"parents":[2147483647,0,0,1,1,2,2,3,3,4,4,5,5,6,6,7,7,8,8,9,9,10,10,11,11,13,13,14,14],"right_children":[2,4,6,8,10,12,14,16,18,20,22,24,-1,26,28,-1,-1,-1,-1,-1,-1,-1,-1,-1,-1,-1,-1,-1,-1],"split_conditions":[6.6795415E-1,5.3156775E-1,1E1,9.2147774E-1,7.1E0,1E0,2.0666667E2,6.617787E-1,1E0,1E0,4E0,8E0,-4.7366437E-2,2.25E-1,6.915512E-1,-4.6213754E-2,2.4704905E-2,-5.7809867E-2,-1.5633745E-2,-4.9765635E-2,1.8105153E-2,-5.3576738E-2,-6.330558E-3,5.805644E-2,-1.751067E-2,1.233537E-2,-3.5461586E-2,-8.103609E-3,4.8769962E-2],"split_indices":[97,97,78,99,76,45,98,99,36,87,79,80,0,71,97,0,0,0,0,0,0,0,0,0,0,0,0,0,0],"split_type":[0,0,0,0,0,0,0,0,0,0,0,0,0,0,0,0,0,0,0,0,0,0,0,0,0,0,0,0,0],"sum_hessian":[2.0808044E2,1.332122E2,7.486824E1,5.6253338E1,7.695886E1,5.2306324E1,2.256192E1,2.0115215E1,3.6138123E1,4.1377148E1,3.558171E1,5.0891083E1,1.4152404E0,1.4325484E1,8.236437E0,1.4855242E1,5.259974E0,3.254496E1,3.5931606E0,5.2102346E0,3.6166916E1,7.4773664E0,2.8104345E1,4.9795383E1,1.0956976E0,4.8777027E0,9.447782E0,2.375996E0,5.8604407E0],"tree_param":{"num_deleted":"0","num_feature":"100","num_nodes":"29","size_leaf_vector":"1"}},{"base_weights":[-6.027815E-3,-4.10141E-1,7.1253127E-1,-9.1144645E-1,-9.318224E-2,1.0153962E0,8.257572E-3,-6.2772565E-2,-7.335438E-1,5.7404697E-1,-2.1095727E-1,1.0868362E0,-4.6304014E-2,-3.706372E-1,6.392474E-1,-2.2174435E-2,-5.041024E-2,4.8563752E-2,-6.0836047E-2,-3.6435496E-2,-1.4552468E-3,5.625167E-2,-1.7055778E-2,-4.711126E-2,-3.1756118E-4,-7.814126E-3,4.6978846E-2],"categories":[],"categories_nodes":[],"categories_segments":[],"categories_sizes":[],"default_left":[0,0,0,0,0,0,0,0,0,0,0,0,0,0,0,0,0,0,0,0,0,0,0,0,0,0,0],"id":13,"left_children":[1,3,5,7,9,11,13,-1,15,17,19,21,-1,23,25,-1,-1,-1,-1,-1,-1,-1,-1,-1,-1,-1,-1],"loss_changes":[6.042548E1,2.1076176E1,1.5969265E1,2.2292137E0,6.62029E0,8.2705765E0,5.863432E0,0E0,2.4474182E0,1.0199493E1,6.666383E0,3.1640892E0,0E0,3.1875963E0,2.3441195E0,0E0,0E0,0E0,0E0,0E0,0E0,0E0,0E0,0E0,0E0,0E0,0E0],"parents":[2147483647,0,0,1,1,2,2,3,3,4,4,5,5,6,6,8,8,9,9,10,10,11,11,13,13,14,14],"right_children":[2,4,6,8,10,12,14,-1,16,18,20,22,-1,24,26,-1,-1,-1,-1,-1,-1,-1,-1,-1,-1,-1,-1],"split_conditions":[6.6795415E-1,5.1871204E-1,1E1,3.616661E-1,1E0,1E0,2.0666667E2,-6.2772565E-2,7.5E0,7.6666665E-1,6E0,8E0,-4.6304014E-2,1E0,6.915512E-1,-2.2174435E-2,-5.041024E-2,4.8563752E-2,-6.0836047E-2,-3.6435496E-2,-1.4552468E-3,5.625167E-2,-1.7055778E-2,-4.711126E-2,-3.1756118E-4,-7.814126E-3,4.6978846E-2],"split_indices":[97,97,78,97,74,45,98,0,76,71,80,80,0,70,97,0,0,0,0,0,0,0,0,0,0,0,0],"split_type":[0,0,0,0,0,0,0,0,0,0,0,0,0,0,0,0,0,0,0,0,0,0,0,0,0,0,0],"sum_hessian":[2.0608522E2,1.3217822E2,7.3907E1,5.0473373E1,8.170486E1,5.1372902E1,2.2534098E1,1.5140229E1,3.5333145E1,1.1677032E1,7.0027824E1,4.9974213E1,1.398689E0,1.4337419E1,8.196678E0,1.8456684E1,1.6876461E1,9.931622E0,1.745411E0,1.7421068E1,5.2606754E1,4.8878857E1,1.0953536E0,4.963255E0,9.374164E0,2.3778152E0,5.818863E0],"tree_param":{"num_deleted":"0","num_feature":"100","num_nodes":"27","size_leaf_vector":"1"}},{"base_weights":[-6.728036E-3,-7.287526E-1,3.681321E-1,4.5080386E-2,-7.8408986E-1,6.2384707E-1,-1.8786955E-1,-1.0885103E0,-5.6184137E-1,2.9720494E-1,1.0212872E0,-4.3452466E-1,3.7712878E-1,-2.6391728E-3,-5.6661915E-2,-3.157281E-3,-4.4136055E-2,-4.2580035E-2,2.2037655E-2,5.60019E-2,-5.583618E-2,-3.4857783E-2,5.210684E-3,4.749556E-2,-2.9694547E-3],"categories":[],"categories_nodes":[],"categories_segments":[],"categories_sizes":[],"default_left":[0,0,0,0,0,0,0,0,0,0,0,0,0,0,0,0,0,0,0,0,0,0,0,0,0],"id":14,"left_children":[1,3,5,-1,7,9,11,13,15,17,19,21,23,-1,-1,-1,-1,-1,-1,-1,-1,-1,-1,-1,-1],"loss_changes":[5.579631E1,7.062805E0,1.9412241E1,0E0,4.0344963E0,1.1794338E1,6.2290034E0,1.2332191E0,6.626646E0,9.043095E0,1.0039772E1,4.4249E0,3.497117E0,0E0,0E0,0E0,0E0,0E0,0E0,0E0,0E0,0E0,0E0,0E0,0E0],"parents":[2147483647,0,0,1,1,2,2,4,4,5,5,6,6,7,7,8,8,9,9,10,10,11,11,12,12],"right_children":[2,4,6,-1,8,10,12,14,16,18,20,22,24,-1,-1,-1,-1,-1,-1,-1,-1,-1,-1,-1,-1],"split_conditions":[5.6544006E-1,1E0,7.1E0,4.5080386E-2,4.2417988E-1,7.073E-1,9.4E0,1E0,7.1E0,1E0,8E0,1E0,5E-1,-2.6391728E-3,-5.6661915E-2,-3.157281E-3,-4.4136055E-2,-4.2580035E-2,2.2037655E-2,5.60019E-2,-5.583618E-2,-3.4857783E-2,5.210684E-3,4.749556E-2,-2.9694547E-3],"split_indices":[97,1,76,0,97,97,76,11,76,87,81,33,68,0,0,0,0,0,0,0,0,0,0,0,0],"split_type":[0,0,0,0,0,0,0,0,0,0,0,0,0,0,0,0,0,0,0,0,0,0,0,0,0],"sum_hessian":[2.0415924E2,6.9448746E1,1.347105E2,1.777799E0,6.7670944E1,9.218908E1,4.252141E1,2.69116E1,4.0759346E1,5.1560825E1,4.062825E1,2.9760239E1,1.2761172E1,1.2043235E0,2.5707277E1,1.642664E1,2.4332706E1,5.1792397E0,4.6381588E1,3.928966E1,1.3385888E0,1.98093E1,9.95094E0,5.0104876E0,7.7506843E0],"tree_param":{"num_deleted":"0","num_feature":"100","num_nodes":"25","size_leaf_vector":"1"}},{"base_weights":[-6.789119E-3,-3.8067186E-1,6.655362E-1,-8.2198596E-1,-6.39936E-2,9.6038306E-1,-2.8751884E-3,-4.6766704E-1,-1.0031496E0,4.8900302E-2,-1.208173E-1,1.0321629E0,-4.5901973E-2,-3.6477003E-1,6.0464823E-1,-4.5268543E-2,2.0805482E-2,-5.3835113E-2,-1.318941E-2,4.2446572E-2,-9.590199E-3,5.3460486E-2,-1.5570643E-2,1.1559283E-2,-3.3224747E-2,5.674134E-2,4.6239584E-3],"categories":[],"categories_nodes":[],"categories_segments":[],"categories_sizes":[],"default_left":[0,0,0,0,0,0,0,0,0,0,0,0,0,0,0,0,0,0,0,0,0,0,0,0,0,0,0],"id":15,"left_children":[1,3,5,7,9,11,13,15,17,-1,19,21,-1,23,25,-1,-1,-1,-1,-1,-1,-1,-1,-1,-1,-1,-1],"loss_changes":[5.1284195E1,1.8268764E1,1.43724785E1,3.0411339E0,4.701676E0,7.7698593E0,5.3466587E0,8.258289E0,1.6362724E0,0E0,5.2774267E0,2.7822304E0,0E0,2.874972E0,2.3606877E0,0E0,0E0,0E0,0E0,0E0,0E0,0E0,0E0,0E0,0E0,0E0,0E0],"parents":[2147483647,0,0,1,1,2,2,3,3,4,4,5,5,6,6,7,7,8,8,10,10,11,11,13,13,14,14],"right_children":[2,4,6,8,10,12,14,16,18,-1,20,22,-1,24,26,-1,-1,-1,-1,-1,-1,-1,-1,-1,-1,-1,-1],"split_conditions":[6.6795415E-1,5.3156775E-1,1E1,9.2147774E-1,4.2E0,1E0,2.0666667E2,1E0,1E0,4.8900302E-2,4.0207076E-1,8E0,-4.5901973E-2,2.25E-1,3E-1,-4.5268543E-2,2.0805482E-2,-5.3835113E-2,-1.318941E-2,4.2446572E-2,-9.590199E-3,5.3460486E-2,-1.5570643E-2,1.1559283E-2,-3.3224747E-2,5.674134E-2,4.6239584E-3],"split_indices":[97,97,78,99,76,45,98,33,36,0,99,80,0,71,71,0,0,0,0,0,0,0,0,0,0,0,0],"split_type":[0,0,0,0,0,0,0,0,0,0,0,0,0,0,0,0,0,0,0,0,0,0,0,0,0,0,0],"sum_hessian":[2.020102E2,1.3009671E2,7.191349E1,5.3685886E1,7.641083E1,4.959815E1,2.2315342E1,1.9374598E1,3.4311287E1,3.1131148E0,7.3297714E1,4.8206554E1,1.3915917E0,1.4235183E1,8.080159E0,1.2940958E1,6.43364E0,3.0791817E1,3.5194702E0,4.252009E0,6.90457E1,4.7111736E1,1.0948209E0,4.840094E0,9.395089E0,3.3729148E0,4.7072444E0],"tree_param":{"num_deleted":"0","num_feature":"100","num_nodes":"27","size_leaf_vector":"1"}},{"base_weights":[-6.381675E-3,-6.803568E-1,3.401214E-1,4.363091E-2,-7.345909E-1,5.837244E-1,-1.7992869E-1,-5.257601E-1,-1.06112E0,2.7749482E-1,9.677363E-1,-4.1778922E-1,3.6322773E-1,-4.504118E-2,-1.282706E-2,-2.2394529E-2,-6.4908095E-2,-4.065012E-2,2.0738674E-2,5.3326614E-2,-5.3743254E-2,-3.350742E-2,4.8492863E-3,4.5686528E-2,-2.7606334E-3],"categories":[],"categories_nodes":[],"categories_segments":[],"categories_sizes":[],"default_left":[0,0,0,0,0,0,0,0,0,0,0,0,0,0,0,0,0,0,0,0,0,0,0,0,0],"id":16,"left_children":[1,3,5,-1,7,9,11,13,15,17,19,21,23,-1,-1,-1,-1,-1,-1,-1,-1,-1,-1,-1,-1],"loss_changes":[4.7191025E1,6.419691E0,1.7013968E1,0E0,3.9997787E0,1.0447979E1,5.751264E0,4.085392E0,3.06567E0,8.136947E0,9.224136E0,4.041061E0,3.214262E0,0E0,0E0,0E0,0E0,0E0,0E0,0E0,0E0,0E0,0E0,0E0,0E0],"parents":[2147483647,0,0,1,1,2,2,4,4,5,5,6,6,7,7,8,8,9,9,10,10,11,11,12,12],"right_children":[2,4,6,-1,8,10,12,14,16,18,20,22,24,-1,-1,-1,-1,-1,-1,-1,-1,-1,-1,-1,-1],"split_conditions":[5.6544006E-1,1E0,7.1E0,4.363091E-2,7.8E0,7.073E-1,9.4E0,4.2049253E-1,4E0,1E0,8E0,1E0,5E-1,-4.504118E-2,-1.282706E-2,-2.2394529E-2,-6.4908095E-2,-4.065012E-2,2.0738674E-2,5.3326614E-2,-5.3743254E-2,-3.350742E-2,4.8492863E-3,4.5686528E-2,-2.7606334E-3],"split_indices":[97,1,76,0,76,97,76,97,77,87,81,33,68,0,0,0,0,0,0,0,0,0,0,0,0],"split_type":[0,0,0,0,0,0,0,0,0,0,0,0,0,0,0,0,0,0,0,0,0,0,0,0,0],"sum_hessian":[2.0008221E2,6.7610695E1,1.3247151E2,1.7722766E0,6.5838425E1,9.013013E1,4.234139E1,4.174846E1,2.4089962E1,5.110175E1,3.9028374E1,2.9606737E1,1.2734652E1,1.6464628E1,2.528383E1,7.5214367E0,1.6568525E1,5.1633654E0,4.5938385E1,3.768356E1,1.3448112E0,1.9664661E1,9.942076E0,4.9883237E0,7.7463274E0],"tree_param":{"num_deleted":"0","num_feature":"100","num_nodes":"25","size_leaf_vector":"1"}},{"base_weights":[-6.66754E-3,-3.5256255E-1,6.2294954E-1,-8.0731463E-1,-8.118474E-2,9.1021764E-1,-1.0658347E-2,-5.8263924E-2,-6.320335E-1,5.249855E-1,-1.874092E-1,9.8251325E-1,-4.5481794E-2,-3.5680094E-1,5.7484436E-1,-1.174609E-2,-4.1236166E-2,4.5619227E-2,-5.9312917E-2,-3.4606747E-2,-5.070179E-4,5.092467E-2,-1.417429E-2,-2.8397916E-2,2.0330295E-2,5.4906394E-2,3.7702506E-3],"categories":[],"categories_nodes":[],"categories_segments":[],"categories_sizes":[],"default_left":[0,0,0,0,0,0,0,0,0,0,0,0,0,0,0,0,0,0,0,0,0,0,0,0,0,0,0],"id":17,"left_children":[1,3,5,7,9,11,13,-1,15,17,19,21,-1,23,25,-1,-1,-1,-1,-1,-1,-1,-1,-1,-1,-1,-1],"loss_changes":[4.354926E1,1.5860632E1,1.29160385E1,2.2826843E0,5.374033E0,7.3141823E0,4.888391E0,0E0,2.4451838E0,9.355709E0,6.296525E0,2.4485664E0,0E0,2.6714296E0,2.2611225E0,0E0,0E0,0E0,0E0,0E0,0E0,0E0,0E0,0E0,0E0,0E0,0E0],"parents":[2147483647,0,0,1,1,2,2,3,3,4,4,5,5,6,6,8,8,9,9,10,10,11,11,13,13,14,14],"right_children":[2,4,6,8,10,12,14,-1,16,18,20,22,-1,24,26,-1,-1,-1,-1,-1,-1,-1,-1,-1,-1,-1,-1],"split_conditions":[6.6795415E-1,5.1871204E-1,1E1,3.616661E-1,1E0,1E0,2.0666667E2,-5.8263924E-2,9.214742E-1,7.6666665E-1,6E0,8E0,-4.5481794E-2,6E0,3E-1,-1.174609E-2,-4.1236166E-2,4.5619227E-2,-5.9312917E-2,-3.4606747E-2,-5.070179E-4,5.092467E-2,-1.417429E-2,-2.8397916E-2,2.0330295E-2,5.4906394E-2,3.7702506E-3],"split_indices":[97,97,78,97,74,45,98,0,99,71,80,80,0,79,71,0,0,0,0,0,0,0,0,0,0,0,0],"split_type":[0,0,0,0,0,0,0,0,0,0,0,0,0,0,0,0,0,0,0,0,0,0,0,0,0,0,0],"sum_hessian":[1.9795929E2,1.2805132E2,6.9907974E1,4.711877E1,8.093254E1,4.779974E1,2.2108232E1,1.3631698E1,3.3487072E1,1.147995E1,6.945259E1,4.641593E1,1.3838074E0,1.4139643E1,7.9685893E0,1.1665328E1,2.1821743E1,9.741464E0,1.7384865E0,1.7297668E1,5.2154922E1,4.532333E1,1.0926044E0,1.1276578E1,2.8630652E0,3.3060167E0,4.662573E0],"tree_param":{"num_deleted":"0","num_feature":"100","num_nodes":"27","size_leaf_vector":"1"}},{"base_weights":[-6.9617433E-3,-6.1314785E-1,3.2790244E-1,4.2613402E-2,-6.632468E-1,5.5692863E-1,-1.7130467E-1,-5.337151E-1,-6.15964E-2,2.7008876E-1,9.1782075E-1,-4.037815E-1,3.882312E-1,-4.6161495E-2,-1.5921012E-2,5.272919E-2,3.6274088E-3,5.084422E-2,-5.18621E-2,-3.2132924E-2,4.573222E-3,3.345577E-2,-2.7550474E-2],"categories":[],"categories_nodes":[],"categories_segments":[],"categories_sizes":[],"default_left":[0,0,0,0,0,0,0,0,0,0,0,0,0,0,0,0,0,0,0,0,0,0,0],"id":18,"left_children":[1,3,5,-1,7,9,11,13,-1,15,17,19,21,-1,-1,-1,-1,-1,-1,-1,-1,-1,-1],"loss_changes":[4.0191048E1,5.737463E0,1.4678842E1,0E0,4.4019337E0,8.827967E0,5.4743857E0,4.545315E0,0E0,7.7131443E0,8.493511E0,3.533424E0,3.6688294E0,0E0,0E0,0E0,0E0,0E0,0E0,0E0,0E0,0E0,0E0],"parents":[2147483647,0,0,1,1,2,2,4,4,5,5,6,6,7,7,9,9,10,10,11,11,12,12],"right_children":[2,4,6,-1,8,10,12,14,-1,16,18,20,22,-1,-1,-1,-1,-1,-1,-1,-1,-1,-1],"split_conditions":[5.759099E-1,1E0,7.1E0,4.2613402E-2,9.7E0,7.073E-1,9.4E0,4.2049253E-1,-6.15964E-2,4E0,8E0,1E0,1E0,-4.6161495E-2,-1.5921012E-2,5.272919E-2,3.6274088E-3,5.084422E-2,-5.18621E-2,-3.2132924E-2,4.573222E-3,3.345577E-2,-2.7550474E-2],"split_indices":[97,1,76,0,76,97,76,97,0,79,81,33,55,0,0,0,0,0,0,0,0,0,0],"split_type":[0,0,0,0,0,0,0,0,0,0,0,0,0,0,0,0,0,0,0,0,0,0,0],"sum_hessian":[1.9600475E2,6.945079E1,1.26553955E2,1.7665557E0,6.7684235E1,8.667403E1,3.9879925E1,5.6706413E1,1.097782E1,4.926568E1,3.7408348E1,2.8370762E1,1.1509165E1,1.9015347E1,3.7691067E1,9.037278E0,4.02284E1,3.6061E1,1.3473504E0,1.8938372E1,9.432389E0,9.081038E0,2.4281259E0],"tree_param":{"num_deleted":"0","num_feature":"100","num_nodes":"23","size_leaf_vector":"1"}},{"base_weights":[-6.9074705E-3,-3.275093E-1,5.845626E-1,-7.897499E-1,-9.073464E-2,8.648349E-1,-1.6947825E-2,-5.8475304E-1,-1.0976113E0,1.4099601E-1,-3.503162E-1,9.3727154E-1,-4.4770043E-2,-3.4894195E-1,5.4776394E-1,5.693584E-3,-3.9302632E-2,-6.0781408E-2,-1.729148E-2,-4.52705E-2,1.6076934E-2,-5.096559E-2,-7.528923E-3,3.1299647E-2,5.8348816E-2,1.093627E-2,-3.1708114E-2,5.320948E-2,3.0611805E-3],"categories":[],"categories_nodes":[],"categories_segments":[],"categories_sizes":[],"default_left":[0,0,0,0,0,0,0,0,0,0,0,0,0,0,0,0,0,0,0,0,0,0,0,0,0,0,0,0,0],"id":19,"left_children":[1,3,5,7,9,11,13,15,17,19,21,23,-1,25,27,-1,-1,-1,-1,-1,-1,-1,-1,-1,-1,-1,-1,-1,-1],"loss_changes":[3.7166935E1,1.3838047E1,1.1630341E1,2.0668259E0,5.1727276E0,6.8345184E0,4.48081E0,4.0137215E0,1.0005188E0,8.927252E0,5.252764E0,2.5335464E0,0E0,2.57063E0,2.1611226E0,0E0,0E0,0E0,0E0,0E0,0E0,0E0,0E0,0E0,0E0,0E0,0E0,0E0,0E0],"parents":[2147483647,0,0,1,1,2,2,3,3,4,4,5,5,6,6,7,7,8,8,9,9,10,10,11,11,13,13,14,14],"right_children":[2,4,6,8,10,12,14,16,18,20,22,24,-1,26,28,-1,-1,-1,-1,-1,-1,-1,-1,-1,-1,-1,-1,-1,-1],"split_conditions":[6.6795415E-1,5.068539E-1,1E1,8.2E0,7.1E0,1E0,2.0666667E2,9.214742E-1,1E0,1E0,4E0,2.0066667E2,-4.4770043E-2,2.25E-1,3E-1,5.693584E-3,-3.9302632E-2,-6.0781408E-2,-1.729148E-2,-4.52705E-2,1.6076934E-2,-5.096559E-2,-7.528923E-3,3.1299647E-2,5.8348816E-2,1.093627E-2,-3.1708114E-2,5.320948E-2,3.0611805E-3],"split_indices":[97,97,78,76,76,45,98,99,33,87,79,98,0,71,71,0,0,0,0,0,0,0,0,0,0,0,0,0,0],"split_type":[0,0,0,0,0,0,0,0,0,0,0,0,0,0,0,0,0,0,0,0,0,0,0,0,0,0,0,0,0],"sum_hessian":[1.9399126E2,1.2609091E2,6.7900345E1,4.1919197E1,8.4171715E1,4.601977E1,2.1880571E1,2.6903957E1,1.501524E1,4.4712933E1,3.9458782E1,4.4649883E1,1.3698874E0,1.4020189E1,7.8603826E0,6.115162E0,2.0788795E1,1.2444647E1,2.5705926E0,5.988616E0,3.872432E1,8.128885E0,3.1329897E1,2.0540346E1,2.4109535E1,4.7665577E0,9.253632E0,3.2371428E0,4.6232395E0],"tree_param":{"num_deleted":"0","num_feature":"100","num_nodes":"29","size_leaf_vector":"1"}},{"base_weights":[-7.2402027E-3,-5.981318E-1,2.9168713E-1,4.162958E-2,-6.5098953E-1,8.256013E-2,7.8289366E-1,-4.485429E-1,-9.791215E-1,-1.5919511E-1,4.3263233E-1,1.0326799E0,-2.2028169E-1,-3.8223807E-2,-8.959478E-3,-1.92795E-2,-6.126074E-2,-1.0052259E-3,-5.3326953E-2,-2.6455522E-2,2.8925827E-2,5.101131E-4,5.4339767E-2,1.1465134E-2,-3.8640395E-2],"categories":[],"categories_nodes":[],"categories_segments":[],"categories_sizes":[],"default_left":[0,0,0,0,0,0,0,0,0,0,0,0,0,0,0,0,0,0,0,0,0,0,0,0,0],"id":20,"left_children":[1,3,5,-1,7,9,11,13,15,17,19,21,23,-1,-1,-1,-1,-1,-1,-1,-1,-1,-1,-1,-1],"loss_changes":[3.4262283E1,5.469713E0,1.316897E1,0E0,3.7724037E0,7.8105807E0,9.8374405E0,3.356637E0,2.9374695E0,6.8994737E0,5.586494E0,1.697628E0,2.2811432E0,0E0,0E0,0E0,0E0,0E0,0E0,0E0,0E0,0E0,0E0,0E0,0E0],"parents":[2147483647,0,0,1,1,2,2,4,4,5,5,6,6,7,7,8,8,9,9,10,10,11,11,12,12],"right_children":[2,4,6,-1,8,10,12,14,16,18,20,22,24,-1,-1,-1,-1,-1,-1,-1,-1,-1,-1,-1,-1],"split_conditions":[5.6544006E-1,1E0,7.2515774E-1,4.162958E-2,7.8E0,1E0,8E0,5E-1,4E0,1E0,1E0,4.0207145E-1,3.3333334E-1,-3.8223807E-2,-8.959478E-3,-1.92795E-2,-6.126074E-2,-1.0052259E-3,-5.3326953E-2,-2.6455522E-2,2.8925827E-2,5.101131E-4,5.4339767E-2,1.1465134E-2,-3.8640395E-2],"split_indices":[97,1,97,0,76,33,81,69,77,19,87,99,71,0,0,0,0,0,0,0,0,0,0,0,0],"split_type":[0,0,0,0,0,0,0,0,0,0,0,0,0,0,0,0,0,0,0,0,0,0,0,0,0],"sum_hessian":[1.91986E2,6.415986E1,1.2782613E2,1.7603443E0,6.2399513E1,9.0475174E1,3.7350956E1,4.0054287E1,2.2345224E1,5.3839546E1,3.663563E1,2.9881247E1,7.4697104E0,1.7587341E1,2.2466948E1,7.301707E0,1.5043518E1,4.7569565E1,6.2699823E0,4.4792457E0,3.2156384E1,1.5617355E0,2.8319511E1,4.441061E0,3.0286493E0],"tree_param":{"num_deleted":"0","num_feature":"100","num_nodes":"25","size_leaf_vector":"1"}},{"base_weights":[-7.5088427E-3,-3.0589157E-1,5.4932195E-1,-7.46256E-1,-8.688439E-2,8.2388437E-1,-2.369657E-2,-1.0951312E0,-5.627551E-1,-8.696752E-3,-8.265208E-1,8.951511E-1,-4.338635E-2,-3.4153703E-1,5.2183276E-1,-2.0288957E-2,-5.7832208E-2,-4.253229E-2,-8.183624E-3,1.0859116E-2,-1.312828E-2,2.3295E-2,-5.5399567E-2,5.2160125E-2,2.1573728E-2,-4.16179E-2,-1.108924E-3,-1.0458992E-2,4.0953718E-2],"categories":[],"categories_nodes":[],"categories_segments":[],"categories_sizes":[],"default_left":[0,0,0,0,0,0,0,0,0,0,0,0,0,0,0,0,0,0,0,0,0,0,0,0,0,0,0,0,0],"id":21,"left_children":[1,3,5,7,9,11,13,15,17,19,21,23,-1,25,27,-1,-1,-1,-1,-1,-1,-1,-1,-1,-1,-1,-1,-1,-1],"loss_changes":[3.192726E1,1.2000178E1,1.0568365E1,2.035347E0,4.8899145E0,6.2448616E0,4.1127853E0,9.1220856E-2,3.2156286E0,4.506616E0,3.4574313E0,2.5715103E0,0E0,2.3237395E0,2.0724528E0,0E0,0E0,0E0,0E0,0E0,0E0,0E0,0E0,0E0,0E0,0E0,0E0,0E0,0E0],"parents":[2147483647,0,0,1,1,2,2,3,3,4,4,5,5,6,6,7,7,8,8,9,9,10,10,11,11,13,13,14,14],"right_children":[2,4,6,8,10,12,14,16,18,20,22,24,-1,26,28,-1,-1,-1,-1,-1,-1,-1,-1,-1,-1,-1,-1,-1,-1],"split_conditions":[6.6795415E-1,5.068539E-1,1E1,3.616661E-1,1E0,1E0,2.0666667E2,2.3099028E-1,5E-1,7.1E0,1E-1,4E0,-4.338635E-2,1E0,6.915512E-1,-2.0288957E-2,-5.7832208E-2,-4.253229E-2,-8.183624E-3,1.0859116E-2,-1.312828E-2,2.3295E-2,-5.5399567E-2,5.2160125E-2,2.1573728E-2,-4.16179E-2,-1.108924E-3,-1.0458992E-2,4.0953718E-2],"split_indices":[97,97,78,97,19,45,98,97,71,76,71,77,0,70,97,0,0,0,0,0,0,0,0,0,0,0,0,0,0],"split_type":[0,0,0,0,0,0,0,0,0,0,0,0,0,0,0,0,0,0,0,0,0,0,0,0,0,0,0,0,0],"sum_hessian":[1.9014941E2,1.2409999E2,6.604942E1,4.0419605E1,8.368038E1,4.4357628E1,2.1691797E1,1.2219566E1,2.820004E1,7.659519E1,7.0851893E0,4.301621E1,1.3414221E0,1.3942466E1,7.7493315E0,1.6234004E0,1.0596166E1,1.5724894E1,1.2475146E1,4.060845E1,3.5986744E1,1.1499159E0,5.9352736E0,3.1657991E1,1.1358216E1,4.862683E0,9.0797825E0,2.3257725E0,5.4235587E0],"tree_param":{"num_deleted":"0","num_feature":"100","num_nodes":"29","size_leaf_vector":"1"}},{"base_weights":[-7.943914E-3,-4.183024E-1,3.680018E-1,-8.67038E-1,-2.2414288E-1,1.0018735E0,1.6357376E-1,-1.0776229E0,-6.332911E-1,5.1117606E-2,-2.9218042E-1,-3.0920118E-2,1.1011332E0,2.9578216E-2,8.8343644E-1,-1.9811736E-2,-5.698005E-2,-4.3486875E-2,-1.2929487E-2,4.797394E-4,-2.6132727E-2,4.6915674E-4,-2.8578376E-3,1.8567082E-3,6.0485203E-2,-3.0492818E-2,8.014901E-3,-1.0898456E-2,5.2776497E-2],"categories":[],"categories_nodes":[],"categories_segments":[],"categories_sizes":[],"default_left":[0,0,0,0,0,0,0,0,0,0,0,0,0,0,0,0,0,0,0,0,0,0,0,0,0,0,0,0,0],"id":22,"left_children":[1,3,5,7,9,11,13,15,17,-1,19,21,23,25,27,-1,-1,-1,-1,-1,-1,-1,-1,-1,-1,-1,-1,-1,-1],"loss_changes":[2.935715E1,7.7318764E0,1.2706433E1,6.527977E-1,5.7983427E0,2.497034E0,7.333333E0,9.0904236E-2,1.128973E0,0E0,4.3359103E0,3.7924107E-3,2.4903088E0,5.5608373E0,2.4929657E0,0E0,0E0,0E0,0E0,0E0,0E0,0E0,0E0,0E0,0E0,0E0,0E0,0E0,0E0],"parents":[2147483647,0,0,1,1,2,2,3,3,4,4,5,5,6,6,7,7,8,8,10,10,11,11,12,12,13,13,14,14],"right_children":[2,4,6,8,10,12,14,16,18,-1,20,22,24,26,28,-1,-1,-1,-1,-1,-1,-1,-1,-1,-1,-1,-1,-1,-1],"split_conditions":[6.1682343E-1,4.4613752E-1,5.1E0,3.616661E-1,1E0,1E0,7.849837E-1,2.3099028E-1,4.5E-1,5.1117606E-2,7.1E0,8E0,6.3472575E-1,6E0,1.542E2,-1.9811736E-2,-5.698005E-2,-4.3486875E-2,-1.2929487E-2,4.797394E-4,-2.6132727E-2,4.6915674E-4,-2.8578376E-3,1.8567082E-3,6.0485203E-2,-3.0492818E-2,8.014901E-3,-1.0898456E-2,5.2776497E-2],"split_indices":[97,97,76,97,1,87,97,97,71,0,76,78,97,80,98,0,0,0,0,0,0,0,0,0,0,0,0,0,0],"split_type":[0,0,0,0,0,0,0,0,0,0,0,0,0,0,0,0,0,0,0,0,0,0,0,0,0,0,0,0,0],"sum_hessian":[1.882963E2,8.997386E1,9.832243E1,2.6126194E1,6.384767E1,2.3025671E1,7.529676E1,1.1844841E1,1.4281353E1,2.5786533E0,6.1269016E1,2.0792842E0,2.0946386E1,6.435819E1,1.0938572E1,1.6039648E0,1.0240876E1,7.946045E0,6.3353086E0,2.6945646E1,3.432337E1,1.0731446E0,1.0061398E0,2.0637317E0,1.8882654E1,1.030151E1,5.405668E1,1.4421535E0,9.496418E0],"tree_param":{"num_deleted":"0","num_feature":"100","num_nodes":"29","size_leaf_vector":"1"}},{"base_weights":[-7.724367E-3,-2.6665947E-1,5.504355E-1,-6.804472E-1,-5.4568548E-2,7.890496E-1,4.214858E-2,-1.0608798E0,-5.113006E-1,-2.7672973E-1,2.023916E-1,4.5954636E-1,1.0512038E0,-6.7581224E-1,2.9287443E-1,-1.9346006E-2,-5.6171536E-2,-1.1301322E-2,-4.044894E-2,-1.1953743E-4,-3.0451093E-2,2.531313E-2,-1.0870841E-2,4.343715E-2,2.2424862E-3,2.4943104E-2,5.701055E-2,1.7408645E-2,-5.3275764E-2,2.9468605E-2,-2.3626653E-2],"categories":[],"categories_nodes":[],"categories_segments":[],"categories_sizes":[],"default_left":[0,0,0,0,0,0,0,0,0,0,0,0,0,0,0,0,0,0,0,0,0,0,0,0,0,0,0,0,0,0,0],"id":23,"left_children":[1,3,5,7,9,11,13,15,17,19,21,23,25,27,29,-1,-1,-1,-1,-1,-1,-1,-1,-1,-1,-1,-1,-1,-1,-1,-1],"loss_changes":[2.725722E1,1.1267336E1,7.215914E0,2.2607765E0,4.9795876E0,3.025591E0,3.8253877E0,9.131718E-2,2.5418472E0,4.253773E0,5.2853937E0,3.316574E0,5.0512123E-1,2.5729873E0,3.8263135E0,0E0,0E0,0E0,0E0,0E0,0E0,0E0,0E0,0E0,0E0,0E0,0E0,0E0,0E0,0E0,0E0],"parents":[2147483647,0,0,1,1,2,2,3,3,4,4,5,5,6,6,7,7,8,8,9,9,10,10,11,11,12,12,13,13,14,14],"right_children":[2,4,6,8,10,12,14,16,18,20,22,24,26,28,30,-1,-1,-1,-1,-1,-1,-1,-1,-1,-1,-1,-1,-1,-1,-1,-1],"split_conditions":[6.7625207E-1,5.1871204E-1,1E1,3.616661E-1,1.88E2,2.0066667E2,1E0,2.3099028E-1,7.5E0,5E-1,7.1E0,5.6E0,6.972677E-1,4E0,1E0,-1.9346006E-2,-5.6171536E-2,-1.1301322E-2,-4.044894E-2,-1.1953743E-4,-3.0451093E-2,2.531313E-2,-1.0870841E-2,4.343715E-2,2.2424862E-3,2.4943104E-2,5.701055E-2,1.7408645E-2,-5.3275764E-2,2.9468605E-2,-2.3626653E-2],"split_indices":[97,97,78,97,98,98,70,97,76,68,76,76,97,79,19,0,0,0,0,0,0,0,0,0,0,0,0,0,0,0,0],"split_type":[0,0,0,0,0,0,0,0,0,0,0,0,0,0,0,0,0,0,0,0,0,0,0,0,0,0,0,0,0,0,0],"sum_hessian":[1.8658022E2,1.2781022E2,5.8769997E1,4.256261E1,8.5247604E1,3.961871E1,1.9151283E1,1.1477121E1,3.1085491E1,4.567834E1,3.9569263E1,1.8774227E1,2.0844484E1,4.5181127E0,1.4633171E1,1.5850084E0,9.892113E0,1.6771828E1,1.43136635E1,2.5572767E1,2.0105574E1,2.2834774E1,1.673449E1,8.89868E0,9.875548E0,3.8094375E0,1.7035046E1,1.2748582E0,3.2432544E0,1.0713174E1,3.9199975E0],"tree_param":{"num_deleted":"0","num_feature":"100","num_nodes":"31","size_leaf_vector":"1"}},{"base_weights":[-7.6313014E-3,-2.563922E-1,5.326785E-1,-8.3043784E-1,-1.0858467E-1,7.6784706E-1,3.8773414E-2,-6.3708514E-1,-5.521508E-2,1.4003325E-1,-3.663043E-1,4.4395256E-1,1.0293728E0,-2.7910364E-1,5.779681E-1,-4.1957702E-2,-1.0114599E-2,-4.609136E-2,1.55500425E-2,-3.0856082E-2,7.947278E-4,4.2404223E-2,2.1419725E-3,2.4165457E-2,5.5962887E-2,3.5627898E-2,-2.4270963E-2,4.5507386E-2,-1.3673666E-2],"categories":[],"categories_nodes":[],"categories_segments":[],"categories_sizes":[],"default_left":[0,0,0,0,0,0,0,0,0,0,0,0,0,0,0,0,0,0,0,0,0,0,0,0,0,0,0,0,0],"id":24,"left_children":[1,3,5,7,9,11,13,15,-1,17,19,21,23,25,27,-1,-1,-1,-1,-1,-1,-1,-1,-1,-1,-1,-1,-1,-1],"loss_changes":[2.510782E1,1.0761176E1,6.8110294E0,6.75169E-1,6.6415644E0,2.9181728E0,3.5979197E0,1.3787699E0,0E0,9.922144E0,4.877625E0,3.134152E0,5.0387E-1,3.0646276E0,2.444273E0,0E0,0E0,0E0,0E0,0E0,0E0,0E0,0E0,0E0,0E0,0E0,0E0,0E0,0E0],"parents":[2147483647,0,0,1,1,2,2,3,3,4,4,5,5,6,6,7,7,9,9,10,10,11,11,12,12,13,13,14,14],"right_children":[2,4,6,8,10,12,14,16,-1,18,20,22,24,26,28,-1,-1,-1,-1,-1,-1,-1,-1,-1,-1,-1,-1,-1,-1],"split_conditions":[6.7625207E-1,4.4613752E-1,1E1,7.8E0,7.1E0,2.0066667E2,2.0666667E2,5E-1,-5.521508E-2,1E0,1E0,5.6E0,6.972677E-1,6.8892527E-1,1E0,-4.1957702E-2,-1.0114599E-2,-4.609136E-2,1.55500425E-2,-3.0856082E-2,7.947278E-4,4.2404223E-2,2.1419725E-3,2.4165457E-2,5.5962887E-2,3.5627898E-2,-2.4270963E-2,4.5507386E-2,-1.3673666E-2],"split_indices":[97,97,78,76,76,98,98,69,0,87,33,76,97,97,19,0,0,0,0,0,0,0,0,0,0,0,0,0,0],"split_type":[0,0,0,0,0,0,0,0,0,0,0,0,0,0,0,0,0,0,0,0,0,0,0,0,0,0,0,0,0],"sum_hessian":[1.84787E2,1.2689122E2,5.7895782E1,2.5036736E1,1.01854485E2,3.884529E1,1.9050491E1,1.6625277E1,8.411459E0,5.207512E1,4.9779366E1,1.8558498E1,2.028679E1,1.2288371E1,6.762121E0,1.0715343E1,5.9099336E0,6.612681E0,4.5462437E1,2.9684383E1,2.0094982E1,8.689387E0,9.869111E0,3.7686555E0,1.6518135E1,1.6937221E0,1.0594648E1,4.814754E0,1.9473674E0],"tree_param":{"num_deleted":"0","num_feature":"100","num_nodes":"29","size_leaf_vector":"1"}}]},"name":"gbtree"},"learner_model_param":{"base_score":"5E-1","boost_from_average":"1","num_class":"0","num_feature":"100","num_target":"1"},"objective":{"name":"binary:logistic","reg_loss_param":{"scale_pos_weight":"0.48859936"}}},"version":[2,1,3]}