{"learner":{"attributes":{"best_iteration":"0","best_score":"0.698011779462969","scikit_learn":"{\"_estimator_type\": \"classifier\"}"},"feature_names":[],"feature_types":[],"gradient_booster":{"model":{"gbtree_model_param":{"num_parallel_tree":"1","num_trees":"21"},"iteration_indptr":[0,1,2,3,4,5,6,7,8,9,10,11,12,13,14,15,16,17,18,19,20,21],"tree_info":[0,0,0,0,0,0,0,0,0,0,0,0,0,0,0,0,0,0,0,0,0],"trees":[{"base_weights":[-1.9093068E-8,-1.340289E0,6.6928244E-1,3.9266802E-2,-1.3891835E0,1.1575778E0,-3.8154566E-1,-1.6344985E0,-9.58499E-1,8.976781E-1,8.778682E-2,-7.345651E-1,2.9301277E-1,-8.45701E-2,-4.759332E-2,-1.2973999E-2,-7.3866926E-2,-2.399813E-2,5.02553E-2,-5.2457374E-2,-6.7792065E-3,3.5120837E-2,-4.6947222E-2],"categories":[],"categories_nodes":[],"categories_segments":[],"categories_sizes":[],"default_left":[0,0,0,0,0,0,0,0,0,0,0,0,0,0,0,0,0,0,0,0,0,0,0],"id":0,"left_children":[1,3,5,-1,7,9,11,13,15,17,-1,19,21,-1,-1,-1,-1,-1,-1,-1,-1,-1,-1],"loss_changes":[2.1932431E2,9.554123E0,8.4115204E1,0E0,6.8814087E0,1.5770737E1,1.2714062E1,3.1378174E-1,1.1017408E1,1.2297241E1,0E0,6.4038563E0,1.0114657E1,0E0,0E0,0E0,0E0,0E0,0E0,0E0,0E0,0E0,0E0],"parents":[2147483647,0,0,1,1,2,2,4,4,5,5,6,6,7,7,8,8,9,9,11,11,12,12],"right_children":[2,4,6,-1,8,10,12,14,16,18,-1,20,22,-1,-1,-1,-1,-1,-1,-1,-1,-1,-1],"split_conditions":[4.7590348E-1,1E0,7.1E0,3.9266802E-2,4.1067654E-1,6.6731596E-1,9.2E0,1E0,7.1E0,1E0,8.778682E-2,1E0,1E0,-8.45701E-2,-4.759332E-2,-1.2973999E-2,-7.3866926E-2,-2.399813E-2,5.02553E-2,-5.2457374E-2,-6.7792065E-3,3.5120837E-2,-4.6947222E-2],"split_indices":[97,1,76,0,97,97,76,36,76,87,0,17,55,0,0,0,0,0,0,0,0,0,0],"split_type":[0,0,0,0,0,0,0,0,0,0,0,0,0,0,0,0,0,0,0,0,0,0,0],"sum_hessian":[2.425E2,8.043008E1,1.6206992E2,1.4698188E0,7.896026E1,1.1058299E2,5.148692E1,4.8525402E1,3.0434858E1,7.883149E1,3.1751509E1,3.3740444E1,1.7746479E1,4.3427567E1,5.097837E0,1.3605131E1,1.682973E1,5.45171E0,7.3379776E1,2.1629276E1,1.2111167E1,1.3642606E1,4.1038733E0],"tree_param":{"num_deleted":"0","num_feature":"100","num_nodes":"23","size_leaf_vector":"1"}},{"base_weights":[-5.641421E-4,-1.267452E0,6.4190114E-1,-4.3735015E-1,-1.4240571E0,1.1061175E0,-3.5597423E-1,-1.004525E0,6.173805E-2,-1.1519084E0,-8.395089E-2,8.5773534E-1,1.673807E0,-6.9985175E-1,3.0909932E-1,-9.58237E-3,-5.7481486E-2,3.670496E-2,-2.070696E-2,-6.551566E-2,-3.326801E-3,-2.2987055E-2,4.8069503E-2,3.8995307E-2,8.601724E-2,-4.998384E-2,-6.4661712E-3,3.5844304E-2,-4.50801E-2],"categories":[],"categories_nodes":[],"categories_segments":[],"categories_sizes":[],"default_left":[0,0,0,0,0,0,0,0,0,0,0,0,0,0,0,0,0,0,0,0,0,0,0,0,0,0,0,0,0],"id":1,"left_children":[1,3,5,7,9,11,13,15,17,19,-1,21,23,25,27,-1,-1,-1,-1,-1,-1,-1,-1,-1,-1,-1,-1,-1,-1],"loss_changes":[1.9881528E2,1.0061874E1,7.547165E1,4.163192E0,2.833023E0,1.4195908E1,1.2158213E1,5.864029E-1,3.0712898E0,6.1738663E0,0E0,1.125349E1,1.8226624E-2,5.8108044E0,9.775048E0,0E0,0E0,0E0,0E0,0E0,0E0,0E0,0E0,0E0,0E0,0E0,0E0,0E0,0E0],"parents":[2147483647,0,0,1,1,2,2,3,3,4,4,5,5,6,6,7,7,8,8,9,9,11,11,12,12,13,13,14,14],"right_children":[2,4,6,8,10,12,14,16,18,20,-1,22,24,26,28,-1,-1,-1,-1,-1,-1,-1,-1,-1,-1,-1,-1,-1,-1],"split_conditions":[4.7676802E-1,1E0,7.1E0,4.1415253E-1,7.5E0,6.6731596E-1,9.2E0,3.7599024E-1,9E0,2E0,-8.395089E-2,1E0,4.0425664E-1,1E0,1E0,-9.58237E-3,-5.7481486E-2,3.670496E-2,-2.070696E-2,-6.551566E-2,-3.326801E-3,-2.2987055E-2,4.8069503E-2,3.8995307E-2,8.601724E-2,-4.998384E-2,-6.4661712E-3,3.5844304E-2,-4.50801E-2],"split_indices":[97,11,76,97,76,97,76,97,78,87,0,87,99,17,55,0,0,0,0,0,0,0,0,0,0,0,0,0,0],"split_type":[0,0,0,0,0,0,0,0,0,0,0,0,0,0,0,0,0,0,0,0,0,0,0,0,0,0,0,0,0],"sum_hessian":[2.4226581E2,8.119104E1,1.6107477E2,1.3488185E1,6.770286E1,1.09859245E2,5.121552E1,5.8394203E0,7.648765E0,3.5416615E1,3.2286243E1,7.816883E1,3.1690413E1,3.372543E1,1.749009E1,1.2360144E0,4.603406E0,2.9450777E0,4.703687E0,3.0725174E1,4.691441E0,5.450925E0,7.271791E1,2.4469926E0,2.924342E1,2.16144E1,1.2111029E1,1.3388476E1,4.1016126E0],"tree_param":{"num_deleted":"0","num_feature":"100","num_nodes":"29","size_leaf_vector":"1"}},{"base_weights":[-1.0326809E-3,-1.2106706E0,6.1174446E-1,-4.1954485E-1,-1.3602322E0,1.0551106E0,-3.3984908E-1,-9.6612924E-1,6.052481E-2,-7.6582566E-2,-1.0017823E0,3.4678328E-1,1.2319906E0,-6.6732216E-1,2.934525E-1,-5.542469E-2,-8.875826E-3,3.5343148E-2,-1.9863136E-2,-5.673138E-2,1.844029E-2,-4.875603E-2,2.573708E-2,6.696094E-2,-7.7072054E-2,-4.768531E-2,-6.1677154E-3,3.4207586E-2,-4.3323666E-2],"categories":[],"categories_nodes":[],"categories_segments":[],"categories_sizes":[],"default_left":[0,0,0,0,0,0,0,0,0,0,0,0,0,0,0,0,0,0,0,0,0,0,0,0,0,0,0,0,0],"id":2,"left_children":[1,3,5,7,9,11,13,15,17,-1,19,21,23,25,27,-1,-1,-1,-1,-1,-1,-1,-1,-1,-1,-1,-1,-1,-1],"loss_changes":[1.8058887E2,9.122192E0,6.858586E1,3.855517E0,2.6714783E0,1.3424515E1,1.1012053E1,5.6952E-1,2.838758E0,0E0,4.976677E0,5.7158055E0,2.8257004E1,5.2854433E0,8.963505E0,0E0,0E0,0E0,0E0,0E0,0E0,0E0,0E0,0E0,0E0,0E0,0E0,0E0,0E0],"parents":[2147483647,0,0,1,1,2,2,3,3,4,4,5,5,6,6,7,7,8,8,10,10,11,11,12,12,13,13,14,14],"right_children":[2,4,6,8,10,12,14,16,18,-1,20,22,24,26,28,-1,-1,-1,-1,-1,-1,-1,-1,-1,-1,-1,-1,-1,-1],"split_conditions":[4.7676802E-1,1E0,7.1E0,4.1415253E-1,4.1067654E-1,5.4610306E-1,9.2E0,6.333333E-1,9E0,-7.6582566E-2,6E0,1E0,1E0,1E0,1E0,-5.542469E-2,-8.875826E-3,3.5343148E-2,-1.9863136E-2,-5.673138E-2,1.844029E-2,-4.875603E-2,2.573708E-2,6.696094E-2,-7.7072054E-2,-4.768531E-2,-6.1677154E-3,3.4207586E-2,-4.3323666E-2],"split_indices":[97,11,76,97,97,97,76,71,78,0,79,87,45,17,55,0,0,0,0,0,0,0,0,0,0,0,0,0,0],"split_type":[0,0,0,0,0,0,0,0,0,0,0,0,0,0,0,0,0,0,0,0,0,0,0,0,0,0,0,0,0],"sum_hessian":[2.416321E2,8.09194E1,1.6071269E2,1.34705105E1,6.744889E1,1.0955847E2,5.115422E1,5.8254514E0,7.6450586E0,4.3414215E1,2.4034676E1,2.248329E1,8.707518E1,3.3683266E1,1.7470955E1,4.5910296E0,1.2344216E0,2.9441733E0,4.7008853E0,2.2067888E1,1.966788E0,1.9928638E0,2.0490425E1,8.433182E1,2.743364E0,2.157263E1,1.2110637E1,1.3375758E1,4.0951962E0],"tree_param":{"num_deleted":"0","num_feature":"100","num_nodes":"29","size_leaf_vector":"1"}},{"base_weights":[-2.0664583E-3,-1.1677365E0,5.780082E-1,3.974483E-2,-1.214131E0,1.0028062E0,-3.3219156E-1,-9.076697E-1,-1.5010989E0,7.684134E-1,1.5478783E0,-6.592773E-1,2.1105696E-1,-5.6453653E-2,2.4511427E-2,-8.151783E-2,-4.983091E-2,-2.3072591E-2,4.3261133E-2,3.5433184E-2,7.961897E-2,-4.8790794E-2,-3.1974278E-3,2.7401153E-2,-4.0677454E-2],"categories":[],"categories_nodes":[],"categories_segments":[],"categories_sizes":[],"default_left":[0,0,0,0,0,0,0,0,0,0,0,0,0,0,0,0,0,0,0,0,0,0,0,0,0],"id":3,"left_children":[1,3,5,-1,7,9,11,13,15,17,19,21,23,-1,-1,-1,-1,-1,-1,-1,-1,-1,-1,-1,-1],"loss_changes":[1.6407494E2,8.306679E0,6.298054E1,0E0,5.5992966E0,1.2955986E1,9.433687E0,1.3184147E1,9.411621E-1,9.853958E0,7.810974E-2,6.135968E0,7.4945107E0,0E0,0E0,0E0,0E0,0E0,0E0,0E0,0E0,0E0,0E0,0E0,0E0],"parents":[2147483647,0,0,1,1,2,2,4,4,5,5,6,6,7,7,8,8,9,9,10,10,11,11,12,12],"right_children":[2,4,6,-1,8,10,12,14,16,18,20,22,24,-1,-1,-1,-1,-1,-1,-1,-1,-1,-1,-1,-1],"split_conditions":[4.7590348E-1,1E0,7.1E0,3.974483E-2,7.1E0,6.6731596E-1,8.5E0,2E0,1E0,1E0,4.0425664E-1,1E0,1E0,-5.6453653E-2,2.4511427E-2,-8.151783E-2,-4.983091E-2,-2.3072591E-2,4.3261133E-2,3.5433184E-2,7.961897E-2,-4.8790794E-2,-3.1974278E-3,2.7401153E-2,-4.0677454E-2],"split_indices":[97,1,76,0,76,97,76,87,33,87,99,17,55,0,0,0,0,0,0,0,0,0,0,0,0],"split_type":[0,0,0,0,0,0,0,0,0,0,0,0,0,0,0,0,0,0,0,0,0,0,0,0,0],"sum_hessian":[2.4065317E2,7.962741E1,1.6102574E2,1.4662696E0,7.816114E1,1.0971778E2,5.130797E1,3.980993E1,3.835121E1,7.840968E1,3.1308102E1,3.1892284E1,1.9415682E1,3.4532825E1,5.2771053E0,2.8752518E1,9.598695E0,5.446803E0,7.2962875E1,2.4288464E0,2.8879255E1,2.0404182E1,1.1488102E1,1.4960652E1,4.455029E0],"tree_param":{"num_deleted":"0","num_feature":"100","num_nodes":"25","size_leaf_vector":"1"}},{"base_weights":[-2.2070208E-3,-1.1102053E0,5.5678135E-1,-3.6700478E-1,-1.2522029E0,9.627323E-1,-3.098785E-1,-8.9821184E-1,9.334503E-2,-9.978432E-1,-1.4941422E0,1.0391881E0,-4.25901E-1,-6.0915536E-1,2.6841986E-1,-7.620675E-3,-5.180132E-2,-3.1137312E-2,2.3033585E-2,-6.732402E-2,-2.4268482E-2,-8.018738E-2,-5.0867498E-2,9.500127E-3,6.1763424E-2,3.9997738E-2,-7.575579E-2,-4.351179E-2,-5.808177E-3,3.143694E-2,-4.0137198E-2],"categories":[],"categories_nodes":[],"categories_segments":[],"categories_sizes":[],"default_left":[0,0,0,0,0,0,0,0,0,0,0,0,0,0,0,0,0,0,0,0,0,0,0,0,0,0,0,0,0,0,0],"id":4,"left_children":[1,3,5,7,9,11,13,15,17,19,21,23,25,27,29,-1,-1,-1,-1,-1,-1,-1,-1,-1,-1,-1,-1,-1,-1,-1,-1],"loss_changes":[1.4950557E2,8.082626E0,5.6746758E1,3.604999E0,2.665741E0,1.2069054E1,9.152376E0,5.388713E-1,2.5542438E0,5.767353E0,7.243347E-2,1.7096329E1,9.789525E0,4.343437E0,7.608774E0,0E0,0E0,0E0,0E0,0E0,0E0,0E0,0E0,0E0,0E0,0E0,0E0,0E0,0E0,0E0,0E0],"parents":[2147483647,0,0,1,1,2,2,3,3,4,4,5,5,6,6,7,7,8,8,9,9,10,10,11,11,12,12,13,13,14,14],"right_children":[2,4,6,8,10,12,14,16,18,20,22,24,26,28,30,-1,-1,-1,-1,-1,-1,-1,-1,-1,-1,-1,-1,-1,-1,-1,-1],"split_conditions":[4.7676802E-1,1E0,7.1E0,4.1415253E-1,7.5E0,1E0,9.2E0,3.7599024E-1,4.0426385E-1,3.8413027E-1,1E0,5.4610306E-1,5.423407E-1,1E0,1E0,-7.620675E-3,-5.180132E-2,-3.1137312E-2,2.3033585E-2,-6.732402E-2,-2.4268482E-2,-8.018738E-2,-5.0867498E-2,9.500127E-3,6.1763424E-2,3.9997738E-2,-7.575579E-2,-4.351179E-2,-5.808177E-3,3.143694E-2,-4.0137198E-2],"split_indices":[97,11,76,97,76,45,76,97,99,97,33,97,97,17,55,0,0,0,0,0,0,0,0,0,0,0,0,0,0,0,0],"split_type":[0,0,0,0,0,0,0,0,0,0,0,0,0,0,0,0,0,0,0,0,0,0,0,0,0,0,0,0,0,0,0],"sum_hessian":[2.393899E2,7.994362E1,1.5944627E2,1.3399034E1,6.6544586E1,1.0850891E2,5.093736E1,5.779175E0,7.6198583E0,3.4937683E1,3.1606907E1,1.0308488E2,5.4240346E0,3.353118E1,1.7406178E1,1.2298174E0,4.5493574E0,2.347716E0,5.2721424E0,1.9823967E1,1.5113714E1,2.377733E1,7.8295765E0,1.9706944E1,8.337793E1,2.676894E0,2.7471406E0,2.1421494E1,1.210969E1,1.3333931E1,4.0722456E0],"tree_param":{"num_deleted":"0","num_feature":"100","num_nodes":"31","size_leaf_vector":"1"}},{"base_weights":[-3.43217E-3,-1.0671873E0,5.3175396E-1,3.928789E-2,-1.1115758E0,9.210529E-1,-2.9638812E-1,-8.1267124E-1,-1.3983849E0,6.9716173E-1,1.4446536E0,-5.819023E-1,2.551856E-1,-5.191763E-2,2.7041992E-2,-7.604996E-2,-4.6071272E-2,-2.3915289E-2,3.9586984E-2,7.8480266E-2,4.9801793E-2,-1.8105817E-3,-3.985561E-2,3.0041335E-2,-3.8650524E-2],"categories":[],"categories_nodes":[],"categories_segments":[],"categories_sizes":[],"default_left":[0,0,0,0,0,0,0,0,0,0,0,0,0,0,0,0,0,0,0,0,0,0,0,0,0],"id":5,"left_children":[1,3,5,-1,7,9,11,13,15,17,19,21,23,-1,-1,-1,-1,-1,-1,-1,-1,-1,-1,-1,-1],"loss_changes":[1.3656334E2,7.4771347E0,5.1724297E1,0E0,5.621071E0,1.1747688E1,8.304284E0,1.3081192E1,8.6987305E-1,9.066448E0,2.111206E-1,4.0144587E0,6.9890804E0,0E0,0E0,0E0,0E0,0E0,0E0,0E0,0E0,0E0,0E0,0E0,0E0],"parents":[2147483647,0,0,1,1,2,2,4,4,5,5,6,6,7,7,8,8,9,9,10,10,11,11,12,12],"right_children":[2,4,6,-1,8,10,12,14,16,18,20,22,24,-1,-1,-1,-1,-1,-1,-1,-1,-1,-1,-1,-1],"split_conditions":[4.7676802E-1,1E0,7.1E0,3.928789E-2,7.1E0,6.6731596E-1,9.2E0,2E0,1E0,1E0,1E0,1.6666667E-1,1E0,-5.191763E-2,2.7041992E-2,-7.604996E-2,-4.6071272E-2,-2.3915289E-2,3.9586984E-2,7.8480266E-2,4.9801793E-2,-1.8105817E-3,-3.985561E-2,3.0041335E-2,-3.8650524E-2],"split_indices":[97,1,76,0,76,97,76,87,33,87,13,71,55,0,0,0,0,0,0,0,0,0,0,0,0],"split_type":[0,0,0,0,0,0,0,0,0,0,0,0,0,0,0,0,0,0,0,0,0,0,0,0,0],"sum_hessian":[2.3787964E2,7.9288635E1,1.5859099E2,1.4642328E0,7.78244E1,1.0780232E2,5.0788673E1,3.9985786E1,3.783862E1,7.714617E1,3.0656147E1,3.3429424E1,1.7359247E1,3.4471012E1,5.5147734E0,2.835923E1,9.479389E0,5.442792E0,7.1703384E1,2.202332E1,8.63283E0,9.785463E0,2.3643963E1,1.3302944E1,4.056303E0],"tree_param":{"num_deleted":"0","num_feature":"100","num_nodes":"25","size_leaf_vector":"1"}},{"base_weights":[-3.3563913E-3,-1.0894952E0,4.8076996E-1,2.8086087E-2,-1.1223744E0,8.652448E-1,-3.1420657E-1,-9.0146554E-1,-7.2140604E-2,2.547189E-1,1.0444639E0,-5.9252703E-1,2.2968267E-1,-5.715953E-2,-2.113427E-2,-4.718974E-2,2.1204717E-2,5.7314403E-2,-7.438354E-2,-4.231639E-2,-6.6007758E-3,2.5511658E-2,-3.0234063E-2],"categories":[],"categories_nodes":[],"categories_segments":[],"categories_sizes":[],"default_left":[0,0,0,0,0,0,0,0,0,0,0,0,0,0,0,0,0,0,0,0,0,0,0],"id":6,"left_children":[1,3,5,-1,7,9,11,13,-1,15,17,19,21,-1,-1,-1,-1,-1,-1,-1,-1,-1,-1],"loss_changes":[1.25245255E2,4.617241E0,5.0629402E1,0E0,3.8196945E0,1.1913902E1,8.377052E0,4.7805214E0,0E0,5.796727E0,2.3809822E1,4.129965E0,4.7909327E0,0E0,0E0,0E0,0E0,0E0,0E0,0E0,0E0,0E0,0E0],"parents":[2147483647,0,0,1,1,2,2,4,4,5,5,6,6,7,7,9,9,10,10,11,11,12,12],"right_children":[2,4,6,-1,8,10,12,14,-1,16,18,20,22,-1,-1,-1,-1,-1,-1,-1,-1,-1,-1],"split_conditions":[4.673482E-1,4.5E-1,7.1E0,2.8086087E-2,7.8E0,5.4610306E-1,9.4E0,4.1067654E-1,-7.2140604E-2,1E0,1E0,1E0,1E0,-5.715953E-2,-2.113427E-2,-4.718974E-2,2.1204717E-2,5.7314403E-2,-7.438354E-2,-4.231639E-2,-6.6007758E-3,2.5511658E-2,-3.0234063E-2],"split_indices":[97,0,76,0,76,97,76,97,0,87,45,17,55,0,0,0,0,0,0,0,0,0,0],"split_type":[0,0,0,0,0,0,0,0,0,0,0,0,0,0,0,0,0,0,0,0,0,0,0],"sum_hessian":[2.3619041E2,7.243403E1,1.6375638E2,1.1001327E0,7.13339E1,1.1031587E2,5.3440506E1,4.448163E1,2.6852268E1,2.5583752E1,8.473212E1,3.529158E1,1.8148928E1,2.8636168E1,1.584546E1,2.6017022E0,2.298205E1,8.198267E1,2.7494478E0,2.2212084E1,1.3079495E1,1.3872761E1,4.276167E0],"tree_param":{"num_deleted":"0","num_feature":"100","num_nodes":"23","size_leaf_vector":"1"}},{"base_weights":[-4.1600247E-3,-1.0486087E0,4.593917E-1,-1.2367244E0,-6.693674E-1,8.287196E-1,-3.0057737E-1,-1.2892715E0,-6.474197E-1,-1.6048582E-1,-1.092165E0,6.1579037E-1,1.3584397E0,-5.664967E-1,2.18537E-1,-6.6244066E-2,-3.0398166E-2,9.074052E-3,-4.778921E-2,-5.1465746E-2,8.195774E-3,-1.4961756E-2,-5.8658052E-2,-2.612402E-2,3.575425E-2,7.4150816E-2,4.596456E-2,-2.4191714E-4,-3.8676973E-2,2.4377458E-2,-2.9107789E-2],"categories":[],"categories_nodes":[],"categories_segments":[],"categories_sizes":[],"default_left":[0,0,0,0,0,0,0,0,0,0,0,0,0,0,0,0,0,0,0,0,0,0,0,0,0,0,0,0,0,0,0],"id":7,"left_children":[1,3,5,7,9,11,13,15,17,19,21,23,25,27,29,-1,-1,-1,-1,-1,-1,-1,-1,-1,-1,-1,-1,-1,-1,-1,-1],"loss_changes":[1.14385605E2,4.3532104E0,4.617908E1,6.319885E-1,5.474477E0,1.161454E1,7.6127315E0,2.2509766E-1,1.6780081E0,3.8577588E0,5.5903435E-1,9.479715E0,3.2281876E-1,4.2003374E0,4.397542E0,0E0,0E0,0E0,0E0,0E0,0E0,0E0,0E0,0E0,0E0,0E0,0E0,0E0,0E0,0E0,0E0],"parents":[2147483647,0,0,1,1,2,2,3,3,4,4,5,5,6,6,7,7,8,8,9,9,10,10,11,11,12,12,13,13,14,14],"right_children":[2,4,6,8,10,12,14,16,18,20,22,24,26,28,30,-1,-1,-1,-1,-1,-1,-1,-1,-1,-1,-1,-1,-1,-1,-1,-1],"split_conditions":[4.673482E-1,4.1067654E-1,7.1E0,1E0,7.5E0,6.6731596E-1,9.4E0,7E0,1E0,1E0,1.6466667E2,1E0,1E0,1.6666667E-1,1E0,-6.6244066E-2,-3.0398166E-2,9.074052E-3,-4.778921E-2,-5.1465746E-2,8.195774E-3,-1.4961756E-2,-5.8658052E-2,-2.612402E-2,3.575425E-2,7.4150816E-2,4.596456E-2,-2.4191714E-4,-3.8676973E-2,2.4377458E-2,-2.9107789E-2],"split_indices":[97,97,76,36,76,97,76,79,60,87,98,87,13,71,55,0,0,0,0,0,0,0,0,0,0,0,0,0,0,0,0],"split_type":[0,0,0,0,0,0,0,0,0,0,0,0,0,0,0,0,0,0,0,0,0,0,0,0,0,0,0,0,0,0,0],"sum_hessian":[2.3426279E2,7.162324E1,1.6263956E2,4.6364113E1,2.5259125E1,1.0938866E2,5.3250896E1,4.147784E1,4.886272E0,1.2088692E1,1.3170434E1,7.956768E1,2.9820984E1,3.5152534E1,1.8098362E1,3.851991E1,2.9579287E0,1.4364603E0,3.449812E0,2.6957693E0,9.392922E0,1.6557277E0,1.1514706E1,6.0420694E0,7.3525604E1,2.1379168E1,8.441815E0,9.743657E0,2.5408878E1,1.3839678E1,4.258684E0],"tree_param":{"num_deleted":"0","num_feature":"100","num_nodes":"31","size_leaf_vector":"1"}},{"base_weights":[-4.7138487E-3,-1.0118647E0,4.4006515E-1,2.8474594E-2,-1.0445191E0,7.954063E-1,-2.8731632E-1,-8.309745E-1,-1.3597041E0,5.882611E-1,1.3169991E0,-5.411121E-1,2.0796126E-1,-5.290084E-2,-1.9452082E-2,-7.061374E-2,-3.336617E-2,-2.5015006E-2,3.41856E-2,2.6524449E-2,6.8159245E-2,-3.945395E-2,-4.8609353E-3,2.3298146E-2,-2.8030602E-2],"categories":[],"categories_nodes":[],"categories_segments":[],"categories_sizes":[],"default_left":[0,0,0,0,0,0,0,0,0,0,0,0,0,0,0,0,0,0,0,0,0,0,0,0,0],"id":8,"left_children":[1,3,5,-1,7,9,11,13,15,17,19,21,23,-1,-1,-1,-1,-1,-1,-1,-1,-1,-1,-1,-1],"loss_changes":[1.0495636E2,4.301079E0,4.2237915E1,0E0,3.6268768E0,1.1051437E1,6.909892E0,4.073616E0,3.9318085E-2,8.66996E0,3.7771225E-1,3.8893805E0,4.037548E0,0E0,0E0,0E0,0E0,0E0,0E0,0E0,0E0,0E0,0E0,0E0,0E0],"parents":[2147483647,0,0,1,1,2,2,4,4,5,5,6,6,7,7,8,8,9,9,10,10,11,11,12,12],"right_children":[2,4,6,-1,8,10,12,14,16,18,20,22,24,-1,-1,-1,-1,-1,-1,-1,-1,-1,-1,-1,-1],"split_conditions":[4.673482E-1,4.5E-1,7.1E0,2.8474594E-2,7.8E0,6.6731596E-1,9.4E0,4.1067654E-1,4.5378637E-1,1E0,4.0425664E-1,1E0,1E0,-5.290084E-2,-1.9452082E-2,-7.061374E-2,-3.336617E-2,-2.5015006E-2,3.41856E-2,2.6524449E-2,6.8159245E-2,-3.945395E-2,-4.8609353E-3,2.3298146E-2,-2.8030602E-2],"split_indices":[97,0,76,0,76,97,76,97,97,87,99,17,55,0,0,0,0,0,0,0,0,0,0,0,0],"split_type":[0,0,0,0,0,0,0,0,0,0,0,0,0,0,0,0,0,0,0,0,0,0,0,0,0],"sum_hessian":[2.3230473E2,7.0772835E1,1.615319E2,1.0992552E0,6.967358E1,1.0845557E2,5.307634E1,4.3701412E1,2.5972166E1,7.914985E1,2.9305714E1,3.5032196E1,1.804414E1,2.7948732E1,1.5752677E1,2.3172964E1,2.7992017E0,6.03885E0,7.3111E1,2.3179913E0,2.6987722E1,2.1977526E1,1.3054672E1,1.3804014E1,4.2401266E0],"tree_param":{"num_deleted":"0","num_feature":"100","num_nodes":"25","size_leaf_vector":"1"}},{"base_weights":[-4.9411734E-3,-6.1435384E-1,6.76045E-1,-9.761938E-1,-1.159101E-1,1.1037145E0,-1.00180276E-1,-3.458206E-1,-1.0787461E0,3.2790938E-1,-3.9489445E-1,1.20639E0,-7.0065014E-2,-7.202715E-1,1.259607E-1,-2.768389E-2,2.9235443E-2,-4.223925E-2,-6.505005E-2,2.7988702E-2,-1.9320834E-2,2.9638214E-2,-2.9535297E-2,6.313809E-2,-6.7539522E-3,1.1328108E-2,-4.912859E-2,4.0522717E-2,-5.9472746E-3],"categories":[],"categories_nodes":[],"categories_segments":[],"categories_sizes":[],"default_left":[0,0,0,0,0,0,0,0,0,0,0,0,0,0,0,0,0,0,0,0,0,0,0,0,0,0,0,0,0],"id":9,"left_children":[1,3,5,7,9,11,13,15,17,19,21,23,-1,25,27,-1,-1,-1,-1,-1,-1,-1,-1,-1,-1,-1,-1,-1,-1],"loss_changes":[9.635451E1,2.1984913E1,3.6512085E1,4.2074585E0,6.6509004E0,1.9896385E1,5.6816163E0,2.5259924E0,2.0452652E0,3.6738157E0,6.692297E0,5.35318E0,0E0,2.9056935E0,5.1366615E0,0E0,0E0,0E0,0E0,0E0,0E0,0E0,0E0,0E0,0E0,0E0,0E0,0E0,0E0],"parents":[2147483647,0,0,1,1,2,2,3,3,4,4,5,5,6,6,7,7,8,8,9,9,10,10,11,11,13,13,14,14],"right_children":[2,4,6,8,10,12,14,16,18,20,22,24,-1,26,28,-1,-1,-1,-1,-1,-1,-1,-1,-1,-1,-1,-1,-1,-1],"split_conditions":[5.4610306E-1,4.673482E-1,1E1,1E0,1E0,1E0,1E0,1E0,7.5E0,1E0,1.825E2,1E0,-7.0065014E-2,4.0426272E-1,1E0,-2.768389E-2,2.9235443E-2,-4.223925E-2,-6.505005E-2,2.7988702E-2,-1.9320834E-2,2.9638214E-2,-2.9535297E-2,6.313809E-2,-6.7539522E-3,1.1328108E-2,-4.912859E-2,4.0522717E-2,-5.9472746E-3],"split_indices":[97,97,78,11,14,45,60,55,76,47,98,58,0,99,91,0,0,0,0,0,0,0,0,0,0,0,0,0,0],"split_type":[0,0,0,0,0,0,0,0,0,0,0,0,0,0,0,0,0,0,0,0,0,0,0,0,0,0,0,0,0],"sum_hessian":[2.3017786E2,1.2152411E2,1.0865375E2,6.985507E1,5.1669037E1,6.978375E1,3.886999E1,1.0386015E1,5.946906E1,1.9875278E1,3.1793756E1,6.753407E1,2.2496786E0,9.803416E0,2.9066574E1,8.82068E0,1.565335E0,3.1310442E1,2.8158617E1,1.5168169E1,4.7071085E0,4.925034E0,2.6868723E1,6.486688E1,2.6671927E0,2.1562347E0,7.647182E0,7.050825E0,2.2015749E1],"tree_param":{"num_deleted":"0","num_feature":"100","num_nodes":"29","size_leaf_vector":"1"}},{"base_weights":[-5.205414E-3,-8.8638717E-1,4.2920017E-1,-2.23671E-1,-1.0199101E0,7.521453E-1,-2.3804589E-1,-7.0116997E-1,1.6732106E-1,-7.921324E-1,-1.2472879E0,5.516532E-1,1.2464513E0,-4.9574053E-1,1.9290045E-1,-1.9673514E-3,-4.2132206E-2,-2.6618605E-2,2.5625391E-2,-4.683574E-2,5.9000514E-3,-6.795256E-2,-3.9814573E-2,1.021346E-3,3.840248E-2,6.874454E-2,4.0483493E-2,-3.886804E-2,6.858396E-4,2.3363456E-2,-3.206567E-2],"categories":[],"categories_nodes":[],"categories_segments":[],"categories_sizes":[],"default_left":[0,0,0,0,0,0,0,0,0,0,0,0,0,0,0,0,0,0,0,0,0,0,0,0,0,0,0,0,0,0,0],"id":10,"left_children":[1,3,5,7,9,11,13,15,17,19,21,23,25,27,29,-1,-1,-1,-1,-1,-1,-1,-1,-1,-1,-1,-1,-1,-1,-1,-1],"loss_changes":[8.808531E1,6.495308E0,3.3393402E1,2.7352748E0,2.272728E0,9.6299095E0,5.7627497E0,5.759585E-1,2.3298845E0,4.6098614E0,4.181862E-1,8.70484E0,5.2757645E-1,4.63265E0,4.8352084E0,0E0,0E0,0E0,0E0,0E0,0E0,0E0,0E0,0E0,0E0,0E0,0E0,0E0,0E0,0E0,0E0],"parents":[2147483647,0,0,1,1,2,2,3,3,4,4,5,5,6,6,7,7,8,8,9,9,10,10,11,11,12,12,13,13,14,14],"right_children":[2,4,6,8,10,12,14,16,18,20,22,24,26,28,30,-1,-1,-1,-1,-1,-1,-1,-1,-1,-1,-1,-1,-1,-1,-1,-1],"split_conditions":[4.7676802E-1,1E0,7.1E0,4.1415253E-1,7.5E0,6.6731596E-1,8.5E0,3.7599024E-1,4.0426385E-1,2E0,1E0,1.965E2,1E0,1E0,1E0,-1.9673514E-3,-4.2132206E-2,-2.6618605E-2,2.5625391E-2,-4.683574E-2,5.9000514E-3,-6.795256E-2,-3.9814573E-2,1.021346E-3,3.840248E-2,6.874454E-2,4.0483493E-2,-3.886804E-2,6.858396E-4,2.3363456E-2,-3.206567E-2],"split_indices":[97,11,76,97,76,97,76,97,99,87,33,98,13,17,55,0,0,0,0,0,0,0,0,0,0,0,0,0,0,0,0],"split_type":[0,0,0,0,0,0,0,0,0,0,0,0,0,0,0,0,0,0,0,0,0,0,0,0,0,0,0,0,0,0,0],"sum_hessian":[2.2811992E2,7.498141E1,1.5313852E2,1.3022378E1,6.1959026E1,1.0310754E2,5.003098E1,5.50549E0,7.5168886E0,3.3192215E1,2.8766813E1,7.486008E1,2.8247463E1,3.1214918E1,1.881606E1,1.1947081E0,4.310782E0,2.3041353E0,5.212753E0,2.861696E1,4.5752525E0,2.1440191E1,7.3266225E0,2.1984713E1,5.2875362E1,2.0168852E1,8.078611E0,1.9763885E1,1.1451034E1,1.4490182E1,4.3258777E0],"tree_param":{"num_deleted":"0","num_feature":"100","num_nodes":"31","size_leaf_vector":"1"}},{"base_weights":[-5.4205265E-3,-5.7165015E-1,6.284377E-1,-1.0941576E0,-2.6124075E-1,1.0380026E0,-1.0186461E-1,-1.1480511E0,-5.222492E-1,1.04878806E-1,-5.881776E-1,1.1394528E0,-6.8257086E-2,-6.8343383E-1,1.1094898E-1,-5.9209894E-2,-2.491258E-2,1.2414004E-2,-4.1693293E-2,-5.292628E-2,1.6399777E-2,4.7837052E-2,-3.4463994E-2,5.97378E-2,-7.1007856E-3,1.1201799E-2,-4.680772E-2,3.787478E-2,-5.8709234E-3],"categories":[],"categories_nodes":[],"categories_segments":[],"categories_sizes":[],"default_left":[0,0,0,0,0,0,0,0,0,0,0,0,0,0,0,0,0,0,0,0,0,0,0,0,0,0,0,0,0],"id":11,"left_children":[1,3,5,7,9,11,13,15,17,19,21,23,-1,25,27,-1,-1,-1,-1,-1,-1,-1,-1,-1,-1,-1,-1,-1,-1],"loss_changes":[8.179953E1,1.9237514E1,3.227103E1,7.7344894E-1,9.257603E0,1.8374756E1,4.970772E0,3.465767E-1,1.5686555E0,9.974814E0,7.0222225E0,4.8993835E0,0E0,2.671669E0,4.4911356E0,0E0,0E0,0E0,0E0,0E0,0E0,0E0,0E0,0E0,0E0,0E0,0E0,0E0,0E0],"parents":[2147483647,0,0,1,1,2,2,3,3,4,4,5,5,6,6,7,7,8,8,9,9,10,10,11,11,13,13,14,14],"right_children":[2,4,6,8,10,12,14,16,18,20,22,24,-1,26,28,-1,-1,-1,-1,-1,-1,-1,-1,-1,-1,-1,-1,-1,-1],"split_conditions":[5.4610306E-1,4.1067654E-1,1E1,1E0,7.1E0,1E0,1E0,7E0,1E0,1E0,1E0,1E0,-6.8257086E-2,4.0426272E-1,1E0,-5.9209894E-2,-2.491258E-2,1.2414004E-2,-4.1693293E-2,-5.292628E-2,1.6399777E-2,4.7837052E-2,-3.4463994E-2,5.97378E-2,-7.1007856E-3,1.1201799E-2,-4.680772E-2,3.787478E-2,-5.8709234E-3],"split_indices":[97,97,78,36,76,45,60,79,60,87,1,58,0,99,91,0,0,0,0,0,0,0,0,0,0,0,0,0,0],"split_type":[0,0,0,0,0,0,0,0,0,0,0,0,0,0,0,0,0,0,0,0,0,0,0,0,0,0,0,0,0],"sum_hessian":[2.259105E2,1.1937246E2,1.0653804E2,4.3546467E1,7.5826E1,6.798798E1,3.8550056E1,3.887563E1,4.670837E0,3.6089947E1,3.973605E1,6.573864E1,2.2493484E0,9.735049E0,2.8815004E1,3.6047962E1,2.827667E0,1.403551E0,3.267286E0,5.2050147E0,3.0884933E1,1.9208544E0,3.7815193E1,6.308385E1,2.6547873E0,2.1452792E0,7.5897703E0,6.916429E0,2.1898577E1],"tree_param":{"num_deleted":"0","num_feature":"100","num_nodes":"29","size_leaf_vector":"1"}},{"base_weights":[-5.872221E-3,-8.832805E-1,3.7275735E-1,2.9124899E-2,-9.1586584E-1,6.811196E-1,-2.4130024E-1,-7.112185E-1,-1.2313571E0,4.9075687E-1,1.1852628E0,-4.772883E-1,2.1553914E-1,-5.9313674E-2,-2.4879051E-2,-6.424081E-2,-2.8517162E-2,-2.5732992E-2,2.9074896E-2,6.581173E-2,3.7541207E-2,2.989966E-3,-3.3939924E-2,2.2165036E-2,-2.3893384E-2],"categories":[],"categories_nodes":[],"categories_segments":[],"categories_sizes":[],"default_left":[0,0,0,0,0,0,0,0,0,0,0,0,0,0,0,0,0,0,0,0,0,0,0,0,0],"id":12,"left_children":[1,3,5,-1,7,9,11,13,15,17,19,21,23,-1,-1,-1,-1,-1,-1,-1,-1,-1,-1,-1,-1],"loss_changes":[7.495188E1,3.781784E0,3.0008945E1,0E0,3.4447975E0,9.513012E0,5.8629146E0,3.7694168E0,1.4929199E-1,7.4209976E0,6.1200714E-1,3.8871355E0,3.1947613E0,0E0,0E0,0E0,0E0,0E0,0E0,0E0,0E0,0E0,0E0,0E0,0E0],"parents":[2147483647,0,0,1,1,2,2,4,4,5,5,6,6,7,7,8,8,9,9,10,10,11,11,12,12],"right_children":[2,4,6,-1,8,10,12,14,16,18,20,22,24,-1,-1,-1,-1,-1,-1,-1,-1,-1,-1,-1,-1],"split_conditions":[4.673482E-1,4.5E-1,7.1E0,2.9124899E-2,7.8E0,6.6731596E-1,9.4E0,3.2036376E-1,4.5378637E-1,1E0,1E0,1.6666667E-1,1E0,-5.9313674E-2,-2.4879051E-2,-6.424081E-2,-2.8517162E-2,-2.5732992E-2,2.9074896E-2,6.581173E-2,3.7541207E-2,2.989966E-3,-3.3939924E-2,2.2165036E-2,-2.3893384E-2],"split_indices":[97,0,76,0,76,97,76,97,97,87,13,71,55,0,0,0,0,0,0,0,0,0,0,0,0],"split_type":[0,0,0,0,0,0,0,0,0,0,0,0,0,0,0,0,0,0,0,0,0,0,0,0,0],"sum_hessian":[2.2362305E2,6.700884E1,1.566142E2,1.0902492E0,6.5918594E1,1.0418583E2,5.242837E1,4.195699E1,2.3961607E1,7.7061226E1,2.7124607E1,3.4540916E1,1.7887453E1,1.1603072E1,3.0353916E1,2.1295624E1,2.665982E0,5.9924736E0,7.106875E1,1.9281887E1,7.842719E0,9.615593E0,2.4925323E1,1.3736238E1,4.151215E0],"tree_param":{"num_deleted":"0","num_feature":"100","num_nodes":"25","size_leaf_vector":"1"}},{"base_weights":[-5.986419E-3,-5.335414E-1,5.8552307E-1,-1.0331054E0,-2.4422434E-1,9.795763E-1,-1.030777E-1,-1.0866905E0,-4.789392E-1,9.038846E-2,-5.447772E-1,1.0806184E0,-6.69451E-2,-6.484393E-1,9.715607E-2,-5.614366E-2,-2.2799265E-2,1.30818775E-2,-3.944167E-2,-5.0247278E-2,1.4968193E-2,4.5970347E-2,-3.209424E-2,5.6780238E-2,-7.83408E-3,1.1398324E-2,-4.4736855E-2,3.152727E-2,-8.013916E-3],"categories":[],"categories_nodes":[],"categories_segments":[],"categories_sizes":[],"default_left":[0,0,0,0,0,0,0,0,0,0,0,0,0,0,0,0,0,0,0,0,0,0,0,0,0,0,0,0,0],"id":13,"left_children":[1,3,5,7,9,11,13,15,17,19,21,23,-1,25,27,-1,-1,-1,-1,-1,-1,-1,-1,-1,-1,-1,-1,-1,-1],"loss_changes":[6.9691635E1,1.6808556E1,2.8670704E1,7.5588226E-1,7.698541E0,1.7157127E1,4.3465652E0,3.643837E-1,1.4864752E0,8.735396E0,6.307602E0,4.587593E0,0E0,2.5060601E0,4.1602974E0,0E0,0E0,0E0,0E0,0E0,0E0,0E0,0E0,0E0,0E0,0E0,0E0,0E0,0E0],"parents":[2147483647,0,0,1,1,2,2,3,3,4,4,5,5,6,6,7,7,8,8,9,9,10,10,11,11,13,13,14,14],"right_children":[2,4,6,8,10,12,14,16,18,20,22,24,-1,26,28,-1,-1,-1,-1,-1,-1,-1,-1,-1,-1,-1,-1,-1,-1],"split_conditions":[5.4610306E-1,4.1067654E-1,1E1,1E0,7.1E0,1E0,1E0,7E0,1E0,1E0,1E0,1E0,-6.69451E-2,4.0426272E-1,2E-1,-5.614366E-2,-2.2799265E-2,1.30818775E-2,-3.944167E-2,-5.0247278E-2,1.4968193E-2,4.5970347E-2,-3.209424E-2,5.6780238E-2,-7.83408E-3,1.1398324E-2,-4.4736855E-2,3.152727E-2,-8.013916E-3],"split_indices":[97,97,78,36,76,45,60,79,60,87,1,58,0,99,71,0,0,0,0,0,0,0,0,0,0,0,0,0,0],"split_type":[0,0,0,0,0,0,0,0,0,0,0,0,0,0,0,0,0,0,0,0,0,0,0,0,0,0,0,0,0],"sum_hessian":[2.2133101E2,1.1704184E2,1.0428918E2,4.1981503E1,7.506033E1,6.606232E1,3.8226856E1,3.7403793E1,4.577709E0,3.584854E1,3.9211792E1,6.3815086E1,2.2472298E0,9.664897E0,2.856196E1,3.4636406E1,2.7673874E0,1.3963853E0,3.181324E0,5.1333632E0,3.071518E1,1.9121752E0,3.7299618E1,6.117847E1,2.636616E0,2.1366048E0,7.528292E0,8.825886E0,1.9736074E1],"tree_param":{"num_deleted":"0","num_feature":"100","num_nodes":"29","size_leaf_vector":"1"}},{"base_weights":[-6.428912E-3,-8.292154E-1,3.442434E-1,-6.246244E-1,-1.1524476E0,6.3121986E-1,-2.1824959E-1,-9.4861203E-1,-2.9602954E-1,-7.0882916E-1,-6.3388534E-2,4.4757566E-1,1.1313546E0,-4.468693E-1,2.2224346E-1,-5.7035506E-2,-2.3840638E-2,-3.290135E-2,4.1015726E-3,-4.6774574E-2,-8.282194E-3,2.4710832E-2,-6.4901814E-2,1.7104773E-2,5.9219535E-2,2.5249226E-3,-3.174938E-2,3.2898366E-2,-6.2270598E-3],"categories":[],"categories_nodes":[],"categories_segments":[],"categories_sizes":[],"default_left":[0,0,0,0,0,0,0,0,0,0,0,0,0,0,0,0,0,0,0,0,0,0,0,0,0,0,0,0,0],"id":14,"left_children":[1,3,5,7,9,11,13,15,17,19,-1,21,23,25,27,-1,-1,-1,-1,-1,-1,-1,-1,-1,-1,-1,-1,-1,-1],"loss_changes":[6.3761093E1,3.64719E0,2.5151937E1,4.2569046E0,3.5033798E-1,8.941689E0,5.4461293E0,1.3601379E0,3.148989E0,7.44457E-1,0E0,6.9020452E0,7.238846E-1,3.3334675E0,2.9239774E0,0E0,0E0,0E0,0E0,0E0,0E0,0E0,0E0,0E0,0E0,0E0,0E0,0E0,0E0],"parents":[2147483647,0,0,1,1,2,2,3,3,4,4,5,5,6,6,7,7,8,8,9,9,11,11,12,12,13,13,14,14],"right_children":[2,4,6,8,10,12,14,16,18,20,-1,22,24,26,28,-1,-1,-1,-1,-1,-1,-1,-1,-1,-1,-1,-1,-1,-1],"split_conditions":[4.673482E-1,7.8E0,7.1E0,3.8413027E-1,4E0,6.6731596E-1,9.4E0,5E-1,1E0,5E-1,-6.3388534E-2,8E0,4.0425664E-1,1.6666667E-1,5E-1,-5.7035506E-2,-2.3840638E-2,-3.290135E-2,4.1015726E-3,-4.6774574E-2,-8.282194E-3,2.4710832E-2,-6.4901814E-2,1.7104773E-2,5.9219535E-2,2.5249226E-3,-3.174938E-2,3.2898366E-2,-6.2270598E-3],"split_indices":[97,76,76,97,77,97,76,69,14,71,0,81,99,71,68,0,0,0,0,0,0,0,0,0,0,0,0,0,0],"split_type":[0,0,0,0,0,0,0,0,0,0,0,0,0,0,0,0,0,0,0,0,0,0,0,0,0,0,0,0,0],"sum_hessian":[2.189979E2,6.503676E1,1.5396114E2,4.162346E1,2.3413298E1,1.0186751E2,5.209363E1,2.0008562E1,2.1614897E1,6.305217E0,1.710808E1,7.589469E1,2.5972815E1,3.428496E1,1.7808668E1,1.3211552E1,6.797011E0,1.066373E1,1.0951168E1,3.9392145E0,2.366002E0,7.461786E1,1.2768314E0,2.1045187E0,2.3868298E1,9.609603E0,2.467536E1,7.4946027E0,1.0314066E1],"tree_param":{"num_deleted":"0","num_feature":"100","num_nodes":"29","size_leaf_vector":"1"}},{"base_weights":[-7.0863916E-3,-4.9942324E-1,5.4569805E-1,-9.772128E-1,-2.3039328E-1,9.2657053E-1,-1.0428936E-1,-6.1718132E-2,-8.0228084E-1,7.264711E-2,-5.0414044E-1,1.0272963E0,-6.556991E-2,-2.02187E-1,4.3208994E-2,-5.20397E-2,-2.0599412E-2,-9.675411E-3,4.6381157E-2,4.4613745E-2,-2.9899374E-2,5.4116905E-2,-8.7336525E-3,9.614637E-3,-3.52653E-2],"categories":[],"categories_nodes":[],"categories_segments":[],"categories_sizes":[],"default_left":[0,0,0,0,0,0,0,0,0,0,0,0,0,0,0,0,0,0,0,0,0,0,0,0,0],"id":15,"left_children":[1,3,5,7,9,11,13,-1,15,17,19,21,-1,23,-1,-1,-1,-1,-1,-1,-1,-1,-1,-1,-1],"loss_changes":[5.955112E1,1.4650303E1,2.5616465E1,8.711281E-1,6.2870893E0,1.6021881E1,3.8709767E0,0E0,2.129673E0,8.515784E0,5.7378616E0,4.347519E0,0E0,7.3235946E0,0E0,0E0,0E0,0E0,0E0,0E0,0E0,0E0,0E0,0E0,0E0],"parents":[2147483647,0,0,1,1,2,2,3,3,4,4,5,5,6,6,8,8,9,9,10,10,11,11,13,13],"right_children":[2,4,6,8,10,12,14,-1,16,18,20,22,-1,24,-1,-1,-1,-1,-1,-1,-1,-1,-1,-1,-1],"split_conditions":[5.4610306E-1,4.1067654E-1,1E1,3.0151007E-1,7.1E0,1E0,7E0,-6.1718132E-2,5E-1,2E0,1E0,1E0,-6.556991E-2,4E-1,4.3208994E-2,-5.20397E-2,-2.0599412E-2,-9.675411E-3,4.6381157E-2,4.4613745E-2,-2.9899374E-2,5.4116905E-2,-8.7336525E-3,9.614637E-3,-3.52653E-2],"split_indices":[97,97,78,97,76,45,79,0,71,87,1,58,0,71,0,0,0,0,0,0,0,0,0,0,0],"split_type":[0,0,0,0,0,0,0,0,0,0,0,0,0,0,0,0,0,0,0,0,0,0,0,0,0],"sum_hessian":[2.1681097E2,1.1472649E2,1.0208449E2,4.0380142E1,7.4346344E1,6.409896E1,3.7985527E1,1.3896318E1,2.6483824E1,3.563392E1,3.8712425E1,6.1855934E1,2.2430224E0,3.5216866E1,2.768664E0,1.5403705E1,1.1080118E1,2.7764465E1,7.869452E0,1.9020941E0,3.681033E1,5.9242565E1,2.6133683E0,2.0085924E1,1.513094E1],"tree_param":{"num_deleted":"0","num_feature":"100","num_nodes":"25","size_leaf_vector":"1"}},{"base_weights":[-7.1653114E-3,-6.030575E-1,4.1812822E-1,-9.504359E-1,-3.123486E-1,7.635256E-1,-9.798491E-2,-6.0418647E-2,-7.769761E-1,-4.235396E-1,9.4135404E-1,8.447732E-1,-7.903984E-1,-6.026391E-1,8.9344755E-2,-5.064803E-2,-1.9799354E-2,5.1998105E-2,-2.4581326E-2,5.6724947E-2,8.867047E-3,-2.3899754E-3,4.9901728E-2,1.7587362E-2,-6.35119E-2,3.5393383E-2,-3.886845E-2,-3.9052427E-2,1.3637974E-2],"categories":[],"categories_nodes":[],"categories_segments":[],"categories_sizes":[],"default_left":[0,0,0,0,0,0,0,0,0,0,0,0,0,0,0,0,0,0,0,0,0,0,0,0,0,0,0,0,0],"id":16,"left_children":[1,3,5,7,9,11,13,-1,15,17,19,21,23,25,27,-1,-1,-1,-1,-1,-1,-1,-1,-1,-1,-1,-1,-1,-1],"loss_changes":[5.4860714E1,8.807007E0,2.2594696E1,8.768425E-1,7.4478498E0,1.0236977E1,4.9257026E0,0E0,2.0322876E0,5.2083387E0,4.5249128E-1,9.967121E0,2.7939072E0,3.7744021E0,6.351941E0,0E0,0E0,0E0,0E0,0E0,0E0,0E0,0E0,0E0,0E0,0E0,0E0,0E0,0E0],"parents":[2147483647,0,0,1,1,2,2,3,3,4,4,5,5,6,6,8,8,9,9,10,10,11,11,12,12,13,13,14,14],"right_children":[2,4,6,8,10,12,14,-1,16,18,20,22,24,26,28,-1,-1,-1,-1,-1,-1,-1,-1,-1,-1,-1,-1,-1,-1],"split_conditions":[5.1235026E-1,4.1067654E-1,1E1,3.0151007E-1,6E0,1E0,1E0,-6.0418647E-2,5E-1,1E0,1E0,5.447707E-1,5.423407E-1,4.0425834E-1,1E0,-5.064803E-2,-1.9799354E-2,5.1998105E-2,-2.4581326E-2,5.6724947E-2,8.867047E-3,-2.3899754E-3,4.9901728E-2,1.7587362E-2,-6.35119E-2,3.5393383E-2,-3.886845E-2,-3.9052427E-2,1.3637974E-2],"split_indices":[97,97,78,97,79,45,60,0,71,1,55,97,97,99,70,0,0,0,0,0,0,0,0,0,0,0,0,0,0],"split_type":[0,0,0,0,0,0,0,0,0,0,0,0,0,0,0,0,0,0,0,0,0,0,0,0,0,0,0,0,0],"sum_hessian":[2.1447864E2,8.91499E1,1.2532873E2,3.9582275E1,4.956763E1,7.479466E1,5.053406E1,1.3516602E1,2.6065674E1,4.613783E1,3.4297986E0,7.151199E1,3.2826736E0,1.3080103E1,3.745396E1,1.5071579E1,1.0994095E1,1.4165084E0,4.472132E1,2.350631E0,1.0791676E0,1.0580537E1,6.0931454E1,1.0501012E0,2.2325723E0,1.179844E0,1.1900259E1,5.951723E0,3.1502235E1],"tree_param":{"num_deleted":"0","num_feature":"100","num_nodes":"29","size_leaf_vector":"1"}},{"base_weights":[-7.164559E-3,-7.5857985E-1,3.070808E-1,-5.557596E-1,-1.0891405E0,5.661467E-1,-1.8827882E-1,-5.2395415E-2,-3.548666E-1,-6.4693844E-1,-6.0432326E-2,3.9222342E-1,1.0609798E0,-4.0935183E-1,2.335629E-1,-2.6979104E-2,7.1269767E-3,-4.3740626E-2,-6.350159E-3,2.1912051E-2,-6.3505374E-2,6.03705E-2,3.0309925E-2,-3.2135602E-2,-4.5044068E-4,1.887617E-2,-3.641714E-2],"categories":[],"categories_nodes":[],"categories_segments":[],"categories_sizes":[],"default_left":[0,0,0,0,0,0,0,0,0,0,0,0,0,0,0,0,0,0,0,0,0,0,0,0,0,0,0],"id":17,"left_children":[1,3,5,7,9,11,13,-1,15,17,-1,19,21,23,25,-1,-1,-1,-1,-1,-1,-1,-1,-1,-1,-1,-1],"loss_changes":[5.0580353E1,3.6294365E0,1.9491848E1,3.7002678E0,4.3226814E-1,8.141476E0,5.0030794E0,0E0,2.9031131E0,7.229941E-1,0E0,6.306162E0,9.5111656E-1,3.2538776E0,2.868845E0,0E0,0E0,0E0,0E0,0E0,0E0,0E0,0E0,0E0,0E0,0E0,0E0],"parents":[2147483647,0,0,1,1,2,2,3,3,4,4,5,5,6,6,8,8,9,9,11,11,12,12,13,13,14,14],"right_children":[2,4,6,8,10,12,14,-1,16,18,-1,20,22,24,26,-1,-1,-1,-1,-1,-1,-1,-1,-1,-1,-1,-1],"split_conditions":[4.673482E-1,7.8E0,7.1E0,3.2036376E-1,4E0,6.6731596E-1,9.4E0,-5.2395415E-2,4E0,5E-1,-6.0432326E-2,8E0,1E0,1E0,1E0,-2.6979104E-2,7.1269767E-3,-4.3740626E-2,-6.350159E-3,2.1912051E-2,-6.3505374E-2,6.03705E-2,3.0309925E-2,-3.2135602E-2,-4.5044068E-4,1.887617E-2,-3.641714E-2],"split_indices":[97,76,76,97,77,97,76,0,77,71,0,81,13,17,19,0,0,0,0,0,0,0,0,0,0,0,0],"split_type":[0,0,0,0,0,0,0,0,0,0,0,0,0,0,0,0,0,0,0,0,0,0,0,0,0,0,0],"sum_hessian":[2.1222012E2,6.216318E1,1.5005695E2,4.0187088E1,2.1976093E1,9.8434326E1,5.1622616E1,1.0426922E1,2.9760168E1,6.0400057E0,1.5936088E1,7.416097E1,2.4273354E1,3.3891064E1,1.7731552E1,2.1639418E1,8.12075E0,3.7249265E0,2.3150792E0,7.287984E1,1.2811311E0,1.710952E1,7.1638346E0,2.1028269E1,1.2862795E1,1.5951716E1,1.7798365E0],"tree_param":{"num_deleted":"0","num_feature":"100","num_nodes":"27","size_leaf_vector":"1"}},{"base_weights":[-7.7727977E-3,-5.646398E-1,3.884773E-1,-9.0287155E-1,-2.897995E-1,7.194912E-1,-9.659131E-2,-5.8126945E-2,-7.322783E-1,-3.9687824E-1,9.077911E-1,8.000876E-1,-7.817832E-1,-1.8213172E-1,4.563367E-2,-4.827213E-2,-1.8271662E-2,5.0946306E-2,-2.316627E-2,5.4449607E-2,8.9351935E-3,-2.782463E-3,4.7565695E-2,1.6657332E-2,-6.2252767E-2,-1.9561412E-2,1.973922E-2],"categories":[],"categories_nodes":[],"categories_segments":[],"categories_sizes":[],"default_left":[0,0,0,0,0,0,0,0,0,0,0,0,0,0,0,0,0,0,0,0,0,0,0,0,0,0,0],"id":18,"left_children":[1,3,5,7,9,11,13,-1,15,17,19,21,23,25,-1,-1,-1,-1,-1,-1,-1,-1,-1,-1,-1,-1,-1],"loss_changes":[4.679068E1,7.9329624E0,1.9964033E1,8.7833214E-1,6.7857366E0,9.550873E0,4.5811753E0,0E0,1.8939161E0,4.8644843E0,3.8887525E-1,9.176464E0,2.6172721E0,5.941932E0,0E0,0E0,0E0,0E0,0E0,0E0,0E0,0E0,0E0,0E0,0E0,0E0,0E0],"parents":[2147483647,0,0,1,1,2,2,3,3,4,4,5,5,6,6,8,8,9,9,10,10,11,11,12,12,13,13],"right_children":[2,4,6,8,10,12,14,-1,16,18,20,22,24,26,-1,-1,-1,-1,-1,-1,-1,-1,-1,-1,-1,-1,-1],"split_conditions":[5.1235026E-1,4.1067654E-1,1E1,3.0151007E-1,6E0,1E0,7E0,-5.8126945E-2,5E-1,1E0,1E0,5.447707E-1,5.423407E-1,8.5E0,4.563367E-2,-4.827213E-2,-1.8271662E-2,5.0946306E-2,-2.316627E-2,5.4449607E-2,8.9351935E-3,-2.782463E-3,4.7565695E-2,1.6657332E-2,-6.2252767E-2,-1.9561412E-2,1.973922E-2],"split_indices":[97,97,78,97,79,45,79,0,71,1,55,97,97,76,0,0,0,0,0,0,0,0,0,0,0,0,0],"split_type":[0,0,0,0,0,0,0,0,0,0,0,0,0,0,0,0,0,0,0,0,0,0,0,0,0,0,0],"sum_hessian":[2.1005603E2,8.715228E1,1.22903755E2,3.8045982E1,4.9106297E1,7.276511E1,5.013865E1,1.2779333E1,2.5266651E1,4.5689705E1,3.4165955E0,6.9500984E1,3.264122E0,4.6976673E1,3.1619759E0,1.4450358E1,1.0816294E1,1.4056133E0,4.428409E1,2.341117E0,1.0754784E0,1.0532611E1,5.8968372E1,1.0406158E0,2.2235062E0,3.471609E1,1.226058E1],"tree_param":{"num_deleted":"0","num_feature":"100","num_nodes":"27","size_leaf_vector":"1"}},{"base_weights":[-7.3752548E-3,-7.136648E-1,2.839905E-1,-5.121534E-1,-1.050118E0,6.0851073E-1,-7.04566E-2,-1.0733064E0,-3.4292164E-1,-6.1054176E-1,-5.8617968E-2,1.8393531E-2,8.1951237E-1,-1.7515732E-1,7.281315E-1,-1.6503897E-2,-5.78893E-2,-2.5719661E-2,5.9417645E-3,-4.188629E-2,-5.4199896E-3,-1.0562214E-2,5.132399E-2,4.7433544E-2,-6.504863E-2,-2.7755475E-2,2.4779178E-3,-5.8201826E-3,4.3967336E-2],"categories":[],"categories_nodes":[],"categories_segments":[],"categories_sizes":[],"default_left":[0,0,0,0,0,0,0,0,0,0,0,0,0,0,0,0,0,0,0,0,0,0,0,0,0,0,0,0,0],"id":19,"left_children":[1,3,5,7,9,11,13,15,17,19,-1,21,23,25,27,-1,-1,-1,-1,-1,-1,-1,-1,-1,-1,-1,-1,-1,-1],"loss_changes":[4.3181824E1,3.6168919E0,1.7132328E1,3.4568892E0,4.6650124E-1,9.655275E0,6.139929E0,1.7432022E-1,2.627659E0,6.933682E-1,0E0,5.1889534E0,1.6896053E1,5.5242534E0,1.1915374E0,0E0,0E0,0E0,0E0,0E0,0E0,0E0,0E0,0E0,0E0,0E0,0E0,0E0,0E0],"parents":[2147483647,0,0,1,1,2,2,3,3,4,4,5,5,6,6,7,7,8,8,9,9,11,11,12,12,13,13,14,14],"right_children":[2,4,6,8,10,12,14,16,18,20,-1,22,24,26,28,-1,-1,-1,-1,-1,-1,-1,-1,-1,-1,-1,-1,-1,-1],"split_conditions":[4.673482E-1,7.8E0,6.3E0,3.0151007E-1,4E0,5.4610306E-1,6E0,1.6225E2,4E0,5E-1,-5.8617968E-2,2E0,1E0,1E0,4.042605E-1,-1.6503897E-2,-5.78893E-2,-2.5719661E-2,5.9417645E-3,-4.188629E-2,-5.4199896E-3,-1.0562214E-2,5.132399E-2,4.7433544E-2,-6.504863E-2,-2.7755475E-2,2.4779178E-3,-5.8201826E-3,4.3967336E-2],"split_indices":[97,76,76,97,77,97,79,98,77,71,0,87,45,60,99,0,0,0,0,0,0,0,0,0,0,0,0,0,0],"split_type":[0,0,0,0,0,0,0,0,0,0,0,0,0,0,0,0,0,0,0,0,0,0,0,0,0,0,0,0,0],"sum_hessian":[2.07851E2,6.0279697E1,1.4757129E2,3.9277496E1,2.1002201E1,7.6663704E1,7.090759E1,7.862877E0,3.141462E1,5.8740063E0,1.5128195E1,2.047831E1,5.6185394E1,6.337883E1,7.5287604E0,1.303371E0,6.559506E0,2.2824749E1,8.58987E0,3.5841334E0,2.289873E0,1.7322718E1,3.155592E0,5.348052E1,2.704877E0,2.3007378E1,4.0371452E1,1.1782823E0,6.350478E0],"tree_param":{"num_deleted":"0","num_feature":"100","num_nodes":"29","size_leaf_vector":"1"}},{"base_weights":[-7.858104E-3,-6.9205135E-1,2.7259243E-1,-4.9368632E-1,-1.0287194E0,5.871867E-1,-6.690271E-2,-1.0526159E0,-3.2822183E-1,-5.9393734E-1,-5.7584573E-2,1.9427102E-2,7.9408085E-1,-1.6701312E-1,7.0443547E-1,-1.6114544E-2,-5.684931E-2,-2.4688212E-2,5.666672E-3,-4.0925693E-2,-5.2394266E-3,-1.0049242E-2,4.979747E-2,4.6046685E-2,-6.310006E-2,-2.6514277E-2,2.357043E-3,-5.6563485E-3,4.265768E-2],"categories":[],"categories_nodes":[],"categories_segments":[],"categories_sizes":[],"default_left":[0,0,0,0,0,0,0,0,0,0,0,0,0,0,0,0,0,0,0,0,0,0,0,0,0,0,0,0,0],"id":20,"left_children":[1,3,5,7,9,11,13,15,17,19,-1,21,23,25,27,-1,-1,-1,-1,-1,-1,-1,-1,-1,-1,-1,-1,-1,-1],"loss_changes":[3.9837734E1,3.5229492E0,1.5768787E1,3.3447657E0,4.630661E-1,8.975836E0,5.6567326E0,1.6724491E-1,2.4126368E0,6.606848E-1,0E0,4.820938E0,1.5787739E1,5.0272985E0,1.1217442E0,0E0,0E0,0E0,0E0,0E0,0E0,0E0,0E0,0E0,0E0,0E0,0E0,0E0,0E0],"parents":[2147483647,0,0,1,1,2,2,3,3,4,4,5,5,6,6,7,7,8,8,9,9,11,11,12,12,13,13,14,14],"right_children":[2,4,6,8,10,12,14,16,18,20,-1,22,24,26,28,-1,-1,-1,-1,-1,-1,-1,-1,-1,-1,-1,-1,-1,-1],"split_conditions":[4.673482E-1,7.8E0,6.3E0,3.0151007E-1,4E0,5.4610306E-1,6E0,1.6225E2,4E0,5E-1,-5.7584573E-2,2E0,1E0,1E0,4.042605E-1,-1.6114544E-2,-5.684931E-2,-2.4688212E-2,5.666672E-3,-4.0925693E-2,-5.2394266E-3,-1.0049242E-2,4.979747E-2,4.6046685E-2,-6.310006E-2,-2.6514277E-2,2.357043E-3,-5.6563485E-3,4.265768E-2],"split_indices":[97,76,76,97,77,97,79,98,77,71,0,87,45,60,99,0,0,0,0,0,0,0,0,0,0,0,0,0,0],"split_type":[0,0,0,0,0,0,0,0,0,0,0,0,0,0,0,0,0,0,0,0,0,0,0,0,0,0,0,0,0],"sum_hessian":[2.0563228E2,5.9356712E1,1.4627556E2,3.890201E1,2.04547E1,7.554343E1,7.073214E1,7.661229E0,3.1240782E1,5.795144E0,1.4659556E1,2.046826E1,5.5075165E1,6.3300034E1,7.4321065E0,1.2925574E0,6.368672E0,2.2636099E1,8.604683E0,3.5102057E0,2.2849383E0,1.7347027E1,3.1212337E0,5.239469E1,2.6804714E0,2.2929024E1,4.037101E1,1.1806923E0,6.2514143E0],"tree_param":{"num_deleted":"0","num_feature":"100","num_nodes":"29","size_leaf_vector":"1"}}]},"name":"gbtree"},"learner_model_param":{"base_score":"5E-1","boost_from_average":"1","num_class":"0","num_feature":"100","num_target":"1"},"objective":{"name":"binary:logistic","reg_loss_param":{"scale_pos_weight":"0.487927556"}}},"version":[2,1,3]}