{"learner":{"attributes":{"best_iteration":"16","best_score":"0.6272170164613925","scikit_learn":"{\"_estimator_type\": \"classifier\"}"},"feature_names":[],"feature_types":[],"gradient_booster":{"model":{"gbtree_model_param":{"num_parallel_tree":"1","num_trees":"37"},"iteration_indptr":[0,1,2,3,4,5,6,7,8,9,10,11,12,13,14,15,16,17,18,19,20,21,22,23,24,25,26,27,28,29,30,31,32,33,34,35,36,37],"tree_info":[0,0,0,0,0,0,0,0,0,0,0,0,0,0,0,0,0,0,0,0,0,0,0,0,0,0,0,0,0,0,0,0,0,0,0,0,0],"trees":[{"base_weights":[-1.800415E-8,-1.0024413E0,8.1233805E-1,-1.4588722E0,-4.4713873E-1,1.1935056E0,-3.0055898E-1,-6.802727E-4,-1.5141597E0,3.053824E-2,-7.8134495E-1,1.2812141E0,-1.1028609E0,-6.416208E-1,5.962608E-1,-3.652787E-2,-7.968434E-2,-1.8555818E-2,5.034251E-2,4.484472E-2,-4.6559166E-2,-9.941812E-3,6.944737E-2,-1.8069407E-2,-6.363636E-2,-4.209349E-2,3.2604735E-2,4.5936074E-2,-2.2277959E-2],"categories":[],"categories_nodes":[],"categories_segments":[],"categories_sizes":[],"default_left":[0,0,0,0,0,0,0,0,0,0,0,0,0,0,0,0,0,0,0,0,0,0,0,0,0,0,0,0,0],"id":0,"left_children":[1,3,5,7,9,11,13,-1,15,17,19,21,23,25,27,-1,-1,-1,-1,-1,-1,-1,-1,-1,-1,-1,-1,-1,-1],"loss_changes":[1.787435E2,2.4250717E1,5.1791588E1,4.2531815E0,7.3303413E0,1.9643723E1,1.0088293E1,0E0,2.045433E0,8.138962E0,7.6160088E0,1.4251663E1,2.71554E-2,6.6293545E0,3.5205328E0,0E0,0E0,0E0,0E0,0E0,0E0,0E0,0E0,0E0,0E0,0E0,0E0,0E0,0E0],"parents":[2147483647,0,0,1,1,2,2,3,3,4,4,5,5,6,6,8,8,9,9,10,10,11,11,12,12,13,13,14,14],"right_children":[2,4,6,8,10,12,14,-1,16,18,20,22,24,26,28,-1,-1,-1,-1,-1,-1,-1,-1,-1,-1,-1,-1,-1,-1],"split_conditions":[6.413039E-1,5.438562E-1,7.1E0,4.0010333E-1,7.1E0,1E0,8.5E0,-6.802727E-4,1E0,2E0,1E0,1E0,6.9924855E-1,8.134883E-1,1E0,-3.652787E-2,-7.968434E-2,-1.8555818E-2,5.034251E-2,4.484472E-2,-4.6559166E-2,-9.941812E-3,6.944737E-2,-1.8069407E-2,-6.363636E-2,-4.209349E-2,3.2604735E-2,4.5936074E-2,-2.2277959E-2],"split_indices":[97,97,76,99,76,45,76,0,11,87,1,87,97,97,55,0,0,0,0,0,0,0,0,0,0,0,0,0,0],"split_type":[0,0,0,0,0,0,0,0,0,0,0,0,0,0,0,0,0,0,0,0,0,0,0,0,0,0,0,0,0],"sum_hessian":[2.175E2,9.725338E1,1.2024662E2,5.248564E1,4.4767735E1,8.95152E1,3.0731419E1,1.9797297E0,5.0505913E1,1.8802364E1,2.5965372E1,8.6647804E1,2.8673987E0,2.247044E1,8.26098E0,5.5920606E0,4.4913853E1,1.376098E1,5.041385E0,1.7195946E0,2.4245777E1,5.8217907E0,8.082601E1,1.1173986E0,1.75E0,1.9760979E1,2.7094593E0,6.3986487E0,1.862331E0],"tree_param":{"num_deleted":"0","num_feature":"100","num_nodes":"29","size_leaf_vector":"1"}},{"base_weights":[-4.3400668E-4,-9.5411193E-1,7.723891E-1,-1.3900492E0,-4.2429823E-1,1.1348556E0,-2.8520393E-1,-6.5767695E-4,-1.4427924E0,3.0625723E-2,-7.4273396E-1,1.2192147E0,-1.0693692E0,-6.10195E-1,5.6922936E-1,-3.49886E-2,-7.59067E-2,-1.7692318E-2,4.8267987E-2,4.3441E-2,-4.4346895E-2,-9.517795E-3,6.609748E-2,-6.2257625E-2,-1.6792253E-2,-4.010738E-2,3.1420186E-2,-1.6228288E-2,4.7195617E-2],"categories":[],"categories_nodes":[],"categories_segments":[],"categories_sizes":[],"default_left":[0,0,0,0,0,0,0,0,0,0,0,0,0,0,0,0,0,0,0,0,0,0,0,0,0,0,0,0,0],"id":1,"left_children":[1,3,5,7,9,11,13,-1,15,17,19,21,23,25,27,-1,-1,-1,-1,-1,-1,-1,-1,-1,-1,-1,-1,-1,-1],"loss_changes":[1.6162645E2,2.2082237E1,4.67595E1,3.859932E0,6.6501827E0,1.8116272E1,9.154991E0,0E0,1.8168793E0,7.4565735E0,7.033886E0,1.2929977E1,8.024883E-2,6.081971E0,3.406562E0,0E0,0E0,0E0,0E0,0E0,0E0,0E0,0E0,0E0,0E0,0E0,0E0,0E0,0E0],"parents":[2147483647,0,0,1,1,2,2,3,3,4,4,5,5,6,6,8,8,9,9,10,10,11,11,12,12,13,13,14,14],"right_children":[2,4,6,8,10,12,14,-1,16,18,20,22,24,26,28,-1,-1,-1,-1,-1,-1,-1,-1,-1,-1,-1,-1,-1,-1],"split_conditions":[6.413039E-1,5.438562E-1,7.1E0,4.0010333E-1,7.1E0,1E0,8.5E0,-6.5767695E-4,1E0,2E0,1E0,1E0,1.63E2,8.134883E-1,4.00106E-1,-3.49886E-2,-7.59067E-2,-1.7692318E-2,4.8267987E-2,4.3441E-2,-4.4346895E-2,-9.517795E-3,6.609748E-2,-6.2257625E-2,-1.6792253E-2,-4.010738E-2,3.1420186E-2,-1.6228288E-2,4.7195617E-2],"split_indices":[97,97,76,99,76,45,76,0,11,87,1,87,98,97,99,0,0,0,0,0,0,0,0,0,0,0,0,0,0],"split_type":[0,0,0,0,0,0,0,0,0,0,0,0,0,0,0,0,0,0,0,0,0,0,0,0,0,0,0,0,0],"sum_hessian":[2.1729607E2,9.716191E1,1.2013416E2,5.241255E1,4.474936E1,8.941582E1,3.0718344E1,1.9797294E0,5.0432823E1,1.8797987E1,2.5951372E1,8.655028E1,2.865537E0,2.246097E1,8.257374E0,5.5901957E0,4.484263E1,1.3759795E1,5.0381923E0,1.7187303E0,2.4232641E1,5.821646E0,8.072864E1,1.748927E0,1.1166098E0,1.975223E1,2.7087395E0,2.4785724E0,5.778802E0],"tree_param":{"num_deleted":"0","num_feature":"100","num_nodes":"29","size_leaf_vector":"1"}},{"base_weights":[-7.890375E-4,-9.0969294E-1,7.3571974E-1,-1.3278548E0,-4.0290174E-1,1.0812737E0,-2.7053273E-1,-6.3582545E-4,-1.3784306E0,3.066637E-2,-7.066884E-1,1.1626191E0,-1.0376208E0,-5.8073294E-1,5.4451245E-1,-3.3532124E-2,-7.251714E-2,-5.650864E-2,1.5774474E-2,4.21072E-2,-4.2280678E-2,7.131626E-2,2.8985893E-2,-6.0368903E-2,-1.6353551E-2,-3.8245045E-2,3.0289942E-2,4.28706E-2,-2.267884E-2],"categories":[],"categories_nodes":[],"categories_segments":[],"categories_sizes":[],"default_left":[0,0,0,0,0,0,0,0,0,0,0,0,0,0,0,0,0,0,0,0,0,0,0,0,0,0,0,0,0],"id":2,"left_children":[1,3,5,7,9,11,13,-1,15,17,19,21,23,25,27,-1,-1,-1,-1,-1,-1,-1,-1,-1,-1,-1,-1,-1,-1],"loss_changes":[1.4642021E2,2.0213188E1,4.2304504E1,3.5215378E0,6.040605E0,1.6742783E1,8.327088E0,0E0,1.6347733E0,6.898349E0,6.5028315E0,1.2588898E1,7.080841E-2,5.58427E0,3.277959E0,0E0,0E0,0E0,0E0,0E0,0E0,0E0,0E0,0E0,0E0,0E0,0E0,0E0,0E0],"parents":[2147483647,0,0,1,1,2,2,3,3,4,4,5,5,6,6,8,8,9,9,10,10,11,11,12,12,13,13,14,14],"right_children":[2,4,6,8,10,12,14,-1,16,18,20,22,24,26,28,-1,-1,-1,-1,-1,-1,-1,-1,-1,-1,-1,-1,-1,-1],"split_conditions":[6.413039E-1,5.438562E-1,7.1E0,4.0010333E-1,7.1E0,1E0,8.5E0,-6.3582545E-4,1E0,1E0,1E0,5E-1,1.63E2,8.134883E-1,1E0,-3.3532124E-2,-7.251714E-2,-5.650864E-2,1.5774474E-2,4.21072E-2,-4.2280678E-2,7.131626E-2,2.8985893E-2,-6.0368903E-2,-1.6353551E-2,-3.8245045E-2,3.0289942E-2,4.28706E-2,-2.267884E-2],"split_indices":[97,97,76,99,76,45,76,0,11,87,1,68,98,97,55,0,0,0,0,0,0,0,0,0,0,0,0,0,0],"split_type":[0,0,0,0,0,0,0,0,0,0,0,0,0,0,0,0,0,0,0,0,0,0,0,0,0,0,0,0,0],"sum_hessian":[2.167286E2,9.690538E1,1.19823235E2,5.2207764E1,4.4697613E1,8.913806E1,3.0685175E1,1.9797287E0,5.0228035E1,1.878561E1,2.5912004E1,8.6277145E1,2.8609152E0,2.243432E1,8.250854E0,5.5849166E0,4.464312E1,3.1163747E0,1.5669234E1,1.716248E0,2.4195755E1,5.8406815E1,2.7870329E1,1.7448397E0,1.1160755E0,1.9727636E1,2.7066848E0,6.3888917E0,1.8619618E0],"tree_param":{"num_deleted":"0","num_feature":"100","num_nodes":"29","size_leaf_vector":"1"}},{"base_weights":[-1.2693353E-3,-8.692581E-1,7.0197916E-1,-1.2176442E0,-3.0812576E-1,1.0322138E0,-2.5707144E-1,-5.11735E-1,-1.3213649E0,-5.757247E-1,5.238897E-2,1.1108001E0,-1.0077094E0,-5.530397E-1,5.2021575E-1,-3.676143E-2,3.0082026E-2,-7.550259E-2,-5.0476223E-2,-3.3991132E-2,3.3293754E-2,3.400737E-2,-1.868424E-2,-1.1036152E-2,6.0456287E-2,-1.5165718E-2,-5.9164055E-2,-3.6493864E-2,2.9210195E-2,-1.6835844E-2,4.4194743E-2],"categories":[],"categories_nodes":[],"categories_segments":[],"categories_sizes":[],"default_left":[0,0,0,0,0,0,0,0,0,0,0,0,0,0,0,0,0,0,0,0,0,0,0,0,0,0,0,0,0,0,0],"id":3,"left_children":[1,3,5,7,9,11,13,15,17,19,21,23,25,27,29,-1,-1,-1,-1,-1,-1,-1,-1,-1,-1,-1,-1,-1,-1,-1,-1],"loss_changes":[1.3300024E2,1.8689072E1,3.8386814E1,3.7041626E0,3.763033E0,1.5504883E1,7.5644865E0,2.755583E0,1.5076294E0,3.333867E0,4.9085174E0,1.1641769E1,1.1761117E-1,5.1308866E0,3.1766539E0,0E0,0E0,0E0,0E0,0E0,0E0,0E0,0E0,0E0,0E0,0E0,0E0,0E0,0E0,0E0,0E0],"parents":[2147483647,0,0,1,1,2,2,3,3,4,4,5,5,6,6,7,7,8,8,9,9,10,10,11,11,12,12,13,13,14,14],"right_children":[2,4,6,8,10,12,14,16,18,20,22,24,26,28,30,-1,-1,-1,-1,-1,-1,-1,-1,-1,-1,-1,-1,-1,-1,-1,-1],"split_conditions":[6.413039E-1,5.6325644E-1,7.1E0,1E0,1E0,1E0,8.5E0,1E0,4.4964135E-1,6E0,6.000733E-1,1E0,6.9924855E-1,8.134883E-1,4.00106E-1,-3.676143E-2,3.0082026E-2,-7.550259E-2,-5.0476223E-2,-3.3991132E-2,3.3293754E-2,3.400737E-2,-1.868424E-2,-1.1036152E-2,6.0456287E-2,-1.5165718E-2,-5.9164055E-2,-3.6493864E-2,2.9210195E-2,-1.6835844E-2,4.4194743E-2],"split_indices":[97,97,76,11,13,45,76,55,97,79,97,87,97,97,99,0,0,0,0,0,0,0,0,0,0,0,0,0,0,0,0],"split_type":[0,0,0,0,0,0,0,0,0,0,0,0,0,0,0,0,0,0,0,0,0,0,0,0,0,0,0,0,0,0,0],"sum_hessian":[2.1588644E2,9.651999E1,1.19366455E2,5.8826706E1,3.7693287E1,8.873545E1,3.0631E1,8.296384E0,5.0530323E1,2.1291964E1,1.6401321E1,8.588237E1,2.8530812E0,2.2392925E1,8.238073E0,7.1922812E0,1.1041028E0,2.90877E1,2.1442623E1,2.0062363E1,1.2296009E0,6.3901057E0,1.0011216E1,5.820224E0,8.006215E1,1.1134585E0,1.7396228E0,1.9689484E1,2.703443E0,2.4766085E0,5.761465E0],"tree_param":{"num_deleted":"0","num_feature":"100","num_nodes":"31","size_leaf_vector":"1"}},{"base_weights":[-1.7767334E-3,-8.309704E-1,6.7039865E-1,-1.1672422E0,-2.9263264E-1,9.8652136E-1,-2.4412858E-1,-4.8752618E-1,-1.2678366E0,4.0960934E-2,-3.6632922E-1,1.062588E0,-9.792429E-1,-5.269495E-1,4.9799764E-1,-3.5203334E-2,2.928527E-2,-7.25615E-2,-4.831491E-2,3.7783818E-4,-3.2516003E-2,6.582679E-2,2.529963E-2,-5.7481684E-2,-1.4771934E-2,-3.4843132E-2,2.8177518E-2,4.0127426E-2,-2.2989811E-2],"categories":[],"categories_nodes":[],"categories_segments":[],"categories_sizes":[],"default_left":[0,0,0,0,0,0,0,0,0,0,0,0,0,0,0,0,0,0,0,0,0,0,0,0,0,0,0,0,0],"id":4,"left_children":[1,3,5,7,9,11,13,15,17,-1,19,21,23,25,27,-1,-1,-1,-1,-1,-1,-1,-1,-1,-1,-1,-1,-1,-1],"loss_changes":[1.208479E2,1.7231049E1,3.486081E1,3.4444122E0,3.4676306E0,1.4376648E1,6.886988E0,2.5700228E0,1.4251938E0,0E0,3.927721E0,1.1538277E1,1.0811734E-1,4.717198E0,3.0594244E0,0E0,0E0,0E0,0E0,0E0,0E0,0E0,0E0,0E0,0E0,0E0,0E0,0E0,0E0],"parents":[2147483647,0,0,1,1,2,2,3,3,4,4,5,5,6,6,7,7,8,8,10,10,11,11,12,12,13,13,14,14],"right_children":[2,4,6,8,10,12,14,16,18,-1,20,22,24,26,28,-1,-1,-1,-1,-1,-1,-1,-1,-1,-1,-1,-1,-1,-1],"split_conditions":[6.413039E-1,5.6325644E-1,7.1E0,1E0,1E0,1E0,8.5E0,1E0,4.4964135E-1,4.0960934E-2,7.1E0,5E-1,1.63E2,8.134883E-1,1E0,-3.5203334E-2,2.928527E-2,-7.25615E-2,-4.831491E-2,3.7783818E-4,-3.2516003E-2,6.582679E-2,2.529963E-2,-5.7481684E-2,-1.4771934E-2,-3.4843132E-2,2.8177518E-2,4.0127426E-2,-2.2989811E-2],"split_indices":[97,97,76,11,1,45,76,55,97,0,76,68,98,97,55,0,0,0,0,0,0,0,0,0,0,0,0,0,0],"split_type":[0,0,0,0,0,0,0,0,0,0,0,0,0,0,0,0,0,0,0,0,0,0,0,0,0,0,0,0,0],"sum_hessian":[2.148211E2,9.607143E1,1.1874967E2,5.8414608E1,3.765682E1,8.81874E1,3.0562275E1,8.284275E0,5.0130333E1,1.7119993E0,3.5944817E1,8.534439E1,2.8430076E0,2.233895E1,8.223326E0,7.179649E0,1.1046259E0,2.8801008E1,2.1329323E1,1.5936771E1,2.0008047E1,5.7667946E1,2.7676449E1,1.7305547E0,1.1124529E0,1.96398E1,2.69915E0,6.362364E0,1.860962E0],"tree_param":{"num_deleted":"0","num_feature":"100","num_nodes":"29","size_leaf_vector":"1"}},{"base_weights":[-2.1061685E-3,-7.953693E-1,6.4110404E-1,-1.0806122E0,-2.0803681E-1,9.4429624E-1,-2.3223004E-1,-7.655835E-2,-8.990831E-1,4.9986012E-2,-3.1162843E-1,1.0180235E0,-9.52318E-1,-5.0231856E-1,4.7603032E-1,-5.99355E-3,-5.2317303E-2,-6.403651E-2,-7.896986E-3,6.31951E-2,2.4141286E-2,-1.3660142E-2,-5.6423437E-2,-3.328362E-2,2.7188838E-2,-1.734077E-2,4.1503668E-2],"categories":[],"categories_nodes":[],"categories_segments":[],"categories_sizes":[],"default_left":[0,0,0,0,0,0,0,0,0,0,0,0,0,0,0,0,0,0,0,0,0,0,0,0,0,0,0],"id":5,"left_children":[1,3,5,7,9,11,13,-1,15,-1,17,19,21,23,25,-1,-1,-1,-1,-1,-1,-1,-1,-1,-1,-1,-1],"loss_changes":[1.099797E2,1.5944481E1,3.1737907E1,3.9171982E0,4.413859E0,1.3352409E1,6.260571E0,0E0,5.4467278E0,0E0,4.4090433E0,1.0670685E1,1.4990449E-1,4.3391786E0,2.9690225E0,0E0,0E0,0E0,0E0,0E0,0E0,0E0,0E0,0E0,0E0,0E0,0E0],"parents":[2147483647,0,0,1,1,2,2,3,3,4,4,5,5,6,6,8,8,10,10,11,11,12,12,13,13,14,14],"right_children":[2,4,6,8,10,12,14,-1,16,-1,18,20,22,24,26,-1,-1,-1,-1,-1,-1,-1,-1,-1,-1,-1,-1],"split_conditions":[6.413039E-1,5.786243E-1,7.1E0,3.8642624E-1,4.001022E-1,1E0,8.5E0,-7.655835E-2,1E0,4.9986012E-2,4.0010485E-1,5E-1,6.9924855E-1,8.134883E-1,4.00106E-1,-5.99355E-3,-5.2317303E-2,-6.403651E-2,-7.896986E-3,6.31951E-2,2.4141286E-2,-1.3660142E-2,-5.6423437E-2,-3.328362E-2,2.7188838E-2,-1.734077E-2,4.1503668E-2],"split_indices":[97,97,76,97,99,45,76,0,74,0,99,68,97,97,99,0,0,0,0,0,0,0,0,0,0,0,0],"split_type":[0,0,0,0,0,0,0,0,0,0,0,0,0,0,0,0,0,0,0,0,0,0,0,0,0,0,0],"sum_hessian":[2.1354779E2,9.551444E1,1.1803334E2,6.372568E1,3.1788765E1,8.7555695E1,3.0477644E1,1.6166252E1,4.755943E1,1.8278291E0,2.9960936E1,8.47254E1,2.8302944E0,2.2274313E1,8.203332E0,7.8478966E0,3.9711533E1,3.0972981E0,2.6863638E1,5.7121353E1,2.7604048E1,1.1083245E0,1.7219697E0,1.9580381E1,2.6939304E0,2.4739466E0,5.729385E0],"tree_param":{"num_deleted":"0","num_feature":"100","num_nodes":"27","size_leaf_vector":"1"}},{"base_weights":[-2.5771495E-3,-7.6208127E-1,6.1372745E-1,-1.129895E0,-3.2824808E-1,9.048945E-1,-2.2072679E-1,3.6098033E-3,-1.1791725E0,4.6843033E-2,-4.1038272E-1,9.7645396E-1,-9.2660034E-1,-4.571688E-1,5.1741093E-1,-7.4062996E-2,-4.960434E-2,1.3387474E-3,-3.6682274E-2,-1.3991243E-2,5.360167E-2,-5.4912414E-2,-1.3307343E-2,-3.0179173E-2,2.6241347E-2,4.5283746E-2,-2.8588733E-2],"categories":[],"categories_nodes":[],"categories_segments":[],"categories_sizes":[],"default_left":[0,0,0,0,0,0,0,0,0,0,0,0,0,0,0,0,0,0,0,0,0,0,0,0,0,0,0],"id":6,"left_children":[1,3,5,7,9,11,13,-1,15,-1,17,19,21,23,25,-1,-1,-1,-1,-1,-1,-1,-1,-1,-1,-1,-1],"loss_changes":[1.00234665E2,1.4935532E1,2.8921932E1,3.1358948E0,5.1041455E0,1.2416153E1,5.713695E0,0E0,1.3297958E0,0E0,6.145362E0,1.050827E1,1.4028525E-1,3.810598E0,3.9360178E0,0E0,0E0,0E0,0E0,0E0,0E0,0E0,0E0,0E0,0E0,0E0,0E0],"parents":[2147483647,0,0,1,1,2,2,3,3,4,4,5,5,6,6,8,8,10,10,11,11,12,12,13,13,14,14],"right_children":[2,4,6,8,10,12,14,-1,16,-1,18,20,22,24,26,-1,-1,-1,-1,-1,-1,-1,-1,-1,-1,-1,-1],"split_conditions":[6.413039E-1,5.438562E-1,7.1E0,4.0010333E-1,1E0,1E0,9.2E0,3.6098033E-3,3.8642624E-1,4.6843033E-2,7.1E0,1E0,1.63E2,8.134883E-1,1E0,-7.4062996E-2,-4.960434E-2,1.3387474E-3,-3.6682274E-2,-1.3991243E-2,5.360167E-2,-5.4912414E-2,-1.3307343E-2,-3.0179173E-2,2.6241347E-2,4.5283746E-2,-2.8588733E-2],"split_indices":[97,97,76,99,1,45,76,0,97,0,76,87,98,97,55,0,0,0,0,0,0,0,0,0,0,0,0],"split_type":[0,0,0,0,0,0,0,0,0,0,0,0,0,0,0,0,0,0,0,0,0,0,0,0,0,0,0],"sum_hessian":[2.1213814E2,9.492303E1,1.172151E2,5.0501907E1,4.4421124E1,8.683223E1,3.0382874E1,1.970393E0,4.8531513E1,2.0737064E0,4.234742E1,8.401642E1,2.8158057E0,2.3300007E1,7.0828667E0,1.5915383E1,3.2616127E1,1.8392235E1,2.3955183E1,5.803859E0,7.821256E1,1.7088227E0,1.106983E0,2.061211E1,2.6878974E0,5.345744E0,1.7371227E0],"tree_param":{"num_deleted":"0","num_feature":"100","num_nodes":"27","size_leaf_vector":"1"}},{"base_weights":[-3.0510665E-3,-9.8790205E-1,4.3454736E-1,-7.179936E-2,-8.182057E-1,7.646806E-1,-2.545933E-1,-8.95085E-2,-9.518743E-1,3.002807E-1,1.1639678E0,-5.8493835E-1,3.2740638E-1,1.1599906E-2,-4.7267098E-2,-1.6135529E-2,-5.252547E-2,-4.3988165E-2,2.2745887E-2,6.2316965E-2,-5.858294E-2,4.0836595E-2,-3.5941247E-2,-1.573476E-2,4.9938157E-2],"categories":[],"categories_nodes":[],"categories_segments":[],"categories_sizes":[],"default_left":[0,0,0,0,0,0,0,0,0,0,0,0,0,0,0,0,0,0,0,0,0,0,0,0,0],"id":7,"left_children":[1,3,5,-1,7,9,11,13,15,17,19,21,23,-1,-1,-1,-1,-1,-1,-1,-1,-1,-1,-1,-1],"loss_changes":[9.159379E1,3.796547E0,3.3673103E1,0E0,4.7602806E0,1.8145351E1,9.499151E0,2.6447E0,2.2631645E0,9.0603695E0,1.1711266E1,6.449998E0,8.147085E0,0E0,0E0,0E0,0E0,0E0,0E0,0E0,0E0,0E0,0E0,0E0,0E0],"parents":[2147483647,0,0,1,1,2,2,4,4,5,5,6,6,7,7,8,8,9,9,10,10,11,11,12,12],"right_children":[2,4,6,-1,8,10,12,14,16,18,20,22,24,-1,-1,-1,-1,-1,-1,-1,-1,-1,-1,-1,-1],"split_conditions":[5.814076E-1,3.8642624E-1,7.1E0,-7.179936E-2,1E0,7.239619E-1,1E0,7.6666665E-1,1.3033333E2,1E0,8E0,4.0010235E-1,1E0,1.1599906E-2,-4.7267098E-2,-1.6135529E-2,-5.252547E-2,-4.3988165E-2,2.2745887E-2,6.2316965E-2,-5.858294E-2,4.0836595E-2,-3.5941247E-2,-1.573476E-2,4.9938157E-2],"split_indices":[97,97,76,0,74,97,33,71,98,87,81,99,48,0,0,0,0,0,0,0,0,0,0,0,0],"split_type":[0,0,0,0,0,0,0,0,0,0,0,0,0,0,0,0,0,0,0,0,0,0,0,0,0],"sum_hessian":[2.1053366E2,6.438113E1,1.4615254E2,1.5634897E1,4.8746227E1,9.874099E1,4.7411552E1,7.814569E0,4.093166E1,4.6458466E1,5.2282524E1,3.0241386E1,1.7170164E1,6.2104445E0,1.6041248E0,6.1261992E0,3.480546E1,4.839413E0,4.161905E1,5.0951958E1,1.3305664E0,2.1920846E0,2.8049301E1,9.047846E0,8.122319E0],"tree_param":{"num_deleted":"0","num_feature":"100","num_nodes":"25","size_leaf_vector":"1"}},{"base_weights":[-3.6572677E-3,-6.556649E-1,6.0739785E-1,-9.649143E-1,-1.557141E-1,8.9151734E-1,-5.7657946E-2,-6.973492E-2,-7.9700005E-1,5.266192E-2,-2.4885269E-1,9.6802145E-1,-5.4111924E-2,-7.1644944E-1,1.4553913E-1,-4.4561205E-3,-4.6697553E-2,5.160543E-3,-2.738039E-2,6.1810385E-2,2.1217024E-2,-5.5194892E-2,2.0124411E-2,2.1528143E-2,-3.9948396E-2],"categories":[],"categories_nodes":[],"categories_segments":[],"categories_sizes":[],"default_left":[0,0,0,0,0,0,0,0,0,0,0,0,0,0,0,0,0,0,0,0,0,0,0,0,0],"id":8,"left_children":[1,3,5,7,9,11,13,-1,15,-1,17,19,-1,21,23,-1,-1,-1,-1,-1,-1,-1,-1,-1,-1],"loss_changes":[8.406583E1,1.5631912E1,2.0633308E1,3.4258804E0,4.788974E0,1.2581154E1,4.5946264E0,0E0,4.525921E0,0E0,4.067719E0,1.0273727E1,0E0,3.9455829E0,7.4693284E0,0E0,0E0,0E0,0E0,0E0,0E0,0E0,0E0,0E0,0E0],"parents":[2147483647,0,0,1,1,2,2,3,3,4,4,5,5,6,6,8,8,10,10,11,11,13,13,14,14],"right_children":[2,4,6,8,10,12,14,-1,16,-1,18,20,-1,22,24,-1,-1,-1,-1,-1,-1,-1,-1,-1,-1],"split_conditions":[6.545564E-1,5.786243E-1,6.8E0,3.8642624E-1,4.001024E-1,1E0,4E0,-6.973492E-2,1E0,5.266192E-2,7.1E0,5E-1,-5.4111924E-2,7.3961854E-1,1E0,-4.4561205E-3,-4.6697553E-2,5.160543E-3,-2.738039E-2,6.1810385E-2,2.1217024E-2,-5.5194892E-2,2.0124411E-2,2.1528143E-2,-3.9948396E-2],"split_indices":[97,97,76,97,99,45,79,0,74,0,76,68,0,97,19,0,0,0,0,0,0,0,0,0,0],"split_type":[0,0,0,0,0,0,0,0,0,0,0,0,0,0,0,0,0,0,0,0,0,0,0,0,0],"sum_hessian":[2.0900232E2,1.01077576E2,1.07924736E2,6.1874496E1,3.9203083E1,7.5380714E1,3.2544025E1,1.5330183E1,4.654431E1,2.0668447E0,3.713624E1,7.305847E1,2.3222423E0,7.076194E0,2.546783E1,7.8126626E0,3.873165E1,1.7347666E1,1.978857E1,4.807187E1,2.4986603E1,5.2661533E0,1.8100406E0,1.9982004E1,5.4858255E0],"tree_param":{"num_deleted":"0","num_feature":"100","num_nodes":"25","size_leaf_vector":"1"}},{"base_weights":[-4.0500076E-3,-9.1632354E-1,3.9771447E-1,-6.1491277E-2,-6.9216293E-1,7.024889E-1,-2.3041978E-1,-2.2361815E-1,-9.9107206E-1,2.6250762E-1,1.0868375E0,-5.4506904E-1,3.2125238E-1,-2.4539808E-2,3.0539885E-2,-6.445328E-2,-2.5264228E-2,-4.278911E-2,2.0541282E-2,5.8428176E-2,-5.7569772E-2,3.8351256E-2,-3.3568587E-2,-1.4572154E-2,4.793491E-2],"categories":[],"categories_nodes":[],"categories_segments":[],"categories_sizes":[],"default_left":[0,0,0,0,0,0,0,0,0,0,0,0,0,0,0,0,0,0,0,0,0,0,0,0,0],"id":9,"left_children":[1,3,5,-1,7,9,11,13,15,17,19,21,23,-1,-1,-1,-1,-1,-1,-1,-1,-1,-1,-1,-1],"loss_changes":[7.6708725E1,3.6455421E0,2.7979326E1,0E0,5.324171E0,1.6301178E1,8.545936E0,4.0259724E0,2.806137E0,8.155463E0,1.0863419E1,5.6655045E0,7.3657703E0,0E0,0E0,0E0,0E0,0E0,0E0,0E0,0E0,0E0,0E0,0E0,0E0],"parents":[2147483647,0,0,1,1,2,2,4,4,5,5,6,6,7,7,8,8,9,9,10,10,11,11,12,12],"right_children":[2,4,6,-1,8,10,12,14,16,18,20,22,24,-1,-1,-1,-1,-1,-1,-1,-1,-1,-1,-1,-1],"split_conditions":[5.814076E-1,4.3346965E-1,7.1E0,-6.1491277E-2,7.1E0,7.239619E-1,1E0,6.4E0,1E0,1E0,8E0,4.0010235E-1,1E0,-2.4539808E-2,3.0539885E-2,-6.445328E-2,-2.5264228E-2,-4.278911E-2,2.0541282E-2,5.8428176E-2,-5.7569772E-2,3.8351256E-2,-3.3568587E-2,-1.4572154E-2,4.793491E-2],"split_indices":[97,97,76,0,76,97,33,76,33,87,81,99,48,0,0,0,0,0,0,0,0,0,0,0,0],"split_type":[0,0,0,0,0,0,0,0,0,0,0,0,0,0,0,0,0,0,0,0,0,0,0,0,0],"sum_hessian":[2.0729555E2,6.298861E1,1.4430695E2,2.4390581E1,3.8598026E1,9.708321E1,4.7223724E1,1.5714076E1,2.2883951E1,4.6050323E1,5.103289E1,3.0079618E1,1.7144106E1,1.221475E1,3.4993258E0,1.3158596E1,9.725354E0,4.833879E0,4.1216446E1,4.9696213E1,1.3366798E0,2.195788E0,2.7883831E1,9.018534E0,8.125572E0],"tree_param":{"num_deleted":"0","num_feature":"100","num_nodes":"25","size_leaf_vector":"1"}},{"base_weights":[-4.5047035E-3,-6.062098E-1,5.599587E-1,-1.0401458E0,-2.871858E-1,8.2530946E-1,-5.1320177E-2,-6.62595E-2,-8.3947957E-1,5.0464865E-2,-3.5721207E-1,9.006453E-1,-5.347407E-2,-6.692689E-1,1.3847572E-1,-2.9808301E-2,-6.2208474E-2,1.4324933E-3,-3.3483073E-2,-2.1076186E-2,4.9874503E-2,-5.4506104E-2,1.5925812E-2,2.0373048E-2,-3.7736468E-2],"categories":[],"categories_nodes":[],"categories_segments":[],"categories_sizes":[],"default_left":[0,0,0,0,0,0,0,0,0,0,0,0,0,0,0,0,0,0,0,0,0,0,0,0,0],"id":10,"left_children":[1,3,5,7,9,11,13,-1,15,-1,17,19,-1,21,23,-1,-1,-1,-1,-1,-1,-1,-1,-1,-1],"loss_changes":[7.04948E1,1.3608673E1,1.7413818E1,1.3003502E0,5.7422247E0,1.1631725E1,4.0051665E0,0E0,1.9645195E0,0E0,6.8886547E0,9.693844E0,0E0,3.6770046E0,6.638165E0,0E0,0E0,0E0,0E0,0E0,0E0,0E0,0E0,0E0,0E0],"parents":[2147483647,0,0,1,1,2,2,3,3,4,4,5,5,6,6,8,8,10,10,11,11,13,13,14,14],"right_children":[2,4,6,8,10,12,14,-1,16,-1,18,20,-1,22,24,-1,-1,-1,-1,-1,-1,-1,-1,-1,-1],"split_conditions":[6.545564E-1,5.17941E-1,6.8E0,3.8642624E-1,1E0,1E0,4E0,-6.62595E-2,8.2E0,5.0464865E-2,7.1E0,1E0,-5.347407E-2,7.285195E-1,1E0,-2.9808301E-2,-6.2208474E-2,1.4324933E-3,-3.3483073E-2,-2.1076186E-2,4.9874503E-2,-5.4506104E-2,1.5925812E-2,2.0373048E-2,-3.7736468E-2],"split_indices":[97,97,76,97,1,45,79,0,76,0,76,87,0,97,19,0,0,0,0,0,0,0,0,0,0],"split_type":[0,0,0,0,0,0,0,0,0,0,0,0,0,0,0,0,0,0,0,0,0,0,0,0,0],"sum_hessian":[2.0555763E2,9.946077E1,1.0609687E2,4.1183136E1,5.827763E1,7.373781E1,3.2359062E1,1.4699169E1,2.6483967E1,2.299066E0,5.5978565E1,7.142275E1,2.3150568E0,7.0098205E0,2.5349243E1,1.8084242E1,8.399726E0,2.5453213E1,3.052535E1,4.645648E0,6.67771E1,4.8428745E0,2.1669457E0,1.9900196E1,5.4490457E0],"tree_param":{"num_deleted":"0","num_feature":"100","num_nodes":"25","size_leaf_vector":"1"}},{"base_weights":[-5.3954986E-3,-8.561895E-1,3.6599702E-1,-6.463618E-2,-6.9927645E-1,-3.351206E-4,8.259283E-1,-3.77208E-1,-9.728427E-1,7.77405E-1,-1.22223444E-1,1.0920273E0,1.3196495E-1,4.0780097E-2,-2.420508E-2,-6.283691E-2,-2.2839002E-2,5.647579E-2,-5.5257417E-2,-2.968563E-2,1.471133E-3,5.6833994E-2,-1.9029694E-2,-2.0523628E-2,5.204912E-2],"categories":[],"categories_nodes":[],"categories_segments":[],"categories_sizes":[],"default_left":[0,0,0,0,0,0,0,0,0,0,0,0,0,0,0,0,0,0,0,0,0,0,0,0,0],"id":11,"left_children":[1,3,5,-1,7,9,11,13,15,17,19,21,23,-1,-1,-1,-1,-1,-1,-1,-1,-1,-1,-1,-1],"loss_changes":[6.499784E1,3.3775787E0,2.4128597E1,0E0,3.8760414E0,7.746441E0,1.158049E1,3.4232087E0,3.14814E0,8.587225E0,5.068328E0,3.4413986E0,9.665449E0,0E0,0E0,0E0,0E0,0E0,0E0,0E0,0E0,0E0,0E0,0E0,0E0],"parents":[2147483647,0,0,1,1,2,2,4,4,5,5,6,6,7,7,8,8,9,9,10,10,11,11,12,12],"right_children":[2,4,6,-1,8,10,12,14,16,18,20,22,24,-1,-1,-1,-1,-1,-1,-1,-1,-1,-1,-1,-1],"split_conditions":[5.814076E-1,3.8642624E-1,7.234608E-1,-6.463618E-2,7.1E0,1E0,1E1,4.0010506E-1,1E0,5.6666666E-1,6E0,8E0,1.92E2,4.0780097E-2,-2.420508E-2,-6.283691E-2,-2.2839002E-2,5.647579E-2,-5.5257417E-2,-2.968563E-2,1.471133E-3,5.6833994E-2,-1.9029694E-2,-2.0523628E-2,5.204912E-2],"split_indices":[97,97,97,0,76,74,78,99,33,71,80,80,98,0,0,0,0,0,0,0,0,0,0,0,0],"split_type":[0,0,0,0,0,0,0,0,0,0,0,0,0,0,0,0,0,0,0,0,0,0,0,0,0],"sum_hessian":[2.0371161E2,6.15063E1,1.422053E2,1.4348929E1,4.715737E1,7.9713394E1,6.2491913E1,2.2751259E1,2.4406113E1,1.0071508E1,6.964189E1,4.47565E1,1.7735415E1,1.3258836E0,2.1425375E1,1.4818787E1,9.587327E0,8.821545E0,1.2499639E0,1.6238617E1,5.340327E1,4.3660748E1,1.09575E0,1.1450817E1,6.284597E0],"tree_param":{"num_deleted":"0","num_feature":"100","num_nodes":"25","size_leaf_vector":"1"}},{"base_weights":[-5.6057707E-3,-8.2624114E-1,3.5009548E-1,-1.104577E0,-5.9353596E-1,-6.1554794E-4,7.950013E-1,-1.1602111E0,-4.5042446E-1,-1.04031526E-1,-8.7842804E-1,7.455979E-1,-1.1646983E-1,4.064855E-1,1.2574583E0,-5.9948873E-2,-1.9791432E-2,3.6692247E-3,-3.5413228E-2,-2.2500863E-2,3.3954524E-2,6.114781E-3,-4.941276E-2,5.449888E-2,-5.3754784E-2,4.785015E-2,-8.822028E-3,4.0091995E-2,-1.9550074E-2,6.609931E-2,2.4641013E-2],"categories":[],"categories_nodes":[],"categories_segments":[],"categories_sizes":[],"default_left":[0,0,0,0,0,0,0,0,0,0,0,0,0,0,0,0,0,0,0,0,0,0,0,0,0,0,0,0,0,0,0],"id":12,"left_children":[1,3,5,7,9,11,13,15,17,19,21,23,25,27,29,-1,-1,-1,-1,-1,-1,-1,-1,-1,-1,-1,-1,-1,-1,-1,-1],"loss_changes":[5.958445E1,3.3421059E0,2.2221676E1,4.5798492E-1,4.898036E0,7.0579867E0,1.0768124E1,2.4243546E-1,5.5797213E-1,4.1792474E0,2.5916882E0,8.051303E0,4.717996E0,1.1535799E1,7.390747E-1,0E0,0E0,0E0,0E0,0E0,0E0,0E0,0E0,0E0,0E0,0E0,0E0,0E0,0E0,0E0,0E0],"parents":[2147483647,0,0,1,1,2,2,3,3,4,4,5,5,6,6,7,7,8,8,9,9,10,10,11,11,12,12,13,13,14,14],"right_children":[2,4,6,8,10,12,14,16,18,20,22,24,26,28,30,-1,-1,-1,-1,-1,-1,-1,-1,-1,-1,-1,-1,-1,-1,-1,-1],"split_conditions":[5.814076E-1,4.4964135E-1,7.234608E-1,7E0,7.1E0,1E0,1.92E2,1E0,9.1950923E-1,1E0,1.245E2,5.6666666E-1,4.0010235E-1,1E1,8E0,-5.9948873E-2,-1.9791432E-2,3.6692247E-3,-3.5413228E-2,-2.2500863E-2,3.3954524E-2,6.114781E-3,-4.941276E-2,5.449888E-2,-5.3754784E-2,4.785015E-2,-8.822028E-3,4.0091995E-2,-1.9550074E-2,6.609931E-2,2.4641013E-2],"split_indices":[97,97,97,79,76,74,98,36,99,45,98,71,99,78,80,0,0,0,0,0,0,0,0,0,0,0,0,0,0,0,0],"split_type":[0,0,0,0,0,0,0,0,0,0,0,0,0,0,0,0,0,0,0,0,0,0,0,0,0,0,0,0,0,0,0],"sum_hessian":[2.0213454E2,6.072154E1,1.4141301E2,2.5943802E1,3.477774E1,7.963602E1,6.177698E1,2.3197315E1,2.7464857E0,1.3296582E1,2.1481157E1,9.971873E0,6.966415E1,3.4593513E1,2.7183468E1,2.1536512E1,1.6608021E0,1.1419572E0,1.6045285E0,9.517205E0,3.7793765E0,2.1131375E0,1.936802E1,8.723234E0,1.2486389E0,2.8945215E0,6.676962E1,2.3124218E1,1.1469296E1,2.4395807E1,2.787661E0],"tree_param":{"num_deleted":"0","num_feature":"100","num_nodes":"31","size_leaf_vector":"1"}},{"base_weights":[-5.319356E-3,-5.838798E-1,4.6207443E-1,-9.511876E-1,-2.8360388E-1,6.975216E-1,-1.7562076E-1,-6.1856657E-2,-7.5791246E-1,4.9694147E-2,-3.6364263E-1,7.654047E-1,-9.044102E-1,-4.1461292E-1,4.4327083E-1,-2.6344616E-2,-5.767378E-2,-2.0080018E-3,-3.017805E-2,4.9964726E-2,1.4310512E-2,-1.209021E-2,-5.4224975E-2,-3.715662E-3,-4.5100477E-2,-1.7785167E-2,3.9582092E-2],"categories":[],"categories_nodes":[],"categories_segments":[],"categories_sizes":[],"default_left":[0,0,0,0,0,0,0,0,0,0,0,0,0,0,0,0,0,0,0,0,0,0,0,0,0,0,0],"id":13,"left_children":[1,3,5,7,9,11,13,-1,15,-1,17,19,21,23,25,-1,-1,-1,-1,-1,-1,-1,-1,-1,-1,-1,-1],"loss_changes":[5.475417E1,9.709234E0,1.6939669E1,1.2879944E0,5.5970993E0,9.609802E0,4.7693267E0,0E0,1.8240252E0,0E0,3.7723022E0,8.592075E0,1.902721E-1,3.7282307E0,2.8200436E0,0E0,0E0,0E0,0E0,0E0,0E0,0E0,0E0,0E0,0E0,0E0,0E0],"parents":[2147483647,0,0,1,1,2,2,3,3,4,4,5,5,6,6,8,8,10,10,11,11,12,12,13,13,14,14],"right_children":[2,4,6,8,10,12,14,-1,16,-1,18,20,22,24,26,-1,-1,-1,-1,-1,-1,-1,-1,-1,-1,-1,-1],"split_conditions":[6.413039E-1,5.17941E-1,7.1E0,3.8642624E-1,1E0,1E0,8.5E0,-6.1856657E-2,8.2E0,4.9694147E-2,7.1E0,5E-1,6.9924855E-1,1E0,4.00106E-1,-2.6344616E-2,-5.767378E-2,-2.0080018E-3,-3.017805E-2,4.9964726E-2,1.4310512E-2,-1.209021E-2,-5.4224975E-2,-3.715662E-3,-4.5100477E-2,-1.7785167E-2,3.9582092E-2],"split_indices":[97,97,76,97,1,45,76,0,76,0,76,68,97,34,99,0,0,0,0,0,0,0,0,0,0,0,0],"split_type":[0,0,0,0,0,0,0,0,0,0,0,0,0,0,0,0,0,0,0,0,0,0,0,0,0,0,0],"sum_hessian":[2.0048389E2,8.947661E1,1.1100728E2,3.927112E1,5.0205486E1,8.10051E1,3.0002188E1,1.3660244E1,2.5610874E1,2.286911E0,4.7918575E1,7.821296E1,2.7921321E0,2.1882196E1,8.119992E0,1.7640387E1,7.970488E0,2.090274E1,2.7015837E1,5.182994E1,2.6383018E1,1.0973439E0,1.6947881E0,1.3564176E1,8.318021E0,2.4591007E0,5.660891E0],"tree_param":{"num_deleted":"0","num_feature":"100","num_nodes":"27","size_leaf_vector":"1"}},{"base_weights":[-5.8851843E-3,-7.7384466E-1,3.2315943E-1,-6.0533583E-2,-6.240915E-1,-6.9370945E-3,7.490924E-1,-1.8941987E-2,-7.426045E-1,6.9828695E-1,-1.14871405E-1,3.709939E-1,1.2057891E0,1.45529825E-2,-4.3456152E-2,-7.926468E-3,-4.2013455E-2,5.180171E-2,-5.228425E-2,-2.839441E-2,1.5564597E-3,3.75378E-2,-1.9042626E-2,6.3339405E-2,2.4562696E-2],"categories":[],"categories_nodes":[],"categories_segments":[],"categories_sizes":[],"default_left":[0,0,0,0,0,0,0,0,0,0,0,0,0,0,0,0,0,0,0,0,0,0,0,0,0],"id":14,"left_children":[1,3,5,-1,7,9,11,13,15,17,19,21,23,-1,-1,-1,-1,-1,-1,-1,-1,-1,-1,-1,-1],"loss_changes":[5.0674965E1,3.1791725E0,1.9745403E1,0E0,3.3464432E0,6.1764946E0,1.0139576E1,2.5458915E0,2.100462E0,7.4282994E0,4.668562E0,1.0275249E1,5.686569E-1,0E0,0E0,0E0,0E0,0E0,0E0,0E0,0E0,0E0,0E0,0E0,0E0],"parents":[2147483647,0,0,1,1,2,2,4,4,5,5,6,6,7,7,8,8,9,9,10,10,11,11,12,12],"right_children":[2,4,6,-1,8,10,12,14,16,18,20,22,24,-1,-1,-1,-1,-1,-1,-1,-1,-1,-1,-1,-1],"split_conditions":[5.814076E-1,3.8642624E-1,7.234608E-1,-6.0533583E-2,1E0,1E0,1.92E2,7.6666665E-1,1.3033333E2,5.6666666E-1,6E0,1E1,8E0,1.45529825E-2,-4.3456152E-2,-7.926468E-3,-4.2013455E-2,5.180171E-2,-5.228425E-2,-2.839441E-2,1.5564597E-3,3.75378E-2,-1.9042626E-2,6.3339405E-2,2.4562696E-2],"split_indices":[97,97,97,0,74,74,98,71,98,71,80,78,80,0,0,0,0,0,0,0,0,0,0,0,0],"split_type":[0,0,0,0,0,0,0,0,0,0,0,0,0,0,0,0,0,0,0,0,0,0,0,0,0],"sum_hessian":[1.9855008E2,5.914931E1,1.3940077E2,1.329209E1,4.585722E1,7.9090004E1,6.031076E1,7.6999035E0,3.815732E1,9.771987E0,6.9318016E1,3.398608E1,2.632468E1,6.124409E0,1.5754944E0,5.8421316E0,3.2315186E1,8.52661E0,1.2453766E0,1.6190825E1,5.3127197E1,2.258149E1,1.14045925E1,2.3542044E1,2.7826362E0],"tree_param":{"num_deleted":"0","num_feature":"100","num_nodes":"25","size_leaf_vector":"1"}},{"base_weights":[-5.9220833E-3,-7.4794126E-1,3.0967924E-1,-5.9291344E-2,-6.004723E-1,-6.902395E-3,7.228724E-1,-3.0583307E-1,-8.587171E-1,-3.1659338E-1,2.2170432E-1,3.5555404E-1,1.172301E0,4.0644247E-2,-2.0521732E-2,-5.7477232E-2,-1.7527873E-2,-2.731137E-3,-3.7305295E-2,2.6680207E-2,-1.2307263E-2,3.613989E-2,-1.8146573E-2,6.168593E-2,2.3647744E-2],"categories":[],"categories_nodes":[],"categories_segments":[],"categories_sizes":[],"default_left":[0,0,0,0,0,0,0,0,0,0,0,0,0,0,0,0,0,0,0,0,0,0,0,0,0],"id":15,"left_children":[1,3,5,-1,7,9,11,13,15,17,19,21,23,-1,-1,-1,-1,-1,-1,-1,-1,-1,-1,-1,-1],"loss_changes":[4.6566124E1,3.1194496E0,1.8255775E1,0E0,3.268837E0,5.733057E0,9.57653E0,3.0521998E0,3.170576E0,3.8277903E0,6.93217E0,9.430328E0,5.671654E-1,0E0,0E0,0E0,0E0,0E0,0E0,0E0,0E0,0E0,0E0,0E0,0E0],"parents":[2147483647,0,0,1,1,2,2,4,4,5,5,6,6,7,7,8,8,9,9,10,10,11,11,12,12],"right_children":[2,4,6,-1,8,10,12,14,16,18,20,22,24,-1,-1,-1,-1,-1,-1,-1,-1,-1,-1,-1,-1],"split_conditions":[5.814076E-1,3.8642624E-1,7.234608E-1,-5.9291344E-2,7.1E0,1.66E2,1.92E2,4.0010506E-1,1E0,1E0,7.1E0,1E1,8E0,4.0644247E-2,-2.0521732E-2,-5.7477232E-2,-1.7527873E-2,-2.731137E-3,-3.7305295E-2,2.6680207E-2,-1.2307263E-2,3.613989E-2,-1.8146573E-2,6.168593E-2,2.3647744E-2],"split_indices":[97,97,97,0,76,98,98,99,33,34,76,78,80,0,0,0,0,0,0,0,0,0,0,0,0],"split_type":[0,0,0,0,0,0,0,0,0,0,0,0,0,0,0,0,0,0,0,0,0,0,0,0,0],"sum_hessian":[1.9685661E2,5.83346E1,1.3852202E2,1.2922402E1,4.5412197E1,7.8986885E1,5.953513E1,2.2231686E1,2.3180511E1,3.3381054E1,4.560583E1,3.3745796E1,2.5789333E1,1.3219651E0,2.090972E1,1.3940169E1,9.240343E0,2.1434673E1,1.1946381E1,2.7279165E1,1.8326664E1,2.2327436E1,1.1418358E1,2.3004908E1,2.784425E0],"tree_param":{"num_deleted":"0","num_feature":"100","num_nodes":"25","size_leaf_vector":"1"}},{"base_weights":[-5.8527705E-3,-7.2274107E-1,2.9695153E-1,-1.0019002E0,-5.0082636E-1,-6.8745892E-3,6.978831E-1,-1.0590136E0,-3.7080678E-1,-5.776594E-2,-7.698507E-1,1.0472034E0,-7.253282E-2,3.408071E-1,1.1407593E0,-5.4939967E-2,-1.6562765E-2,5.474085E-3,-3.153665E-2,-1.9782709E-2,3.4632776E-2,-1.7811077E-2,-5.6219973E-2,7.381861E-3,6.519042E-2,-4.4441964E-2,1.9343529E-3,3.4798995E-2,-1.7295904E-2,6.013603E-2,2.2771774E-2],"categories":[],"categories_nodes":[],"categories_segments":[],"categories_sizes":[],"default_left":[0,0,0,0,0,0,0,0,0,0,0,0,0,0,0,0,0,0,0,0,0,0,0,0,0,0,0,0,0,0,0],"id":16,"left_children":[1,3,5,7,9,11,13,15,17,19,21,23,25,27,29,-1,-1,-1,-1,-1,-1,-1,-1,-1,-1,-1,-1,-1,-1,-1,-1],"loss_changes":[4.2780262E1,3.1235142E0,1.6883945E1,5.054474E-1,4.079918E0,5.6001515E0,9.059536E0,2.8202057E-1,5.193124E-1,3.8628728E0,2.7449245E0,9.028473E-1,6.9411077E0,8.656317E0,5.666084E-1,0E0,0E0,0E0,0E0,0E0,0E0,0E0,0E0,0E0,0E0,0E0,0E0,0E0,0E0,0E0,0E0],"parents":[2147483647,0,0,1,1,2,2,3,3,4,4,5,5,6,6,7,7,8,8,9,9,10,10,11,11,12,12,13,13,14,14],"right_children":[2,4,6,8,10,12,14,16,18,20,22,24,26,28,30,-1,-1,-1,-1,-1,-1,-1,-1,-1,-1,-1,-1,-1,-1,-1,-1],"split_conditions":[5.814076E-1,4.4964135E-1,7.234608E-1,7E0,7.1E0,4.0010235E-1,1.92E2,1E0,9.1950923E-1,1E0,9.1950905E-1,1E0,4.00106E-1,1E1,8E0,-5.4939967E-2,-1.6562765E-2,5.474085E-3,-3.153665E-2,-1.9782709E-2,3.4632776E-2,-1.7811077E-2,-5.6219973E-2,7.381861E-3,6.519042E-2,-4.4441964E-2,1.9343529E-3,3.4798995E-2,-1.7295904E-2,6.013603E-2,2.2771774E-2],"split_indices":[97,97,97,79,76,99,98,36,99,45,99,60,99,78,80,0,0,0,0,0,0,0,0,0,0,0,0,0,0,0,0],"split_type":[0,0,0,0,0,0,0,0,0,0,0,0,0,0,0,0,0,0,0,0,0,0,0,0,0,0,0,0,0,0,0],"sum_hessian":[1.9508559E2,5.75201E1,1.3756549E2,2.3917778E1,3.360232E1,7.881915E1,5.8746334E1,2.1311079E1,2.606698E0,1.3153814E1,2.0448505E1,3.7451503E0,7.5074005E1,3.35033E1,2.5243036E1,1.9723003E1,1.5880756E0,1.1185858E0,1.4881123E0,9.395921E0,3.7578933E0,1.0363176E1,1.008533E1,1.1808513E0,2.564299E0,8.163759E0,6.691025E1,2.2073471E1,1.1429828E1,2.245764E1,2.7853973E0],"tree_param":{"num_deleted":"0","num_feature":"100","num_nodes":"31","size_leaf_vector":"1"}},{"base_weights":[-5.74061E-3,-4.696297E-1,4.2886502E-1,-8.516281E-1,-2.1283716E-1,1.0921929E0,2.2184701E-1,-5.712801E-2,-6.6695976E-1,4.919455E-2,-2.794634E-1,-6.6750474E-2,1.2088354E0,-7.0204134E-3,6.605265E-1,-4.522749E-2,-1.5324962E-2,1.9062244E-3,-2.7224788E-2,3.8551535E-2,-4.1399345E-2,6.426229E-2,1.0221192E-2,1.2955961E-2,-2.2957869E-2,4.3149084E-2,-5.2610558E-2],"categories":[],"categories_nodes":[],"categories_segments":[],"categories_sizes":[],"default_left":[0,0,0,0,0,0,0,0,0,0,0,0,0,0,0,0,0,0,0,0,0,0,0,0,0,0,0],"id":17,"left_children":[1,3,5,7,9,11,13,-1,15,-1,17,19,21,23,25,-1,-1,-1,-1,-1,-1,-1,-1,-1,-1,-1,-1],"loss_changes":[3.9401497E1,9.091307E0,1.3614658E1,1.2616253E0,4.888386E0,3.2908764E0,7.852085E0,0E0,1.901783E0,0E0,4.6996536E0,2.6276484E0,1.3971539E0,6.4188075E0,1.0203895E1,0E0,0E0,0E0,0E0,0E0,0E0,0E0,0E0,0E0,0E0,0E0,0E0],"parents":[2147483647,0,0,1,1,2,2,3,3,4,4,5,5,6,6,8,8,10,10,11,11,12,12,13,13,14,14],"right_children":[2,4,6,8,10,12,14,-1,16,-1,18,20,22,24,26,-1,-1,-1,-1,-1,-1,-1,-1,-1,-1,-1,-1],"split_conditions":[6.545564E-1,5.17941E-1,5.1E0,3.8642624E-1,1E0,1E0,6E0,-5.712801E-2,5E-1,4.919455E-2,7.1E0,3.3333334E-1,1E0,4E0,1E0,-4.522749E-2,-1.5324962E-2,1.9062244E-3,-2.7224788E-2,3.8551535E-2,-4.1399345E-2,6.426229E-2,1.0221192E-2,1.2955961E-2,-2.2957869E-2,4.3149084E-2,-5.2610558E-2],"split_indices":[97,97,76,97,1,87,79,0,71,0,76,71,16,77,45,0,0,0,0,0,0,0,0,0,0,0,0],"split_type":[0,0,0,0,0,0,0,0,0,0,0,0,0,0,0,0,0,0,0,0,0,0,0,0,0,0,0],"sum_hessian":[1.9343639E2,9.352701E1,9.9909386E1,3.666646E1,5.686055E1,2.2747128E1,7.7162254E1,1.2222957E1,2.4443502E1,2.272633E0,5.4587917E1,2.1191635E0,2.0627964E1,5.135393E1,2.5808325E1,1.3822961E1,1.0620542E1,2.5221355E1,2.936656E1,1.0027345E0,1.1164291E0,1.8909805E1,1.7181597E0,3.2594727E1,1.8759207E1,2.3523817E1,2.2845078E0],"tree_param":{"num_deleted":"0","num_feature":"100","num_nodes":"27","size_leaf_vector":"1"}},{"base_weights":[-5.6871017E-3,-2.9416114E-1,6.51916E-1,-7.2833055E-1,-3.873632E-2,3.019988E-1,1.099485E0,-5.6072444E-2,-5.758781E-1,1.8356912E-1,-3.1417105E-1,6.575495E-1,-3.4822187E-1,1.1829382E0,5.060723E-1,-1.27360895E-2,-3.8699906E-2,-4.1551765E-2,1.6598089E-2,-3.4039762E-2,1.3120817E-2,4.1744553E-2,-1.7139917E-3,1.9164622E-2,-3.6401715E-2,6.0653906E-2,1.4514136E-2,5.2583653E-2,-3.6141593E-2],"categories":[],"categories_nodes":[],"categories_segments":[],"categories_sizes":[],"default_left":[0,0,0,0,0,0,0,0,0,0,0,0,0,0,0,0,0,0,0,0,0,0,0,0,0,0,0,0,0],"id":18,"left_children":[1,3,5,7,9,11,13,-1,15,17,19,21,23,25,27,-1,-1,-1,-1,-1,-1,-1,-1,-1,-1,-1,-1,-1,-1],"loss_changes":[3.6733932E1,1.4896726E1,8.915413E0,2.3383827E0,5.310637E0,8.208892E0,6.6562843E-1,0E0,2.2165375E0,7.5185156E0,8.356321E0,2.8089323E0,3.850934E0,2.2992325E-1,4.042441E0,0E0,0E0,0E0,0E0,0E0,0E0,0E0,0E0,0E0,0E0,0E0,0E0,0E0,0E0],"parents":[2147483647,0,0,1,1,2,2,3,3,4,4,5,5,6,6,8,8,9,9,10,10,11,11,12,12,13,13,14,14],"right_children":[2,4,6,8,10,12,14,-1,16,18,20,22,24,26,28,-1,-1,-1,-1,-1,-1,-1,-1,-1,-1,-1,-1,-1,-1],"split_conditions":[7.2218233E-1,5.6325644E-1,1.92E2,3.8642624E-1,7.1E0,1E1,1E0,-5.6072444E-2,9.1950923E-1,1E0,9.4E0,7E0,2.25E-1,1E0,8E0,-1.27360895E-2,-3.8699906E-2,-4.1551765E-2,1.6598089E-2,-3.4039762E-2,1.3120817E-2,4.1744553E-2,-1.7139917E-3,1.9164622E-2,-3.6401715E-2,6.0653906E-2,1.4514136E-2,5.2583653E-2,-3.6141593E-2],"split_indices":[97,97,98,97,76,78,19,0,99,87,76,80,71,36,80,0,0,0,0,0,0,0,0,0,0,0,0,0,0],"split_type":[0,0,0,0,0,0,0,0,0,0,0,0,0,0,0,0,0,0,0,0,0,0,0,0,0,0,0,0,0],"sum_hessian":[1.9162988E2,1.3358302E2,5.8046852E1,4.879321E1,8.478982E1,3.3517246E1,2.4529608E1,1.1858496E1,3.693471E1,4.710475E1,3.7685066E1,2.166126E1,1.1855984E1,2.0634304E1,3.895304E0,1.4963802E1,2.197091E1,5.4233637E0,4.1681385E1,2.2926487E1,1.475858E1,1.7077003E1,4.584256E0,4.048828E0,7.807156E0,1.9613127E1,1.021178E0,2.7975047E0,1.0977992E0],"tree_param":{"num_deleted":"0","num_feature":"100","num_nodes":"29","size_leaf_vector":"1"}},{"base_weights":[-5.637484E-3,-2.8287077E-1,6.3063633E-1,-6.708356E-1,-1.5298812E-2,2.899819E-1,1.07289E0,-5.5068206E-2,-5.300826E-1,1.0233848E0,-7.896462E-2,6.343098E-1,-3.3201736E-1,1.1550173E0,4.9123448E-1,1.3402401E-3,-3.2517403E-2,7.3333955E-3,6.362011E-2,-4.1134268E-2,1.2577231E-3,4.9640484E-2,1.3644854E-2,1.8419262E-2,-3.474542E-2,5.9247267E-2,1.4182721E-2,5.1524073E-2,-3.5274733E-2],"categories":[],"categories_nodes":[],"categories_segments":[],"categories_sizes":[],"default_left":[0,0,0,0,0,0,0,0,0,0,0,0,0,0,0,0,0,0,0,0,0,0,0,0,0,0,0,0,0],"id":19,"left_children":[1,3,5,7,9,11,13,-1,15,17,19,21,23,25,27,-1,-1,-1,-1,-1,-1,-1,-1,-1,-1,-1,-1,-1,-1],"loss_changes":[3.3829372E1,1.3854868E1,8.457752E0,2.718422E0,5.375764E0,7.5458584E0,6.2472916E-1,0E0,2.8970308E0,8.386154E-1,5.934787E0,2.6299314E0,3.5247164E0,2.148571E-1,3.8424573E0,0E0,0E0,0E0,0E0,0E0,0E0,0E0,0E0,0E0,0E0,0E0,0E0,0E0,0E0],"parents":[2147483647,0,0,1,1,2,2,3,3,4,4,5,5,6,6,8,8,9,9,10,10,11,11,12,12,13,13,14,14],"right_children":[2,4,6,8,10,12,14,-1,16,18,20,22,24,26,28,-1,-1,-1,-1,-1,-1,-1,-1,-1,-1,-1,-1,-1,-1],"split_conditions":[7.2218233E-1,5.786243E-1,1.92E2,3.8642624E-1,4.0010235E-1,1E1,1E0,-5.5068206E-2,1E0,1E0,4.00106E-1,5.6E0,2.25E-1,1E0,8E0,1.3402401E-3,-3.2517403E-2,7.3333955E-3,6.362011E-2,-4.1134268E-2,1.2577231E-3,4.9640484E-2,1.3644854E-2,1.8419262E-2,-3.474542E-2,5.9247267E-2,1.4182721E-2,5.1524073E-2,-3.5274733E-2],"split_indices":[97,97,98,97,99,78,19,0,74,60,99,76,71,36,80,0,0,0,0,0,0,0,0,0,0,0,0,0,0],"split_type":[0,0,0,0,0,0,0,0,0,0,0,0,0,0,0,0,0,0,0,0,0,0,0,0,0,0,0,0,0],"sum_hessian":[1.897692E2,1.3256447E2,5.720474E1,5.3493973E1,7.907049E1,3.324942E1,2.395532E1,1.1498408E1,4.1995564E1,3.6960766E0,7.537441E1,2.1389032E1,1.1860387E1,2.0127642E1,3.8276777E0,7.596625E0,3.439894E1,1.1690791E0,2.5269976E0,8.408839E0,6.6965576E1,9.860742E0,1.1528292E1,4.0426593E0,7.8177276E0,1.911136E1,1.016281E0,2.7344506E0,1.0932271E0],"tree_param":{"num_deleted":"0","num_feature":"100","num_nodes":"29","size_leaf_vector":"1"}},{"base_weights":[-4.9410653E-3,-2.7095637E-1,6.106265E-1,-6.8237567E-1,-3.5010792E-2,2.7916196E-1,1.047668E0,-1.0821964E0,-5.3342634E-1,5.558126E-1,-1.3018866E-1,8.144735E-1,-9.877043E-2,1.1285626E0,4.770872E-1,-2.1053791E-2,-5.7326343E-2,-1.6616799E-2,-4.3909904E-2,4.807116E-2,-5.8699634E-2,-2.7530981E-2,3.1385515E-4,-8.712941E-3,4.5308523E-2,-6.0676035E-2,4.5305043E-3,5.791709E-2,1.3859403E-2,5.051179E-2,-3.443955E-2],"categories":[],"categories_nodes":[],"categories_segments":[],"categories_sizes":[],"default_left":[0,0,0,0,0,0,0,0,0,0,0,0,0,0,0,0,0,0,0,0,0,0,0,0,0,0,0,0,0,0,0],"id":20,"left_children":[1,3,5,7,9,11,13,15,17,19,21,23,25,27,29,-1,-1,-1,-1,-1,-1,-1,-1,-1,-1,-1,-1,-1,-1,-1,-1],"loss_changes":[3.1130024E1,1.2860506E1,8.017874E0,2.3004456E0,4.875112E0,6.956421E0,5.868645E-1,3.369713E-2,2.2857218E0,9.575936E0,4.2702837E0,1.4429007E0,4.504014E0,2.0170403E-1,3.6543195E0,0E0,0E0,0E0,0E0,0E0,0E0,0E0,0E0,0E0,0E0,0E0,0E0,0E0,0E0,0E0,0E0],"parents":[2147483647,0,0,1,1,2,2,3,3,4,4,5,5,6,6,7,7,8,8,9,9,10,10,11,11,12,12,13,13,14,14],"right_children":[2,4,6,8,10,12,14,16,18,20,22,24,26,28,30,-1,-1,-1,-1,-1,-1,-1,-1,-1,-1,-1,-1,-1,-1,-1,-1],"split_conditions":[7.2218233E-1,5.6325644E-1,1.92E2,3.8642624E-1,1E0,9E0,1E0,2.8310218E-1,7.8E0,7.6666665E-1,6E0,7.3018426E-1,1E0,1E0,8E0,-2.1053791E-2,-5.7326343E-2,-1.6616799E-2,-4.3909904E-2,4.807116E-2,-5.8699634E-2,-2.7530981E-2,3.1385515E-4,-8.712941E-3,4.5308523E-2,-6.0676035E-2,4.5305043E-3,5.791709E-2,1.3859403E-2,5.051179E-2,-3.443955E-2],"split_indices":[97,97,98,97,74,78,19,97,76,71,80,97,87,36,80,0,0,0,0,0,0,0,0,0,0,0,0,0,0,0,0],"split_type":[0,0,0,0,0,0,0,0,0,0,0,0,0,0,0,0,0,0,0,0,0,0,0,0,0,0,0,0,0,0,0],"sum_hessian":[1.8809616E2,1.3172954E2,5.6366615E1,4.7321953E1,8.4407585E1,3.2987057E1,2.3379559E1,1.1143696E1,3.6178257E1,1.1039484E1,7.33681E1,1.317319E1,1.9813868E1,1.9619997E1,3.759561E0,1.6572928E0,9.486403E0,2.4090973E1,1.2087284E1,9.302422E0,1.7370621E0,1.7234938E1,5.6133167E1,1.041603E0,1.2131587E1,2.091984E0,1.7721884E1,1.8608555E1,1.0114418E0,2.6714308E0,1.0881301E0],"tree_param":{"num_deleted":"0","num_feature":"100","num_nodes":"31","size_leaf_vector":"1"}},{"base_weights":[-5.2671367E-3,-6.157702E-1,2.4459681E-1,-1.064616E0,-4.8102632E-1,4.6769002E-1,-1.7547464E-1,-2.0557636E-2,-5.6468137E-2,-2.0676328E-1,-7.3236656E-1,-5.818478E-1,5.7325494E-1,-4.689867E-1,3.3344844E-1,-2.417463E-2,1.1551506E-2,-5.203205E-2,-1.1086445E-2,2.459107E-2,-5.182255E-2,6.891469E-3,4.050612E-2,-4.7286745E-2,-6.0338355E-3,-1.189221E-2,4.590077E-2],"categories":[],"categories_nodes":[],"categories_segments":[],"categories_sizes":[],"default_left":[0,0,0,0,0,0,0,0,0,0,0,0,0,0,0,0,0,0,0,0,0,0,0,0,0,0,0],"id":21,"left_children":[1,3,5,7,9,11,13,-1,-1,15,17,19,21,23,25,-1,-1,-1,-1,-1,-1,-1,-1,-1,-1,-1,-1],"loss_changes":[2.8741882E1,2.7971458E0,1.2613087E1,3.5305977E-2,2.8752918E0,1.0039772E1,7.193183E0,0E0,0E0,2.8242416E0,3.3139715E0,4.659799E0,8.150032E0,4.9161634E0,6.168006E0,0E0,0E0,0E0,0E0,0E0,0E0,0E0,0E0,0E0,0E0,0E0,0E0],"parents":[2147483647,0,0,1,1,2,2,3,3,4,4,5,5,6,6,9,9,10,10,11,11,12,12,13,13,14,14],"right_children":[2,4,6,8,10,12,14,-1,-1,16,18,20,22,24,26,-1,-1,-1,-1,-1,-1,-1,-1,-1,-1,-1,-1],"split_conditions":[5.814076E-1,3.8642624E-1,7.1E0,2.8310218E-1,7.1E0,1E0,1E0,-2.0557636E-2,-5.6468137E-2,5.8E0,1E0,5E-1,1.69E2,1E0,1E0,-2.417463E-2,1.1551506E-2,-5.203205E-2,-1.1086445E-2,2.459107E-2,-5.182255E-2,6.891469E-3,4.050612E-2,-4.7286745E-2,-6.0338355E-3,-1.189221E-2,4.590077E-2],"split_indices":[97,97,76,97,76,87,33,0,0,76,33,68,98,60,48,0,0,0,0,0,0,0,0,0,0,0,0],"split_type":[0,0,0,0,0,0,0,0,0,0,0,0,0,0,0,0,0,0,0,0,0,0,0,0,0,0,0],"sum_hessian":[1.8643121E2,5.3717228E1,1.3271399E2,1.0809302E1,4.2907925E1,8.660572E1,4.610827E1,1.6370791E0,9.172223E0,2.1389881E1,2.1518045E1,7.502574E0,7.910314E1,2.929271E1,1.681556E1,1.3041781E1,8.348099E0,1.2770506E1,8.7475395E0,2.2073786E0,5.2951956E0,2.842757E1,5.067557E1,1.164223E1,1.7650478E1,8.804307E0,8.011252E0],"tree_param":{"num_deleted":"0","num_feature":"100","num_nodes":"27","size_leaf_vector":"1"}},{"base_weights":[-5.895228E-3,-2.5518632E-1,5.774657E-1,-7.451008E-1,-7.8111194E-2,2.5871873E-1,1.008973E0,-5.594631E-1,-1.0655391E0,1.2726015E-2,-8.2009476E-1,5.86473E-1,-3.1661507E-1,5.4420263E-2,4.5318937E-1,-4.0603604E-2,-7.735157E-3,-5.7619333E-2,-2.0568548E-2,1.2297138E-2,-1.2125144E-2,3.2956522E-2,-5.7408344E-2,4.7720815E-3,4.1358136E-2,1.7314143E-2,-3.295667E-2,4.904567E-2,-3.345391E-2],"categories":[],"categories_nodes":[],"categories_segments":[],"categories_sizes":[],"default_left":[0,0,0,0,0,0,0,0,0,0,0,0,0,0,0,0,0,0,0,0,0,0,0,0,0,0,0,0,0],"id":22,"left_children":[1,3,5,7,9,11,13,15,17,19,21,23,25,-1,27,-1,-1,-1,-1,-1,-1,-1,-1,-1,-1,-1,-1,-1,-1],"loss_changes":[2.7151403E1,1.1287866E1,7.4276047E0,1.4623642E0,6.5605364E0,6.501942E0,5.399933E-1,2.3299885E0,1.8430328E-1,5.2719917E0,5.9082646E0,2.4845061E0,3.1358955E0,0E0,3.4044156E0,0E0,0E0,0E0,0E0,0E0,0E0,0E0,0E0,0E0,0E0,0E0,0E0,0E0,0E0],"parents":[2147483647,0,0,1,1,2,2,3,3,4,4,5,5,6,6,7,7,8,8,9,9,10,10,11,11,12,12,14,14],"right_children":[2,4,6,8,10,12,14,16,18,20,22,24,26,-1,28,-1,-1,-1,-1,-1,-1,-1,-1,-1,-1,-1,-1,-1,-1],"split_conditions":[7.2218233E-1,5.17941E-1,1.92E2,8.2E0,1E0,1E1,1E0,5E-1,1E0,5E-1,1E-1,1E0,2.25E-1,5.4420263E-2,8E0,-4.0603604E-2,-7.735157E-3,-5.7619333E-2,-2.0568548E-2,1.2297138E-2,-1.2125144E-2,3.2956522E-2,-5.7408344E-2,4.7720815E-3,4.1358136E-2,1.7314143E-2,-3.295667E-2,4.904567E-2,-3.345391E-2],"split_indices":[97,97,98,76,19,78,19,69,33,68,71,17,71,0,80,0,0,0,0,0,0,0,0,0,0,0,0,0,0],"split_type":[0,0,0,0,0,0,0,0,0,0,0,0,0,0,0,0,0,0,0,0,0,0,0,0,0,0,0,0,0],"sum_hessian":[1.8468839E2,1.297879E2,5.490048E1,3.3605E1,9.618291E1,3.249589E1,2.2404585E1,2.301676E1,1.0588238E1,8.656772E1,9.61519E0,2.0689949E1,1.1805943E1,1.8764452E1,3.6401331E0,1.3552435E1,9.464325E0,8.674943E0,1.9132942E0,4.525349E1,4.131423E1,1.562232E0,8.052958E0,7.265048E0,1.3424901E1,4.018223E0,7.7877197E0,2.5615633E0,1.0785701E0],"tree_param":{"num_deleted":"0","num_feature":"100","num_nodes":"29","size_leaf_vector":"1"}},{"base_weights":[-5.8959206E-3,-2.450623E-1,5.59011E-1,-7.244484E-1,-7.4570455E-2,2.4876074E-1,9.860941E-1,-5.405528E-1,-1.046494E0,1.2098468E-2,-7.8669465E-1,7.603097E-1,-1.00992575E-1,5.3218503E-2,4.406346E-1,2.5619322E-2,-3.083363E-2,-5.6714874E-2,-2.0014402E-2,1.1700624E-2,-1.1544283E-2,3.209211E-2,-5.522243E-2,-9.368003E-3,4.265931E-2,2.4086269E-2,-2.0641461E-2,4.813737E-2,-3.2684278E-2],"categories":[],"categories_nodes":[],"categories_segments":[],"categories_sizes":[],"default_left":[0,0,0,0,0,0,0,0,0,0,0,0,0,0,0,0,0,0,0,0,0,0,0,0,0,0,0,0,0],"id":23,"left_children":[1,3,5,7,9,11,13,15,17,19,21,23,25,-1,27,-1,-1,-1,-1,-1,-1,-1,-1,-1,-1,-1,-1,-1,-1],"loss_changes":[2.5014784E1,1.0575966E1,7.0521965E0,1.4482307E0,5.999611E0,6.023578E0,5.0603294E-1,2.2166424E0,1.8663883E-1,4.7726383E0,5.495735E0,1.3581357E0,3.9464374E0,0E0,3.2417636E0,0E0,0E0,0E0,0E0,0E0,0E0,0E0,0E0,0E0,0E0,0E0,0E0,0E0,0E0],"parents":[2147483647,0,0,1,1,2,2,3,3,4,4,5,5,6,6,7,7,8,8,9,9,10,10,11,11,12,12,14,14],"right_children":[2,4,6,8,10,12,14,16,18,20,22,24,26,-1,28,-1,-1,-1,-1,-1,-1,-1,-1,-1,-1,-1,-1,-1,-1],"split_conditions":[7.2218233E-1,5.17941E-1,1.92E2,8.2E0,1E0,9E0,1E0,4.0010506E-1,1E0,5E-1,1E-1,7.3018426E-1,2.25E-1,5.3218503E-2,8E0,2.5619322E-2,-3.083363E-2,-5.6714874E-2,-2.0014402E-2,1.1700624E-2,-1.1544283E-2,3.209211E-2,-5.522243E-2,-9.368003E-3,4.265931E-2,2.4086269E-2,-2.0641461E-2,4.813737E-2,-3.2684278E-2],"split_indices":[97,97,98,76,19,78,19,99,33,68,71,97,71,0,80,0,0,0,0,0,0,0,0,0,0,0,0,0,0],"split_type":[0,0,0,0,0,0,0,0,0,0,0,0,0,0,0,0,0,0,0,0,0,0,0,0,0,0,0,0,0],"sum_hessian":[1.8313435E2,1.2906E2,5.407435E1,3.3005775E1,9.605423E1,3.223791E1,2.1836437E1,2.271403E1,1.0291745E1,8.650871E1,9.545514E0,1.2614339E1,1.962357E1,1.8264126E1,3.5723124E0,1.1449537E0,2.1569075E1,8.395661E0,1.896084E0,4.523403E1,4.1274685E1,1.551309E0,7.994205E0,1.0351214E0,1.1579218E1,6.6507506E0,1.2972819E1,2.4998415E0,1.0724709E0],"tree_param":{"num_deleted":"0","num_feature":"100","num_nodes":"29","size_leaf_vector":"1"}},{"base_weights":[-5.614898E-3,-4.0214634E-1,3.1232092E-1,5.249499E-2,-4.583998E-1,9.529292E-1,1.2628691E-1,-8.4134245E-1,-3.1358948E-1,-1.3866073E-1,1.086488E0,-5.0313964E-2,5.0968385E-1,-4.5111552E-2,-1.2594436E-2,-1.9551452E-2,2.5259418E-2,1.7112618E-2,-2.6988635E-2,1.9433973E-2,5.922935E-2,-3.575635E-2,4.9910615E-3,4.291128E-2,-1.7278297E-2],"categories":[],"categories_nodes":[],"categories_segments":[],"categories_sizes":[],"default_left":[0,0,0,0,0,0,0,0,0,0,0,0,0,0,0,0,0,0,0,0,0,0,0,0,0],"id":24,"left_children":[1,3,5,-1,7,9,11,13,15,17,19,21,23,-1,-1,-1,-1,-1,-1,-1,-1,-1,-1,-1,-1],"loss_changes":[2.314524E1,7.1539288E0,1.202381E1,0E0,4.1358547E0,3.4717865E0,5.450555E0,5.3275776E-1,3.9488587E0,8.3484435E-1,9.367161E-1,5.6373715E0,7.8552713E0,0E0,0E0,0E0,0E0,0E0,0E0,0E0,0E0,0E0,0E0,0E0,0E0],"parents":[2147483647,0,0,1,1,2,2,4,4,5,5,6,6,7,7,8,8,9,9,10,10,11,11,12,12],"right_children":[2,4,6,-1,8,10,12,14,16,18,20,22,24,-1,-1,-1,-1,-1,-1,-1,-1,-1,-1,-1,-1],"split_conditions":[6.413039E-1,1E0,5.1E0,5.249499E-2,4.4964135E-1,1E0,7.6656634E-1,7E0,6E0,5E-1,6.776946E-1,6E0,8E0,-4.5111552E-2,-1.2594436E-2,-1.9551452E-2,2.5259418E-2,1.7112618E-2,-2.6988635E-2,1.9433973E-2,5.922935E-2,-3.575635E-2,4.9910615E-3,4.291128E-2,-1.7278297E-2],"split_indices":[97,1,76,0,97,87,97,79,79,68,97,80,81,0,0,0,0,0,0,0,0,0,0,0,0],"split_type":[0,0,0,0,0,0,0,0,0,0,0,0,0,0,0,0,0,0,0,0,0,0,0,0,0],"sum_hessian":[1.815919E2,8.0689995E1,1.0090191E2,2.350625E0,7.833937E1,2.1780025E1,7.912188E1,2.017576E1,5.8163612E1,2.3701708E0,1.9409855E1,5.4764805E1,2.4357079E1,1.7805853E1,2.3699074E0,5.3615143E1,4.5484667E0,1.1445974E0,1.2255734E0,3.0039496E0,1.6405907E1,9.395851E0,4.5368954E1,1.730234E1,7.0547385E0],"tree_param":{"num_deleted":"0","num_feature":"100","num_nodes":"25","size_leaf_vector":"1"}},{"base_weights":[-4.967033E-3,-5.587694E-1,2.0704183E-1,-1.0078347E0,-4.2710727E-1,4.154666E-1,-1.6757004E-1,-1.697404E-2,-5.3966284E-2,-1.685231E-1,-6.7483634E-1,-5.8681446E-1,5.2186406E-1,-4.1674325E-1,3.6821574E-1,-2.2088585E-2,1.2250278E-2,-5.181087E-2,-5.5593783E-3,2.2007067E-2,-4.9591586E-2,6.593343E-3,3.720093E-2,-3.2111134E-2,5.481462E-4,4.8879232E-2,-4.790491E-3],"categories":[],"categories_nodes":[],"categories_segments":[],"categories_sizes":[],"default_left":[0,0,0,0,0,0,0,0,0,0,0,0,0,0,0,0,0,0,0,0,0,0,0,0,0,0,0],"id":25,"left_children":[1,3,5,7,9,11,13,-1,-1,15,17,19,21,23,25,-1,-1,-1,-1,-1,-1,-1,-1,-1,-1,-1,-1],"loss_changes":[2.1365236E1,2.5479298E0,1.0345504E1,1.4415073E-1,2.4927669E0,9.354566E0,6.529666E0,0E0,0E0,2.5084088E0,4.0498514E0,4.019201E0,6.593565E0,3.196168E0,4.530719E0,0E0,0E0,0E0,0E0,0E0,0E0,0E0,0E0,0E0,0E0,0E0,0E0],"parents":[2147483647,0,0,1,1,2,2,3,3,4,4,5,5,6,6,9,9,10,10,11,11,12,12,13,13,14,14],"right_children":[2,4,6,8,10,12,14,-1,-1,16,18,20,22,24,26,-1,-1,-1,-1,-1,-1,-1,-1,-1,-1,-1,-1],"split_conditions":[5.786243E-1,3.8642624E-1,7.1E0,2.8310218E-1,7.1E0,1E0,9.4E0,-1.697404E-2,-5.3966284E-2,5.8E0,1E0,5E-1,1.69E2,1E0,5E-1,-2.2088585E-2,1.2250278E-2,-5.181087E-2,-5.5593783E-3,2.2007067E-2,-4.9591586E-2,6.593343E-3,3.720093E-2,-3.2111134E-2,5.481462E-4,4.8879232E-2,-4.790491E-3],"split_indices":[97,97,76,97,76,87,76,0,0,76,33,68,98,33,68,0,0,0,0,0,0,0,0,0,0,0,0],"split_type":[0,0,0,0,0,0,0,0,0,0,0,0,0,0,0,0,0,0,0,0,0,0,0,0,0,0,0],"sum_hessian":[1.7998427E2,4.937444E1,1.3060983E2,9.68539E0,3.968905E1,8.384917E1,4.6760662E1,1.491381E0,8.19401E0,2.0241188E1,1.9447859E1,7.6134996E0,7.623567E1,3.206886E1,1.4691802E1,1.21466875E1,8.0945015E0,1.1339301E1,8.108557E0,2.1288633E0,5.4846363E0,2.824483E1,4.799084E1,2.0670284E1,1.1398574E1,5.872783E0,8.819019E0],"tree_param":{"num_deleted":"0","num_feature":"100","num_nodes":"27","size_leaf_vector":"1"}},{"base_weights":[-5.401787E-3,-2.2186723E-1,5.156113E-1,-6.688307E-1,-6.900957E-2,2.1687633E-1,9.422764E-1,-4.8479807E-1,-1.0024803E0,1.45019125E-2,-7.5864506E-1,5.248609E-1,-3.0283132E-1,1.017877E0,4.1757363E-1,-3.7091266E-2,-4.618065E-3,-5.4624893E-2,-1.8911215E-2,5.3383924E-2,-1.6145278E-3,3.0825792E-2,-5.3206194E-2,3.495771E-2,-5.435889E-3,1.5501489E-2,-3.083378E-2,5.4548778E-2,2.625376E-2,4.65365E-2,-3.1042589E-2],"categories":[],"categories_nodes":[],"categories_segments":[],"categories_sizes":[],"default_left":[0,0,0,0,0,0,0,0,0,0,0,0,0,0,0,0,0,0,0,0,0,0,0,0,0,0,0,0,0,0,0],"id":26,"left_children":[1,3,5,7,9,11,13,15,17,19,21,23,25,27,29,-1,-1,-1,-1,-1,-1,-1,-1,-1,-1,-1,-1,-1,-1,-1,-1],"loss_changes":[2.0338297E1,8.656992E0,6.542716E0,1.5002146E0,5.542021E0,5.350422E0,4.278469E-1,2.2297025E0,1.8035984E-1,4.3044024E0,5.0216365E0,2.365334E0,2.6345005E0,7.9078674E-2,2.9242768E0,0E0,0E0,0E0,0E0,0E0,0E0,0E0,0E0,0E0,0E0,0E0,0E0,0E0,0E0,0E0,0E0],"parents":[2147483647,0,0,1,1,2,2,3,3,4,4,5,5,6,6,7,7,8,8,9,9,10,10,11,11,12,12,13,13,14,14],"right_children":[2,4,6,8,10,12,14,16,18,20,22,24,26,28,30,-1,-1,-1,-1,-1,-1,-1,-1,-1,-1,-1,-1,-1,-1,-1,-1],"split_conditions":[7.2218233E-1,5.17941E-1,1.92E2,8.2E0,1E0,1E1,1E0,5E-1,1E0,4.2E0,1E-1,7E0,2.25E-1,1E0,8E0,-3.7091266E-2,-4.618065E-3,-5.4624893E-2,-1.8911215E-2,5.3383924E-2,-1.6145278E-3,3.0825792E-2,-5.3206194E-2,3.495771E-2,-5.435889E-3,1.5501489E-2,-3.083378E-2,5.4548778E-2,2.625376E-2,4.65365E-2,-3.1042589E-2],"split_indices":[97,97,98,76,19,78,19,69,33,76,71,80,71,47,80,0,0,0,0,0,0,0,0,0,0,0,0,0,0,0,0],"split_type":[0,0,0,0,0,0,0,0,0,0,0,0,0,0,0,0,0,0,0,0,0,0,0,0,0,0,0,0,0,0,0],"sum_hessian":[1.7831956E2,1.2638466E2,5.1934906E1,3.1347496E1,9.503716E1,3.1434175E1,2.050073E1,2.178465E1,9.562844E0,8.564495E1,9.392214E0,1.9731281E1,1.1702895E1,1.7097383E1,3.4033465E0,1.2625348E1,9.159304E0,7.702121E0,1.8607234E0,2.7152154E0,8.292973E1,1.5220904E0,7.8701234E0,1.5393211E1,4.3380694E0,3.9674978E0,7.7353973E0,1.3831849E1,3.2655342E0,2.3471642E0,1.0561825E0],"tree_param":{"num_deleted":"0","num_feature":"100","num_nodes":"31","size_leaf_vector":"1"}},{"base_weights":[-5.0065145E-3,-2.1270332E-1,4.995549E-1,-6.503242E-1,-6.535487E-2,2.082346E-1,9.2258114E-1,-4.6815032E-1,-9.858498E-1,1.4403121E-2,-7.288866E-1,5.061645E-1,-2.8916714E-1,9.9716884E-1,4.06545E-1,-3.6059983E-2,-4.417548E-3,-5.3861815E-2,-1.840326E-2,4.9806344E-3,-2.7545178E-2,3.0035997E-2,-5.1272597E-2,4.339273E-2,8.401055E-3,-3.0655204E-4,-5.0544746E-2,5.351348E-2,2.5539836E-2,4.572252E-2,-3.0353239E-2],"categories":[],"categories_nodes":[],"categories_segments":[],"categories_sizes":[],"default_left":[0,0,0,0,0,0,0,0,0,0,0,0,0,0,0,0,0,0,0,0,0,0,0,0,0,0,0,0,0,0,0],"id":27,"left_children":[1,3,5,7,9,11,13,15,17,19,21,23,25,27,29,-1,-1,-1,-1,-1,-1,-1,-1,-1,-1,-1,-1,-1,-1,-1,-1],"loss_changes":[1.8744213E1,8.126812E0,6.2359247E0,1.4822359E0,5.085162E0,4.915169E0,4.0213203E-1,2.100089E0,1.8422318E-1,4.2254376E0,4.680894E0,2.3600621E0,2.5862658E0,8.057022E-2,2.7883296E0,0E0,0E0,0E0,0E0,0E0,0E0,0E0,0E0,0E0,0E0,0E0,0E0,0E0,0E0,0E0,0E0],"parents":[2147483647,0,0,1,1,2,2,3,3,4,4,5,5,6,6,7,7,8,8,9,9,10,10,11,11,12,12,13,13,14,14],"right_children":[2,4,6,8,10,12,14,16,18,20,22,24,26,28,30,-1,-1,-1,-1,-1,-1,-1,-1,-1,-1,-1,-1,-1,-1,-1,-1],"split_conditions":[7.2218233E-1,5.17941E-1,1.92E2,8.2E0,1E0,1E1,1E0,5E-1,1E0,1E0,1E-1,5.6E0,1E0,1E0,8E0,-3.6059983E-2,-4.417548E-3,-5.3861815E-2,-1.840326E-2,4.9806344E-3,-2.7545178E-2,3.0035997E-2,-5.1272597E-2,4.339273E-2,8.401055E-3,-3.0655204E-4,-5.0544746E-2,5.351348E-2,2.5539836E-2,4.572252E-2,-3.0353239E-2],"split_indices":[97,97,98,76,19,78,19,69,33,21,71,76,55,47,80,0,0,0,0,0,0,0,0,0,0,0,0,0,0,0,0],"split_type":[0,0,0,0,0,0,0,0,0,0,0,0,0,0,0,0,0,0,0,0,0,0,0,0,0,0,0,0,0,0,0],"sum_hessian":[1.7685022E2,1.2568989E2,5.1160336E1,3.0800306E1,9.488959E1,3.118014E1,1.9980196E1,2.1514347E1,9.285958E0,8.558087E1,9.308718E0,1.9489092E1,1.1691046E1,1.6642353E1,3.337843E0,1.2372208E1,9.14214E0,7.441463E0,1.8444952E0,7.5086716E1,1.049415E1,1.5105958E0,7.798122E0,8.65977E0,1.0829322E1,9.122155E0,2.5688913E0,1.3424205E1,3.2181475E0,2.2887907E0,1.0490524E0],"tree_param":{"num_deleted":"0","num_feature":"100","num_nodes":"31","size_leaf_vector":"1"}},{"base_weights":[-5.128704E-3,-2.0451455E-1,4.8378965E-1,-6.3232136E-1,-6.26672E-2,1.9953212E-1,9.0354705E-1,-4.5201993E-1,-9.697599E-1,1.3422475E-2,-7.0068187E-1,6.707306E-1,-1.0373675E-1,9.7713834E-1,3.959454E-1,-3.5054736E-2,-4.2254855E-3,-5.3130366E-2,-1.7909266E-2,-3.5127003E-2,3.9871824E-3,2.927177E-2,-4.9442623E-2,-1.1581209E-2,3.8431082E-2,-5.5285998E-2,3.5309885E-3,5.251668E-2,2.484413E-2,4.493516E-2,-2.9685652E-2],"categories":[],"categories_nodes":[],"categories_segments":[],"categories_sizes":[],"default_left":[0,0,0,0,0,0,0,0,0,0,0,0,0,0,0,0,0,0,0,0,0,0,0,0,0,0,0,0,0,0,0],"id":28,"left_children":[1,3,5,7,9,11,13,15,17,19,21,23,25,27,29,-1,-1,-1,-1,-1,-1,-1,-1,-1,-1,-1,-1,-1,-1,-1,-1],"loss_changes":[1.7295656E1,7.6069837E0,5.952486E0,1.4639463E0,4.6573105E0,4.63218E0,3.7774086E-1,1.9775844E0,1.8810368E-1,4.164357E0,4.3667746E0,1.2942615E0,3.6231399E0,8.259964E-2,2.659698E0,0E0,0E0,0E0,0E0,0E0,0E0,0E0,0E0,0E0,0E0,0E0,0E0,0E0,0E0,0E0,0E0],"parents":[2147483647,0,0,1,1,2,2,3,3,4,4,5,5,6,6,7,7,8,8,9,9,10,10,11,11,12,12,13,13,14,14],"right_children":[2,4,6,8,10,12,14,16,18,20,22,24,26,28,30,-1,-1,-1,-1,-1,-1,-1,-1,-1,-1,-1,-1,-1,-1,-1,-1],"split_conditions":[7.2218233E-1,5.17941E-1,1.92E2,8.2E0,1E0,9E0,1E0,5E-1,1E0,1E0,1E-1,7.3018426E-1,1E0,1E0,8E0,-3.5054736E-2,-4.2254855E-3,-5.3130366E-2,-1.7909266E-2,-3.5127003E-2,3.9871824E-3,2.927177E-2,-4.9442623E-2,-1.1581209E-2,3.8431082E-2,-5.5285998E-2,3.5309885E-3,5.251668E-2,2.484413E-2,4.493516E-2,-2.9685652E-2],"split_indices":[97,97,98,76,19,78,19,69,33,87,71,97,87,47,80,0,0,0,0,0,0,0,0,0,0,0,0,0,0,0,0],"split_type":[0,0,0,0,0,0,0,0,0,0,0,0,0,0,0,0,0,0,0,0,0,0,0,0,0,0,0,0,0,0,0],"sum_hessian":[1.7540659E2,1.25008545E2,5.0398045E1,3.0266886E1,9.474165E1,3.0928665E1,1.9469381E1,2.1251348E1,9.015538E0,8.552134E1,9.220318E0,1.1636694E1,1.9291971E1,1.6196262E1,3.2731185E0,1.2125666E1,9.125682E0,7.186943E0,1.8285946E0,6.4371223E0,7.908421E1,1.4989378E0,7.72138E0,1.005148E0,1.0631546E1,2.0677E0,1.722427E1,1.3024225E1,3.1720371E0,2.2314317E0,1.0416869E0],"tree_param":{"num_deleted":"0","num_feature":"100","num_nodes":"31","size_leaf_vector":"1"}},{"base_weights":[-5.433297E-3,-3.4163135E-1,2.6454994E-1,5.096609E-2,-3.9673153E-1,8.939575E-1,9.090461E-2,-9.5893186E-1,-3.1001937E-1,-1.3716137E-1,1.02763E0,-4.8201743E-1,1.9714735E-1,-1.3547815E-2,-5.1915616E-2,-4.2121965E-3,-2.586987E-2,1.48111405E-2,-2.4244318E-2,5.5113144E-2,1.0600608E-2,-4.3094862E-2,5.6362376E-3,2.1967769E-2,-4.264071E-3],"categories":[],"categories_nodes":[],"categories_segments":[],"categories_sizes":[],"default_left":[0,0,0,0,0,0,0,0,0,0,0,0,0,0,0,0,0,0,0,0,0,0,0,0,0],"id":29,"left_children":[1,3,5,-1,7,9,11,13,15,17,19,21,23,-1,-1,-1,-1,-1,-1,-1,-1,-1,-1,-1,-1],"loss_changes":[1.5976711E1,6.282629E0,1.0589451E1,0E0,3.4105015E0,3.035183E0,4.82059E0,2.4761105E-1,3.1108403E0,6.3973653E-1,9.0498734E-1,2.9065733E0,4.5660024E0,0E0,0E0,0E0,0E0,0E0,0E0,0E0,0E0,0E0,0E0,0E0,0E0],"parents":[2147483647,0,0,1,1,2,2,4,4,5,5,6,6,7,7,8,8,9,9,10,10,11,11,12,12],"right_children":[2,4,6,-1,8,10,12,14,16,18,20,22,24,-1,-1,-1,-1,-1,-1,-1,-1,-1,-1,-1,-1],"split_conditions":[6.413039E-1,1E0,5.1E0,5.096609E-2,3.8642624E-1,1E0,6E0,2.8310218E-1,7.1E0,5E-1,1E0,7.264436E-1,6.8E0,-1.3547815E-2,-5.1915616E-2,-4.2121965E-3,-2.586987E-2,1.48111405E-2,-2.4244318E-2,5.5113144E-2,1.0600608E-2,-4.3094862E-2,5.6362376E-3,2.1967769E-2,-4.264071E-3],"split_indices":[97,1,76,0,97,87,80,97,76,68,16,97,76,0,0,0,0,0,0,0,0,0,0,0,0],"split_type":[0,0,0,0,0,0,0,0,0,0,0,0,0,0,0,0,0,0,0,0,0,0,0,0,0],"sum_hessian":[1.7402159E2,7.7388176E1,9.6633415E1,2.330336E0,7.505784E1,1.9998222E1,7.663519E1,8.68562E0,6.637222E1,2.2920177E0,1.7706203E1,1.1434867E1,6.520033E1,1.3550493E0,7.330571E0,3.2449844E1,3.3922375E1,1.0862681E0,1.2057496E0,1.5899848E1,1.8063557E0,6.703771E0,4.731096E0,3.480031E1,3.040002E1],"tree_param":{"num_deleted":"0","num_feature":"100","num_nodes":"25","size_leaf_vector":"1"}},{"base_weights":[-5.218232E-3,-4.8315898E-1,1.7304942E-1,-1.667745E-1,-6.6043377E-1,3.571863E-1,-1.4687823E-1,-6.051585E-1,8.560639E-1,-4.3307889E-1,-1.0149508E0,-5.596408E-1,4.5761108E-1,-3.907041E-1,3.72643E-1,-9.346149E-3,-4.596674E-2,7.170468E-2,-2.9414697E-3,-3.005875E-2,3.8637258E-2,-1.4472929E-2,-5.3473532E-2,1.9875897E-2,-4.6301972E-2,2.517948E-2,-5.9494503E-2,-3.1303685E-2,2.488018E-5,4.794701E-2,-3.7772518E-3],"categories":[],"categories_nodes":[],"categories_segments":[],"categories_sizes":[],"default_left":[0,0,0,0,0,0,0,0,0,0,0,0,0,0,0,0,0,0,0,0,0,0,0,0,0,0,0,0,0,0,0],"id":30,"left_children":[1,3,5,7,9,11,13,15,17,19,21,23,25,27,29,-1,-1,-1,-1,-1,-1,-1,-1,-1,-1,-1,-1,-1,-1,-1,-1],"loss_changes":[1.4872319E1,2.5493479E0,7.5433016E0,8.75309E0,1.9826498E0,7.713669E0,6.1193953E0,1.5943666E0,3.2172012E0,4.5293655E0,1.2543774E-1,3.3301454E0,6.1706743E0,3.0005512E0,4.1651907E0,0E0,0E0,0E0,0E0,0E0,0E0,0E0,0E0,0E0,0E0,0E0,0E0,0E0,0E0,0E0,0E0],"parents":[2147483647,0,0,1,1,2,2,3,3,4,4,5,5,6,6,7,7,8,8,9,9,10,10,11,11,12,12,13,13,14,14],"right_children":[2,4,6,8,10,12,14,16,18,20,22,24,26,28,30,-1,-1,-1,-1,-1,-1,-1,-1,-1,-1,-1,-1,-1,-1,-1,-1],"split_conditions":[5.786243E-1,9.1950923E-1,7.1E0,6.5981025E-1,7.1E0,1E0,9.4E0,1.1E1,9.195055E-1,2E0,1E0,5E-1,8E0,1E0,5E-1,-9.346149E-3,-4.596674E-2,7.170468E-2,-2.9414697E-3,-3.005875E-2,3.8637258E-2,-1.4472929E-2,-5.3473532E-2,1.9875897E-2,-4.6301972E-2,2.517948E-2,-5.9494503E-2,-3.1303685E-2,2.488018E-5,4.794701E-2,-3.7772518E-3],"split_indices":[97,99,76,99,76,87,76,78,99,87,70,68,81,17,68,0,0,0,0,0,0,0,0,0,0,0,0,0,0,0,0],"split_type":[0,0,0,0,0,0,0,0,0,0,0,0,0,0,0,0,0,0,0,0,0,0,0,0,0,0,0,0,0,0,0],"sum_hessian":[1.725736E2,4.6417263E1,1.2615633E2,1.7365541E1,2.9051722E1,7.999698E1,4.6159348E1,1.2441516E1,4.924025E0,1.9053892E1,9.9978285E0,7.446007E0,7.255097E1,3.158403E1,1.4575317E1,6.021105E0,6.420411E0,2.6697676E0,2.2542574E0,1.716278E1,1.8911117E0,1.1398016E0,8.858027E0,2.0377562E0,5.408251E0,7.125667E1,1.2943012E0,1.9344732E1,1.2239299E1,5.8209925E0,8.754325E0],"tree_param":{"num_deleted":"0","num_feature":"100","num_nodes":"31","size_leaf_vector":"1"}},{"base_weights":[-5.6041703E-3,-1.8744367E-1,4.4684255E-1,-7.322799E-1,-9.041456E-2,1.6775818E-1,8.717145E-1,-8.093437E-1,-1.5487787E-1,1.14373334E-1,-3.0909935E-1,4.5124766E-1,-2.8735438E-1,5.3160038E-2,6.0835826E-1,-5.078094E-2,-2.7887806E-2,1.5598262E-2,-3.0845255E-2,-3.815759E-2,1.2106177E-2,3.47921E-5,-3.5084054E-2,-4.1178218E-4,3.4753047E-2,1.4696118E-2,-2.921219E-2,3.8715344E-2,-1.5050177E-2],"categories":[],"categories_nodes":[],"categories_segments":[],"categories_sizes":[],"default_left":[0,0,0,0,0,0,0,0,0,0,0,0,0,0,0,0,0,0,0,0,0,0,0,0,0,0,0,0,0],"id":31,"left_children":[1,3,5,7,9,11,13,15,17,19,21,23,25,-1,27,-1,-1,-1,-1,-1,-1,-1,-1,-1,-1,-1,-1,-1,-1],"loss_changes":[1.423847E1,6.4588037E0,5.7372684E0,6.9861794E-1,4.7784476E0,4.153199E0,3.3318043E-1,2.6907825E-1,9.2949885E-1,6.397915E0,6.262398E0,2.2020264E0,2.3428016E0,0E0,1.8204165E0,0E0,0E0,0E0,0E0,0E0,0E0,0E0,0E0,0E0,0E0,0E0,0E0,0E0,0E0],"parents":[2147483647,0,0,1,1,2,2,3,3,4,4,5,5,6,6,7,7,8,8,9,9,10,10,11,11,12,12,14,14],"right_children":[2,4,6,8,10,12,14,16,18,20,22,24,26,-1,28,-1,-1,-1,-1,-1,-1,-1,-1,-1,-1,-1,-1,-1,-1],"split_conditions":[7.2218233E-1,4.4964135E-1,1.92E2,1E0,7.1E0,1E1,1E0,3.8642624E-1,4E0,1E0,9.195111E-1,1E0,2.25E-1,5.3160038E-2,8E0,-5.078094E-2,-2.7887806E-2,1.5598262E-2,-3.0845255E-2,-3.815759E-2,1.2106177E-2,3.47921E-5,-3.5084054E-2,-4.1178218E-4,3.4753047E-2,1.4696118E-2,-2.921219E-2,3.8715344E-2,-1.5050177E-2],"split_indices":[97,97,98,16,76,78,34,97,75,87,99,17,71,0,80,0,0,0,0,0,0,0,0,0,0,0,0,0,0],"split_type":[0,0,0,0,0,0,0,0,0,0,0,0,0,0,0,0,0,0,0,0,0,0,0,0,0,0,0,0,0],"sum_hessian":[1.710463E2,1.2242791E2,4.861838E1,1.7517416E1,1.049105E2,3.018542E1,1.8432964E1,1.5100328E1,2.4170873E0,5.442297E1,5.048753E1,1.8604914E1,1.1580504E1,8.914275E0,9.518689E0,6.6286764E0,8.471652E0,1.363831E0,1.0532563E0,6.283994E0,4.8138973E1,2.8777094E1,2.1710434E1,6.7847652E0,1.1820148E1,3.918502E0,7.662002E0,8.175302E0,1.3433869E0],"tree_param":{"num_deleted":"0","num_feature":"100","num_nodes":"29","size_leaf_vector":"1"}},{"base_weights":[-5.703094E-3,-1.8054454E-1,4.327937E-1,-7.154971E-1,-8.6836055E-2,1.6127622E-1,8.5329854E-1,-7.9204804E-1,-1.5210727E-1,-2.7180403E-1,1.4532316E-1,3.7396878E-1,-4.264862E-1,5.2232455E-2,5.917822E-1,-5.0174456E-2,-2.700525E-2,1.5063469E-2,-3.0381894E-2,-2.1362012E-2,2.0174732E-2,-3.0849164E-2,1.3422348E-2,-3.672943E-2,2.7164912E-2,6.296181E-3,-4.851835E-2,3.7825216E-2,-1.4632872E-2],"categories":[],"categories_nodes":[],"categories_segments":[],"categories_sizes":[],"default_left":[0,0,0,0,0,0,0,0,0,0,0,0,0,0,0,0,0,0,0,0,0,0,0,0,0,0,0,0,0],"id":32,"left_children":[1,3,5,7,9,11,13,15,17,19,21,23,25,-1,27,-1,-1,-1,-1,-1,-1,-1,-1,-1,-1,-1,-1,-1,-1],"loss_changes":[1.315708E1,6.087198E0,5.4483175E0,6.6216564E-1,4.5708165E0,4.0301223E0,3.3071232E-1,2.9641628E-1,8.870014E-1,6.373594E0,4.618577E0,4.7667074E0,2.7343283E0,0E0,1.7247496E0,0E0,0E0,0E0,0E0,0E0,0E0,0E0,0E0,0E0,0E0,0E0,0E0,0E0,0E0],"parents":[2147483647,0,0,1,1,2,2,3,3,4,4,5,5,6,6,7,7,8,8,9,9,10,10,11,11,12,12,14,14],"right_children":[2,4,6,8,10,12,14,16,18,20,22,24,26,-1,28,-1,-1,-1,-1,-1,-1,-1,-1,-1,-1,-1,-1,-1,-1],"split_conditions":[7.2218233E-1,4.4964135E-1,1.92E2,1E0,1E0,8E0,1E0,3.8642624E-1,4E0,6E0,1E0,1E0,2.6666668E-1,5.2232455E-2,8E0,-5.0174456E-2,-2.700525E-2,1.5063469E-2,-3.0381894E-2,-2.1362012E-2,2.0174732E-2,-3.0849164E-2,1.3422348E-2,-3.672943E-2,2.7164912E-2,6.296181E-3,-4.851835E-2,3.7825216E-2,-1.4632872E-2],"split_indices":[97,97,98,16,33,81,34,97,75,79,87,87,71,0,80,0,0,0,0,0,0,0,0,0,0,0,0,0,0],"split_type":[0,0,0,0,0,0,0,0,0,0,0,0,0,0,0,0,0,0,0,0,0,0,0,0,0,0,0,0,0],"sum_hessian":[1.6959323E2,1.21668655E2,4.7924576E1,1.7146915E1,1.0452174E2,2.996189E1,1.7962685E1,1.4738456E1,2.408459E0,5.8078304E1,4.6443436E1,2.2267668E1,7.694221E0,8.643603E0,9.319081E0,6.3914695E0,8.346986E0,1.376805E0,1.0316541E0,4.7510056E1,1.0568249E1,5.900446E0,4.054299E1,2.508292E0,1.9759377E1,4.198427E0,3.4957938E0,7.9778934E0,1.3411881E0],"tree_param":{"num_deleted":"0","num_feature":"100","num_nodes":"29","size_leaf_vector":"1"}},{"base_weights":[-5.959261E-3,-1.702866E-1,4.2687654E-1,-6.9909304E-1,-8.0465674E-2,1.6648674E-1,8.280566E-1,-7.7509594E-1,-1.4949232E-1,-4.2313645E-3,-6.5216106E-1,3.9177573E-1,-4.348685E-1,5.1071238E-2,5.6914383E-1,-4.958548E-2,-2.6146755E-2,1.4548342E-2,-2.9929087E-2,3.8824265E-3,-2.6230222E-2,3.2242995E-2,-4.4778794E-2,-3.543454E-2,2.8431494E-2,4.625851E-3,-4.6916425E-2,3.666361E-2,-1.4227695E-2],"categories":[],"categories_nodes":[],"categories_segments":[],"categories_sizes":[],"default_left":[0,0,0,0,0,0,0,0,0,0,0,0,0,0,0,0,0,0,0,0,0,0,0,0,0,0,0,0,0],"id":33,"left_children":[1,3,5,7,9,11,13,15,17,19,21,23,25,-1,27,-1,-1,-1,-1,-1,-1,-1,-1,-1,-1,-1,-1,-1,-1],"loss_changes":[1.2112321E1,5.805231E0,4.7577953E0,6.2714005E-1,4.643932E0,4.190134E0,3.2955837E-1,3.218975E-1,8.4669125E-1,4.091897E0,4.5359154E0,4.7061844E0,2.3597078E0,0E0,1.615011E0,0E0,0E0,0E0,0E0,0E0,0E0,0E0,0E0,0E0,0E0,0E0,0E0,0E0,0E0],"parents":[2147483647,0,0,1,1,2,2,3,3,4,4,5,5,6,6,7,7,8,8,9,9,10,10,11,11,12,12,14,14],"right_children":[2,4,6,8,10,12,14,16,18,20,22,24,26,-1,28,-1,-1,-1,-1,-1,-1,-1,-1,-1,-1,-1,-1,-1,-1],"split_conditions":[7.239619E-1,4.4964135E-1,1.92E2,1E0,1E0,8E0,1E0,3.8642624E-1,4E0,1E0,1E-1,1E0,2.6666668E-1,5.1071238E-2,8E0,-4.958548E-2,-2.6146755E-2,1.4548342E-2,-2.9929087E-2,3.8824265E-3,-2.6230222E-2,3.2242995E-2,-4.4778794E-2,-3.543454E-2,2.8431494E-2,4.625851E-3,-4.6916425E-2,3.666361E-2,-1.4227695E-2],"split_indices":[97,97,98,16,19,81,34,97,75,21,71,87,71,0,80,0,0,0,0,0,0,0,0,0,0,0,0,0,0],"split_type":[0,0,0,0,0,0,0,0,0,0,0,0,0,0,0,0,0,0,0,0,0,0,0,0,0,0,0,0,0],"sum_hessian":[1.6827005E2,1.2240516E2,4.5864887E1,1.6787605E1,1.0561755E2,2.8670809E1,1.7194077E1,1.4387681E1,2.3999245E0,9.407964E1,1.153791E1,2.1110558E1,7.5602508E0,8.156994E0,9.037083E0,6.161728E0,8.225953E0,1.3893601E0,1.0105646E0,8.202407E1,1.2055576E1,1.5625794E0,9.975331E0,2.5065377E0,1.8604021E1,4.0910363E0,3.4692144E0,7.698135E0,1.3389481E0],"tree_param":{"num_deleted":"0","num_feature":"100","num_nodes":"29","size_leaf_vector":"1"}},{"base_weights":[-6.300126E-3,-4.31811E-1,1.4987761E-1,-1.3098986E-1,-6.051594E-1,6.3147825E-1,3.4769002E-2,-5.2387196E-1,9.4451594E-1,-3.7494236E-1,-9.7201896E-1,-8.136179E-2,9.831526E-1,-5.509518E-1,1.4408132E-1,-7.3913573E-3,-4.166074E-2,-2.1256417E-2,7.118329E-2,-2.7221331E-2,3.8350854E-2,-1.2689404E-2,-5.1475435E-2,9.419317E-3,-4.484279E-2,2.681052E-3,5.4282945E-2,-3.5595234E-2,1.9205492E-2,-8.33443E-3,1.5413962E-2],"categories":[],"categories_nodes":[],"categories_segments":[],"categories_sizes":[],"default_left":[0,0,0,0,0,0,0,0,0,0,0,0,0,0,0,0,0,0,0,0,0,0,0,0,0,0,0,0,0,0,0],"id":34,"left_children":[1,3,5,7,9,11,13,15,17,19,21,23,25,27,29,-1,-1,-1,-1,-1,-1,-1,-1,-1,-1,-1,-1,-1,-1,-1,-1],"loss_changes":[1.12297E1,2.2864246E0,6.832271E0,8.042042E0,2.0429783E0,6.0445633E0,6.536358E0,1.4734781E0,3.975644E0,4.122407E0,1.6660881E-1,2.1011999E0,1.4671736E0,2.6917558E0,4.4285545E0,0E0,0E0,0E0,0E0,0E0,0E0,0E0,0E0,0E0,0E0,0E0,0E0,0E0,0E0,0E0,0E0],"parents":[2147483647,0,0,1,1,2,2,3,3,4,4,5,5,6,6,7,7,8,8,9,9,10,10,11,11,12,12,13,13,14,14],"right_children":[2,4,6,8,10,12,14,16,18,20,22,24,26,28,30,-1,-1,-1,-1,-1,-1,-1,-1,-1,-1,-1,-1,-1,-1,-1,-1],"split_conditions":[5.786243E-1,9.1950923E-1,5.2E0,7.463697E-1,7.1E0,6.776946E-1,6E0,1.1E1,5E-1,2E0,1E0,1E0,1E0,7.6656634E-1,1E0,-7.3913573E-3,-4.166074E-2,-2.1256417E-2,7.118329E-2,-2.7221331E-2,3.8350854E-2,-1.2689404E-2,-5.1475435E-2,9.419317E-3,-4.484279E-2,2.681052E-3,5.4282945E-2,-3.5595234E-2,1.9205492E-2,-8.33443E-3,1.5413962E-2],"split_indices":[97,99,76,99,76,97,80,78,69,87,70,21,87,97,60,0,0,0,0,0,0,0,0,0,0,0,0,0,0,0,0],"split_type":[0,0,0,0,0,0,0,0,0,0,0,0,0,0,0,0,0,0,0,0,0,0,0,0,0,0,0,0,0,0,0],"sum_hessian":[1.6700734E2,4.4365993E1,1.2264134E2,1.6861294E1,2.75047E1,2.2792849E1,9.984849E1,1.2725557E1,4.1357374E0,1.8142002E1,9.362698E0,7.783807E0,1.5009042E1,1.506839E1,8.47801E1,6.410577E0,6.31498E0,1.1010739E0,3.0346634E0,1.6253054E1,1.8889496E0,1.0951585E0,8.267539E0,6.426912E0,1.3568951E0,1.6420405E0,1.3367002E1,1.3059161E1,2.009229E0,2.930351E1,5.547659E1],"tree_param":{"num_deleted":"0","num_feature":"100","num_nodes":"31","size_leaf_vector":"1"}},{"base_weights":[-6.278617E-3,-1.592782E-1,4.0212756E-1,-6.718672E-1,-7.467578E-2,1.476433E-1,8.026453E-1,1.7226598E-3,-7.209516E-1,-2.54355E-1,1.5038192E-1,6.1377686E-1,-1.2879023E-1,4.988755E-2,5.4529345E-1,-3.8674153E-2,-1.5930564E-3,-1.9950831E-2,1.7647417E-2,-2.982649E-2,1.3463803E-2,1.3860538E-2,4.944983E-2,8.826891E-3,-3.7310645E-2,3.5511877E-2,-1.4159794E-2],"categories":[],"categories_nodes":[],"categories_segments":[],"categories_sizes":[],"default_left":[0,0,0,0,0,0,0,0,0,0,0,0,0,0,0,0,0,0,0,0,0,0,0,0,0,0,0],"id":35,"left_children":[1,3,5,7,9,11,13,-1,15,17,19,21,23,-1,25,-1,-1,-1,-1,-1,-1,-1,-1,-1,-1,-1,-1],"loss_changes":[1.0486756E1,5.2430677E0,4.5437512E0,6.199956E-1,4.3203406E0,3.8410223E0,3.369522E-1,0E0,5.5804443E-1,5.346493E0,4.3910775E0,1.120285E0,3.74248E0,0E0,1.5364444E0,0E0,0E0,0E0,0E0,0E0,0E0,0E0,0E0,0E0,0E0,0E0,0E0],"parents":[2147483647,0,0,1,1,2,2,3,3,4,4,5,5,6,6,8,8,9,9,10,10,11,11,12,12,14,14],"right_children":[2,4,6,8,10,12,14,-1,16,18,20,22,24,-1,26,-1,-1,-1,-1,-1,-1,-1,-1,-1,-1,-1,-1],"split_conditions":[7.239619E-1,4.4964135E-1,1.92E2,4.0010506E-1,1E0,9E0,1E0,1.7226598E-3,1E0,6E0,1E0,1E0,1E0,4.988755E-2,8E0,-3.8674153E-2,-1.5930564E-3,-1.9950831E-2,1.7647417E-2,-2.982649E-2,1.3463803E-2,1.3860538E-2,4.944983E-2,8.826891E-3,-3.7310645E-2,3.5511877E-2,-1.4159794E-2],"split_indices":[97,97,98,99,33,78,34,0,36,79,87,44,55,0,80,0,0,0,0,0,0,0,0,0,0,0,0],"split_type":[0,0,0,0,0,0,0,0,0,0,0,0,0,0,0,0,0,0,0,0,0,0,0,0,0,0,0],"sum_hessian":[1.6580074E2,1.21058914E2,4.474182E1,1.6166697E1,1.0489222E2,2.8195415E1,1.6546404E1,1.0698426E0,1.5096855E1,5.8253895E1,4.663832E1,1.0041942E1,1.8153475E1,7.7749834E0,8.7714205E0,1.3913703E1,1.183152E0,4.7324112E1,1.0929784E1,5.852799E0,4.0785522E1,6.210246E0,3.8316956E0,1.2624484E1,5.5289903E0,7.434097E0,1.3373238E0],"tree_param":{"num_deleted":"0","num_feature":"100","num_nodes":"27","size_leaf_vector":"1"}},{"base_weights":[-5.691835E-3,-4.0713513E-1,1.400153E-1,-8.795733E-1,-2.9293418E-1,6.0786E-1,3.0863414E-2,-8.13804E-3,-4.8714858E-2,-1.9165082E-1,-4.5597106E-2,-7.782408E-2,9.598638E-1,-5.249811E-1,1.3481835E-1,6.83819E-3,-2.036931E-2,9.086138E-3,-4.309132E-2,2.2851669E-3,5.323092E-2,-3.3730462E-2,1.807467E-2,-7.817835E-3,1.4458363E-2],"categories":[],"categories_nodes":[],"categories_segments":[],"categories_sizes":[],"default_left":[0,0,0,0,0,0,0,0,0,0,0,0,0,0,0,0,0,0,0,0,0,0,0,0,0],"id":36,"left_children":[1,3,5,7,9,11,13,-1,-1,15,-1,17,19,21,23,-1,-1,-1,-1,-1,-1,-1,-1,-1,-1],"loss_changes":[9.74416E0,2.1356168E0,6.2242365E0,3.93847E-1,2.1589074E0,5.6437845E0,5.8594394E0,0E0,0E0,2.4118323E0,0E0,1.9375088E0,1.4185667E0,2.364565E0,3.8739378E0,0E0,0E0,0E0,0E0,0E0,0E0,0E0,0E0,0E0,0E0],"parents":[2147483647,0,0,1,1,2,2,3,3,4,4,5,5,6,6,9,9,11,11,12,12,13,13,14,14],"right_children":[2,4,6,8,10,12,14,-1,-1,16,-1,18,20,22,24,-1,-1,-1,-1,-1,-1,-1,-1,-1,-1],"split_conditions":[5.786243E-1,3.8642624E-1,5.2E0,2.8310218E-1,9.7E0,6.776946E-1,6E0,-8.13804E-3,-4.8714858E-2,9.1950923E-1,-4.5597106E-2,1E0,1E0,7.6656634E-1,1E0,6.83819E-3,-2.036931E-2,9.086138E-3,-4.309132E-2,2.2851669E-3,5.323092E-2,-3.3730462E-2,1.807467E-2,-7.817835E-3,1.4458363E-2],"split_indices":[97,97,76,97,76,97,80,0,0,99,0,21,87,97,60,0,0,0,0,0,0,0,0,0,0],"split_type":[0,0,0,0,0,0,0,0,0,0,0,0,0,0,0,0,0,0,0,0,0,0,0,0,0],"sum_hessian":[1.6461176E2,4.3358604E1,1.2125315E2,7.1359415E0,3.6222664E1,2.2073444E1,9.917971E1,1.150199E0,5.9857426E0,3.2254696E1,3.9679701E0,7.7519603E0,1.4321485E1,1.4988183E1,8.419153E1,1.2932923E1,1.9321772E1,6.401073E0,1.3508871E0,1.6200548E0,1.2701429E1,1.3028155E1,1.9600273E0,2.9163107E1,5.502842E1],"tree_param":{"num_deleted":"0","num_feature":"100","num_nodes":"25","size_leaf_vector":"1"}}]},"name":"gbtree"},"learner_model_param":{"base_score":"5E-1","boost_from_average":"1","num_class":"0","num_feature":"100","num_target":"1"},"objective":{"name":"binary:logistic","reg_loss_param":{"scale_pos_weight":"0.489864856"}}},"version":[2,1,3]}