{"learner":{"attributes":{"best_iteration":"9","best_score":"0.6476114561428895","scikit_learn":"{\"_estimator_type\": \"classifier\"}"},"feature_names":[],"feature_types":[],"gradient_booster":{"model":{"gbtree_model_param":{"num_parallel_tree":"1","num_trees":"30"},"iteration_indptr":[0,1,2,3,4,5,6,7,8,9,10,11,12,13,14,15,16,17,18,19,20,21,22,23,24,25,26,27,28,29,30],"tree_info":[0,0,0,0,0,0,0,0,0,0,0,0,0,0,0,0,0,0,0,0,0,0,0,0,0,0,0,0,0,0],"trees":[{"base_weights":[-2.2075795E-8,-8.9855075E-1,1.3191489E0,-6.776699E-2,-1.1246946E-1,1.4285713E-2,7.798165E-2,-3.7142858E-2,3.6E-2],"categories":[],"categories_nodes":[],"categories_segments":[],"categories_sizes":[],"default_left":[0,0,0,0,0,0,0,0,0],"id":0,"left_children":[1,3,5,-1,7,-1,-1,-1,-1],"loss_changes":[1.7187172E1,2.9445724E0,1.014473E0,0E0,2.7706323E0,0E0,0E0,0E0,0E0],"parents":[2147483647,0,0,1,1,2,2,4,4],"right_children":[2,4,6,-1,8,-1,-1,-1,-1],"split_conditions":[9.335859E-1,8.1979275E-1,5E0,-6.776699E-2,1E0,1.4285713E-2,7.798165E-2,-3.7142858E-2,3.6E-2],"split_indices":[97,97,79,0,13,0,0,0,0],"split_type":[0,0,0,0,0,0,0,0,0],"sum_hessian":[1.25E1,7.625E0,4.875E0,4.3645835E0,3.2604167E0,1.3333333E0,3.5416665E0,1.9166666E0,1.34375E0],"tree_param":{"num_deleted":"0","num_feature":"100","num_nodes":"9","size_leaf_vector":"1"}},{"base_weights":[1.7334733E-3,-8.622363E-1,1.270098E0,-6.5072045E-2,-1.0714246E-1,1.387796E-2,7.503148E-2,-3.5930734E-2,3.4974612E-2],"categories":[],"categories_nodes":[],"categories_segments":[],"categories_sizes":[],"default_left":[0,0,0,0,0,0,0,0,0],"id":1,"left_children":[1,3,5,-1,7,-1,-1,-1,-1],"loss_changes":[1.5876153E1,2.718937E0,9.2650795E-1,0E0,2.60351E0,0E0,0E0,0E0,0E0],"parents":[2147483647,0,0,1,1,2,2,4,4],"right_children":[2,4,6,-1,8,-1,-1,-1,-1],"split_conditions":[9.335859E-1,8.1979275E-1,5E0,-6.5072045E-2,1E0,1.387796E-2,7.503148E-2,-3.5930734E-2,3.4974612E-2],"split_indices":[97,97,79,0,13,0,0,0,0],"split_type":[0,0,0,0,0,0,0,0,0],"sum_hessian":[1.248845E1,7.6188965E0,4.869553E0,4.359576E0,3.2593203E0,1.3332653E0,3.5362878E0,1.9160056E0,1.3433146E0],"tree_param":{"num_deleted":"0","num_feature":"100","num_nodes":"9","size_leaf_vector":"1"}},{"base_weights":[3.3579185E-3,-8.285015E-1,1.2250562E0,-6.259509E-2,-1.02087915E-1,1.348262E-2,7.235614E-2,-3.477342E-2,3.399077E-2],"categories":[],"categories_nodes":[],"categories_segments":[],"categories_sizes":[],"default_left":[0,0,0,0,0,0,0,0,0],"id":2,"left_children":[1,3,5,-1,7,-1,-1,-1,-1],"loss_changes":[1.4689677E1,2.5177226E0,8.518019E-1,0E0,2.4475086E0,0E0,0E0,0E0,0E0],"parents":[2147483647,0,0,1,1,2,2,4,4],"right_children":[2,4,6,-1,8,-1,-1,-1,-1],"split_conditions":[9.335859E-1,8.1979275E-1,5E0,-6.259509E-2,1E0,1.348262E-2,7.235614E-2,-3.477342E-2,3.399077E-2],"split_indices":[97,97,79,0,13,0,0,0,0],"split_type":[0,0,0,0,0,0,0,0,0],"sum_hessian":[1.2455641E1,7.601555E0,4.854086E0,4.3453856E0,3.2561693E0,1.333069E0,3.521017E0,1.9141102E0,1.3420591E0],"tree_param":{"num_deleted":"0","num_feature":"100","num_nodes":"9","size_leaf_vector":"1"}},{"base_weights":[4.8887655E-3,-7.9704493E-1,1.1835096E0,-6.030756E-2,-9.728593E-2,1.30992355E-2,6.991782E-2,3.4011636E-2,-3.3241555E-2],"categories":[],"categories_nodes":[],"categories_segments":[],"categories_sizes":[],"default_left":[0,0,0,0,0,0,0,0,0],"id":3,"left_children":[1,3,5,-1,7,-1,-1,-1,-1],"loss_changes":[1.36125965E1,2.3372812E0,7.8788185E-1,0E0,2.3281786E0,0E0,0E0,0E0,0E0],"parents":[2147483647,0,0,1,1,2,2,4,4],"right_children":[2,4,6,-1,8,-1,-1,-1,-1],"split_conditions":[9.335859E-1,8.1979275E-1,5E0,-6.030756E-2,1E0,1.30992355E-2,6.991782E-2,3.4011636E-2,-3.3241555E-2],"split_indices":[97,97,79,0,12,0,0,0,0],"split_type":[0,0,0,0,0,0,0,0,0],"sum_hessian":[1.240416E1,7.5743313E0,4.8298283E0,4.3231716E0,3.25116E0,1.3327553E0,3.497073E0,1.2880374E0,1.9631224E0],"tree_param":{"num_deleted":"0","num_feature":"100","num_nodes":"9","size_leaf_vector":"1"}},{"base_weights":[6.441385E-3,-7.671068E-1,1.1450253E0,-5.8185536E-2,-9.2307895E-2,1.2727394E-2,6.768516E-2,-3.3188757E-2,3.2890033E-2],"categories":[],"categories_nodes":[],"categories_segments":[],"categories_sizes":[],"default_left":[0,0,0,0,0,0,0,0,0],"id":4,"left_children":[1,3,5,-1,7,-1,-1,-1,-1],"loss_changes":[1.2627695E1,2.1787257E0,7.328024E-1,0E0,2.2577026E0,0E0,0E0,0E0,0E0],"parents":[2147483647,0,0,1,1,2,2,4,4],"right_children":[2,4,6,-1,8,-1,-1,-1,-1],"split_conditions":[9.335859E-1,8.1979275E-1,5E0,-5.8185536E-2,1E0,1.2727394E-2,6.768516E-2,-3.3188757E-2,3.2890033E-2],"split_indices":[97,97,79,0,13,0,0,0,0],"split_type":[0,0,0,0,0,0,0,0,0],"sum_hessian":[1.2340158E1,7.5422525E0,4.7979064E0,4.2939887E0,3.2482636E0,1.3323348E0,3.4655714E0,1.9089966E0,1.3392669E0],"tree_param":{"num_deleted":"0","num_feature":"100","num_nodes":"9","size_leaf_vector":"1"}},{"base_weights":[7.8280615E-3,-7.3938733E-1,1.1092361E0,-5.620886E-2,-8.79182E-2,1.2366681E-2,6.563185E-2,4.4568244E-1,-4.3924406E-2,-1.1526695E-2,4.7222864E-2],"categories":[],"categories_nodes":[],"categories_segments":[],"categories_sizes":[],"default_left":[0,0,0,0,0,0,0,0,0,0,0],"id":5,"left_children":[1,3,5,-1,7,-1,-1,9,-1,-1,-1],"loss_changes":[1.17323265E1,2.0318952E0,6.850209E-1,0E0,2.1806107E0,0E0,0E0,1.2954947E0,0E0,0E0,0E0],"parents":[2147483647,0,0,1,1,2,2,4,4,7,7],"right_children":[2,4,6,-1,8,-1,-1,10,-1,-1,-1],"split_conditions":[9.335859E-1,8.1979275E-1,5E0,-5.620886E-2,1E0,1.2366681E-2,6.563185E-2,1E0,-4.3924406E-2,-1.1526695E-2,4.7222864E-2],"split_indices":[97,97,79,0,72,0,0,13,0,0,0],"split_type":[0,0,0,0,0,0,0,0,0,0,0],"sum_hessian":[1.2259194E1,7.499849E0,4.7593455E0,4.2587924E0,3.2410567E0,1.3318169E0,3.4275286E0,2.1954644E0,1.0455922E0,1.16025E0,1.0352145E0],"tree_param":{"num_deleted":"0","num_feature":"100","num_nodes":"11","size_leaf_vector":"1"}},{"base_weights":[8.544187E-3,-7.141862E-1,1.0758294E0,-5.436044E-2,-8.5614875E-2,1.2016729E-2,6.3735716E-2,4.3532658E-1,-4.285855E-2,-1.1222504E-2,4.6122715E-2],"categories":[],"categories_nodes":[],"categories_segments":[],"categories_sizes":[],"default_left":[0,0,0,0,0,0,0,0,0,0,0],"id":6,"left_children":[1,3,5,-1,7,-1,-1,9,-1,-1,-1],"loss_changes":[1.0924513E1,1.888555E0,6.4330196E-1,0E0,2.0745685E0,0E0,0E0,1.2323341E0,0E0,0E0,0E0],"parents":[2147483647,0,0,1,1,2,2,4,4,7,7],"right_children":[2,4,6,-1,8,-1,-1,10,-1,-1,-1],"split_conditions":[9.335859E-1,8.1979275E-1,5E0,-5.436044E-2,1E0,1.2016729E-2,6.3735716E-2,1E0,-4.285855E-2,-1.1222504E-2,4.6122715E-2],"split_indices":[97,97,79,0,72,0,0,13,0,0,0],"split_type":[0,0,0,0,0,0,0,0,0,0,0],"sum_hessian":[1.2166587E1,7.451509E0,4.7150784E0,4.218444E0,3.2330651E0,1.3312107E0,3.3838673E0,2.190117E0,1.0429485E0,1.159246E0,1.0308708E0],"tree_param":{"num_deleted":"0","num_feature":"100","num_nodes":"11","size_leaf_vector":"1"}},{"base_weights":[9.237938E-3,-6.904485E-1,1.0445373E0,-5.2625697E-2,-8.339942E-2,1.1677143E-2,6.197799E-2,3.1711828E-2,-3.0464176E-2],"categories":[],"categories_nodes":[],"categories_segments":[],"categories_sizes":[],"default_left":[0,0,0,0,0,0,0,0,0],"id":7,"left_children":[1,3,5,-1,7,-1,-1,-1,-1],"loss_changes":[1.0183726E1,1.7577868E0,6.0664845E-1,0E0,1.9802275E0,0E0,0E0,0E0,0E0],"parents":[2147483647,0,0,1,1,2,2,4,4],"right_children":[2,4,6,-1,8,-1,-1,-1,-1],"split_conditions":[9.335859E-1,8.1979275E-1,5E0,-5.2625697E-2,1E0,1.1677143E-2,6.197799E-2,3.1711828E-2,-3.0464176E-2],"split_indices":[97,97,79,0,12,0,0,0,0],"split_type":[0,0,0,0,0,0,0,0,0],"sum_hessian":[1.2062843E1,7.3968935E0,4.66595E0,4.1737194E0,3.2231739E0,1.3305247E0,3.3354251E0,1.2759452E0,1.9472287E0],"tree_param":{"num_deleted":"0","num_feature":"100","num_nodes":"9","size_leaf_vector":"1"}},{"base_weights":[1.0594338E-2,-6.6658825E-1,1.0151297E0,-5.099215E-2,-7.907E-2,1.1347602E-2,6.034263E-2,4.2187747E-1,-4.112509E-2,-1.08483825E-2,4.4726692E-2],"categories":[],"categories_nodes":[],"categories_segments":[],"categories_sizes":[],"default_left":[0,0,0,0,0,0,0,0,0,0,0],"id":8,"left_children":[1,3,5,-1,7,-1,-1,9,-1,-1,-1],"loss_changes":[9.488887E0,1.6506026E0,5.742507E-1,0E0,1.9172164E0,0E0,0E0,1.1542697E0,0E0,0E0,0E0],"parents":[2147483647,0,0,1,1,2,2,4,4,7,7],"right_children":[2,4,6,-1,8,-1,-1,10,-1,-1,-1],"split_conditions":[9.335859E-1,8.1979275E-1,5E0,-5.099215E-2,1E0,1.1347602E-2,6.034263E-2,1E0,-4.112509E-2,-1.08483825E-2,4.4726692E-2],"split_indices":[97,97,79,0,72,0,0,13,0,0,0],"split_type":[0,0,0,0,0,0,0,0,0,0,0],"sum_hessian":[1.1954303E1,7.34158E0,4.6127224E0,4.125318E0,3.216262E0,1.3297666E0,3.2829556E0,2.1799028E0,1.0363593E0,1.1570237E0,1.022879E0],"tree_param":{"num_deleted":"0","num_feature":"100","num_nodes":"11","size_leaf_vector":"1"}},{"base_weights":[1.1239229E-2,-6.4533484E-1,9.87407E-1,-4.9449038E-2,-7.7053726E-2,1.1027748E-2,5.8815844E-2,4.1246375E-1,-4.0176984E-2,-1.0562954E-2,4.3739576E-2],"categories":[],"categories_nodes":[],"categories_segments":[],"categories_sizes":[],"default_left":[0,0,0,0,0,0,0,0,0,0,0],"id":9,"left_children":[1,3,5,-1,7,-1,-1,9,-1,-1,-1],"loss_changes":[8.862704E0,1.5403216E0,5.4544544E-1,0E0,1.8264227E0,0E0,0E0,1.0995915E0,0E0,0E0,0E0],"parents":[2147483647,0,0,1,1,2,2,4,4,7,7],"right_children":[2,4,6,-1,8,-1,-1,10,-1,-1,-1],"split_conditions":[9.335859E-1,8.1979275E-1,5E0,-4.9449038E-2,1E0,1.1027748E-2,5.8815844E-2,1E0,-4.0176984E-2,-1.0562954E-2,4.3739576E-2],"split_indices":[97,97,79,0,72,0,0,13,0,0,0],"split_type":[0,0,0,0,0,0,0,0,0,0,0],"sum_hessian":[1.183376E1,7.2776775E0,4.556083E0,4.073865E0,3.2038126E0,1.3289438E0,3.2271392E0,2.1723187E0,1.0314939E0,1.155924E0,1.0163947E0],"tree_param":{"num_deleted":"0","num_feature":"100","num_nodes":"11","size_leaf_vector":"1"}},{"base_weights":[1.1872252E-2,-6.251683E-1,9.611967E-1,6.137811E-3,-9.0379703E-1,1.0717274E-2,5.7385784E-2,3.666517E-2,-3.4051187E-2,-5.1980436E-2,-1.4006649E-2],"categories":[],"categories_nodes":[],"categories_segments":[],"categories_sizes":[],"default_left":[0,0,0,0,0,0,0,0,0,0,0],"id":10,"left_children":[1,3,5,7,9,-1,-1,-1,-1,-1,-1],"loss_changes":[8.285237E0,1.4496508E0,5.1968575E-1,2.251853E0,1.9179058E-1,0E0,0E0,0E0,0E0,0E0,0E0],"parents":[2147483647,0,0,1,1,2,2,3,3,4,4],"right_children":[2,4,6,8,10,-1,-1,-1,-1,-1,-1],"split_conditions":[9.335859E-1,1E0,5E0,4E0,5E-1,1.0717274E-2,5.7385784E-2,3.666517E-2,-3.4051187E-2,-5.1980436E-2,-1.4006649E-2],"split_indices":[97,14,79,77,69,0,0,0,0,0,0],"split_type":[0,0,0,0,0,0,0,0,0,0,0],"sum_hessian":[1.1706446E1,7.209798E0,4.496648E0,2.507155E0,4.702643E0,1.3280629E0,3.1685848E0,1.1854955E0,1.3216593E0,3.3140292E0,1.3886138E0],"tree_param":{"num_deleted":"0","num_feature":"100","num_nodes":"11","size_leaf_vector":"1"}},{"base_weights":[1.1796144E-2,-6.053773E-1,9.363486E-1,-4.708546E-2,-5.929919E-2,1.04158595E-2,5.6042176E-2,4.1002867E-1,-3.8238864E-2,-9.700942E-3,4.266028E-2],"categories":[],"categories_nodes":[],"categories_segments":[],"categories_sizes":[],"default_left":[0,0,0,0,0,0,0,0,0,0,0],"id":11,"left_children":[1,3,5,-1,7,-1,-1,9,-1,-1,-1],"loss_changes":[7.754184E0,1.4430227E0,4.9652338E-1,0E0,1.696837E0,0E0,0E0,1.0114021E0,0E0,0E0,0E0],"parents":[2147483647,0,0,1,1,2,2,4,4,7,7],"right_children":[2,4,6,-1,8,-1,-1,10,-1,-1,-1],"split_conditions":[9.335859E-1,8.1979275E-1,5E0,-4.708546E-2,1E0,1.04158595E-2,5.6042176E-2,1E0,-3.8238864E-2,-9.700942E-3,4.266028E-2],"split_indices":[97,97,79,0,72,0,0,13,0,0,0],"split_type":[0,0,0,0,0,0,0,0,0,0,0],"sum_hessian":[1.1595904E1,7.1609335E0,4.4349704E0,3.98318E0,3.1777534E0,1.3271304E0,3.10784E0,2.159748E0,1.0180055E0,1.1519103E0,1.0078377E0],"tree_param":{"num_deleted":"0","num_feature":"100","num_nodes":"11","size_leaf_vector":"1"}},{"base_weights":[1.2496067E-2,-5.869357E-1,9.127311E-1,2.2499446E-2,-8.5954076E-1,1.0123223E-2,5.4776054E-2,3.5831653E-2,-3.2262933E-2,-4.9489327E-2,-1.3222262E-2],"categories":[],"categories_nodes":[],"categories_segments":[],"categories_sizes":[],"default_left":[0,0,0,0,0,0,0,0,0,0,0],"id":12,"left_children":[1,3,5,7,9,-1,-1,-1,-1,-1,-1],"loss_changes":[7.2592006E0,1.3630242E0,4.7558117E-1,2.0727305E0,1.7336988E-1,0E0,0E0,0E0,0E0,0E0,0E0],"parents":[2147483647,0,0,1,1,2,2,3,3,4,4],"right_children":[2,4,6,8,10,-1,-1,-1,-1,-1,-1],"split_conditions":[9.335859E-1,1E0,5E0,4E0,5E-1,1.0123223E-2,5.4776054E-2,3.5831653E-2,-3.2262933E-2,-4.9489327E-2,-1.3222262E-2],"split_indices":[97,14,79,77,69,0,0,0,0,0,0],"split_type":[0,0,0,0,0,0,0,0,0,0,0],"sum_hessian":[1.1459449E1,7.0879054E0,4.3715434E0,2.4741552E0,4.6137505E0,1.3261521E0,3.0453913E0,1.1772318E0,1.2969235E0,3.241138E0,1.3726125E0],"tree_param":{"num_deleted":"0","num_feature":"100","num_nodes":"11","size_leaf_vector":"1"}},{"base_weights":[1.2493733E-2,-5.688411E-1,8.902293E-1,-4.493028E-2,-4.3020222E-2,9.839078E-3,5.357963E-2,2.9720206E-2,-2.6163504E-2],"categories":[],"categories_nodes":[],"categories_segments":[],"categories_sizes":[],"default_left":[0,0,0,0,0,0,0,0,0],"id":13,"left_children":[1,3,5,-1,7,-1,-1,-1,-1],"loss_changes":[6.8034163E0,1.3544202E0,4.5654535E-1,0E0,1.5804663E0,0E0,0E0,0E0,0E0],"parents":[2147483647,0,0,1,1,2,2,4,4],"right_children":[2,4,6,-1,8,-1,-1,-1,-1],"split_conditions":[9.335859E-1,8.1979275E-1,5E0,-4.493028E-2,1E0,9.839078E-3,5.357963E-2,2.9720206E-2,-2.6163504E-2],"split_indices":[97,97,79,0,12,0,0,0,0],"split_type":[0,0,0,0,0,0,0,0,0],"sum_hessian":[1.1340844E1,7.034038E0,4.306806E0,3.8872325E0,3.1468058E0,1.3251334E0,2.9816728E0,1.2500054E0,1.8968003E0],"tree_param":{"num_deleted":"0","num_feature":"100","num_nodes":"9","size_leaf_vector":"1"}},{"base_weights":[1.38375005E-2,-5.50485E-1,8.68742E-1,4.0492244E-2,-8.191817E-1,9.563151E-3,5.2446045E-2,3.5215452E-2,-3.058756E-2,-4.737482E-2,-1.2239355E-2],"categories":[],"categories_nodes":[],"categories_segments":[],"categories_sizes":[],"default_left":[0,0,0,0,0,0,0,0,0,0,0],"id":14,"left_children":[1,3,5,7,9,-1,-1,-1,-1,-1,-1],"loss_changes":[6.3667207E0,1.2978747E0,4.391539E-1,1.9212486E0,1.7507005E-1,0E0,0E0,0E0,0E0,0E0,0E0],"parents":[2147483647,0,0,1,1,2,2,3,3,4,4],"right_children":[2,4,6,8,10,-1,-1,-1,-1,-1,-1],"split_conditions":[9.335859E-1,1E0,5E0,4E0,5E-1,9.563151E-3,5.2446045E-2,3.5215452E-2,-3.058756E-2,-4.737482E-2,-1.2239355E-2],"split_indices":[97,14,79,77,69,0,0,0,0,0,0],"split_type":[0,0,0,0,0,0,0,0,0,0,0],"sum_hessian":[1.1205599E1,6.9644504E0,4.241148E0,2.4422388E0,4.5222116E0,1.3240796E0,2.9170685E0,1.1708192E0,1.2714196E0,3.165508E0,1.3567033E0],"tree_param":{"num_deleted":"0","num_feature":"100","num_nodes":"11","size_leaf_vector":"1"}},{"base_weights":[1.3901196E-2,-5.3384376E-1,8.481803E-1,-4.295136E-2,-2.6260264E-2,9.295183E-3,5.1369287E-2,-2.527674E-2,2.8893476E-2],"categories":[],"categories_nodes":[],"categories_segments":[],"categories_sizes":[],"default_left":[0,0,0,0,0,0,0,0,0],"id":15,"left_children":[1,3,5,-1,7,-1,-1,-1,-1],"loss_changes":[5.974066E0,1.2826157E0,4.2318273E-1,0E0,1.4848372E0,0E0,0E0,0E0,0E0],"parents":[2147483647,0,0,1,1,2,2,4,4],"right_children":[2,4,6,-1,8,-1,-1,-1,-1],"split_conditions":[9.335859E-1,8.1979275E-1,5E0,-4.295136E-2,1E0,9.295183E-3,5.1369287E-2,-2.527674E-2,2.8893476E-2],"split_indices":[97,97,79,0,13,0,0,0,0],"split_type":[0,0,0,0,0,0,0,0,0],"sum_hessian":[1.108229E1,6.9073744E0,4.174915E0,3.788125E0,3.1192493E0,1.3229951E0,2.8519197E0,1.8303661E0,1.2888833E0],"tree_param":{"num_deleted":"0","num_feature":"100","num_nodes":"9","size_leaf_vector":"1"}},{"base_weights":[1.5177979E-2,-5.1712614E-1,8.284653E-1,-8.357388E-1,-2.4161924E-2,9.034918E-3,5.034403E-2,-4.7920063E-2,-1.5080604E-2,2.9047979E-2,-2.4379699E-2],"categories":[],"categories_nodes":[],"categories_segments":[],"categories_sizes":[],"default_left":[0,0,0,0,0,0,0,0,0,0,0],"id":16,"left_children":[1,3,5,7,9,-1,-1,-1,-1,-1,-1],"loss_changes":[5.5982494E0,1.2101662E0,4.0844584E-1,2.0726204E-2,1.4344676E0,0E0,0E0,0E0,0E0,0E0,0E0],"parents":[2147483647,0,0,1,1,2,2,3,3,4,4],"right_children":[2,4,6,8,10,-1,-1,-1,-1,-1,-1],"split_conditions":[9.335859E-1,8.1979275E-1,5E0,7.447863E-1,1E0,9.034918E-3,5.034403E-2,-4.7920063E-2,-1.5080604E-2,2.9047979E-2,-2.4379699E-2],"split_indices":[97,97,79,97,12,0,0,0,0,0,0],"split_type":[0,0,0,0,0,0,0,0,0,0,0],"sum_hessian":[1.094187E1,6.8334594E0,4.10841E0,3.7283916E0,3.105068E0,1.3218843E0,2.7865255E0,2.3860915E0,1.3423002E0,1.2366816E0,1.8683864E0],"tree_param":{"num_deleted":"0","num_feature":"100","num_nodes":"11","size_leaf_vector":"1"}},{"base_weights":[1.470852E-2,-5.029648E-1,8.095277E-1,6.6778734E-2,-7.6815623E-1,8.782125E-3,4.9365602E-2,3.492793E-2,-2.8651685E-2,-4.4662546E-2,-1.1056888E-2],"categories":[],"categories_nodes":[],"categories_segments":[],"categories_sizes":[],"default_left":[0,0,0,0,0,0,0,0,0,0,0],"id":17,"left_children":[1,3,5,7,9,-1,-1,-1,-1,-1,-1],"loss_changes":[5.26708E0,1.2252117E0,3.947823E-1,1.769712E0,1.7074037E-1,0E0,0E0,0E0,0E0,0E0,0E0],"parents":[2147483647,0,0,1,1,2,2,3,3,4,4],"right_children":[2,4,6,8,10,-1,-1,-1,-1,-1,-1],"split_conditions":[9.335859E-1,1E0,5E0,4E0,5E-1,8.782125E-3,4.9365602E-2,3.492793E-2,-2.8651685E-2,-4.4662546E-2,-1.1056888E-2],"split_indices":[97,14,79,77,69,0,0,0,0,0,0],"split_type":[0,0,0,0,0,0,0,0,0,0,0],"sum_hessian":[1.0811487E1,6.7695866E0,4.0419006E0,2.3877895E0,4.3817973E0,1.3207513E0,2.7211494E0,1.1552376E0,1.2325518E0,3.0511103E0,1.3306869E0],"tree_param":{"num_deleted":"0","num_feature":"100","num_nodes":"11","size_leaf_vector":"1"}},{"base_weights":[1.4904125E-2,-5.73152E-1,6.805474E-1,2.78087E-3,-8.197597E-1,4.8818987E-2,-1.8665092E-2,-5.0234545E-2,-1.15548605E-2],"categories":[],"categories_nodes":[],"categories_segments":[],"categories_sizes":[],"default_left":[0,0,0,0,0,0,0,0,0],"id":18,"left_children":[1,3,5,-1,7,-1,-1,-1,-1],"loss_changes":[4.964306E0,1.0918322E0,2.2158818E0,0E0,3.0233622E-1,0E0,0E0,0E0,0E0],"parents":[2147483647,0,0,1,1,2,2,4,4],"right_children":[2,4,6,-1,8,-1,-1,-1,-1],"split_conditions":[8.891222E-1,1E0,1E0,2.78087E-3,2.0833334E1,4.8818987E-2,-1.8665092E-2,-5.0234545E-2,-1.15548605E-2],"split_indices":[97,14,72,0,98,0,0,0,0],"split_type":[0,0,0,0,0,0,0,0,0],"sum_hessian":[1.0685828E1,5.7473435E0,4.9384847E0,1.8372993E0,3.9100442E0,3.9134328E0,1.0250517E0,2.4375432E0,1.472501E0],"tree_param":{"num_deleted":"0","num_feature":"100","num_nodes":"9","size_leaf_vector":"1"}},{"base_weights":[1.1871137E-2,-7.9215E-1,4.749016E-1,-4.588835E-2,-1.3491022E-2,7.8470165E-1,-2.536935E-2,2.74684E-1,5.508551E-2,3.4494817E-2,-2.0248694E-2],"categories":[],"categories_nodes":[],"categories_segments":[],"categories_sizes":[],"default_left":[0,0,0,0,0,0,0,0,0,0,0],"id":19,"left_children":[1,3,5,-1,-1,7,-1,9,-1,-1,-1],"loss_changes":[4.68179E0,5.4269314E-2,2.8217168E0,0E0,0E0,7.397666E-1,0E0,1.3527278E0,0E0,0E0,0E0],"parents":[2147483647,0,0,1,1,2,2,5,5,7,7],"right_children":[2,4,6,-1,-1,8,-1,10,-1,-1,-1],"split_conditions":[8.1979275E-1,7.447863E-1,1E0,-4.588835E-2,-1.3491022E-2,2.0833334E1,-2.536935E-2,2.05E1,5.508551E-2,3.4494817E-2,-2.0248694E-2],"split_indices":[97,97,72,0,0,98,0,98,0,0,0],"split_type":[0,0,0,0,0,0,0,0,0,0,0],"sum_hessian":[1.0565284E1,3.6012175E0,6.9640665E0,2.2927587E0,1.3084588E0,5.4472346E0,1.5168319E0,2.803433E0,2.6438017E0,1.7309237E0,1.0725093E0],"tree_param":{"num_deleted":"0","num_feature":"100","num_nodes":"11","size_leaf_vector":"1"}},{"base_weights":[1.0107025E-2,-4.6930245E-1,7.5814027E-1,6.7704044E-2,-7.228723E-1,8.013604E-3,4.6768922E-2,3.35042E-2,-2.7381143E-2,-4.440453E-2,-1.2722787E-2],"categories":[],"categories_nodes":[],"categories_segments":[],"categories_sizes":[],"default_left":[0,0,0,0,0,0,0,0,0,0,0],"id":20,"left_children":[1,3,5,7,9,-1,-1,-1,-1,-1,-1],"loss_changes":[4.457873E0,1.0822808E0,3.6401725E-1,1.6080565E0,1.7957306E-1,0E0,0E0,0E0,0E0,0E0,0E0],"parents":[2147483647,0,0,1,1,2,2,3,3,4,4],"right_children":[2,4,6,8,10,-1,-1,-1,-1,-1,-1],"split_conditions":[9.335859E-1,1E0,5E0,4E0,2.0833334E1,8.013604E-3,4.6768922E-2,3.35042E-2,-2.7381143E-2,-4.440453E-2,-1.2722787E-2],"split_indices":[97,14,79,77,98,0,0,0,0,0,0],"split_type":[0,0,0,0,0,0,0,0,0,0,0],"sum_hessian":[1.0438686E1,6.5886703E0,3.8500164E0,2.3483553E0,4.240315E0,1.3157939E0,2.5342226E0,1.1416943E0,1.2066609E0,2.472339E0,1.7679763E0],"tree_param":{"num_deleted":"0","num_feature":"100","num_nodes":"11","size_leaf_vector":"1"}},{"base_weights":[1.0077767E-2,-7.626864E-1,4.5518702E-1,-4.4493094E-2,-1.2487625E-2,7.5733274E-1,-2.4358947E-2,2.601128E-1,5.3441565E-2,3.323674E-2,-1.9617913E-2],"categories":[],"categories_nodes":[],"categories_segments":[],"categories_sizes":[],"default_left":[0,0,0,0,0,0,0,0,0,0,0],"id":21,"left_children":[1,3,5,-1,-1,7,-1,9,-1,-1,-1],"loss_changes":[4.239745E0,7.1943045E-2,2.5918512E0,0E0,0E0,6.9821906E-1,0E0,1.2506745E0,0E0,0E0,0E0],"parents":[2147483647,0,0,1,1,2,2,5,5,7,7],"right_children":[2,4,6,-1,-1,8,-1,10,-1,-1,-1],"split_conditions":[8.1979275E-1,7.447863E-1,1E0,-4.4493094E-2,-1.2487625E-2,2.0833334E1,-2.4358947E-2,2.05E1,5.3441565E-2,3.323674E-2,-1.9617913E-2],"split_indices":[97,97,72,0,0,98,0,98,0,0,0],"split_type":[0,0,0,0,0,0,0,0,0,0,0],"sum_hessian":[1.0316808E1,3.5098307E0,6.806977E0,2.223656E0,1.2861747E0,5.3030415E0,1.5039358E0,2.749413E0,2.5536282E0,1.685423E0,1.0639901E0],"tree_param":{"num_deleted":"0","num_feature":"100","num_nodes":"11","size_leaf_vector":"1"}},{"base_weights":[8.4593585E-3,-4.5009106E-1,7.301501E-1,7.2668016E-2,-6.986004E-1,7.835039E-3,4.523907E-2,3.2452755E-2,-2.6176756E-2,-4.110087E-2,-9.0683345E-3],"categories":[],"categories_nodes":[],"categories_segments":[],"categories_sizes":[],"default_left":[0,0,0,0,0,0,0,0,0,0,0],"id":22,"left_children":[1,3,5,7,9,-1,-1,-1,-1,-1,-1],"loss_changes":[4.0317225E0,1.0200294E0,3.317802E-1,1.4771893E0,1.79744E-1,0E0,0E0,0E0,0E0,0E0,0E0],"parents":[2147483647,0,0,1,1,2,2,3,3,4,4],"right_children":[2,4,6,8,10,-1,-1,-1,-1,-1,-1],"split_conditions":[9.335859E-1,1E0,5E0,4E0,5E-1,7.835039E-3,4.523907E-2,3.2452755E-2,-2.6176756E-2,-4.110087E-2,-9.0683345E-3],"split_indices":[97,14,79,77,69,0,0,0,0,0,0],"split_type":[0,0,0,0,0,0,0,0,0,0,0],"sum_hessian":[1.0189891E1,6.4610095E0,3.7288811E0,2.3097827E0,4.1512265E0,1.3133762E0,2.415505E0,1.1293356E0,1.1804471E0,2.8757803E0,1.2754464E0],"tree_param":{"num_deleted":"0","num_feature":"100","num_nodes":"11","size_leaf_vector":"1"}},{"base_weights":[8.985069E-3,-7.3513865E-1,4.377345E-1,-4.3115832E-2,-1.1716402E-2,7.3056406E-1,-2.3202552E-2,2.4319188E-1,5.1996212E-2,3.1985793E-2,-1.9200638E-2],"categories":[],"categories_nodes":[],"categories_segments":[],"categories_sizes":[],"default_left":[0,0,0,0,0,0,0,0,0,0,0],"id":23,"left_children":[1,3,5,-1,-1,7,-1,9,-1,-1,-1],"loss_changes":[3.8523185E0,7.9355E-2,2.358503E0,0E0,0E0,6.7607474E-1,0E0,1.165264E0,0E0,0E0,0E0],"parents":[2147483647,0,0,1,1,2,2,5,5,7,7],"right_children":[2,4,6,-1,-1,8,-1,10,-1,-1,-1],"split_conditions":[8.1979275E-1,7.447863E-1,1E0,-4.3115832E-2,-1.1716402E-2,2.0833334E1,-2.3202552E-2,2.05E1,5.1996212E-2,3.1985793E-2,-1.9200638E-2],"split_indices":[97,97,72,0,0,98,0,98,0,0,0],"split_type":[0,0,0,0,0,0,0,0,0,0,0],"sum_hessian":[1.0065991E1,3.418442E0,6.647549E0,2.1504948E0,1.2679472E0,5.161399E0,1.48615E0,2.6976225E0,2.4637764E0,1.640523E0,1.0570996E0],"tree_param":{"num_deleted":"0","num_feature":"100","num_nodes":"11","size_leaf_vector":"1"}},{"base_weights":[7.4757515E-3,-5.0820017E-1,6.0258377E-1,3.7625562E-3,-7.441912E-1,-1.613094E-2,4.5030374E-2,-4.6206668E-2,-9.340117E-3],"categories":[],"categories_nodes":[],"categories_segments":[],"categories_sizes":[],"default_left":[0,0,0,0,0,0,0,0,0],"id":24,"left_children":[1,3,5,-1,7,-1,-1,-1,-1],"loss_changes":[3.6635056E0,9.3770814E-1,1.8170941E0,0E0,2.9388046E-1,0E0,0E0,0E0,0E0],"parents":[2147483647,0,0,1,1,2,2,4,4],"right_children":[2,4,6,-1,8,-1,-1,-1,-1],"split_conditions":[8.891222E-1,1E0,4.4E-1,3.7625562E-3,2.0833334E1,-1.613094E-2,4.5030374E-2,-4.6206668E-2,-9.340117E-3],"split_indices":[97,14,0,0,98,0,0,0,0],"split_type":[0,0,0,0,0,0,0,0,0],"sum_hessian":[9.939914E0,5.4035983E0,4.5363154E0,1.7523388E0,3.6512594E0,1.0851096E0,3.451206E0,2.2627923E0,1.3884671E0],"tree_param":{"num_deleted":"0","num_feature":"100","num_nodes":"9","size_leaf_vector":"1"}},{"base_weights":[5.10317E-3,-7.097687E-1,4.1796708E-1,-4.194784E-2,-1.0827267E-2,7.041126E-1,-2.2399338E-2,2.2503744E-1,5.058611E-2,3.0708214E-2,-1.8933421E-2],"categories":[],"categories_nodes":[],"categories_segments":[],"categories_sizes":[],"default_left":[0,0,0,0,0,0,0,0,0,0,0],"id":25,"left_children":[1,3,5,-1,-1,7,-1,9,-1,-1,-1],"loss_changes":[3.4927733E0,9.45549E-2,2.172327E0,0E0,0E0,6.596961E-1,0E0,1.0878009E0,0E0,0E0,0E0],"parents":[2147483647,0,0,1,1,2,2,5,5,7,7],"right_children":[2,4,6,-1,-1,8,-1,10,-1,-1,-1],"split_conditions":[8.1979275E-1,7.447863E-1,1E0,-4.194784E-2,-1.0827267E-2,2.0833334E1,-2.2399338E-2,2.05E1,5.058611E-2,3.0708214E-2,-1.8933421E-2],"split_indices":[97,97,72,0,0,98,0,98,0,0,0],"split_type":[0,0,0,0,0,0,0,0,0,0,0],"sum_hessian":[9.828966E0,3.335108E0,6.4938583E0,2.0873969E0,1.247711E0,5.021462E0,1.4723966E0,2.640571E0,2.3808908E0,1.5951025E0,1.0454687E0],"tree_param":{"num_deleted":"0","num_feature":"100","num_nodes":"11","size_leaf_vector":"1"}},{"base_weights":[3.7598691E-3,-4.157698E-1,6.75098E-1,7.948606E-2,-6.5526164E-1,6.8596774E-3,4.256374E-2,3.1063674E-2,-2.4466565E-2,-4.0688228E-2,-1.0705497E-2],"categories":[],"categories_nodes":[],"categories_segments":[],"categories_sizes":[],"default_left":[0,0,0,0,0,0,0,0,0,0,0],"id":26,"left_children":[1,3,5,7,9,-1,-1,-1,-1,-1,-1],"loss_changes":[3.2955406E0,9.0684867E-1,3.0945706E-1,1.3027505E0,1.7298818E-1,0E0,0E0,0E0,0E0,0E0,0E0],"parents":[2147483647,0,0,1,1,2,2,3,3,4,4],"right_children":[2,4,6,8,10,-1,-1,-1,-1,-1,-1],"split_conditions":[9.335859E-1,1E0,5E0,4E0,2.0833334E1,6.8596774E-3,4.256374E-2,3.1063674E-2,-2.4466565E-2,-4.0688228E-2,-1.0705497E-2],"split_indices":[97,14,79,77,98,0,0,0,0,0,0],"split_type":[0,0,0,0,0,0,0,0,0,0,0],"sum_hessian":[9.704404E0,6.2065306E0,3.4978728E0,2.2407954E0,3.9657354E0,1.3018326E0,2.1960402E0,1.100434E0,1.1403613E0,2.2961185E0,1.6696169E0],"tree_param":{"num_deleted":"0","num_feature":"100","num_nodes":"11","size_leaf_vector":"1"}},{"base_weights":[4.0765936E-3,-6.848462E-1,4.022155E-1,-4.0797036E-2,-9.975478E-3,7.428267E-1,-3.2208374E-1,2.0310485E-1,5.1368143E-2,-1.7653983E-4,-2.414452E-2,3.451254E-2,-1.8954905E-2],"categories":[],"categories_nodes":[],"categories_segments":[],"categories_sizes":[],"default_left":[0,0,0,0,0,0,0,0,0,0,0,0,0],"id":27,"left_children":[1,3,5,-1,-1,7,9,11,-1,-1,-1,-1,-1],"loss_changes":[3.1797795E0,1.0749805E-1,2.0501907E0,0E0,0E0,6.045091E-1,1.5429744E-1,1.1335976E0,0E0,0E0,0E0,0E0,0E0],"parents":[2147483647,0,0,1,1,2,2,5,5,6,6,7,7],"right_children":[2,4,6,-1,-1,8,10,12,-1,-1,-1,-1,-1],"split_conditions":[8.1979275E-1,7.447863E-1,3E0,-4.0797036E-2,-9.975478E-3,2.0833334E1,1E0,2.04E1,5.1368143E-2,-1.7653983E-4,-2.414452E-2,3.451254E-2,-1.8954905E-2],"split_indices":[97,97,87,0,0,98,14,98,0,0,0,0,0],"split_type":[0,0,0,0,0,0,0,0,0,0,0,0,0],"sum_hessian":[9.588632E0,3.2481136E0,6.340518E0,2.021028E0,1.2270856E0,4.295108E0,2.0454104E0,2.074295E0,2.2208128E0,1.0289832E0,1.0164272E0,1.0283014E0,1.0459936E0],"tree_param":{"num_deleted":"0","num_feature":"100","num_nodes":"13","size_leaf_vector":"1"}},{"base_weights":[3.1856447E-3,-6.7038375E-1,3.917635E-1,-4.0012505E-2,-9.725537E-3,6.7204046E-1,-2.1673398E-2,2.1195719E-1,4.852104E-2,2.934119E-2,-1.7935975E-2],"categories":[],"categories_nodes":[],"categories_segments":[],"categories_sizes":[],"default_left":[0,0,0,0,0,0,0,0,0,0,0],"id":28,"left_children":[1,3,5,-1,-1,7,-1,9,-1,-1,-1],"loss_changes":[3.0034485E0,1.0389304E-1,1.9732525E0,0E0,0E0,5.93333E-1,0E0,9.740552E-1,0E0,0E0,0E0],"parents":[2147483647,0,0,1,1,2,2,5,5,7,7],"right_children":[2,4,6,-1,-1,8,-1,10,-1,-1,-1],"split_conditions":[8.1979275E-1,7.447863E-1,1E0,-4.0012505E-2,-9.725537E-3,2.0833334E1,-2.1673398E-2,2.05E1,4.852104E-2,2.934119E-2,-1.7935975E-2],"split_indices":[97,97,72,0,0,98,0,98,0,0,0],"split_type":[0,0,0,0,0,0,0,0,0,0,0],"sum_hessian":[9.471759E0,3.1998482E0,6.2719107E0,1.9783165E0,1.2215317E0,4.8203783E0,1.4515321E0,2.5691986E0,2.25118E0,1.5335466E0,1.035652E0],"tree_param":{"num_deleted":"0","num_feature":"100","num_nodes":"11","size_leaf_vector":"1"}},{"base_weights":[2.0036716E-3,-4.6221888E-1,5.438237E-1,4.794427E-3,-6.9498664E-1,-1.5763436E-2,4.1833255E-2,-4.3246266E-2,-8.423094E-3],"categories":[],"categories_nodes":[],"categories_segments":[],"categories_sizes":[],"default_left":[0,0,0,0,0,0,0,0,0],"id":29,"left_children":[1,3,5,-1,7,-1,-1,-1,-1],"loss_changes":[2.8548532E0,8.610563E-1,1.5809499E0,0E0,2.5126624E-1,0E0,0E0,0E0,0E0],"parents":[2147483647,0,0,1,1,2,2,4,4],"right_children":[2,4,6,-1,8,-1,-1,-1,-1],"split_conditions":[8.891222E-1,1E0,4.4E-1,4.794427E-3,2.0833334E1,-1.5763436E-2,4.1833255E-2,-4.3246266E-2,-8.423094E-3],"split_indices":[97,14,0,0,98,0,0,0,0],"split_type":[0,0,0,0,0,0,0,0,0],"sum_hessian":[9.350806E0,5.115146E0,4.2356596E0,1.6785461E0,3.4366002E0,1.0573082E0,3.1783514E0,2.1121778E0,1.3244224E0],"tree_param":{"num_deleted":"0","num_feature":"100","num_nodes":"9","size_leaf_vector":"1"}}]},"name":"gbtree"},"learner_model_param":{"base_score":"5E-1","boost_from_average":"1","num_class":"0","num_feature":"100","num_target":"1"},"objective":{"name":"binary:logistic","reg_loss_param":{"scale_pos_weight":"0.208333328"}}},"version":[2,1,3]}