{"learner":{"attributes":{"best_iteration":"16","best_score":"0.6124141458364634","scikit_learn":"{\"_estimator_type\": \"classifier\"}"},"feature_names":[],"feature_types":[],"gradient_booster":{"model":{"gbtree_model_param":{"num_parallel_tree":"1","num_trees":"37"},"iteration_indptr":[0,1,2,3,4,5,6,7,8,9,10,11,12,13,14,15,16,17,18,19,20,21,22,23,24,25,26,27,28,29,30,31,32,33,34,35,36,37],"tree_info":[0,0,0,0,0,0,0,0,0,0,0,0,0,0,0,0,0,0,0,0,0,0,0,0,0,0,0,0,0,0,0,0,0,0,0,0,0],"trees":[{"base_weights":[2.9944918E-8,-9.5479643E-1,8.709197E-1,-1.4196428E0,-3.3281818E-1,1.2315214E0,-2.5106904E-1,-5.907995E-1,-1.5257897E0,2.0897543E-1,-7.542295E-1,1.3192722E0,-5.7793844E-2,-5.349282E-1,6.1880183E-1,-4.0598508E-2,1.961511E-3,-8.588559E-2,-6.036681E-2,2.4360536E-2,-4.209321E-2,3.5065573E-2,-4.3203987E-2,6.852499E-2,-4.781777E-2,-3.491611E-2,3.4018308E-2,-1.2358835E-2,5.726558E-2],"categories":[],"categories_nodes":[],"categories_segments":[],"categories_sizes":[],"default_left":[0,0,0,0,0,0,0,0,0,0,0,0,0,0,0,0,0,0,0,0,0,0,0,0,0,0,0,0,0],"id":0,"left_children":[1,3,5,7,9,11,13,15,17,19,21,23,-1,25,27,-1,-1,-1,-1,-1,-1,-1,-1,-1,-1,-1,-1,-1,-1],"loss_changes":[1.7462573E2,2.8490868E1,4.4742958E1,4.115448E0,1.0238449E1,1.8972061E1,7.131823E0,1.1613224E0,9.7704315E-1,6.2870827E0,4.6116505E0,1.0729446E1,0E0,4.7051663E0,3.5841858E0,0E0,0E0,0E0,0E0,0E0,0E0,0E0,0E0,0E0,0E0,0E0,0E0,0E0,0E0],"parents":[2147483647,0,0,1,1,2,2,3,3,4,4,5,5,6,6,7,7,8,8,9,9,10,10,11,11,13,13,14,14],"right_children":[2,4,6,8,10,12,14,16,18,20,22,24,-1,26,28,-1,-1,-1,-1,-1,-1,-1,-1,-1,-1,-1,-1,-1,-1],"split_conditions":[6.703089E-1,5.758398E-1,7.1E0,1E0,7.1E0,1E0,9.2E0,1E0,4.6365595E-1,7.6666665E-1,1E0,8E0,-5.7793844E-2,8.472105E-1,3.993152E-1,-4.0598508E-2,1.961511E-3,-8.588559E-2,-6.036681E-2,2.4360536E-2,-4.209321E-2,3.5065573E-2,-4.3203987E-2,6.852499E-2,-4.781777E-2,-3.491611E-2,3.4018308E-2,-1.2358835E-2,5.726558E-2],"split_indices":[97,97,76,11,76,45,76,17,97,71,1,81,0,97,99,0,0,0,0,0,0,0,0,0,0,0,0,0,0],"split_type":[0,0,0,0,0,0,0,0,0,0,0,0,0,0,0,0,0,0,0,0,0,0,0,0,0,0,0,0,0],"sum_hessian":[2.08E2,9.91761E1,1.088239E2,5.60235E1,4.3152607E1,8.2281425E1,2.6542469E1,7.105606E0,4.8917892E1,1.9100227E1,2.4052378E1,7.979587E1,2.4855607E0,2.0302378E1,6.240091E0,5.0455832E0,2.0600226E0,2.7781143E1,2.113675E1,1.5525764E1,3.5744622E0,1.3100227E0,2.2742355E1,7.8428085E1,1.3677803E0,1.8271235E1,2.031144E0,2.5600226E0,3.680068E0],"tree_param":{"num_deleted":"0","num_feature":"100","num_nodes":"29","size_leaf_vector":"1"}},{"base_weights":[-9.760602E-4,-9.099747E-1,8.282407E-1,-1.3536569E0,-3.1687355E-1,1.1708581E0,-2.3699747E-1,-5.6617504E-1,-1.454519E0,1.9768256E-1,-7.171641E-1,1.255032E0,-5.5766966E-2,-5.083735E-1,5.943276E-1,-3.891797E-2,1.8954879E-3,-8.188865E-2,-5.7535715E-2,2.3219509E-2,-4.0462878E-2,-5.269667E-2,-8.991275E-3,6.521874E-2,-4.6452235E-2,-3.3270672E-2,3.2885026E-2,-1.1914807E-2,5.5050183E-2],"categories":[],"categories_nodes":[],"categories_segments":[],"categories_sizes":[],"default_left":[0,0,0,0,0,0,0,0,0,0,0,0,0,0,0,0,0,0,0,0,0,0,0,0,0,0,0,0,0],"id":1,"left_children":[1,3,5,7,9,11,13,15,17,19,21,23,-1,25,27,-1,-1,-1,-1,-1,-1,-1,-1,-1,-1,-1,-1,-1,-1],"loss_changes":[1.5814452E2,2.5909248E1,4.0321823E1,3.6999435E0,9.2329E0,1.7408035E1,6.5136766E0,1.0681956E0,8.905716E-1,5.772857E0,4.34194E0,9.909096E0,0E0,4.337411E0,3.315432E0,0E0,0E0,0E0,0E0,0E0,0E0,0E0,0E0,0E0,0E0,0E0,0E0,0E0,0E0],"parents":[2147483647,0,0,1,1,2,2,3,3,4,4,5,5,6,6,7,7,8,8,9,9,10,10,11,11,13,13,14,14],"right_children":[2,4,6,8,10,12,14,16,18,20,22,24,-1,26,28,-1,-1,-1,-1,-1,-1,-1,-1,-1,-1,-1,-1,-1,-1],"split_conditions":[6.703089E-1,5.758398E-1,7.1E0,1E0,7.1E0,1E0,9.2E0,1E0,4.6365595E-1,7.6666665E-1,1E0,8E0,-5.5766966E-2,8.472105E-1,3.993152E-1,-3.891797E-2,1.8954879E-3,-8.188865E-2,-5.7535715E-2,2.3219509E-2,-4.0462878E-2,-5.269667E-2,-8.991275E-3,6.521874E-2,-4.6452235E-2,-3.3270672E-2,3.2885026E-2,-1.1914807E-2,5.5050183E-2],"split_indices":[97,97,76,11,76,45,76,17,97,71,33,81,0,97,99,0,0,0,0,0,0,0,0,0,0,0,0,0,0],"split_type":[0,0,0,0,0,0,0,0,0,0,0,0,0,0,0,0,0,0,0,0,0,0,0,0,0,0,0,0,0],"sum_hessian":[2.0780849E2,9.9088715E1,1.0871978E2,5.5951008E1,4.3137707E1,8.218658E1,2.65332E1,7.1035256E0,4.884748E1,1.909634E1,2.4041365E1,7.970309E1,2.4834862E0,2.0296223E1,6.2369776E0,5.0435047E0,2.0600207E0,2.7729975E1,2.1117506E1,1.5523461E1,3.5728796E0,1.4187903E1,9.853461E0,7.833609E1,1.3669987E0,1.8265667E1,2.0305562E0,2.559925E0,3.6770527E0],"tree_param":{"num_deleted":"0","num_feature":"100","num_nodes":"29","size_leaf_vector":"1"}},{"base_weights":[-2.1283855E-3,-8.692003E-1,7.8904784E-1,-1.2938102E0,-3.0309576E-1,1.1155235E0,-2.2380783E-1,-5.428423E-1,-1.3902302E0,1.8704177E-1,-6.845426E-1,1.1964588E0,-5.3872753E-2,-4.8337632E-1,5.7129884E-1,-3.733127E-2,1.8316921E-3,-7.833691E-2,-5.4926343E-2,-5.9015527E-3,5.1942777E-2,3.4440845E-2,-3.947444E-2,6.220568E-2,-4.5154836E-2,-4.293845E-2,1.4490405E-3,-1.7574506E-2,4.9021464E-2],"categories":[],"categories_nodes":[],"categories_segments":[],"categories_sizes":[],"default_left":[0,0,0,0,0,0,0,0,0,0,0,0,0,0,0,0,0,0,0,0,0,0,0,0,0,0,0,0,0],"id":2,"left_children":[1,3,5,7,9,11,13,15,17,19,21,23,-1,25,27,-1,-1,-1,-1,-1,-1,-1,-1,-1,-1,-1,-1,-1,-1],"loss_changes":[1.4356367E2,2.3608421E1,3.6434418E1,3.3543167E0,8.372908E0,1.6006706E1,5.953178E0,9.835799E-1,8.352814E-1,5.342104E0,4.149043E0,9.17218E0,0E0,4.1175647E0,3.0735278E0,0E0,0E0,0E0,0E0,0E0,0E0,0E0,0E0,0E0,0E0,0E0,0E0,0E0,0E0],"parents":[2147483647,0,0,1,1,2,2,3,3,4,4,5,5,6,6,7,7,8,8,9,9,10,10,11,11,13,13,14,14],"right_children":[2,4,6,8,10,12,14,16,18,20,22,24,-1,26,28,-1,-1,-1,-1,-1,-1,-1,-1,-1,-1,-1,-1,-1,-1],"split_conditions":[6.703089E-1,5.758398E-1,7.1E0,1E0,7.1E0,1E0,9.2E0,1E0,4.6365595E-1,2E0,1E0,8E0,-5.3872753E-2,7.55427E-1,3.9931402E-1,-3.733127E-2,1.8316921E-3,-7.833691E-2,-5.4926343E-2,-5.9015527E-3,5.1942777E-2,3.4440845E-2,-3.947444E-2,6.220568E-2,-4.5154836E-2,-4.293845E-2,1.4490405E-3,-1.7574506E-2,4.9021464E-2],"split_indices":[97,97,76,11,76,45,76,17,97,87,1,81,0,97,99,0,0,0,0,0,0,0,0,0,0,0,0,0,0],"split_type":[0,0,0,0,0,0,0,0,0,0,0,0,0,0,0,0,0,0,0,0,0,0,0,0,0,0,0,0,0],"sum_hessian":[2.072747E2,9.884696E1,1.0842774E2,5.5747654E1,4.3099308E1,8.192072E1,2.6507019E1,7.097631E0,4.8650024E1,1.908536E1,2.401395E1,7.944315E1,2.4775643E0,2.0278887E1,6.2281327E0,5.0376163E0,2.0600152E0,2.758656E1,2.1063465E1,1.4686793E1,4.3985653E0,1.3098109E0,2.270414E1,7.8078415E1,1.3647459E0,1.1313572E1,8.965314E0,1.9563937E0,4.271739E0],"tree_param":{"num_deleted":"0","num_feature":"100","num_nodes":"29","size_leaf_vector":"1"}},{"base_weights":[-2.871244E-3,-8.3018583E-1,7.523331E-1,-1.2391541E0,-2.8736746E-1,1.064721E0,-2.132543E-1,-5.2069736E-1,-1.3318093E0,1.8005736E-1,-6.5172523E-1,1.1427014E0,-5.209705E-2,-9.111551E-1,7.045076E-2,-1.1581372E-2,-5.1841926E-2,-8.107608E-2,-5.7213802E-2,2.1674622E-2,-3.8771313E-2,-4.8612155E-2,-7.208337E-3,-1.0448675E-2,6.113672E-2,-6.1673593E-2,9.24373E-3,1.6531272E-2,-4.8728935E-2],"categories":[],"categories_nodes":[],"categories_segments":[],"categories_sizes":[],"default_left":[0,0,0,0,0,0,0,0,0,0,0,0,0,0,0,0,0,0,0,0,0,0,0,0,0,0,0,0,0],"id":3,"left_children":[1,3,5,7,9,11,13,15,17,19,21,23,-1,25,27,-1,-1,-1,-1,-1,-1,-1,-1,-1,-1,-1,-1,-1,-1],"loss_changes":[1.3024486E2,2.172792E1,3.3100178E1,3.063202E0,7.6189494E0,1.4745155E1,5.503727E0,9.666369E-1,8.2543945E-1,5.198085E0,3.9217968E0,8.914246E0,0E0,3.058413E0,5.8852882E0,0E0,0E0,0E0,0E0,0E0,0E0,0E0,0E0,0E0,0E0,0E0,0E0,0E0,0E0],"parents":[2147483647,0,0,1,1,2,2,3,3,4,4,5,5,6,6,7,7,8,8,9,9,10,10,11,11,13,13,14,14],"right_children":[2,4,6,8,10,12,14,16,18,20,22,24,-1,26,28,-1,-1,-1,-1,-1,-1,-1,-1,-1,-1,-1,-1,-1,-1],"split_conditions":[6.703089E-1,5.758398E-1,7.1E0,1E0,7.1E0,1E0,4E0,1E0,4.0158108E-1,7.6666665E-1,1E0,1E0,-5.209705E-2,7.55427E-1,1E0,-1.1581372E-2,-5.1841926E-2,-8.107608E-2,-5.7213802E-2,2.1674622E-2,-3.8771313E-2,-4.8612155E-2,-7.208337E-3,-1.0448675E-2,6.113672E-2,-6.1673593E-2,9.24373E-3,1.6531272E-2,-4.8728935E-2],"split_indices":[97,97,76,11,76,45,79,19,97,71,33,87,0,97,19,0,0,0,0,0,0,0,0,0,0,0,0,0,0],"split_type":[0,0,0,0,0,0,0,0,0,0,0,0,0,0,0,0,0,0,0,0,0,0,0,0,0,0,0,0,0],"sum_hessian":[2.0646165E2,9.847955E1,1.079821E2,5.5432777E1,4.3046776E1,8.150942E1,2.6472683E1,7.088406E0,4.8344368E1,1.9077976E1,2.3968801E1,7.90412E1,2.4682217E0,7.011963E0,1.946072E1,5.4723372E0,1.6160684E0,1.5992171E1,3.23522E1,1.5510295E1,3.5676813E0,1.4130201E1,9.8386E0,4.328364E0,7.471284E1,5.321604E0,1.6903594E0,1.6128841E1,3.331879E0],"tree_param":{"num_deleted":"0","num_feature":"100","num_nodes":"29","size_leaf_vector":"1"}},{"base_weights":[-4.4907746E-3,-7.059432E-1,8.119896E-1,-1.1893818E0,-2.1443267E-1,1.0747881E0,-1.0844138E-1,-5.02863E-1,-1.2784399E0,2.4216694E-1,-6.2201756E-1,1.1512632E0,-5.3377755E-2,-3.6736384E-1,7.9122394E-1,-3.52105E-2,2.8956102E-3,-7.243348E-2,-5.0059278E-2,-1.4741756E-3,4.757641E-2,3.3156633E-2,-3.812324E-2,6.0181897E-2,-4.559803E-2,-2.5848059E-2,4.012787E-2,-6.163759E-3,5.666138E-2],"categories":[],"categories_nodes":[],"categories_segments":[],"categories_sizes":[],"default_left":[0,0,0,0,0,0,0,0,0,0,0,0,0,0,0,0,0,0,0,0,0,0,0,0,0,0,0,0,0],"id":4,"left_children":[1,3,5,7,9,11,13,15,17,19,21,23,-1,25,27,-1,-1,-1,-1,-1,-1,-1,-1,-1,-1,-1,-1,-1,-1],"loss_changes":[1.1881584E2,2.6259514E1,2.3306606E1,2.783104E0,1.0674963E1,1.3462593E1,5.462383E0,9.534111E-1,8.6001587E-1,5.306366E0,5.949275E0,8.940407E0,0E0,3.5516996E0,1.7906799E0,0E0,0E0,0E0,0E0,0E0,0E0,0E0,0E0,0E0,0E0,0E0,0E0,0E0,0E0],"parents":[2147483647,0,0,1,1,2,2,3,3,4,4,5,5,6,6,7,7,8,8,9,9,10,10,11,11,13,13,14,14],"right_children":[2,4,6,8,10,12,14,16,18,20,22,24,-1,26,28,-1,-1,-1,-1,-1,-1,-1,-1,-1,-1,-1,-1,-1,-1],"split_conditions":[6.909519E-1,5.758398E-1,7.1E0,1E0,7.1E0,1E0,9.2E0,1E0,4.6365595E-1,2E0,3.993104E-1,8E0,-5.3377755E-2,2.5E-1,3.9931402E-1,-3.52105E-2,2.8956102E-3,-7.243348E-2,-5.0059278E-2,-1.4741756E-3,4.757641E-2,3.3156633E-2,-3.812324E-2,6.0181897E-2,-4.559803E-2,-2.5848059E-2,4.012787E-2,-6.163759E-3,5.666138E-2],"split_indices":[97,97,76,11,76,45,76,17,97,87,99,81,0,32,99,0,0,0,0,0,0,0,0,0,0,0,0,0,0],"split_type":[0,0,0,0,0,0,0,0,0,0,0,0,0,0,0,0,0,0,0,0,0,0,0,0,0,0,0,0,0],"sum_hessian":[2.0545723E2,1.10586136E2,9.4871086E1,5.5035057E1,5.5551083E1,7.36695E1,2.1201584E1,7.0827703E0,4.7952286E1,2.6391584E1,2.9159496E1,7.1577034E1,2.092468E0,1.692287E1,4.278713E0,5.023351E0,2.0594194E0,2.7092724E1,2.085956E1,1.977657E1,6.6150165E0,2.506096E0,2.66534E1,7.021135E1,1.3656867E0,1.5499126E1,1.4237437E0,1.338687E0,2.940026E0],"tree_param":{"num_deleted":"0","num_feature":"100","num_nodes":"29","size_leaf_vector":"1"}},{"base_weights":[-4.7149295E-3,-6.753349E-1,7.7705175E-1,-1.1428667E0,-2.0334284E-1,1.0291502E0,-1.0024992E-1,-4.825304E-1,-1.229209E0,2.3200579E-1,-5.924641E-1,1.1031897E0,-5.1806014E-2,-3.4858313E-1,7.634979E-1,-9.905826E-3,-5.0045934E-2,-7.566079E-2,-5.2418727E-2,-1.4039469E-3,4.56901E-2,3.1933047E-2,-3.638334E-2,5.770721E-2,-4.4342145E-2,-3.4716547E-2,8.962749E-3,-5.9876516E-3,5.4761525E-2],"categories":[],"categories_nodes":[],"categories_segments":[],"categories_sizes":[],"default_left":[0,0,0,0,0,0,0,0,0,0,0,0,0,0,0,0,0,0,0,0,0,0,0,0,0,0,0,0,0],"id":5,"left_children":[1,3,5,7,9,11,13,15,17,19,21,23,-1,25,27,-1,-1,-1,-1,-1,-1,-1,-1,-1,-1,-1,-1,-1,-1],"loss_changes":[1.0812109E2,2.4262909E1,2.1164368E1,2.5739746E0,9.701079E0,1.2467712E1,5.021003E0,9.9146104E-1,9.03389E-1,4.8778467E0,5.4734983E0,8.322548E0,0E0,3.3919053E0,1.6733959E0,0E0,0E0,0E0,0E0,0E0,0E0,0E0,0E0,0E0,0E0,0E0,0E0,0E0,0E0],"parents":[2147483647,0,0,1,1,2,2,3,3,4,4,5,5,6,6,7,7,8,8,9,9,10,10,11,11,13,13,14,14],"right_children":[2,4,6,8,10,12,14,16,18,20,22,24,-1,26,28,-1,-1,-1,-1,-1,-1,-1,-1,-1,-1,-1,-1,-1,-1],"split_conditions":[6.909519E-1,5.758398E-1,7.1E0,1E0,7.1E0,1E0,9.2E0,1E0,4.0158108E-1,2E0,3.993104E-1,8E0,-5.1806014E-2,1.768E2,3.9931402E-1,-9.905826E-3,-5.0045934E-2,-7.566079E-2,-5.2418727E-2,-1.4039469E-3,4.56901E-2,3.1933047E-2,-3.638334E-2,5.770721E-2,-4.4342145E-2,-3.4716547E-2,8.962749E-3,-5.9876516E-3,5.4761525E-2],"split_indices":[97,97,76,11,76,45,76,19,97,87,99,81,0,98,99,0,0,0,0,0,0,0,0,0,0,0,0,0,0],"split_type":[0,0,0,0,0,0,0,0,0,0,0,0,0,0,0,0,0,0,0,0,0,0,0,0,0,0,0,0,0],"sum_hessian":[2.0423138E2,1.1000357E2,9.4227806E1,5.4548836E1,5.545474E1,7.306034E1,2.1167465E1,7.069625E0,4.7479214E1,2.6363281E1,2.9091455E1,7.0981514E1,2.0788321E0,1.6903908E1,4.2635565E0,5.457528E0,1.6120965E0,1.5604239E1,3.1874971E1,1.9777555E1,6.585726E0,2.5102215E0,2.6581234E1,6.9618965E1,1.3625455E0,1.0023095E1,6.880814E0,1.3385699E0,2.9249864E0],"tree_param":{"num_deleted":"0","num_feature":"100","num_nodes":"29","size_leaf_vector":"1"}},{"base_weights":[-5.306321E-3,-9.020057E-1,5.341383E-1,5.011766E-2,-9.6318686E-1,8.598049E-1,-2.5176576E-1,-1.1428078E0,-4.7012872E-1,5.194578E-1,1.272161E0,-5.27236E-1,4.1544405E-1,-7.324569E-2,-4.891413E-2,-4.4250183E-2,8.396777E-3,9.407457E-3,5.2265298E-2,6.843914E-2,-4.3145746E-2,-4.062611E-2,2.875619E-3,3.6575895E-2,-2.7990317E-2],"categories":[],"categories_nodes":[],"categories_segments":[],"categories_sizes":[],"default_left":[0,0,0,0,0,0,0,0,0,0,0,0,0,0,0,0,0,0,0,0,0,0,0,0,0],"id":6,"left_children":[1,3,5,-1,7,9,11,13,15,17,19,21,23,-1,-1,-1,-1,-1,-1,-1,-1,-1,-1,-1,-1],"loss_changes":[9.908092E1,9.929417E0,3.2951206E1,0E0,6.109581E0,1.2061874E1,7.248351E0,1.4451523E0,5.903422E0,8.749983E0,9.494896E0,4.635935E0,4.026925E0,0E0,0E0,0E0,0E0,0E0,0E0,0E0,0E0,0E0,0E0,0E0,0E0],"parents":[2147483647,0,0,1,1,2,2,4,4,5,5,6,6,7,7,8,8,9,9,10,10,11,11,12,12],"right_children":[2,4,6,-1,8,10,12,14,16,18,20,22,24,-1,-1,-1,-1,-1,-1,-1,-1,-1,-1,-1,-1],"split_conditions":[6.306224E-1,1E0,7.1E0,5.011766E-2,5.758398E-1,7.7847385E-1,9.4E0,4.0158108E-1,1E0,1E0,8E0,7.55427E-1,1E0,-7.324569E-2,-4.891413E-2,-4.4250183E-2,8.396777E-3,9.407457E-3,5.2265298E-2,6.843914E-2,-4.3145746E-2,-4.062611E-2,2.875619E-3,3.6575895E-2,-2.7990317E-2],"split_indices":[97,1,76,0,97,97,76,97,13,73,81,97,55,0,0,0,0,0,0,0,0,0,0,0,0],"split_type":[0,0,0,0,0,0,0,0,0,0,0,0,0,0,0,0,0,0,0,0,0,0,0,0,0],"sum_hessian":[2.0283527E2,7.593656E1,1.26898705E2,1.8848346E0,7.405173E1,8.9653595E1,3.724511E1,5.331228E1,2.0739447E1,5.0353207E1,3.930039E1,2.6509819E1,1.0735291E1,1.5352133E1,3.7960148E1,1.2333249E1,8.4061985E0,3.1723642E1,1.8629562E1,3.794224E1,1.3581485E0,1.7555393E1,8.954426E0,8.29639E0,2.438901E0],"tree_param":{"num_deleted":"0","num_feature":"100","num_nodes":"25","size_leaf_vector":"1"}},{"base_weights":[-5.3187166E-3,-6.2207526E-1,7.158025E-1,-1.0583706E0,-1.8880665E-1,9.498661E-1,-8.7116964E-2,-4.2939773E-1,-1.1426775E0,2.1224263E-1,-5.48042E-1,1.0218081E0,-5.0791558E-2,-3.1703168E-1,7.140104E-1,-7.7263205E-3,-4.7204778E-2,-6.5483935E-2,-4.3929443E-2,-1.7662429E-3,4.3324277E-2,3.1277828E-2,-3.391498E-2,5.35145E-2,-4.2004265E-2,-2.3140267E-2,4.0131643E-2,-6.7000994E-3,5.2002586E-2],"categories":[],"categories_nodes":[],"categories_segments":[],"categories_sizes":[],"default_left":[0,0,0,0,0,0,0,0,0,0,0,0,0,0,0,0,0,0,0,0,0,0,0,0,0,0,0,0,0],"id":7,"left_children":[1,3,5,7,9,11,13,15,17,19,21,23,-1,25,27,-1,-1,-1,-1,-1,-1,-1,-1,-1,-1,-1,-1,-1,-1],"loss_changes":[9.047048E1,2.052525E1,1.770673E1,2.3945656E0,8.216944E0,1.1318153E1,4.2938595E0,9.906069E-1,9.388313E-1,4.4504204E0,5.0010395E0,7.274414E0,0E0,3.285092E0,1.5859053E0,0E0,0E0,0E0,0E0,0E0,0E0,0E0,0E0,0E0,0E0,0E0,0E0,0E0,0E0],"parents":[2147483647,0,0,1,1,2,2,3,3,4,4,5,5,6,6,7,7,8,8,9,9,10,10,11,11,13,13,14,14],"right_children":[2,4,6,8,10,12,14,16,18,20,22,24,-1,26,28,-1,-1,-1,-1,-1,-1,-1,-1,-1,-1,-1,-1,-1,-1],"split_conditions":[6.909519E-1,5.758398E-1,7.1E0,1E0,7.1E0,1E0,9.2E0,1E0,4.6365595E-1,2E0,3.993104E-1,8E0,-5.0791558E-2,2.5E-1,3.9931402E-1,-7.7263205E-3,-4.7204778E-2,-6.5483935E-2,-4.3929443E-2,-1.7662429E-3,4.3324277E-2,3.1277828E-2,-3.391498E-2,5.35145E-2,-4.2004265E-2,-2.3140267E-2,4.0131643E-2,-6.7000994E-3,5.2002586E-2],"split_indices":[97,97,76,11,76,45,76,19,97,87,99,81,0,32,99,0,0,0,0,0,0,0,0,0,0,0,0,0,0],"split_type":[0,0,0,0,0,0,0,0,0,0,0,0,0,0,0,0,0,0,0,0,0,0,0,0,0,0,0,0,0],"sum_hessian":[2.014147E2,1.0863732E2,9.2777374E1,5.3410725E1,5.5226597E1,7.1694336E1,2.1083036E1,7.033144E0,4.637758E1,2.6287968E1,2.893863E1,6.962628E1,2.0680556E0,1.6851196E1,4.231839E0,5.432289E0,1.6008548E0,2.5985779E1,2.0391802E1,1.975763E1,6.5303397E0,2.5111504E0,2.6427479E1,6.827367E1,1.3526156E0,1.542908E1,1.4221171E0,1.3387752E0,2.8930643E0],"tree_param":{"num_deleted":"0","num_feature":"100","num_nodes":"29","size_leaf_vector":"1"}},{"base_weights":[-5.598679E-3,-8.34721E-1,4.913304E-1,4.903101E-2,-8.943626E-1,7.9176795E-1,-2.2488959E-1,-6.082979E-2,-6.3833386E-1,4.668924E-1,1.191069E0,-5.0681204E-1,3.5671875E-1,-1.24601545E-2,-5.2919727E-2,7.529503E-3,4.871537E-2,6.419154E-2,-4.091361E-2,-3.1641845E-2,3.2984357E-2,2.9596785E-2,-2.1889625E-2],"categories":[],"categories_nodes":[],"categories_segments":[],"categories_sizes":[],"default_left":[0,0,0,0,0,0,0,0,0,0,0,0,0,0,0,0,0,0,0,0,0,0,0],"id":8,"left_children":[1,3,5,-1,7,9,11,-1,13,15,17,19,21,-1,-1,-1,-1,-1,-1,-1,-1,-1,-1],"loss_changes":[8.312532E1,9.062576E0,2.7323933E1,0E0,5.305485E0,1.1001606E1,6.4213247E0,0E0,6.795147E0,8.001782E0,8.380249E0,4.2465844E0,2.6909332E0,0E0,0E0,0E0,0E0,0E0,0E0,0E0,0E0,0E0,0E0],"parents":[2147483647,0,0,1,1,2,2,4,4,5,5,6,6,8,8,9,9,10,10,11,11,12,12],"right_children":[2,4,6,-1,8,10,12,-1,14,16,18,20,22,-1,-1,-1,-1,-1,-1,-1,-1,-1,-1],"split_conditions":[6.306224E-1,1E0,7.1E0,4.903101E-2,5E-1,7.7847385E-1,8.5E0,-6.082979E-2,4E0,1E0,8E0,8.472105E-1,1E0,-1.24601545E-2,-5.2919727E-2,7.529503E-3,4.871537E-2,6.419154E-2,-4.091361E-2,-3.1641845E-2,3.2984357E-2,2.9596785E-2,-2.1889625E-2],"split_indices":[97,1,76,0,69,97,76,0,77,73,81,97,55,0,0,0,0,0,0,0,0,0,0],"split_type":[0,0,0,0,0,0,0,0,0,0,0,0,0,0,0,0,0,0,0,0,0,0,0],"sum_hessian":[1.9975775E2,7.460317E1,1.2515458E2,1.8818711E0,7.27213E1,8.809521E1,3.7059372E1,3.0536646E1,4.2184654E1,4.9770596E1,3.8324615E1,2.5046976E1,1.2012394E1,2.272562E1,1.9459034E1,3.145782E1,1.8312775E1,3.6978558E1,1.3460599E0,2.3017708E1,2.0292685E0,9.465176E0,2.5472188E0],"tree_param":{"num_deleted":"0","num_feature":"100","num_nodes":"23","size_leaf_vector":"1"}},{"base_weights":[-5.2931714E-3,-5.7456976E-1,6.628874E-1,-9.875505E-1,-1.7202422E-1,9.4813657E-1,5.5593587E-2,-6.7627676E-2,-8.151042E-1,1.9657473E-1,-5.034247E-1,1.0223469E0,-5.385797E-2,-9.0059847E-1,4.0318555E-1,-2.6835779E-2,-5.4040547E-2,-1.9078099E-3,4.1114826E-2,3.0851359E-2,-3.1468507E-2,6.279992E-2,1.8985242E-2,-1.0817723E-2,-5.8414966E-2,2.8282106E-2,-1.8773848E-2],"categories":[],"categories_nodes":[],"categories_segments":[],"categories_sizes":[],"default_left":[0,0,0,0,0,0,0,0,0,0,0,0,0,0,0,0,0,0,0,0,0,0,0,0,0,0,0],"id":9,"left_children":[1,3,5,7,9,11,13,-1,15,17,19,21,-1,23,25,-1,-1,-1,-1,-1,-1,-1,-1,-1,-1,-1,-1],"loss_changes":[7.6128456E1,1.779475E1,1.58974E1,2.2416267E0,6.9314356E0,1.0507778E1,1.0496436E1,0E0,2.275032E0,4.0263634E0,4.5842285E0,8.665535E0,0E0,1.2927656E0,3.128312E0,0E0,0E0,0E0,0E0,0E0,0E0,0E0,0E0,0E0,0E0,0E0,0E0],"parents":[2147483647,0,0,1,1,2,2,3,3,4,4,5,5,6,6,8,8,9,9,10,10,11,11,13,13,14,14],"right_children":[2,4,6,8,10,12,14,-1,16,18,20,22,-1,24,26,-1,-1,-1,-1,-1,-1,-1,-1,-1,-1,-1,-1],"split_conditions":[6.909519E-1,5.758398E-1,1E1,4.0158108E-1,7.1E0,1E0,1E0,-6.7627676E-2,7.5E0,2E0,3.993104E-1,4E0,-5.385797E-2,5E-1,1E0,-2.6835779E-2,-5.4040547E-2,-1.9078099E-3,4.1114826E-2,3.0851359E-2,-3.1468507E-2,6.279992E-2,1.8985242E-2,-1.0817723E-2,-5.8414966E-2,2.8282106E-2,-1.8773848E-2],"split_indices":[97,97,78,97,76,45,70,0,76,87,99,77,0,68,55,0,0,0,0,0,0,0,0,0,0,0,0],"split_type":[0,0,0,0,0,0,0,0,0,0,0,0,0,0,0,0,0,0,0,0,0,0,0,0,0,0,0],"sum_hessian":[1.9813681E2,1.0706211E2,9.10747E1,5.2128757E1,5.493335E1,6.1586117E1,2.948858E1,1.4530311E1,3.759845E1,2.6199684E1,2.8733665E1,5.988697E1,1.6991495E0,7.437572E0,2.205101E1,1.9835833E1,1.7762615E1,1.9735285E1,6.4644003E0,2.509466E0,2.62242E1,4.321899E1,1.6667978E1,2.6000452E0,4.837527E0,1.8470898E1,3.5801117E0],"tree_param":{"num_deleted":"0","num_feature":"100","num_nodes":"27","size_leaf_vector":"1"}},{"base_weights":[-5.778027E-3,-7.736438E-1,4.5228237E-1,4.8284434E-2,-8.321777E-1,7.6753914E-1,-1.4210595E-1,-5.7412922E-2,-5.8453107E-1,8.401877E-1,-6.650094E-1,-7.7619004E-1,5.2600324E-2,-1.0815024E-2,-4.948879E-2,5.4014783E-2,1.7997181E-2,9.392847E-3,-5.1690955E-2,1.6950026E-2,-5.225408E-2,-2.2385754E-2,1.4658225E-2],"categories":[],"categories_nodes":[],"categories_segments":[],"categories_sizes":[],"default_left":[0,0,0,0,0,0,0,0,0,0,0,0,0,0,0,0,0,0,0,0,0,0,0],"id":10,"left_children":[1,3,5,-1,7,9,11,-1,13,15,17,19,21,-1,-1,-1,-1,-1,-1,-1,-1,-1,-1],"loss_changes":[6.980506E1,8.353001E0,2.340405E1,0E0,4.9862022E0,9.0289955E0,5.4642076E0,0E0,6.1370325E0,8.594021E0,1.605385E0,3.467917E0,4.288989E0,0E0,0E0,0E0,0E0,0E0,0E0,0E0,0E0,0E0,0E0],"parents":[2147483647,0,0,1,1,2,2,4,4,5,5,6,6,8,8,9,9,10,10,11,11,12,12],"right_children":[2,4,6,-1,8,10,12,-1,14,16,18,20,22,-1,-1,-1,-1,-1,-1,-1,-1,-1,-1],"split_conditions":[6.306224E-1,1E0,6.8E0,4.8284434E-2,5E-1,1E0,4E0,-5.7412922E-2,4E0,5E-1,6.712465E-1,1.6666667E-1,1E0,-1.0815024E-2,-4.948879E-2,5.4014783E-2,1.7997181E-2,9.392847E-3,-5.1690955E-2,1.6950026E-2,-5.225408E-2,-2.2385754E-2,1.4658225E-2],"split_indices":[97,1,76,0,69,45,79,0,77,68,97,71,60,0,0,0,0,0,0,0,0,0,0],"split_type":[0,0,0,0,0,0,0,0,0,0,0,0,0,0,0,0,0,0,0,0,0,0,0],"sum_hessian":[1.9646788E2,7.315169E1,1.23316185E2,1.8770584E0,7.1274635E1,8.0388E1,4.2928185E1,2.9713497E1,4.1561134E1,7.69016E1,3.486396E0,9.383438E0,3.3544746E1,2.2578583E1,1.8982552E1,5.043574E1,2.6465862E1,1.2006205E0,2.2857757E0,1.772307E0,7.611131E0,1.0612403E1,2.2932343E1],"tree_param":{"num_deleted":"0","num_feature":"100","num_nodes":"23","size_leaf_vector":"1"}},{"base_weights":[-5.970182E-3,-5.3319925E-1,6.1434835E-1,-9.2357713E-1,-1.6008505E-1,8.893184E-1,3.845952E-2,-6.455666E-2,-7.543096E-1,1.7654625E-1,-4.6362248E-1,9.6009946E-1,-5.122384E-2,-8.658764E-1,3.6877894E-1,-2.4016535E-2,-5.094219E-2,-2.3429391E-3,3.8936637E-2,-3.7595745E-2,1.8163549E-3,5.9206363E-2,1.781999E-2,-1.5147194E-2,-6.045867E-2,2.6025489E-2,-1.7664554E-2],"categories":[],"categories_nodes":[],"categories_segments":[],"categories_sizes":[],"default_left":[0,0,0,0,0,0,0,0,0,0,0,0,0,0,0,0,0,0,0,0,0,0,0,0,0,0,0],"id":11,"left_children":[1,3,5,7,9,11,13,-1,15,17,19,21,-1,23,25,-1,-1,-1,-1,-1,-1,-1,-1,-1,-1,-1,-1],"loss_changes":[6.435378E1,1.5344109E1,1.4282211E1,2.2468452E0,5.7622805E0,9.26651E0,9.3592825E0,0E0,2.2538643E0,3.6800635E0,4.280474E0,7.622616E0,0E0,1.2560635E0,2.6892378E0,0E0,0E0,0E0,0E0,0E0,0E0,0E0,0E0,0E0,0E0,0E0,0E0],"parents":[2147483647,0,0,1,1,2,2,3,3,4,4,5,5,6,6,8,8,9,9,10,10,11,11,13,13,14,14],"right_children":[2,4,6,8,10,12,14,-1,16,18,20,22,-1,24,26,-1,-1,-1,-1,-1,-1,-1,-1,-1,-1,-1,-1],"split_conditions":[6.909519E-1,5.758398E-1,1E1,4.0158108E-1,7.1E0,1E0,1E0,-6.455666E-2,7.5E0,2E0,1E0,4E0,-5.122384E-2,7.6358E-1,1E0,-2.4016535E-2,-5.094219E-2,-2.3429391E-3,3.8936637E-2,-3.7595745E-2,1.8163549E-3,5.9206363E-2,1.781999E-2,-1.5147194E-2,-6.045867E-2,2.6025489E-2,-1.7664554E-2],"split_indices":[97,97,78,97,76,45,70,0,76,87,33,77,0,97,55,0,0,0,0,0,0,0,0,0,0,0,0],"split_type":[0,0,0,0,0,0,0,0,0,0,0,0,0,0,0,0,0,0,0,0,0,0,0,0,0,0,0],"sum_hessian":[1.9476894E2,1.05360245E2,8.940869E1,5.0767967E1,5.4592278E1,6.0146324E1,2.9262363E1,1.3917984E1,3.6849983E1,2.608342E1,2.8508856E1,5.8481724E1,1.6646004E0,7.3950763E0,2.1867287E1,1.9485033E1,1.7364952E1,1.9697891E1,6.3855305E0,1.7762344E1,1.0746512E1,4.195218E1,1.6529545E1,3.5145059E0,3.8805707E0,1.8300821E1,3.566466E0],"tree_param":{"num_deleted":"0","num_feature":"100","num_nodes":"27","size_leaf_vector":"1"}},{"base_weights":[-6.639813E-3,-5.122288E-1,5.8930004E-1,-8.9269197E-1,-1.5253267E-1,1.2550856E0,3.5700867E-1,-6.305066E-2,-7.2572047E-1,1.694048E-1,-4.434446E-1,1.3282303E0,1.1483647E-2,6.1478406E-2,8.5184646E-1,-4.5252662E-2,-1.6972894E-2,-2.2312377E-3,3.7512895E-2,3.1010164E-2,-2.8281195E-2,1.902928E-2,6.829556E-2,1.9965226E-2,-2.3331031E-2,5.2178483E-2,-4.601526E-2],"categories":[],"categories_nodes":[],"categories_segments":[],"categories_sizes":[],"default_left":[0,0,0,0,0,0,0,0,0,0,0,0,0,0,0,0,0,0,0,0,0,0,0,0,0,0,0],"id":12,"left_children":[1,3,5,7,9,11,13,-1,15,17,19,21,-1,23,25,-1,-1,-1,-1,-1,-1,-1,-1,-1,-1,-1,-1],"loss_changes":[5.8752552E1,1.4300034E1,1.3394634E1,2.2248878E0,5.266454E0,1.4015427E0,9.855745E0,0E0,2.2895222E0,3.3945334E0,4.1707926E0,2.3107529E-1,0E0,7.9463825E0,9.541428E0,0E0,0E0,0E0,0E0,0E0,0E0,0E0,0E0,0E0,0E0,0E0,0E0],"parents":[2147483647,0,0,1,1,2,2,3,3,4,4,5,5,6,6,8,8,9,9,10,10,11,11,13,13,14,14],"right_children":[2,4,6,8,10,12,14,-1,16,18,20,22,-1,24,26,-1,-1,-1,-1,-1,-1,-1,-1,-1,-1,-1,-1],"split_conditions":[6.909519E-1,5.758398E-1,5.1E0,4.0158108E-1,7.1E0,1E0,6E0,-6.305066E-2,1E0,2E0,3.993104E-1,1E0,1.1483647E-2,4E0,1E0,-4.5252662E-2,-1.6972894E-2,-2.2312377E-3,3.7512895E-2,3.1010164E-2,-2.8281195E-2,1.902928E-2,6.829556E-2,1.9965226E-2,-2.3331031E-2,5.2178483E-2,-4.601526E-2],"split_indices":[97,97,76,97,76,16,79,0,33,87,99,87,0,77,45,0,0,0,0,0,0,0,0,0,0,0,0],"split_type":[0,0,0,0,0,0,0,0,0,0,0,0,0,0,0,0,0,0,0,0,0,0,0,0,0,0,0],"sum_hessian":[1.9299461E2,1.0448832E2,8.85063E1,5.0058205E1,5.4430115E1,2.175365E1,6.675265E1,1.3570613E1,3.6487595E1,2.6035563E1,2.8394554E1,2.0029589E1,1.7240624E0,4.249672E1,2.425593E1,2.4001263E1,1.2486331E1,1.9699844E1,6.335717E0,2.505595E0,2.588896E1,1.1904664E0,1.8839123E1,2.6066076E1,1.6430641E1,2.2258936E1,1.996993E0],"tree_param":{"num_deleted":"0","num_feature":"100","num_nodes":"27","size_leaf_vector":"1"}},{"base_weights":[-6.263856E-3,-6.947375E-1,4.010175E-1,4.77559E-2,-7.5245595E-1,6.9136614E-1,-1.3303709E-1,-1.0643475E0,-5.1351017E-1,2.654279E-1,9.446392E-1,-7.2664535E-1,4.8381943E-2,-5.645591E-2,-3.0914485E-2,-9.257792E-3,-4.6960633E-2,4.0626016E-2,-1.8980508E-4,-1.206281E-2,5.0782677E-2,1.6051967E-2,-4.9156778E-2,9.585217E-3,-3.932726E-2],"categories":[],"categories_nodes":[],"categories_segments":[],"categories_sizes":[],"default_left":[0,0,0,0,0,0,0,0,0,0,0,0,0,0,0,0,0,0,0,0,0,0,0,0,0],"id":13,"left_children":[1,3,5,-1,7,9,11,13,15,17,19,21,23,-1,-1,-1,-1,-1,-1,-1,-1,-1,-1,-1,-1],"loss_changes":[5.4167004E1,7.5558205E0,1.8914038E1,0E0,4.6650505E0,8.2495575E0,4.729357E0,1.5136719E-1,5.630929E0,4.5356283E0,4.373455E0,3.0742645E0,4.258047E0,0E0,0E0,0E0,0E0,0E0,0E0,0E0,0E0,0E0,0E0,0E0,0E0],"parents":[2147483647,0,0,1,1,2,2,4,4,5,5,6,6,7,7,8,8,9,9,10,10,11,11,12,12],"right_children":[2,4,6,-1,8,10,12,14,16,18,20,22,24,-1,-1,-1,-1,-1,-1,-1,-1,-1,-1,-1,-1],"split_conditions":[6.306224E-1,1E0,6.8E0,4.77559E-2,5E-1,1.685E2,4E0,1E0,7.8E0,5.1E0,1E0,1.6666667E-1,1E0,-5.645591E-2,-3.0914485E-2,-9.257792E-3,-4.6960633E-2,4.0626016E-2,-1.8980508E-4,-1.206281E-2,5.0782677E-2,1.6051967E-2,-4.9156778E-2,9.585217E-3,-3.932726E-2],"split_indices":[97,1,76,0,69,98,79,16,76,76,87,71,19,0,0,0,0,0,0,0,0,0,0,0,0],"split_type":[0,0,0,0,0,0,0,0,0,0,0,0,0,0,0,0,0,0,0,0,0,0,0,0,0],"sum_hessian":[1.9118233E2,7.0798256E1,1.2038408E2,1.8675424E0,6.893072E1,7.779489E1,4.2589188E1,2.8402761E1,4.052795E1,2.9772842E1,4.802205E1,9.26582E0,3.3323368E1,2.3464262E1,4.9385004E0,2.3690136E1,1.6837816E1,9.153641E0,2.06192E1,2.5777605E0,4.5444286E1,1.7728009E0,7.493019E0,2.9098719E1,4.22465E0],"tree_param":{"num_deleted":"0","num_feature":"100","num_nodes":"25","size_leaf_vector":"1"}},{"base_weights":[-6.425467E-3,-3.5927486E-1,7.382794E-1,-8.3830506E-1,-6.2230937E-2,1.0283401E0,4.3963905E-2,-6.070132E-2,-6.7251563E-1,2.1549301E-1,-3.819487E-1,1.0695981E0,-1.4954803E-2,-4.753559E-1,9.702984E-1,-2.0255651E-2,-4.679144E-2,-1.1600541E-2,2.5826646E-2,-3.548431E-2,6.7163343E-3,5.154052E-3,5.5600073E-2,1.0095141E-2,-4.1296374E-2,6.857807E-2,-1.1843668E-2],"categories":[],"categories_nodes":[],"categories_segments":[],"categories_sizes":[],"default_left":[0,0,0,0,0,0,0,0,0,0,0,0,0,0,0,0,0,0,0,0,0,0,0,0,0,0,0],"id":14,"left_children":[1,3,5,7,9,11,13,-1,15,17,19,21,-1,23,25,-1,-1,-1,-1,-1,-1,-1,-1,-1,-1,-1,-1],"loss_changes":[5.0329414E1,1.843835E1,1.2356377E1,2.2767296E0,7.3002763E0,2.6962204E0,9.692739E0,0E0,2.2046757E0,6.0663624E0,6.550178E0,1.6189613E0,0E0,3.2455862E0,3.8233304E0,0E0,0E0,0E0,0E0,0E0,0E0,0E0,0E0,0E0,0E0,0E0,0E0],"parents":[2147483647,0,0,1,1,2,2,3,3,4,4,5,5,6,6,8,8,9,9,10,10,11,11,13,13,14,14],"right_children":[2,4,6,8,10,12,14,-1,16,18,20,22,-1,24,26,-1,-1,-1,-1,-1,-1,-1,-1,-1,-1,-1,-1],"split_conditions":[7.393103E-1,5.758398E-1,1E1,4.0158108E-1,7.1E0,8E0,1.84E2,-6.070132E-2,7.5E0,1.5883333E2,9.4E0,1E0,-1.4954803E-2,2.25E-1,1E0,-2.0255651E-2,-4.679144E-2,-1.1600541E-2,2.5826646E-2,-3.548431E-2,6.7163343E-3,5.154052E-3,5.5600073E-2,1.0095141E-2,-4.1296374E-2,6.857807E-2,-1.1843668E-2],"split_indices":[97,97,78,97,76,80,98,0,76,98,76,87,0,71,19,0,0,0,0,0,0,0,0,0,0,0,0],"split_type":[0,0,0,0,0,0,0,0,0,0,0,0,0,0,0,0,0,0,0,0,0,0,0,0,0,0,0],"sum_hessian":[1.8952565E2,1.289468E2,6.0578857E1,4.8657207E1,8.028959E1,4.238909E1,1.8189764E1,1.2961168E1,3.5696037E1,4.3141E1,3.714859E1,4.1299694E1,1.0893983E0,1.19674425E1,6.2223215E0,1.8969973E1,1.6726067E1,1.7442122E1,2.5698877E1,2.2494314E1,1.4654275E1,1.8799554E0,3.941974E1,4.226489E0,7.7409534E0,4.567808E0,1.6545131E0],"tree_param":{"num_deleted":"0","num_feature":"100","num_nodes":"27","size_leaf_vector":"1"}},{"base_weights":[-6.5111285E-3,-3.451396E-1,7.121556E-1,-8.1120306E-1,-5.9489477E-2,9.956609E-1,4.336762E-2,-5.9445024E-2,-6.4743125E-1,2.0558171E-1,-3.6502007E-1,1.0363824E0,-1.45742195E-2,-4.53141E-1,9.39457E-1,-4.1320633E-2,-1.3570042E-2,4.7225364E-2,1.4089481E-3,-5.2034557E-2,-6.3044773E-3,4.9890685E-3,5.3910322E-2,9.694311E-3,-3.9343115E-2,6.665974E-2,-1.1474453E-2],"categories":[],"categories_nodes":[],"categories_segments":[],"categories_sizes":[],"default_left":[0,0,0,0,0,0,0,0,0,0,0,0,0,0,0,0,0,0,0,0,0,0,0,0,0,0,0],"id":15,"left_children":[1,3,5,7,9,11,13,-1,15,17,19,21,-1,23,25,-1,-1,-1,-1,-1,-1,-1,-1,-1,-1,-1,-1],"loss_changes":[4.6180393E1,1.7121883E1,1.1480862E1,2.2568855E0,6.6383996E0,2.5370064E0,8.941401E0,0E0,2.2205667E0,5.7456603E0,6.004726E0,1.5200691E0,0E0,2.9575675E0,3.596549E0,0E0,0E0,0E0,0E0,0E0,0E0,0E0,0E0,0E0,0E0,0E0,0E0],"parents":[2147483647,0,0,1,1,2,2,3,3,4,4,5,5,6,6,8,8,9,9,10,10,11,11,13,13,14,14],"right_children":[2,4,6,8,10,12,14,-1,16,18,20,22,-1,24,26,-1,-1,-1,-1,-1,-1,-1,-1,-1,-1,-1,-1],"split_conditions":[7.393103E-1,5.758398E-1,1E1,4.0158108E-1,7.1E0,8E0,1.84E2,-5.9445024E-2,1E0,4E0,4E0,1E0,-1.45742195E-2,2.25E-1,1E0,-4.1320633E-2,-1.3570042E-2,4.7225364E-2,1.4089481E-3,-5.2034557E-2,-6.3044773E-3,4.9890685E-3,5.3910322E-2,9.694311E-3,-3.9343115E-2,6.665974E-2,-1.1474453E-2],"split_indices":[97,97,78,97,76,80,98,0,33,79,79,87,0,71,19,0,0,0,0,0,0,0,0,0,0,0,0],"split_type":[0,0,0,0,0,0,0,0,0,0,0,0,0,0,0,0,0,0,0,0,0,0,0,0,0,0,0],"sum_hessian":[1.8775089E2,1.2797168E2,5.977921E1,4.792992E1,8.0041756E1,4.163921E1,1.8139997E1,1.26035595E1,3.5326363E1,4.3033787E1,3.7007973E1,4.055111E1,1.0881003E0,1.1990544E1,6.149454E0,2.3122759E1,1.2203602E1,7.494266E0,3.553952E1,8.791341E0,2.8216633E1,1.8781317E0,3.8672977E1,4.222626E0,7.767918E0,4.494915E0,1.6545389E0],"tree_param":{"num_deleted":"0","num_feature":"100","num_nodes":"27","size_leaf_vector":"1"}},{"base_weights":[-6.508466E-3,-4.435459E-1,5.119576E-1,-8.607695E-1,-1.8047228E-1,1.16046E0,2.945658E-1,8.75198E-3,-9.0772665E-1,9.491502E-1,-2.458205E-1,1.2358408E0,8.563652E-3,3.279367E-2,7.473499E-1,-5.8261897E-2,-3.6880985E-2,4.527024E-3,6.3011356E-2,5.1892153E-3,-2.767822E-2,2.0035936E-2,6.396901E-2,1.7357392E-2,-2.2722526E-2,4.7102455E-2,-4.6528716E-2],"categories":[],"categories_nodes":[],"categories_segments":[],"categories_sizes":[],"default_left":[0,0,0,0,0,0,0,0,0,0,0,0,0,0,0,0,0,0,0,0,0,0,0,0,0,0,0],"id":16,"left_children":[1,3,5,7,9,11,13,-1,15,17,19,21,-1,23,25,-1,-1,-1,-1,-1,-1,-1,-1,-1,-1,-1,-1],"loss_changes":[4.2589676E1,1.1038147E1,1.17790985E1,2.0641193E0,4.9436874E0,1.3724957E0,7.7664123E0,0E0,7.890396E-1,8.728683E-1,6.6326966E0,1.9926643E-1,0E0,6.6975784E0,8.728445E0,0E0,0E0,0E0,0E0,0E0,0E0,0E0,0E0,0E0,0E0,0E0,0E0],"parents":[2147483647,0,0,1,1,2,2,3,3,4,4,5,5,6,6,8,8,9,9,10,10,11,11,13,13,14,14],"right_children":[2,4,6,8,10,12,14,-1,16,18,20,22,-1,24,26,-1,-1,-1,-1,-1,-1,-1,-1,-1,-1,-1,-1],"split_conditions":[6.909519E-1,5.440206E-1,5.1E0,3.9931136E-1,1E0,1E0,6E0,8.75198E-3,4.0158108E-1,5E0,7.1E0,3.2E0,8.563652E-3,4E0,1E0,-5.8261897E-2,-3.6880985E-2,4.527024E-3,6.3011356E-2,5.1892153E-3,-2.767822E-2,2.0035936E-2,6.396901E-2,1.7357392E-2,-2.2722526E-2,4.7102455E-2,-4.6528716E-2],"split_indices":[97,97,76,99,1,16,79,0,97,79,76,76,0,77,45,0,0,0,0,0,0,0,0,0,0,0,0],"split_type":[0,0,0,0,0,0,0,0,0,0,0,0,0,0,0,0,0,0,0,0,0,0,0,0,0,0,0],"sum_hessian":[1.8595781E2,1.0098103E2,8.4976776E1,3.8171185E1,6.2809845E1,2.0245178E1,6.47316E1,1.5371078E0,3.663408E1,2.6952205E0,6.0114624E1,1.8579948E1,1.66523E0,4.169723E1,2.3034365E1,1.2245929E1,2.438815E1,1.0601457E0,1.6350747E0,2.8453493E1,3.166113E1,1.4262801E0,1.715367E1,2.5520048E1,1.6177181E1,2.1032415E1,2.001949E0],"tree_param":{"num_deleted":"0","num_feature":"100","num_nodes":"27","size_leaf_vector":"1"}},{"base_weights":[-5.965679E-3,-3.2050997E-1,6.681258E-1,-7.615186E-1,-5.625346E-2,9.462138E-1,2.809808E-2,-5.7143807E-2,-6.0196435E-1,-2.965664E-1,2.6421595E-1,9.865203E-1,-1.4195032E-2,-4.4531283E-1,8.962703E-1,-1.6935332E-2,-4.3326337E-2,-2.2387084E-2,1.5531224E-2,2.0490237E-2,-2.8610274E-2,3.9875517E-3,5.1414646E-2,1.2476226E-2,-3.6362074E-2,6.4410135E-2,-1.1782932E-2],"categories":[],"categories_nodes":[],"categories_segments":[],"categories_sizes":[],"default_left":[0,0,0,0,0,0,0,0,0,0,0,0,0,0,0,0,0,0,0,0,0,0,0,0,0,0,0],"id":17,"left_children":[1,3,5,7,9,11,13,-1,15,17,19,21,-1,23,25,-1,-1,-1,-1,-1,-1,-1,-1,-1,-1,-1,-1],"loss_changes":[3.946838E1,1.4746886E1,1.0514759E1,2.2005272E0,6.272983E0,2.325653E0,8.1957E0,0E0,2.184682E0,4.4017177E0,4.4963584E0,1.4395981E0,0E0,2.7170887E0,3.4205222E0,0E0,0E0,0E0,0E0,0E0,0E0,0E0,0E0,0E0,0E0,0E0,0E0],"parents":[2147483647,0,0,1,1,2,2,3,3,4,4,5,5,6,6,8,8,9,9,10,10,11,11,13,13,14,14],"right_children":[2,4,6,8,10,12,14,-1,16,18,20,22,-1,24,26,-1,-1,-1,-1,-1,-1,-1,-1,-1,-1,-1,-1],"split_conditions":[7.393103E-1,5.758398E-1,1E1,4.0158108E-1,1E0,8E0,1.84E2,-5.7143807E-2,7.5E0,6E0,2E0,1E0,-1.4195032E-2,9.187135E-1,1E0,-1.6935332E-2,-4.3326337E-2,-2.2387084E-2,1.5531224E-2,2.0490237E-2,-2.8610274E-2,3.9875517E-3,5.1414646E-2,1.2476226E-2,-3.6362074E-2,6.4410135E-2,-1.1782932E-2],"split_indices":[97,97,78,97,33,80,98,0,76,79,96,87,0,99,19,0,0,0,0,0,0,0,0,0,0,0,0],"split_type":[0,0,0,0,0,0,0,0,0,0,0,0,0,0,0,0,0,0,0,0,0,0,0,0,0,0,0],"sum_hessian":[1.8413388E2,1.259075E2,5.8226376E1,4.647134E1,7.943616E1,4.0256702E1,1.7969675E1,1.1889878E1,3.4581463E1,4.543788E1,3.399828E1,3.9171223E1,1.0854772E0,1.1943824E1,6.0258517E0,1.8476414E1,1.610505E1,3.6590393E1,8.8474865E0,2.9392265E1,4.6060123E0,1.8531667E0,3.7318058E1,3.4805777E0,8.463246E0,4.3734703E0,1.6523814E0],"tree_param":{"num_deleted":"0","num_feature":"100","num_nodes":"27","size_leaf_vector":"1"}},{"base_weights":[-6.0263122E-3,-3.076562E-1,6.4550257E-1,-8.117398E-1,-9.022825E-2,9.17368E-1,2.8484263E-2,9.377471E-3,-8.589041E-1,-3.3218744E-1,2.179352E-1,9.572357E-1,-1.3835469E-2,-4.2481807E-1,8.697011E-1,-5.6083687E-2,-3.457373E-2,8.553638E-5,-3.1156868E-2,-2.9737202E-3,2.866356E-2,3.8601246E-3,4.9928434E-2,9.384758E-3,-3.7033975E-2,6.279308E-2,-1.1415924E-2],"categories":[],"categories_nodes":[],"categories_segments":[],"categories_sizes":[],"default_left":[0,0,0,0,0,0,0,0,0,0,0,0,0,0,0,0,0,0,0,0,0,0,0,0,0,0,0],"id":18,"left_children":[1,3,5,7,9,11,13,-1,15,17,19,21,-1,23,25,-1,-1,-1,-1,-1,-1,-1,-1,-1,-1,-1,-1],"loss_changes":[3.6252743E1,1.3745631E1,9.766878E0,1.9459286E0,6.7243447E0,2.192524E0,7.571788E0,0E0,8.2328796E-1,4.8944435E0,3.961462E0,1.3563652E0,0E0,2.6435888E0,3.230245E0,0E0,0E0,0E0,0E0,0E0,0E0,0E0,0E0,0E0,0E0,0E0,0E0],"parents":[2147483647,0,0,1,1,2,2,3,3,4,4,5,5,6,6,8,8,9,9,10,10,11,11,13,13,14,14],"right_children":[2,4,6,8,10,12,14,-1,16,18,20,22,-1,24,26,-1,-1,-1,-1,-1,-1,-1,-1,-1,-1,-1,-1],"split_conditions":[7.393103E-1,5.440206E-1,1E1,3.9931136E-1,1E0,8E0,1.84E2,9.377471E-3,4.0158108E-1,7.1E0,1.685E2,1E0,-1.3835469E-2,2.25E-1,1E0,-5.6083687E-2,-3.457373E-2,8.553638E-5,-3.1156868E-2,-2.9737202E-3,2.866356E-2,3.8601246E-3,4.9928434E-2,9.384758E-3,-3.7033975E-2,6.279308E-2,-1.1415924E-2],"split_indices":[97,97,78,99,33,80,98,0,97,76,98,87,0,71,19,0,0,0,0,0,0,0,0,0,0,0,0],"split_type":[0,0,0,0,0,0,0,0,0,0,0,0,0,0,0,0,0,0,0,0,0,0,0,0,0,0,0],"sum_hessian":[1.8246248E2,1.2508246E2,5.7380016E1,3.6869972E1,8.821249E1,3.949242E1,1.7887596E1,1.5276012E0,3.5342373E1,4.9370518E1,3.884197E1,3.840839E1,1.0840282E0,1.1945552E1,5.942044E0,1.1536779E1,2.3805592E1,2.3451439E1,2.5919079E1,2.2280378E1,1.656159E1,1.8516711E0,3.655672E1,4.2022963E0,7.743255E0,4.289667E0,1.652377E0],"tree_param":{"num_deleted":"0","num_feature":"100","num_nodes":"27","size_leaf_vector":"1"}},{"base_weights":[-5.8811107E-3,-5.6754637E-1,3.2078928E-1,4.702842E-2,-6.2473434E-1,9.8285127E-1,1.387169E-1,-9.378903E-1,-3.963074E-1,3.9802635E-1,1.1761259E0,-9.488647E-2,4.8111072E-1,-5.0415225E-2,-2.4032196E-2,-4.693586E-3,-4.038333E-2,-2.0017363E-2,3.9409507E-2,1.7125018E-2,6.1136603E-2,-4.3389197E-2,3.4863732E-3,7.6860758E-3,4.5656122E-2],"categories":[],"categories_nodes":[],"categories_segments":[],"categories_sizes":[],"default_left":[0,0,0,0,0,0,0,0,0,0,0,0,0,0,0,0,0,0,0,0,0,0,0,0,0],"id":19,"left_children":[1,3,5,-1,7,9,11,13,15,17,19,21,23,-1,-1,-1,-1,-1,-1,-1,-1,-1,-1,-1,-1],"loss_changes":[3.352314E1,6.38196E0,1.379022E1,0E0,4.3015957E0,2.329956E0,7.386362E0,3.7897682E-1,4.8392706E0,2.7017589E0,2.8422165E-1,7.1078615E0,5.1473675E0,0E0,0E0,0E0,0E0,0E0,0E0,0E0,0E0,0E0,0E0,0E0,0E0],"parents":[2147483647,0,0,1,1,2,2,4,4,5,5,6,6,7,7,8,8,9,9,10,10,11,11,12,12],"right_children":[2,4,6,-1,8,10,12,14,16,18,20,22,24,-1,-1,-1,-1,-1,-1,-1,-1,-1,-1,-1,-1],"split_conditions":[6.306224E-1,1E0,5.1E0,4.702842E-2,5E-1,7.1248007E-1,7.5423574E-1,1E0,7.8E0,1E0,3.2E0,6E0,1.852E2,-5.0415225E-2,-2.4032196E-2,-4.693586E-3,-4.038333E-2,-2.0017363E-2,3.9409507E-2,1.7125018E-2,6.1136603E-2,-4.3389197E-2,3.4863732E-3,7.6860758E-3,4.5656122E-2],"split_indices":[97,1,76,0,69,97,97,16,76,33,76,80,98,0,0,0,0,0,0,0,0,0,0,0,0],"split_type":[0,0,0,0,0,0,0,0,0,0,0,0,0,0,0,0,0,0,0,0,0,0,0,0,0],"sum_hessian":[1.8071565E2,6.618397E1,1.14531685E2,1.8536658E0,6.43303E1,2.375484E1,9.077685E1,2.582303E1,3.850727E1,6.660469E0,1.7094372E1,5.439078E1,3.6386063E1,2.1332706E1,4.4903245E0,2.2899508E1,1.5607765E1,2.1778789E0,4.48259E0,1.347158E0,1.5747214E1,8.800223E0,4.5590557E1,2.147079E1,1.4915271E1],"tree_param":{"num_deleted":"0","num_feature":"100","num_nodes":"25","size_leaf_vector":"1"}},{"base_weights":[-5.3990856E-3,-5.466997E-1,3.080169E-1,4.5556493E-2,-6.025837E-1,9.5773494E-1,1.3241431E-1,-9.110635E-1,-3.802868E-1,3.8255778E-1,1.1522076E0,-9.088214E-2,4.6213084E-1,-4.902133E-2,-2.3247877E-2,-4.473077E-3,-3.9065298E-2,-1.9282805E-2,3.8108263E-2,1.671694E-2,5.9937235E-2,-4.14567E-2,3.316373E-3,-3.7826907E-2,2.8240442E-2],"categories":[],"categories_nodes":[],"categories_segments":[],"categories_sizes":[],"default_left":[0,0,0,0,0,0,0,0,0,0,0,0,0,0,0,0,0,0,0,0,0,0,0,0,0],"id":20,"left_children":[1,3,5,-1,7,9,11,13,15,17,19,21,23,-1,-1,-1,-1,-1,-1,-1,-1,-1,-1,-1,-1],"loss_changes":[3.0732193E1,5.9603615E0,1.296343E1,0E0,4.081455E0,2.271883E0,6.777362E0,3.5878372E-1,4.507041E0,2.517481E0,2.7010155E-1,6.4823275E0,5.0700574E0,0E0,0E0,0E0,0E0,0E0,0E0,0E0,0E0,0E0,0E0,0E0,0E0],"parents":[2147483647,0,0,1,1,2,2,4,4,5,5,6,6,7,7,8,8,9,9,10,10,11,11,12,12],"right_children":[2,4,6,-1,8,10,12,14,16,18,20,22,24,-1,-1,-1,-1,-1,-1,-1,-1,-1,-1,-1,-1],"split_conditions":[6.306224E-1,1E0,5.1E0,4.5556493E-2,5E-1,7.1248007E-1,7.5423574E-1,1E0,7.8E0,1E0,3.2E0,6E0,1E0,-4.902133E-2,-2.3247877E-2,-4.473077E-3,-3.9065298E-2,-1.9282805E-2,3.8108263E-2,1.671694E-2,5.9937235E-2,-4.14567E-2,3.316373E-3,-3.7826907E-2,2.8240442E-2],"split_indices":[97,1,76,0,69,97,97,16,76,33,76,80,87,0,0,0,0,0,0,0,0,0,0,0,0],"split_type":[0,0,0,0,0,0,0,0,0,0,0,0,0,0,0,0,0,0,0,0,0,0,0,0,0],"sum_hessian":[1.7915558E2,6.5421616E1,1.1373396E2,1.8502692E0,6.3571342E1,2.3251383E1,9.048258E1,2.5326935E1,3.8244408E1,6.624819E0,1.6626564E1,5.437926E1,3.610332E1,2.0882296E1,4.44464E0,2.2876848E1,1.53675585E1,2.1856904E0,4.4391284E0,1.3357446E0,1.529082E1,8.796601E0,4.558266E1,2.31064E0,3.379268E1],"tree_param":{"num_deleted":"0","num_feature":"100","num_nodes":"25","size_leaf_vector":"1"}},{"base_weights":[-5.2857683E-3,-5.2667046E-1,2.9525167E-1,4.415871E-2,-5.812716E-1,9.337619E-1,1.2572244E-1,-8.8524425E-1,-3.6492032E-1,3.6781856E-1,1.1295775E0,-4.7453076E-2,5.318155E-1,-3.0154137E-2,-5.0944235E-2,-3.2163837E-3,-3.680156E-2,-1.8578388E-2,3.6862433E-2,1.631912E-2,5.88074E-2,-2.0688822E-2,8.662899E-3,3.7526082E-2,-4.697152E-2],"categories":[],"categories_nodes":[],"categories_segments":[],"categories_sizes":[],"default_left":[0,0,0,0,0,0,0,0,0,0,0,0,0,0,0,0,0,0,0,0,0,0,0,0,0],"id":21,"left_children":[1,3,5,-1,7,9,11,13,15,17,19,21,23,-1,-1,-1,-1,-1,-1,-1,-1,-1,-1,-1,-1],"loss_changes":[2.8141083E1,5.568121E0,1.2215556E1,0E0,3.8739967E0,2.2163067E0,6.437935E0,3.5970688E-1,4.3014717E0,2.3464746E0,2.5802422E-1,5.3144E0,9.503072E0,0E0,0E0,0E0,0E0,0E0,0E0,0E0,0E0,0E0,0E0,0E0,0E0],"parents":[2147483647,0,0,1,1,2,2,4,4,5,5,6,6,7,7,8,8,9,9,10,10,11,11,12,12],"right_children":[2,4,6,-1,8,10,12,14,16,18,20,22,24,-1,-1,-1,-1,-1,-1,-1,-1,-1,-1,-1,-1],"split_conditions":[6.306224E-1,1E0,5.1E0,4.415871E-2,5E-1,7.1248007E-1,6E0,1E0,4E0,1E0,3.2E0,1E0,1E0,-3.0154137E-2,-5.0944235E-2,-3.2163837E-3,-3.680156E-2,-1.8578388E-2,3.6862433E-2,1.631912E-2,5.88074E-2,-2.0688822E-2,8.662899E-3,3.7526082E-2,-4.697152E-2],"split_indices":[97,1,76,0,69,97,79,73,77,33,76,60,45,0,0,0,0,0,0,0,0,0,0,0,0],"split_type":[0,0,0,0,0,0,0,0,0,0,0,0,0,0,0,0,0,0,0,0,0,0,0,0,0],"sum_hessian":[1.7759836E2,6.466406E1,1.129343E2,1.8451725E0,6.281889E1,2.2748188E1,9.018611E1,2.483463E1,3.798426E1,6.5874977E0,1.616069E1,6.384361E1,2.6342505E1,9.753763E0,1.5080866E1,2.1634264E1,1.6349997E1,2.1928625E0,4.394635E0,1.324556E0,1.4836134E1,2.3674805E1,4.0168804E1,2.3359852E1,2.9826539E0],"tree_param":{"num_deleted":"0","num_feature":"100","num_nodes":"25","size_leaf_vector":"1"}},{"base_weights":[-5.0697345E-3,-2.6348272E-1,5.6498003E-1,-7.2805196E-1,-7.293893E-2,8.3716846E-1,-2.092048E-2,1.1652917E-2,-7.7694654E-1,1.8920844E-2,-8.207733E-1,8.775267E-1,-1.3900709E-2,-4.4502014E-1,7.9352087E-1,-5.3092815E-2,-3.0271217E-2,1.4187539E-2,-1.2802951E-2,2.5246153E-2,-5.4135736E-2,1.4833423E-3,4.5989677E-2,1.1000089E-2,-3.5580304E-2,5.9575465E-2,-1.3459827E-2],"categories":[],"categories_nodes":[],"categories_segments":[],"categories_sizes":[],"default_left":[0,0,0,0,0,0,0,0,0,0,0,0,0,0,0,0,0,0,0,0,0,0,0,0,0,0,0],"id":22,"left_children":[1,3,5,7,9,11,13,-1,15,17,19,21,-1,23,25,-1,-1,-1,-1,-1,-1,-1,-1,-1,-1,-1,-1],"loss_changes":[2.62154E1,1.0785342E1,8.87043E0,1.8493748E0,6.0565476E0,1.9509983E0,6.772278E0,0E0,1.0192909E0,5.8472104E0,3.8951678E0,1.2930794E0,0E0,2.4367068E0,3.1642241E0,0E0,0E0,0E0,0E0,0E0,0E0,0E0,0E0,0E0,0E0,0E0,0E0],"parents":[2147483647,0,0,1,1,2,2,3,3,4,4,5,5,6,6,8,8,9,9,10,10,11,11,13,13,14,14],"right_children":[2,4,6,8,10,12,14,-1,16,18,20,22,-1,24,26,-1,-1,-1,-1,-1,-1,-1,-1,-1,-1,-1,-1],"split_conditions":[7.393103E-1,5.440206E-1,1E1,3.9931136E-1,1E0,8E0,1.84E2,1.1652917E-2,4.0158108E-1,7.1E0,1E-1,1E0,-1.3900709E-2,9.187135E-1,1E0,-5.3092815E-2,-3.0271217E-2,1.4187539E-2,-1.2802951E-2,2.5246153E-2,-5.4135736E-2,1.4833423E-3,4.5989677E-2,1.1000089E-2,-3.5580304E-2,5.9575465E-2,-1.3459827E-2],"split_indices":[97,97,78,99,19,80,98,0,97,76,71,87,0,99,19,0,0,0,0,0,0,0,0,0,0,0,0],"split_type":[0,0,0,0,0,0,0,0,0,0,0,0,0,0,0,0,0,0,0,0,0,0,0,0,0,0,0],"sum_hessian":[1.7595232E2,1.2143955E2,5.4512768E1,3.4500988E1,8.693857E1,3.692833E1,1.7584438E1,1.4878616E0,3.3013126E1,7.8295845E1,8.642722E0,3.5844242E1,1.0840865E0,1.1861468E1,5.72297E0,1.0455334E1,2.255779E1,3.9867764E1,3.8428078E1,1.2729005E0,7.3698215E0,1.7828425E0,3.4061398E1,3.4442444E0,8.417224E0,4.0755014E0,1.6474689E0],"tree_param":{"num_deleted":"0","num_feature":"100","num_nodes":"27","size_leaf_vector":"1"}},{"base_weights":[-5.086142E-3,-2.5307187E-1,5.462014E-1,-7.063722E-1,-6.9832236E-2,8.123466E-1,-1.8653959E-2,1.1277734E-2,-7.5481784E-1,1.8039301E-2,-7.8793037E-1,8.5232687E-1,-1.3549179E-2,-4.2471075E-1,7.7154136E-1,-5.2212566E-2,-2.9197413E-2,1.3529132E-2,-1.2212962E-2,2.462419E-2,-5.2098837E-2,1.4361492E-3,4.4712372E-2,8.054535E-3,-3.613841E-2,5.8259644E-2,-1.3038488E-2],"categories":[],"categories_nodes":[],"categories_segments":[],"categories_sizes":[],"default_left":[0,0,0,0,0,0,0,0,0,0,0,0,0,0,0,0,0,0,0,0,0,0,0,0,0,0,0],"id":23,"left_children":[1,3,5,7,9,11,13,-1,15,17,19,21,-1,23,25,-1,-1,-1,-1,-1,-1,-1,-1,-1,-1,-1,-1],"loss_changes":[2.4095457E1,1.004712E1,8.236458E0,1.7450657E0,5.546284E0,1.8419476E0,6.2611747E0,0E0,1.0414143E0,5.3051634E0,3.6296372E0,1.2211246E0,0E0,2.3618505E0,2.9989185E0,0E0,0E0,0E0,0E0,0E0,0E0,0E0,0E0,0E0,0E0,0E0,0E0],"parents":[2147483647,0,0,1,1,2,2,3,3,4,4,5,5,6,6,8,8,9,9,10,10,11,11,13,13,14,14],"right_children":[2,4,6,8,10,12,14,-1,16,18,20,22,-1,24,26,-1,-1,-1,-1,-1,-1,-1,-1,-1,-1,-1,-1],"split_conditions":[7.393103E-1,5.440206E-1,1E1,3.9931136E-1,1E0,8E0,1.84E2,1.1277734E-2,4.0158108E-1,7.1E0,1E-1,1E0,-1.3549179E-2,2.25E-1,1E0,-5.2212566E-2,-2.9197413E-2,1.3529132E-2,-1.2212962E-2,2.462419E-2,-5.2098837E-2,1.4361492E-3,4.4712372E-2,8.054535E-3,-3.613841E-2,5.8259644E-2,-1.3038488E-2],"split_indices":[97,97,78,99,19,80,98,0,97,76,71,87,0,71,19,0,0,0,0,0,0,0,0,0,0,0,0],"split_type":[0,0,0,0,0,0,0,0,0,0,0,0,0,0,0,0,0,0,0,0,0,0,0,0,0,0,0],"sum_hessian":[1.7423938E2,1.20552284E2,5.36871E1,3.3881336E1,8.6670944E1,3.619487E1,1.7492228E1,1.4936095E0,3.2387726E1,7.8090164E1,8.580782E0,3.5112286E1,1.0825851E0,1.1860176E1,5.6320515E0,1.0125274E1,2.2262453E1,3.9768814E1,3.8321346E1,1.265252E0,7.3155303E0,1.7822376E0,3.3330048E1,4.1544876E0,7.705689E0,3.984079E0,1.6479723E0],"tree_param":{"num_deleted":"0","num_feature":"100","num_nodes":"27","size_leaf_vector":"1"}},{"base_weights":[-5.1191174E-3,-2.4307653E-1,5.279486E-1,-6.853338E-1,-6.686045E-2,7.88326E-1,-1.6717408E-2,1.0915281E-2,-7.333247E-1,-2.865828E-1,2.1344693E-1,8.279359E-1,-1.32071525E-2,-4.054731E-1,7.5062233E-1,-5.1365018E-2,-2.8158758E-2,2.5529778E-4,-2.7291149E-2,-3.1405028E-2,1.5450977E-2,1.3904497E-3,4.347609E-2,1.1366977E-2,-3.30712E-2,5.701681E-2,-1.2631002E-2],"categories":[],"categories_nodes":[],"categories_segments":[],"categories_sizes":[],"default_left":[0,0,0,0,0,0,0,0,0,0,0,0,0,0,0,0,0,0,0,0,0,0,0,0,0,0,0],"id":24,"left_children":[1,3,5,7,9,11,13,-1,15,17,19,21,-1,23,25,-1,-1,-1,-1,-1,-1,-1,-1,-1,-1,-1,-1],"loss_changes":[2.2143469E1,9.358889E0,7.6542234E0,1.6464901E0,5.444228E0,1.7392082E0,5.794846E0,0E0,1.0609093E0,3.740003E0,3.3291402E0,1.1534691E0,0E0,2.2341948E0,2.8450084E0,0E0,0E0,0E0,0E0,0E0,0E0,0E0,0E0,0E0,0E0,0E0,0E0],"parents":[2147483647,0,0,1,1,2,2,3,3,4,4,5,5,6,6,8,8,9,9,10,10,11,11,13,13,14,14],"right_children":[2,4,6,8,10,12,14,-1,16,18,20,22,-1,24,26,-1,-1,-1,-1,-1,-1,-1,-1,-1,-1,-1,-1],"split_conditions":[7.393103E-1,5.440206E-1,1E1,3.9931136E-1,1E0,8E0,1.84E2,1.0915281E-2,4.0158108E-1,7.1E0,1E0,1E0,-1.32071525E-2,9.187135E-1,1E0,-5.1365018E-2,-2.8158758E-2,2.5529778E-4,-2.7291149E-2,-3.1405028E-2,1.5450977E-2,1.3904497E-3,4.347609E-2,1.1366977E-2,-3.30712E-2,5.701681E-2,-1.2631002E-2],"split_indices":[97,97,78,99,33,80,98,0,97,76,87,87,0,99,19,0,0,0,0,0,0,0,0,0,0,0,0],"split_type":[0,0,0,0,0,0,0,0,0,0,0,0,0,0,0,0,0,0,0,0,0,0,0,0,0,0,0],"sum_hessian":[1.7255608E2,1.1967711E2,5.2878956E1,3.3275345E1,8.640177E1,3.5473503E1,1.7405455E1,1.4991105E0,3.1776234E1,4.8422676E1,3.797909E1,3.4392475E1,1.0810266E0,1.1865598E1,5.5398564E0,9.802443E0,2.1973791E1,2.3246622E1,2.5176054E1,3.305055E0,3.4674038E1,1.7816507E0,3.2610825E1,3.4493103E0,8.416287E0,3.8915257E0,1.6483307E0],"tree_param":{"num_deleted":"0","num_feature":"100","num_nodes":"27","size_leaf_vector":"1"}},{"base_weights":[-5.219708E-3,-4.6192077E-1,2.5540903E-1,4.3284874E-2,-5.160132E-1,8.7162846E-1,9.813551E-2,-8.172888E-1,-3.094061E-1,3.3129498E-1,1.0728636E0,-4.787071E-1,2.0861234E-1,-2.6325991E-2,-4.7940653E-2,-1.9099743E-3,-3.493033E-2,-1.8381363E-2,3.4509737E-2,1.2757115E-2,5.620056E-2,-3.970301E-2,6.3645467E-3,2.3081563E-2,-4.183156E-3],"categories":[],"categories_nodes":[],"categories_segments":[],"categories_sizes":[],"default_left":[0,0,0,0,0,0,0,0,0,0,0,0,0,0,0,0,0,0,0,0,0,0,0,0,0],"id":25,"left_children":[1,3,5,-1,7,9,11,13,15,17,19,21,23,-1,-1,-1,-1,-1,-1,-1,-1,-1,-1,-1,-1],"loss_changes":[2.0586506E1,4.9591684E0,1.0587383E1,0E0,3.5442314E0,2.0655384E0,5.7628107E0,4.912815E-1,3.9627678E0,2.1322196E0,3.730545E-1,2.8886535E0,5.605286E0,0E0,0E0,0E0,0E0,0E0,0E0,0E0,0E0,0E0,0E0,0E0,0E0],"parents":[2147483647,0,0,1,1,2,2,4,4,5,5,6,6,7,7,8,8,9,9,10,10,11,11,12,12],"right_children":[2,4,6,-1,8,10,12,14,16,18,20,22,24,-1,-1,-1,-1,-1,-1,-1,-1,-1,-1,-1,-1],"split_conditions":[6.306224E-1,1E0,5.1E0,4.3284874E-2,5E-1,7.1248007E-1,6E0,1E0,7.8E0,1E0,3.2E0,7.440561E-1,1E0,-2.6325991E-2,-4.7940653E-2,-1.9099743E-3,-3.493033E-2,-1.8381363E-2,3.4509737E-2,1.2757115E-2,5.620056E-2,-3.970301E-2,6.3645467E-3,2.3081563E-2,-4.183156E-3],"split_indices":[97,1,76,0,69,97,80,73,76,33,76,97,13,0,0,0,0,0,0,0,0,0,0,0,0],"split_type":[0,0,0,0,0,0,0,0,0,0,0,0,0,0,0,0,0,0,0,0,0,0,0,0,0],"sum_hessian":[1.7096191E2,6.183529E1,1.09126625E2,1.833391E0,6.00019E1,2.1265059E1,8.7861565E1,2.3206415E1,3.6795483E1,6.4886894E0,1.477637E1,1.3586749E1,7.427482E1,9.142671E0,1.4063744E1,2.2332012E1,1.4463472E1,2.1932437E0,4.2954454E0,1.2223532E0,1.3554017E1,8.732264E0,4.854486E0,3.950041E1,3.477441E1],"tree_param":{"num_deleted":"0","num_feature":"100","num_nodes":"25","size_leaf_vector":"1"}},{"base_weights":[-4.9711787E-3,-2.2599335E-1,4.9590597E-1,-6.487166E-1,-6.1766744E-2,7.5151074E-1,-2.5024962E-2,-1.0005819E0,-4.704022E-1,2.283032E-2,-7.5594884E-1,4.6027726E-1,9.5662963E-1,-3.9674404E-1,7.21476E-1,-1.5451672E-2,-5.3731527E-2,-3.7547603E-2,-5.4397024E-3,1.2507449E-2,-1.0706108E-2,2.3582453E-2,-4.994275E-2,-1.9526521E-3,4.0545024E-2,6.2098345E-3,5.160259E-2,1.1914383E-2,-3.2098368E-2,5.5622797E-2,-1.2824862E-2],"categories":[],"categories_nodes":[],"categories_segments":[],"categories_sizes":[],"default_left":[0,0,0,0,0,0,0,0,0,0,0,0,0,0,0,0,0,0,0,0,0,0,0,0,0,0,0,0,0,0,0],"id":26,"left_children":[1,3,5,7,9,11,13,15,17,19,21,23,25,27,29,-1,-1,-1,-1,-1,-1,-1,-1,-1,-1,-1,-1,-1,-1,-1,-1],"loss_changes":[1.8995293E1,8.223675E0,7.0142126E0,1.6124134E0,5.116718E0,1.6669846E0,5.3534093E0,1.9427395E-1,2.345117E0,4.275029E0,3.2925992E0,2.9213493E0,1.1131096E0,2.1518137E0,2.7420816E0,0E0,0E0,0E0,0E0,0E0,0E0,0E0,0E0,0E0,0E0,0E0,0E0,0E0,0E0,0E0,0E0],"parents":[2147483647,0,0,1,1,2,2,3,3,4,4,5,5,6,6,7,7,8,8,9,9,10,10,11,11,12,12,13,13,14,14],"right_children":[2,4,6,8,10,12,14,16,18,20,22,24,26,28,30,-1,-1,-1,-1,-1,-1,-1,-1,-1,-1,-1,-1,-1,-1,-1,-1],"split_conditions":[7.393103E-1,5.440206E-1,1E1,4.0158108E-1,1E0,1.7875E2,1.84E2,2.887779E-1,5E-1,7.1E0,1E-1,1E0,3.9931095E-1,1E-1,1E0,-1.5451672E-2,-5.3731527E-2,-3.7547603E-2,-5.4397024E-3,1.2507449E-2,-1.0706108E-2,2.3582453E-2,-4.994275E-2,-1.9526521E-3,4.0545024E-2,6.2098345E-3,5.160259E-2,1.1914383E-2,-3.2098368E-2,5.5622797E-2,-1.2824862E-2],"split_indices":[97,97,78,97,19,98,98,97,71,76,71,60,99,71,19,0,0,0,0,0,0,0,0,0,0,0,0,0,0,0,0],"split_type":[0,0,0,0,0,0,0,0,0,0,0,0,0,0,0,0,0,0,0,0,0,0,0,0,0,0,0,0,0,0,0],"sum_hessian":[1.695725E2,1.1803567E2,5.1536823E1,3.2200546E1,8.583512E1,3.427601E1,1.7260813E1,9.279032E0,2.2921516E1,7.73731E1,8.462024E0,1.550522E1,1.8770788E1,1.1835747E1,5.425065E0,1.3978386E0,7.8811936E0,1.2301122E1,1.0620395E1,3.9460888E1,3.7912212E1,1.2422506E0,7.219773E0,6.7627935E0,8.742427E0,1.7793065E0,1.6991482E1,3.3051066E0,8.530641E0,3.7774012E0,1.6476638E0],"tree_param":{"num_deleted":"0","num_feature":"100","num_nodes":"31","size_leaf_vector":"1"}},{"base_weights":[-4.841401E-3,-2.1741855E-1,4.8045924E-1,-6.3026875E-1,-5.9156302E-2,7.303438E-1,-2.250968E-2,-4.3662086E-1,-9.568481E-1,-2.6571E-1,2.0412637E-1,5.409979E-1,1.0789585E0,-3.7860227E-1,7.026413E-1,1.2899825E-2,-3.2083627E-2,-5.601245E-2,-6.4518126E-3,-1.7333625E-2,2.5649032E-2,-3.0758485E-2,1.4902319E-2,4.8881136E-2,1.4614934E-2,5.7842482E-2,1.892738E-2,-4.1856162E-2,-7.417902E-4,5.4515846E-2,-1.2424444E-2],"categories":[],"categories_nodes":[],"categories_segments":[],"categories_sizes":[],"default_left":[0,0,0,0,0,0,0,0,0,0,0,0,0,0,0,0,0,0,0,0,0,0,0,0,0,0,0,0,0,0,0],"id":27,"left_children":[1,3,5,7,9,11,13,15,17,19,21,23,25,27,29,-1,-1,-1,-1,-1,-1,-1,-1,-1,-1,-1,-1,-1,-1,-1,-1],"loss_changes":[1.7542631E1,7.6879377E0,6.5268917E0,1.6477118E0,4.7622666E0,1.70261E0,4.9561944E0,3.3478155E0,1.3863964E0,3.2637262E0,3.1555276E0,2.3693624E0,1.7230892E-1,2.1277864E0,2.6057377E0,0E0,0E0,0E0,0E0,0E0,0E0,0E0,0E0,0E0,0E0,0E0,0E0,0E0,0E0,0E0,0E0],"parents":[2147483647,0,0,1,1,2,2,3,3,4,4,5,5,6,6,7,7,8,8,9,9,10,10,11,11,12,12,13,13,14,14],"right_children":[2,4,6,8,10,12,14,16,18,20,22,24,26,28,30,-1,-1,-1,-1,-1,-1,-1,-1,-1,-1,-1,-1,-1,-1,-1,-1],"split_conditions":[7.393103E-1,5.440206E-1,1E1,8.2E0,1E0,1.99E2,1.84E2,9.1871375E-1,1E0,7E0,1E0,5.1E0,9.0564346E-1,1E0,1E0,1.2899825E-2,-3.2083627E-2,-5.601245E-2,-6.4518126E-3,-1.7333625E-2,2.5649032E-2,-3.0758485E-2,1.4902319E-2,4.8881136E-2,1.4614934E-2,5.7842482E-2,1.892738E-2,-4.1856162E-2,-7.417902E-4,5.4515846E-2,-1.2424444E-2],"split_indices":[97,97,78,76,33,98,98,99,33,79,87,76,97,70,19,0,0,0,0,0,0,0,0,0,0,0,0,0,0,0,0],"split_type":[0,0,0,0,0,0,0,0,0,0,0,0,0,0,0,0,0,0,0,0,0,0,0,0,0,0,0,0,0,0,0],"sum_hessian":[1.6803377E2,1.1723368E2,5.0800095E1,3.1660418E1,8.5573265E1,3.363668E1,1.7163412E1,2.1342285E1,1.0318131E1,4.794761E1,3.7625652E1,2.345126E1,1.0185423E1,1.1831389E1,5.3320227E0,4.8054633E0,1.6536823E1,8.322163E0,1.9959693E0,4.393443E1,4.0131774E0,3.2988381E0,3.4326817E1,7.4466777E0,1.6004581E1,8.579628E0,1.605795E0,4.6583543E0,7.1730356E0,3.684075E0,1.6479474E0],"tree_param":{"num_deleted":"0","num_feature":"100","num_nodes":"31","size_leaf_vector":"1"}},{"base_weights":[-4.3147677E-3,-4.189655E-1,2.3031539E-1,4.2008124E-2,-4.7201306E-1,8.2707167E-1,8.3575256E-2,-3.63369E-1,-1.0518563E0,3.1069523E-1,1.0309465E0,-4.654807E-1,1.894917E-1,-3.5480972E-2,-6.184297E-3,-5.6814726E-2,-1.3854911E-2,-1.7291171E-2,3.271457E-2,1.0861306E-2,5.4247964E-2,1.3429779E-2,-3.444298E-2,2.140413E-2,-4.140423E-3],"categories":[],"categories_nodes":[],"categories_segments":[],"categories_sizes":[],"default_left":[0,0,0,0,0,0,0,0,0,0,0,0,0,0,0,0,0,0,0,0,0,0,0,0,0],"id":28,"left_children":[1,3,5,-1,7,9,11,13,15,17,19,21,23,-1,-1,-1,-1,-1,-1,-1,-1,-1,-1,-1,-1],"loss_changes":[1.6405024E1,4.4663477E0,9.361799E0,0E0,3.341362E0,1.9055882E0,5.1798663E0,4.170313E0,2.6078987E-1,1.8992064E0,4.1159725E-1,2.55415E0,4.850046E0,0E0,0E0,0E0,0E0,0E0,0E0,0E0,0E0,0E0,0E0,0E0,0E0],"parents":[2147483647,0,0,1,1,2,2,4,4,5,5,6,6,7,7,8,8,9,9,10,10,11,11,12,12],"right_children":[2,4,6,-1,8,10,12,14,16,18,20,22,24,-1,-1,-1,-1,-1,-1,-1,-1,-1,-1,-1,-1],"split_conditions":[6.306224E-1,1E0,5.1E0,4.2008124E-2,9.7E0,7.1248007E-1,6E0,5E-1,1.75E2,1E0,3.2E0,9.1871804E-1,1E0,-3.5480972E-2,-6.184297E-3,-5.6814726E-2,-1.3854911E-2,-1.7291171E-2,3.271457E-2,1.0861306E-2,5.4247964E-2,1.3429779E-2,-3.444298E-2,2.140413E-2,-4.140423E-3],"split_indices":[97,1,76,0,76,97,80,69,98,33,76,99,13,0,0,0,0,0,0,0,0,0,0,0,0],"split_type":[0,0,0,0,0,0,0,0,0,0,0,0,0,0,0,0,0,0,0,0,0,0,0,0,0],"sum_hessian":[1.6662875E2,5.9930603E1,1.0669815E2,1.8229717E0,5.810763E1,2.0143433E1,8.655472E1,5.030816E1,7.7994733E0,6.416245E0,1.3727187E1,1.3447901E1,7.310682E1,1.9777119E1,3.053104E1,6.61219E0,1.1872838E0,2.2021177E0,4.2141275E0,1.1670442E0,1.25601425E1,3.090234E0,1.0357667E1,3.8660328E1,3.4446487E1],"tree_param":{"num_deleted":"0","num_feature":"100","num_nodes":"25","size_leaf_vector":"1"}},{"base_weights":[-4.076412E-3,-2.027518E-1,4.5452067E-1,-7.158369E-1,-8.776873E-2,1.5718888E-1,8.69123E-1,-7.967592E-1,-8.054679E-3,-2.9563633E-1,1.855003E-1,-9.561613E-1,2.9913795E-1,9.6877307E-1,2.1801475E-1,5.5146334E-3,-4.290456E-2,2.1980708E-2,-2.1795763E-2,1.9135755E-4,-2.8034229E-2,-2.9730115E-2,1.3335711E-2,-6.454031E-2,-1.5344246E-3,4.5839697E-2,3.6714695E-4,3.5567414E-2,6.00619E-2,4.2178612E-2,-3.8045827E-2],"categories":[],"categories_nodes":[],"categories_segments":[],"categories_sizes":[],"default_left":[0,0,0,0,0,0,0,0,0,0,0,0,0,0,0,0,0,0,0,0,0,0,0,0,0,0,0,0,0,0,0],"id":29,"left_children":[1,3,5,7,9,11,13,15,17,19,21,23,25,27,29,-1,-1,-1,-1,-1,-1,-1,-1,-1,-1,-1,-1,-1,-1,-1,-1],"loss_changes":[1.525137E1,6.8267064E0,6.101145E0,1.2100859E0,5.5386724E0,5.1360173E0,1.145628E0,1.1544256E0,8.025364E-1,4.384836E0,2.8399718E0,1.1089458E0,5.0360775E0,2.1344185E-1,3.1318762E0,0E0,0E0,0E0,0E0,0E0,0E0,0E0,0E0,0E0,0E0,0E0,0E0,0E0,0E0,0E0,0E0],"parents":[2147483647,0,0,1,1,2,2,3,3,4,4,5,5,6,6,7,7,8,8,9,9,10,10,11,11,12,12,13,13,14,14],"right_children":[2,4,6,8,10,12,14,16,18,20,22,24,26,28,30,-1,-1,-1,-1,-1,-1,-1,-1,-1,-1,-1,-1,-1,-1,-1,-1],"split_conditions":[7.393103E-1,4.8445806E-1,1.852E2,7E0,1E0,1E0,1E0,1E0,9.1871727E-1,7.1E0,1E0,7.9533696E-1,5.6E0,5.8E0,7.5E0,5.5146334E-3,-4.290456E-2,2.1980708E-2,-2.1795763E-2,1.9135755E-4,-2.8034229E-2,-2.9730115E-2,1.3335711E-2,-6.454031E-2,-1.5344246E-3,4.5839697E-2,3.6714695E-4,3.5567414E-2,6.00619E-2,4.2178612E-2,-3.8045827E-2],"split_indices":[97,97,98,79,33,87,19,11,99,76,87,97,76,76,76,0,0,0,0,0,0,0,0,0,0,0,0,0,0,0,0],"split_type":[0,0,0,0,0,0,0,0,0,0,0,0,0,0,0,0,0,0,0,0,0,0,0,0,0,0,0,0,0,0,0],"sum_hessian":[1.6538008E2,1.1577949E2,4.9600597E1,2.0239567E1,9.553992E1,2.9688581E1,1.9912016E1,1.8050142E1,2.189425E0,5.4216896E1,4.1323025E1,2.708561E0,2.698002E1,1.6845919E1,3.066098E0,1.092635E0,1.6957506E1,1.0565207E0,1.1329043E0,2.591853E1,2.8298365E1,3.3003154E0,3.802271E1,1.6993382E0,1.0092227E0,7.969243E0,1.9010777E1,9.920394E0,6.9255238E0,1.9550515E0,1.1110464E0],"tree_param":{"num_deleted":"0","num_feature":"100","num_nodes":"31","size_leaf_vector":"1"}},{"base_weights":[-3.902482E-3,-3.9293328E-1,2.1482356E-1,4.0590603E-2,-4.44619E-1,7.963761E-1,7.589488E-2,-3.3912683E-1,-1.0221614E0,2.9409158E-1,1.003141E0,-4.496907E-1,1.7795554E-1,-3.3797834E-2,-5.6030154E-3,-5.5405654E-2,-1.294812E-2,-1.6674152E-2,3.1385437E-2,9.609597E-3,5.2966453E-2,-3.6543246E-2,5.272177E-3,2.4911366E-2,-7.89369E-4],"categories":[],"categories_nodes":[],"categories_segments":[],"categories_sizes":[],"default_left":[0,0,0,0,0,0,0,0,0,0,0,0,0,0,0,0,0,0,0,0,0,0,0,0,0],"id":30,"left_children":[1,3,5,-1,7,9,11,13,15,17,19,21,23,-1,-1,-1,-1,-1,-1,-1,-1,-1,-1,-1,-1],"loss_changes":[1.412564E1,4.0808725E0,8.525854E0,0E0,3.1827536E0,1.8222857E0,4.7407494E0,3.784996E0,2.6737309E-1,1.7502551E0,4.3556786E-1,2.3266249E0,4.5669785E0,0E0,0E0,0E0,0E0,0E0,0E0,0E0,0E0,0E0,0E0,0E0,0E0],"parents":[2147483647,0,0,1,1,2,2,4,4,5,5,6,6,7,7,8,8,9,9,10,10,11,11,12,12],"right_children":[2,4,6,-1,8,10,12,14,16,18,20,22,24,-1,-1,-1,-1,-1,-1,-1,-1,-1,-1,-1,-1],"split_conditions":[6.306224E-1,1E0,5.1E0,4.0590603E-2,9.7E0,7.1248007E-1,6E0,5E-1,1.75E2,1E0,3.2E0,7.440561E-1,6.3E0,-3.3797834E-2,-5.6030154E-3,-5.5405654E-2,-1.294812E-2,-1.6674152E-2,3.1385437E-2,9.609597E-3,5.2966453E-2,-3.6543246E-2,5.272177E-3,2.4911366E-2,-7.89369E-4],"split_indices":[97,1,76,0,76,97,80,69,98,33,76,97,76,0,0,0,0,0,0,0,0,0,0,0,0],"split_type":[0,0,0,0,0,0,0,0,0,0,0,0,0,0,0,0,0,0,0,0,0,0,0,0,0],"sum_hessian":[1.6401393E2,5.8740448E1,1.0527348E2,1.8114129E0,5.6929035E1,1.9387121E1,8.588636E1,4.9478607E1,7.450427E0,6.359828E0,1.3027293E1,1.3411995E1,7.2474365E1,1.9127707E1,3.03509E1,6.2901025E0,1.1603246E0,2.2075534E0,4.1522746E0,1.1305674E0,1.1896726E1,8.692638E0,4.719357E0,2.6724743E1,4.5749622E1],"tree_param":{"num_deleted":"0","num_feature":"100","num_nodes":"25","size_leaf_vector":"1"}},{"base_weights":[-3.702655E-3,-1.878888E-1,4.2609024E-1,-6.8213564E-1,-8.050169E-2,1.352614E-1,8.4004897E-1,-7.634724E-1,3.3827394E-3,-2.7507252E-1,1.7441016E-1,-9.4373727E-1,2.7505717E-1,9.3925446E-1,2.0064057E-1,5.670054E-3,-4.1285034E-2,2.1476215E-2,-2.0863667E-2,3.1302255E-2,-1.7578345E-2,-2.882697E-2,1.2656428E-2,-5.871712E-2,-8.561454E-3,4.428748E-2,-1.1354822E-4,3.3728965E-2,5.8905452E-2,4.1065257E-2,-3.708607E-2],"categories":[],"categories_nodes":[],"categories_segments":[],"categories_sizes":[],"default_left":[0,0,0,0,0,0,0,0,0,0,0,0,0,0,0,0,0,0,0,0,0,0,0,0,0,0,0,0,0,0,0],"id":31,"left_children":[1,3,5,7,9,11,13,15,17,19,21,23,25,27,29,-1,-1,-1,-1,-1,-1,-1,-1,-1,-1,-1,-1,-1,-1,-1,-1],"loss_changes":[1.3037535E1,6.0633554E0,5.834778E0,1.1423712E0,4.8011146E0,4.8168044E0,1.0926723E0,1.0909996E0,7.463601E-1,3.9931283E0,2.6343632E0,4.5645714E-1,4.6630893E0,2.9341316E-1,2.939564E0,0E0,0E0,0E0,0E0,0E0,0E0,0E0,0E0,0E0,0E0,0E0,0E0,0E0,0E0,0E0,0E0],"parents":[2147483647,0,0,1,1,2,2,3,3,4,4,5,5,6,6,7,7,8,8,9,9,10,10,11,11,12,12,13,13,14,14],"right_children":[2,4,6,8,10,12,14,16,18,20,22,24,26,28,30,-1,-1,-1,-1,-1,-1,-1,-1,-1,-1,-1,-1,-1,-1,-1,-1],"split_conditions":[7.393103E-1,4.8445806E-1,1.852E2,7E0,1E0,1E0,1E0,1E0,9.1871727E-1,3.9931035E-1,1E0,1E0,5.6E0,5.8E0,7.5E0,5.670054E-3,-4.1285034E-2,2.1476215E-2,-2.0863667E-2,3.1302255E-2,-1.7578345E-2,-2.882697E-2,1.2656428E-2,-5.871712E-2,-8.561454E-3,4.428748E-2,-1.1354822E-4,3.3728965E-2,5.8905452E-2,4.1065257E-2,-3.708607E-2],"split_indices":[97,97,98,79,33,87,19,11,99,99,87,34,76,76,76,0,0,0,0,0,0,0,0,0,0,0,0,0,0,0,0],"split_type":[0,0,0,0,0,0,0,0,0,0,0,0,0,0,0,0,0,0,0,0,0,0,0,0,0,0,0,0,0,0,0],"sum_hessian":[1.6268326E2,1.1427428E2,4.840898E1,1.9441782E1,9.48325E1,2.9212406E1,1.9196573E1,1.727803E1,2.1637518E0,5.3736813E1,4.109568E1,2.6910439E0,2.6521362E1,1.6212267E1,2.9843073E0,1.0904136E0,1.6187616E1,1.0643951E0,1.0993568E0,3.6425626E0,5.009425E1,3.2991085E0,3.7796574E1,1.6718142E0,1.0192297E0,7.597458E0,1.8923906E1,9.504519E0,6.707747E0,1.8767143E0,1.1075929E0],"tree_param":{"num_deleted":"0","num_feature":"100","num_nodes":"31","size_leaf_vector":"1"}},{"base_weights":[-3.298612E-3,-4.9726567E-1,1.4908287E-1,-9.3032855E-1,-3.551493E-1,3.3318797E-1,-1.611738E-1,-1.0423448E-2,-5.0802387E-2,-8.6071186E-2,-6.495842E-1,9.679422E-3,5.764882E-1,-4.0621585E-1,3.369481E-1,-1.9008396E-2,1.3062224E-2,-4.9758565E-2,-2.881454E-3,3.337018E-2,-7.969305E-3,-1.3068234E-2,3.2271985E-2,-3.2659616E-2,-4.4987962E-4,4.521685E-2,-5.1595694E-3],"categories":[],"categories_nodes":[],"categories_segments":[],"categories_sizes":[],"default_left":[0,0,0,0,0,0,0,0,0,0,0,0,0,0,0,0,0,0,0,0,0,0,0,0,0,0,0],"id":32,"left_children":[1,3,5,7,9,11,13,-1,-1,15,17,19,21,23,25,-1,-1,-1,-1,-1,-1,-1,-1,-1,-1,-1,-1],"loss_changes":[1.2306329E1,2.0417404E0,7.1916656E0,3.3925343E-1,2.371355E0,6.19302E0,5.8996134E0,0E0,0E0,1.8521824E0,2.9041524E0,3.978453E0,2.764433E0,3.1430812E0,4.117408E0,0E0,0E0,0E0,0E0,0E0,0E0,0E0,0E0,0E0,0E0,0E0,0E0],"parents":[2147483647,0,0,1,1,2,2,3,3,4,4,5,5,6,6,9,9,10,10,11,11,12,12,13,13,14,14],"right_children":[2,4,6,8,10,12,14,-1,-1,16,18,20,22,24,26,-1,-1,-1,-1,-1,-1,-1,-1,-1,-1,-1,-1],"split_conditions":[5.758398E-1,4.0158108E-1,7.1E0,2.887779E-1,7.5E0,1.685E2,9.4E0,-1.0423448E-2,-5.0802387E-2,5.8E0,1E0,4E0,1E0,1E0,5E-1,-1.9008396E-2,1.3062224E-2,-4.9758565E-2,-2.881454E-3,3.337018E-2,-7.969305E-3,-1.3068234E-2,3.2271985E-2,-3.2659616E-2,-4.4987962E-4,4.521685E-2,-5.1595694E-3],"split_indices":[97,97,76,97,76,98,76,0,0,76,33,79,87,17,68,0,0,0,0,0,0,0,0,0,0,0,0],"split_type":[0,0,0,0,0,0,0,0,0,0,0,0,0,0,0,0,0,0,0,0,0,0,0,0,0,0,0],"sum_hessian":[1.615078E2,3.754308E1,1.2396472E2,7.9058375E0,2.9637241E1,7.775268E1,4.621204E1,1.203436E0,6.702401E0,1.6160664E1,1.3476579E1,3.3821327E1,4.393135E1,3.10983E1,1.511374E1,8.69955E0,7.461113E0,8.078903E0,5.397675E0,6.313193E0,2.7508135E1,3.1282592E0,4.0803093E1,1.8778233E1,1.2320067E1,6.141719E0,8.972021E0],"tree_param":{"num_deleted":"0","num_feature":"100","num_nodes":"27","size_leaf_vector":"1"}},{"base_weights":[-3.6092338E-3,-1.7704172E-1,4.050604E-1,-7.007673E-1,-8.6099565E-2,1.2562849E-1,8.1299084E-1,-7.7742964E-1,-1.02980696E-1,-2.6352492E-1,1.4897732E-1,-9.101284E-1,2.6125926E-1,9.1003877E-1,1.912684E-1,-4.1933216E-2,-1.631845E-3,-7.548702E-3,-2.753285E-4,-2.0129707E-2,1.5037583E-2,3.2308567E-2,6.1766093E-4,-5.674654E-2,-8.298222E-3,4.320369E-2,-3.0518294E-4,3.2019068E-2,5.7784315E-2,3.990107E-2,-3.5398155E-2],"categories":[],"categories_nodes":[],"categories_segments":[],"categories_sizes":[],"default_left":[0,0,0,0,0,0,0,0,0,0,0,0,0,0,0,0,0,0,0,0,0,0,0,0,0,0,0,0,0,0,0],"id":33,"left_children":[1,3,5,7,9,11,13,15,17,19,21,23,25,27,29,-1,-1,-1,-1,-1,-1,-1,-1,-1,-1,-1,-1,-1,-1,-1,-1],"loss_changes":[1.1501838E1,5.36531E0,5.4095187E0,6.859093E-1,4.1350975E0,4.4351525E0,1.0009327E0,6.413002E-1,1.3448685E-2,4.5410323E0,2.9046068E0,4.276998E-1,4.3884773E0,3.5808754E-1,2.6903768E0,0E0,0E0,0E0,0E0,0E0,0E0,0E0,0E0,0E0,0E0,0E0,0E0,0E0,0E0,0E0,0E0],"parents":[2147483647,0,0,1,1,2,2,3,3,4,4,5,5,6,6,7,7,8,8,9,9,10,10,11,11,12,12,13,13,14,14],"right_children":[2,4,6,8,10,12,14,16,18,20,22,24,26,28,30,-1,-1,-1,-1,-1,-1,-1,-1,-1,-1,-1,-1,-1,-1,-1,-1],"split_conditions":[7.393103E-1,4.6365595E-1,1.852E2,7E0,1E0,1E0,1E0,1E0,4.250869E-1,6E0,1E0,1E0,5.6E0,5.8E0,7.5E0,-4.1933216E-2,-1.631845E-3,-7.548702E-3,-2.753285E-4,-2.0129707E-2,1.5037583E-2,3.2308567E-2,6.1766093E-4,-5.674654E-2,-8.298222E-3,4.320369E-2,-3.0518294E-4,3.2019068E-2,5.7784315E-2,3.990107E-2,-3.5398155E-2],"split_indices":[97,97,98,79,33,87,19,36,97,79,74,34,76,76,76,0,0,0,0,0,0,0,0,0,0,0,0,0,0,0,0],"split_type":[0,0,0,0,0,0,0,0,0,0,0,0,0,0,0,0,0,0,0,0,0,0,0,0,0,0,0,0,0,0,0],"sum_hessian":[1.6026797E2,1.1291538E2,4.7352596E1,1.571409E1,9.7201294E1,2.8878687E1,1.8473907E1,1.3661567E1,2.0525234E0,5.5324135E1,4.1877155E1,2.6825795E0,2.6196108E1,1.5578447E1,2.8954597E0,1.2507223E1,1.1543431E0,1.0075656E0,1.0449578E0,4.4615036E1,1.0709101E1,8.222993E0,3.3654163E1,1.6569332E0,1.0256464E0,7.3630466E0,1.8833061E1,9.145722E0,6.4327254E0,1.7961E0,1.0993596E0],"tree_param":{"num_deleted":"0","num_feature":"100","num_nodes":"31","size_leaf_vector":"1"}},{"base_weights":[-3.1218561E-3,-3.4979862E-1,1.9018848E-1,3.9114505E-2,-4.0019596E-1,7.5151515E-1,6.134788E-2,-2.991719E-1,-9.7794724E-1,2.700102E-1,9.6301186E-1,-4.3234998E-1,1.57896E-1,-3.1290326E-2,-4.3843333E-3,-5.345604E-2,-1.085065E-2,4.4802178E-2,-3.4455215E-3,7.2577866E-3,5.1191743E-2,1.3128704E-2,-3.1997845E-2,1.9330341E-2,-4.8872936E-3],"categories":[],"categories_nodes":[],"categories_segments":[],"categories_sizes":[],"default_left":[0,0,0,0,0,0,0,0,0,0,0,0,0,0,0,0,0,0,0,0,0,0,0,0,0],"id":34,"left_children":[1,3,5,-1,7,9,11,13,15,17,19,21,23,-1,-1,-1,-1,-1,-1,-1,-1,-1,-1,-1,-1],"loss_changes":[1.0791541E1,3.6018848E0,7.431412E0,0E0,2.9671192E0,1.6965084E0,4.128423E0,3.3283858E0,3.1407738E-1,1.6006689E0,4.960432E-1,2.216777E0,4.2462854E0,0E0,0E0,0E0,0E0,0E0,0E0,0E0,0E0,0E0,0E0,0E0,0E0],"parents":[2147483647,0,0,1,1,2,2,4,4,5,5,6,6,7,7,8,8,9,9,10,10,11,11,12,12],"right_children":[2,4,6,-1,8,10,12,14,16,18,20,22,24,-1,-1,-1,-1,-1,-1,-1,-1,-1,-1,-1,-1],"split_conditions":[6.306224E-1,1E0,5.1E0,3.9114505E-2,9.7E0,7.1248007E-1,6E0,5E-1,1.75E2,4.2E0,3.2E0,9.1871804E-1,1E0,-3.1290326E-2,-4.3843333E-3,-5.345604E-2,-1.085065E-2,4.4802178E-2,-3.4455215E-3,7.2577866E-3,5.1191743E-2,1.3128704E-2,-3.1997845E-2,1.9330341E-2,-4.8872936E-3],"split_indices":[97,1,76,0,76,97,80,69,98,76,76,99,13,0,0,0,0,0,0,0,0,0,0,0,0],"split_type":[0,0,0,0,0,0,0,0,0,0,0,0,0,0,0,0,0,0,0,0,0,0,0,0,0],"sum_hessian":[1.5903612E2,5.6643642E1,1.0239248E2,1.7951977E0,5.4848446E1,1.8212446E1,8.418003E1,4.7977116E1,6.8713317E0,6.2530584E0,1.1959388E1,1.3200635E1,7.09794E1,1.8085432E1,2.9891684E1,5.77444E0,1.0968915E0,1.6189038E0,4.6341543E0,1.0622585E0,1.0897129E1,2.9756052E0,1.0225029E1,3.7192608E1,3.378679E1],"tree_param":{"num_deleted":"0","num_feature":"100","num_nodes":"25","size_leaf_vector":"1"}},{"base_weights":[-2.754421E-3,-4.5785537E-1,1.3504969E-1,-8.974708E-1,-3.2064602E-1,-9.161499E-2,3.4549105E-1,-8.424548E-3,-4.9453642E-2,-5.9426125E-2,-6.1332625E-1,9.92231E-2,-3.6222327E-1,4.3658704E-1,-5.0681263E-1,-1.7402252E-2,1.372416E-2,-4.791539E-2,-2.4638376E-3,1.1868953E-2,-2.8801346E-2,1.0672721E-2,-3.717292E-2,1.5738986E-2,4.779325E-2,3.839187E-2,-4.815322E-2],"categories":[],"categories_nodes":[],"categories_segments":[],"categories_sizes":[],"default_left":[0,0,0,0,0,0,0,0,0,0,0,0,0,0,0,0,0,0,0,0,0,0,0,0,0,0,0],"id":35,"left_children":[1,3,5,7,9,11,13,-1,-1,15,17,19,21,23,25,-1,-1,-1,-1,-1,-1,-1,-1,-1,-1,-1,-1],"loss_changes":[1.0029573E1,1.9542012E0,5.887701E0,3.8661432E-1,2.2482247E0,3.1291506E0,5.180426E0,0E0,0E0,1.7239813E0,2.674183E0,3.4868226E0,5.6423845E0,3.3830376E0,4.5954638E0,0E0,0E0,0E0,0E0,0E0,0E0,0E0,0E0,0E0,0E0,0E0,0E0],"parents":[2147483647,0,0,1,1,2,2,3,3,4,4,5,5,6,6,9,9,10,10,11,11,12,12,13,13,14,14],"right_children":[2,4,6,8,10,12,14,-1,-1,16,18,20,22,24,26,-1,-1,-1,-1,-1,-1,-1,-1,-1,-1,-1,-1],"split_conditions":[5.758398E-1,4.0158108E-1,1.695E2,2.887779E-1,7.5E0,5E-1,1E0,-8.424548E-3,-4.9453642E-2,5.8E0,1E0,6E0,9.187179E-1,8.382556E-1,6.3E0,-1.7402252E-2,1.372416E-2,-4.791539E-2,-2.4638376E-3,1.1868953E-2,-2.8801346E-2,1.0672721E-2,-3.717292E-2,1.5738986E-2,4.779325E-2,3.839187E-2,-4.815322E-2],"split_indices":[97,97,98,97,76,68,38,0,0,76,33,79,99,97,76,0,0,0,0,0,0,0,0,0,0,0,0],"split_type":[0,0,0,0,0,0,0,0,0,0,0,0,0,0,0,0,0,0,0,0,0,0,0,0,0,0,0],"sum_hessian":[1.5793767E2,3.6168365E1,1.217693E2,7.285362E0,2.8883003E1,5.8896748E1,6.287255E1,1.1302319E0,6.15513E0,1.5897434E1,1.298557E1,3.491052E1,2.3986227E1,5.724215E1,5.630404E0,8.504298E0,7.393136E0,7.623772E0,5.3617973E0,2.9519331E1,5.3911886E0,9.731474E0,1.4254753E1,4.766705E1,9.575097E0,1.3041157E0,4.326288E0],"tree_param":{"num_deleted":"0","num_feature":"100","num_nodes":"27","size_leaf_vector":"1"}},{"base_weights":[-3.3110252E-3,-1.5180087E-1,3.9479503E-1,-6.585966E-1,-7.087792E-2,6.4673096E-1,-7.158776E-2,-7.435519E-1,-9.4496906E-2,2.3837106E-3,-6.073888E-1,9.5848095E-1,4.6933055E-1,-3.795955E-1,5.816575E-1,-4.869034E-2,-2.255905E-2,-1.0023745E-2,3.290935E-3,1.0185293E-2,-1.0357163E-2,2.2558406E-2,-4.0131237E-2,5.2351624E-2,8.64483E-3,3.4878984E-2,5.221835E-3,9.89614E-3,-3.4053404E-2,-2.2089375E-2,4.618686E-2],"categories":[],"categories_nodes":[],"categories_segments":[],"categories_sizes":[],"default_left":[0,0,0,0,0,0,0,0,0,0,0,0,0,0,0,0,0,0,0,0,0,0,0,0,0,0,0,0,0,0,0],"id":36,"left_children":[1,3,5,7,9,11,13,15,17,19,21,23,25,27,29,-1,-1,-1,-1,-1,-1,-1,-1,-1,-1,-1,-1,-1,-1,-1,-1],"loss_changes":[9.391456E0,4.6980777E0,5.117649E0,6.8736744E-1,3.966774E0,1.1054735E0,3.4477506E0,4.7580767E-1,6.78155E-2,3.8284738E0,2.867919E0,4.6173668E-1,1.5831327E0,2.1377625E0,2.3455124E0,0E0,0E0,0E0,0E0,0E0,0E0,0E0,0E0,0E0,0E0,0E0,0E0,0E0,0E0,0E0,0E0],"parents":[2147483647,0,0,1,1,2,2,3,3,4,4,5,5,6,6,7,7,8,8,9,9,10,10,11,11,12,12,13,13,14,14],"right_children":[2,4,6,8,10,12,14,16,18,20,22,24,26,28,30,-1,-1,-1,-1,-1,-1,-1,-1,-1,-1,-1,-1,-1,-1,-1,-1],"split_conditions":[7.4652433E-1,4.6365595E-1,1E1,1E0,1E0,8E0,1.84E2,4.0158108E-1,1E0,7.1E0,1E-1,1E0,1E0,2.25E-1,1E0,-4.869034E-2,-2.255905E-2,-1.0023745E-2,3.290935E-3,1.0185293E-2,-1.0357163E-2,2.2558406E-2,-4.0131237E-2,5.2351624E-2,8.64483E-3,3.4878984E-2,5.221835E-3,9.89614E-3,-3.4053404E-2,-2.2089375E-2,4.618686E-2],"split_indices":[97,97,78,16,19,78,98,97,34,76,71,35,13,71,11,0,0,0,0,0,0,0,0,0,0,0,0,0,0,0,0],"split_type":[0,0,0,0,0,0,0,0,0,0,0,0,0,0,0,0,0,0,0,0,0,0,0,0,0,0,0,0,0,0,0],"sum_hessian":[1.5685455E2,1.146936E2,4.2160954E1,1.4809248E1,9.988435E1,2.712277E1,1.5038182E1,1.2594372E1,2.2148767E0,8.875961E1,1.1124744E1,8.239819E0,1.8882952E1,1.0504281E1,4.533901E0,5.7417607E0,6.8526106E0,1.1826046E0,1.0322721E0,4.528026E1,4.3479355E1,1.528177E0,9.596568E0,7.1060166E0,1.1338018E0,1.105566E1,7.827292E0,3.7205195E0,6.783761E0,1.0627763E0,3.4711251E0],"tree_param":{"num_deleted":"0","num_feature":"100","num_nodes":"31","size_leaf_vector":"1"}}]},"name":"gbtree"},"learner_model_param":{"base_score":"5E-1","boost_from_average":"1","num_class":"0","num_feature":"100","num_target":"1"},"objective":{"name":"binary:logistic","reg_loss_param":{"scale_pos_weight":"0.471121192"}}},"version":[2,1,3]}