{"learner":{"attributes":{"best_iteration":"20","best_score":"0.5904496182281769","scikit_learn":"{\"_estimator_type\": \"classifier\"}"},"feature_names":[],"feature_types":[],"gradient_booster":{"model":{"gbtree_model_param":{"num_parallel_tree":"1","num_trees":"41"},"iteration_indptr":[0,1,2,3,4,5,6,7,8,9,10,11,12,13,14,15,16,17,18,19,20,21,22,23,24,25,26,27,28,29,30,31,32,33,34,35,36,37,38,39,40,41],"tree_info":[0,0,0,0,0,0,0,0,0,0,0,0,0,0,0,0,0,0,0,0,0,0,0,0,0,0,0,0,0,0,0,0,0,0,0,0,0,0,0,0,0],"trees":[{"base_weights":[-1.5952581E-9,-1.0112283E0,8.7243104E-1,-1.4184903E0,-3.9903188E-1,1.210883E0,-2.2610186E-1,-5.1570064E-1,-1.5415931E0,1.0008809E-1,-7.550485E-1,1.2982882E0,-6.923077E-2,-1.0734448E0,1.7404139E-1,-3.7833538E-2,5.681612E-3,-6.821266E-3,-7.88861E-2,2.1590253E-2,-4.9757235E-2,-5.7560414E-2,-3.8151469E-3,6.739944E-2,-4.7799584E-2,-7.210997E-2,1.1115673E-2,-1.275498E-2,3.8988303E-2],"categories":[],"categories_nodes":[],"categories_segments":[],"categories_sizes":[],"default_left":[0,0,0,0,0,0,0,0,0,0,0,0,0,0,0,0,0,0,0,0,0,0,0,0,0,0,0,0,0],"id":0,"left_children":[1,3,5,7,9,11,13,15,17,19,21,23,-1,25,27,-1,-1,-1,-1,-1,-1,-1,-1,-1,-1,-1,-1,-1,-1],"loss_changes":[1.8217987E2,2.327987E1,4.1490837E1,5.5444946E0,7.1121716E0,2.1059227E1,9.32545E0,1.3518951E0,2.3076324E0,6.7400756E0,6.158535E0,1.0549255E1,0E0,4.5182085E0,5.181476E0,0E0,0E0,0E0,0E0,0E0,0E0,0E0,0E0,0E0,0E0,0E0,0E0,0E0,0E0],"parents":[2147483647,0,0,1,1,2,2,3,3,4,4,5,5,6,6,7,7,8,8,9,9,10,10,11,11,13,13,14,14],"right_children":[2,4,6,8,10,12,14,16,18,20,22,24,-1,26,28,-1,-1,-1,-1,-1,-1,-1,-1,-1,-1,-1,-1,-1,-1],"split_conditions":[6.8917745E-1,6.0002875E-1,7.1E0,1E0,7.1E0,1E0,4E0,1E0,3.9841285E-1,6.333333E-1,1E0,8E0,-6.923077E-2,7.781526E-1,8.5E0,-3.7833538E-2,5.681612E-3,-6.821266E-3,-7.88861E-2,2.1590253E-2,-4.9757235E-2,-5.7560414E-2,-3.8151469E-3,6.739944E-2,-4.7799584E-2,-7.210997E-2,1.1115673E-2,-1.275498E-2,3.8988303E-2],"split_indices":[97,97,76,11,76,45,79,17,99,71,33,81,0,97,76,0,0,0,0,0,0,0,0,0,0,0,0,0,0],"split_type":[0,0,0,0,0,0,0,0,0,0,0,0,0,0,0,0,0,0,0,0,0,0,0,0,0,0,0,0,0],"sum_hessian":[2.045E2,9.464203E1,1.0985797E2,5.6042725E1,3.8599308E1,8.390502E1,2.5952944E1,7.347575E0,4.869515E1,1.6369226E1,2.2230082E1,8.165502E1,2.25E0,7.7849307E0,1.8168015E1,5.166859E0,2.180716E0,1.340358E0,4.7354794E1,1.3028869E1,3.340358E0,1.3597575E1,8.632505E0,8.028695E1,1.3680716E0,5.972286E0,1.8126444E0,1.0972864E1,7.19515E0],"tree_param":{"num_deleted":"0","num_feature":"100","num_nodes":"29","size_leaf_vector":"1"}},{"base_weights":[-1.4231266E-3,-9.422066E-1,8.4954077E-1,-1.3514544E0,-3.6486357E-1,1.1733532E0,-2.2247845E-1,-4.9388042E-1,-1.4684522E0,7.660742E-2,-6.932839E-1,1.2594275E0,-6.689073E-2,-1.0012184E0,1.4965464E-1,-3.6259662E-2,5.4868707E-3,-6.6259815E-3,-7.513972E-2,1.7463213E-2,-4.403862E-2,-5.394825E-2,-1.2107876E-3,7.545154E-2,3.3554714E-2,-6.80802E-2,1.0757709E-2,1.8787777E-2,-3.863274E-2],"categories":[],"categories_nodes":[],"categories_segments":[],"categories_sizes":[],"default_left":[0,0,0,0,0,0,0,0,0,0,0,0,0,0,0,0,0,0,0,0,0,0,0,0,0,0,0,0,0],"id":1,"left_children":[1,3,5,7,9,11,13,15,17,19,21,23,-1,25,27,-1,-1,-1,-1,-1,-1,-1,-1,-1,-1,-1,-1,-1,-1],"loss_changes":[1.651613E2,2.2657333E1,3.786383E1,4.9905167E0,6.144497E0,1.9701523E1,7.6758523E0,1.2448463E0,2.077446E0,5.2209535E0,6.2161827E0,1.0897751E1,0E0,4.0310707E0,4.1362767E0,0E0,0E0,0E0,0E0,0E0,0E0,0E0,0E0,0E0,0E0,0E0,0E0,0E0,0E0],"parents":[2147483647,0,0,1,1,2,2,3,3,4,4,5,5,6,6,7,7,8,8,9,9,10,10,11,11,13,13,14,14],"right_children":[2,4,6,8,10,12,14,16,18,20,22,24,-1,26,28,-1,-1,-1,-1,-1,-1,-1,-1,-1,-1,-1,-1,-1,-1],"split_conditions":[6.9309825E-1,6.0002875E-1,7.1E0,1E0,7.1E0,1E0,4E0,1E0,3.9841285E-1,6.333333E-1,1E0,5E-1,-6.689073E-2,7.781526E-1,1E0,-3.6259662E-2,5.4868707E-3,-6.6259815E-3,-7.513972E-2,1.7463213E-2,-4.403862E-2,-5.394825E-2,-1.2107876E-3,7.545154E-2,3.3554714E-2,-6.80802E-2,1.0757709E-2,1.8787777E-2,-3.863274E-2],"split_indices":[97,97,76,11,76,45,79,17,99,71,33,68,0,97,38,0,0,0,0,0,0,0,0,0,0,0,0,0,0],"split_type":[0,0,0,0,0,0,0,0,0,0,0,0,0,0,0,0,0,0,0,0,0,0,0,0,0,0,0,0,0],"sum_hessian":[2.0430408E2,9.698027E1,1.073238E2,5.5967247E1,4.101302E1,8.235366E1,2.497014E1,7.345709E0,4.862154E1,1.7822416E1,2.3190605E1,8.010635E1,2.2473059E0,7.5274425E0,1.7442698E1,5.165011E0,2.1806984E0,1.3403424E0,4.7281197E1,1.4366187E1,3.4562292E0,1.4322077E1,8.868528E0,5.514563E1,2.4960726E1,5.7148542E0,1.8125885E0,1.4484473E1,2.9582248E0],"tree_param":{"num_deleted":"0","num_feature":"100","num_nodes":"29","size_leaf_vector":"1"}},{"base_weights":[-2.4801074E-3,-8.994812E-1,8.089154E-1,-1.2907721E0,-3.4892997E-1,1.1187396E0,-2.1455726E-1,-4.7318354E-1,-1.4026455E0,7.139777E-2,-6.618062E-1,1.2015994E0,-6.473309E-2,-9.602898E-1,1.4112888E-1,-8.978311E-3,-5.2329898E-2,-6.436365E-3,-7.177419E-2,1.66517E-2,-4.238094E-2,-5.1536854E-2,-1.1563759E-3,7.2030924E-2,3.198332E-2,-6.53883E-2,1.0411675E-2,-1.1630261E-2,3.382765E-2],"categories":[],"categories_nodes":[],"categories_segments":[],"categories_sizes":[],"default_left":[0,0,0,0,0,0,0,0,0,0,0,0,0,0,0,0,0,0,0,0,0,0,0,0,0,0,0,0,0],"id":2,"left_children":[1,3,5,7,9,11,13,15,17,19,21,23,-1,25,27,-1,-1,-1,-1,-1,-1,-1,-1,-1,-1,-1,-1,-1,-1],"loss_changes":[1.4976262E2,2.0602592E1,3.449948E1,4.5275345E0,5.566956E0,1.8172699E1,7.0173674E0,1.2162969E0,1.8824158E0,4.8058167E0,5.66862E0,9.938515E0,0E0,3.726327E0,3.847003E0,0E0,0E0,0E0,0E0,0E0,0E0,0E0,0E0,0E0,0E0,0E0,0E0,0E0,0E0],"parents":[2147483647,0,0,1,1,2,2,3,3,4,4,5,5,6,6,7,7,8,8,9,9,10,10,11,11,13,13,14,14],"right_children":[2,4,6,8,10,12,14,16,18,20,22,24,-1,26,28,-1,-1,-1,-1,-1,-1,-1,-1,-1,-1,-1,-1,-1,-1],"split_conditions":[6.9309825E-1,6.0002875E-1,7.1E0,1E0,7.1E0,1E0,4E0,1E0,3.9841285E-1,6.333333E-1,1E0,5E-1,-6.473309E-2,7.781526E-1,8.5E0,-8.978311E-3,-5.2329898E-2,-6.436365E-3,-7.177419E-2,1.66517E-2,-4.238094E-2,-5.1536854E-2,-1.1563759E-3,7.2030924E-2,3.198332E-2,-6.53883E-2,1.0411675E-2,-1.1630261E-2,3.382765E-2],"split_indices":[97,97,76,11,76,45,79,19,99,71,33,68,0,97,76,0,0,0,0,0,0,0,0,0,0,0,0,0,0],"split_type":[0,0,0,0,0,0,0,0,0,0,0,0,0,0,0,0,0,0,0,0,0,0,0,0,0,0,0,0,0],"sum_hessian":[2.0376834E2,9.6727325E1,1.0704102E2,5.575576E1,4.097157E1,8.2095955E1,2.494506E1,7.3404226E0,4.8415337E1,1.7812927E1,2.3158642E1,7.9856346E1,2.2396095E0,7.5066905E0,1.7438372E1,5.7230716E0,1.6173512E0,1.3402975E0,4.707504E1,1.436185E1,3.4510775E0,1.4290131E1,8.86851E0,5.492867E1,2.4927677E1,5.694263E0,1.8124275E0,1.0602933E1,6.8354383E0],"tree_param":{"num_deleted":"0","num_feature":"100","num_nodes":"29","size_leaf_vector":"1"}},{"base_weights":[-3.4067908E-3,-8.602609E-1,7.7184045E-1,-1.2358975E0,-3.3389282E-1,1.0686593E0,-2.054548E-1,-4.5706433E-1,-1.3429782E0,4.8404217E-2,-4.199884E-1,1.1485735E0,-6.273652E-2,-9.2235225E-1,1.3535117E-1,-3.423595E-2,6.369319E-3,-6.2522627E-3,-6.872699E-2,1.5221041E-3,-3.8481154E-2,5.9880894E-2,-4.8758656E-2,-6.291549E-2,1.0077126E-2,1.7499235E-2,-3.6922492E-2],"categories":[],"categories_nodes":[],"categories_segments":[],"categories_sizes":[],"default_left":[0,0,0,0,0,0,0,0,0,0,0,0,0,0,0,0,0,0,0,0,0,0,0,0,0,0,0],"id":3,"left_children":[1,3,5,7,9,11,13,15,17,-1,19,21,-1,23,25,-1,-1,-1,-1,-1,-1,-1,-1,-1,-1,-1,-1],"loss_changes":[1.3613148E2,1.8833923E1,3.1429855E1,4.0926285E0,5.1041856E0,1.679409E1,6.4536653E0,1.1964952E0,1.7153702E0,0E0,6.3237576E0,9.548553E0,0E0,3.4533825E0,3.7147675E0,0E0,0E0,0E0,0E0,0E0,0E0,0E0,0E0,0E0,0E0,0E0,0E0],"parents":[2147483647,0,0,1,1,2,2,3,3,4,4,5,5,6,6,7,7,8,8,10,10,11,11,13,13,14,14],"right_children":[2,4,6,8,10,12,14,16,18,-1,20,22,-1,24,26,-1,-1,-1,-1,-1,-1,-1,-1,-1,-1,-1,-1],"split_conditions":[6.9309825E-1,6.0002875E-1,7.1E0,1E0,1E0,1E0,4E0,1E0,3.9841285E-1,4.8404217E-2,7.1E0,8E0,-6.273652E-2,7.781526E-1,1E0,-3.423595E-2,6.369319E-3,-6.2522627E-3,-6.872699E-2,1.5221041E-3,-3.8481154E-2,5.9880894E-2,-4.8758656E-2,-6.291549E-2,1.0077126E-2,1.7499235E-2,-3.6922492E-2],"split_indices":[97,97,76,11,1,45,79,17,99,0,76,81,0,97,38,0,0,0,0,0,0,0,0,0,0,0,0],"split_type":[0,0,0,0,0,0,0,0,0,0,0,0,0,0,0,0,0,0,0,0,0,0,0,0,0,0,0],"sum_hessian":[2.0293324E2,9.634109E1,1.0659215E2,5.543357E1,4.090752E1,8.168863E1,2.490352E1,7.3370657E0,4.8096504E1,1.9018943E0,3.9005623E1,7.946117E1,2.227459E0,7.4744225E0,1.7429098E1,5.156824E0,2.1802413E0,1.3402255E0,4.675628E1,1.7444717E1,2.1560907E1,7.80938E1,1.3673636E0,5.6622505E0,1.812172E0,1.4473429E1,2.9556692E0],"tree_param":{"num_deleted":"0","num_feature":"100","num_nodes":"27","size_leaf_vector":"1"}},{"base_weights":[-4.323523E-3,-8.223651E-1,7.361723E-1,-1.1850508E0,-3.1735435E-1,1.021269E0,-1.9842067E-1,-4.3804848E-1,-1.2884959E0,4.6835E-2,-4.0046415E-1,1.098425E0,-6.0882676E-2,-8.870361E-1,1.2759784E-1,-7.4719856E-3,-5.0579127E-2,-6.07348E-3,-6.594826E-2,1.4501502E-3,-3.6729783E-2,6.650286E-2,2.7986884E-2,-6.0632374E-2,9.7536575E-3,-1.1269151E-2,3.1734753E-2],"categories":[],"categories_nodes":[],"categories_segments":[],"categories_sizes":[],"default_left":[0,0,0,0,0,0,0,0,0,0,0,0,0,0,0,0,0,0,0,0,0,0,0,0,0,0,0],"id":4,"left_children":[1,3,5,7,9,11,13,15,17,-1,19,21,-1,23,25,-1,-1,-1,-1,-1,-1,-1,-1,-1,-1,-1,-1],"loss_changes":[1.235003E2,1.7365623E1,2.871645E1,3.7637253E0,4.7372932E0,1.5530823E1,5.9168444E0,1.2273357E0,1.5708771E0,0E0,5.7544923E0,9.231613E0,0E0,3.2076216E0,3.439991E0,0E0,0E0,0E0,0E0,0E0,0E0,0E0,0E0,0E0,0E0,0E0,0E0],"parents":[2147483647,0,0,1,1,2,2,3,3,4,4,5,5,6,6,7,7,8,8,10,10,11,11,13,13,14,14],"right_children":[2,4,6,8,10,12,14,16,18,-1,20,22,-1,24,26,-1,-1,-1,-1,-1,-1,-1,-1,-1,-1,-1,-1],"split_conditions":[6.9309825E-1,6.0002875E-1,7.1E0,1E0,1E0,1E0,4E0,1E0,3.9841285E-1,4.6835E-2,7.1E0,5E-1,-6.0882676E-2,7.781526E-1,8.5E0,-7.4719856E-3,-5.0579127E-2,-6.07348E-3,-6.594826E-2,1.4501502E-3,-3.6729783E-2,6.650286E-2,2.7986884E-2,-6.0632374E-2,9.7536575E-3,-1.1269151E-2,3.1734753E-2],"split_indices":[97,97,76,11,1,45,79,19,99,0,76,68,0,97,76,0,0,0,0,0,0,0,0,0,0,0,0],"split_type":[0,0,0,0,0,0,0,0,0,0,0,0,0,0,0,0,0,0,0,0,0,0,0,0,0,0,0],"sum_hessian":[2.0187842E2,9.58644E1,1.06014015E2,5.5010612E1,4.085379E1,8.116268E1,2.4851337E1,7.3279867E0,4.7682625E1,1.9008591E0,3.8952934E1,7.895131E1,2.2113655E0,7.4322157E0,1.741912E1,5.7134657E0,1.6145208E0,1.3401291E0,4.6342495E1,1.7444412E1,2.150852E1,5.418363E1,2.4767681E1,5.6203847E0,1.8118314E0,1.0597761E1,6.82136E0],"tree_param":{"num_deleted":"0","num_feature":"100","num_nodes":"27","size_leaf_vector":"1"}},{"base_weights":[-4.706752E-3,-7.872579E-1,7.041445E-1,-1.1385587E0,-3.0172634E-1,9.78374E-1,-1.9020478E-1,-4.2343894E-1,-1.2384273E0,4.5350302E-2,-3.819727E-1,1.0530003E0,-5.9155803E-2,-8.540305E-1,1.22434966E-1,-7.1563073E-3,-4.9094714E-2,-5.8998843E-3,-6.3397795E-2,1.3816013E-3,-3.5078034E-2,5.5041607E-2,-4.836473E-2,-5.8514476E-2,9.440848E-3,1.6315015E-2,-3.53099E-2],"categories":[],"categories_nodes":[],"categories_segments":[],"categories_sizes":[],"default_left":[0,0,0,0,0,0,0,0,0,0,0,0,0,0,0,0,0,0,0,0,0,0,0,0,0,0,0],"id":5,"left_children":[1,3,5,7,9,11,13,15,17,-1,19,21,-1,23,25,-1,-1,-1,-1,-1,-1,-1,-1,-1,-1,-1,-1],"loss_changes":[1.12391266E2,1.60816E1,2.6260723E1,3.4400864E0,4.3995247E0,1.4396843E1,5.456193E0,1.1621912E0,1.4447021E0,0E0,5.240922E0,8.73156E0,0E0,2.985269E0,3.339537E0,0E0,0E0,0E0,0E0,0E0,0E0,0E0,0E0,0E0,0E0,0E0,0E0],"parents":[2147483647,0,0,1,1,2,2,3,3,4,4,5,5,6,6,7,7,8,8,10,10,11,11,13,13,14,14],"right_children":[2,4,6,8,10,12,14,16,18,-1,20,22,-1,24,26,-1,-1,-1,-1,-1,-1,-1,-1,-1,-1,-1,-1],"split_conditions":[6.9309825E-1,6.0002875E-1,7.1E0,1E0,1E0,1E0,4E0,1E0,3.9841285E-1,4.5350302E-2,7.1E0,8E0,-5.9155803E-2,7.781526E-1,1E0,-7.1563073E-3,-4.9094714E-2,-5.8998843E-3,-6.3397795E-2,1.3816013E-3,-3.5078034E-2,5.5041607E-2,-4.836473E-2,-5.8514476E-2,9.440848E-3,1.6315015E-2,-3.53099E-2],"split_indices":[97,97,76,11,1,45,79,19,99,0,76,81,0,97,38,0,0,0,0,0,0,0,0,0,0,0,0],"split_type":[0,0,0,0,0,0,0,0,0,0,0,0,0,0,0,0,0,0,0,0,0,0,0,0,0,0,0],"sum_hessian":[2.0061244E2,9.529686E1,1.05315575E2,5.4511047E1,4.0785812E1,8.052935E1,2.4786232E1,7.321885E0,4.7189163E1,1.8977456E0,3.8888065E1,7.833755E1,2.191802E0,7.38149E0,1.7404741E1,5.7113843E0,1.6105005E0,1.3400104E0,4.5849155E1,1.7444105E1,2.1443962E1,7.697034E1,1.3672091E0,5.5700765E0,1.811414E0,1.4454721E1,2.9500198E0],"tree_param":{"num_deleted":"0","num_feature":"100","num_nodes":"27","size_leaf_vector":"1"}},{"base_weights":[-5.6864414E-3,-8.892232E-1,5.6979984E-1,5.0495483E-2,-9.513344E-1,8.631432E-1,-2.1612684E-1,-1.1385419E0,-4.9039564E-1,9.374576E-1,-8.855574E-1,-5.2928996E-1,3.820209E-1,-2.5937993E-2,-6.093954E-2,-3.8532436E-2,9.291864E-3,2.8212553E-2,6.135429E-2,-9.571991E-3,-5.5358823E-2,-4.2146802E-2,6.696665E-3,3.403344E-2,-2.9174436E-2],"categories":[],"categories_nodes":[],"categories_segments":[],"categories_sizes":[],"default_left":[0,0,0,0,0,0,0,0,0,0,0,0,0,0,0,0,0,0,0,0,0,0,0,0,0],"id":6,"left_children":[1,3,5,-1,7,9,11,13,15,17,19,21,23,-1,-1,-1,-1,-1,-1,-1,-1,-1,-1,-1,-1],"loss_changes":[1.02289215E2,1.0320305E1,2.8274014E1,0E0,6.1161957E0,1.2385262E1,6.554687E0,2.0660172E0,4.7101226E0,8.579483E0,4.2472744E-1,4.8303666E0,3.9249873E0,0E0,0E0,0E0,0E0,0E0,0E0,0E0,0E0,0E0,0E0,0E0,0E0],"parents":[2147483647,0,0,1,1,2,2,4,4,5,5,6,6,7,7,8,8,9,9,10,10,11,11,12,12],"right_children":[2,4,6,-1,8,10,12,14,16,18,20,22,24,-1,-1,-1,-1,-1,-1,-1,-1,-1,-1,-1,-1],"split_conditions":[6.631125E-1,1E0,7.1E0,5.0495483E-2,6.0002875E-1,1E0,8.5E0,1E0,1.702E2,7.814196E-1,6.961304E-1,7.781526E-1,1E0,-2.5937993E-2,-6.093954E-2,-3.8532436E-2,9.291864E-3,2.8212553E-2,6.135429E-2,-9.571991E-3,-5.5358823E-2,-4.2146802E-2,6.696665E-3,3.403344E-2,-2.9174436E-2],"split_indices":[97,1,76,0,97,45,76,11,98,97,97,97,55,0,0,0,0,0,0,0,0,0,0,0,0],"split_type":[0,0,0,0,0,0,0,0,0,0,0,0,0,0,0,0,0,0,0,0,0,0,0,0,0],"sum_hessian":[1.9917676E2,7.834678E1,1.2082998E2,1.9979246E0,7.6348854E1,8.79171E1,3.2912888E1,5.3251167E1,2.3097689E1,8.47782E1,3.1388998E0,2.1678251E1,1.1234633E1,6.9601994E0,4.6290966E1,1.6231289E1,6.8663993E0,3.8332382E1,4.6445812E1,1.2107176E0,1.9281822E0,1.4533989E1,7.1442633E0,8.805855E0,2.4287784E0],"tree_param":{"num_deleted":"0","num_feature":"100","num_nodes":"25","size_leaf_vector":"1"}},{"base_weights":[-5.816848E-3,-7.245216E-1,6.458278E-1,-1.0536252E0,-2.7776366E-1,9.331008E-1,-8.576157E-2,-3.904696E-1,-1.1482944E0,-5.63155E-1,6.334503E-2,1.0088694E0,-5.6220777E-2,-3.997285E-1,5.308759E-1,-3.0986084E-2,8.766368E-3,-3.992842E-3,-5.8890816E-2,-4.7671955E-2,6.190575E-3,-1.5227727E-2,3.191774E-2,6.400931E-2,2.239206E-2,-2.9740592E-2,1.615241E-2,-1.4808296E-2,7.369718E-2],"categories":[],"categories_nodes":[],"categories_segments":[],"categories_sizes":[],"default_left":[0,0,0,0,0,0,0,0,0,0,0,0,0,0,0,0,0,0,0,0,0,0,0,0,0,0,0,0,0],"id":7,"left_children":[1,3,5,7,9,11,13,15,17,19,21,23,-1,25,27,-1,-1,-1,-1,-1,-1,-1,-1,-1,-1,-1,-1,-1,-1],"loss_changes":[9.353147E1,1.3669853E1,2.2093948E1,2.96212E0,4.0892687E0,1.2872696E1,6.1073065E0,1.1854501E0,1.3891487E0,6.2236333E0,4.3972178E0,1.0561142E1,0E0,3.1174872E0,8.784022E0,0E0,0E0,0E0,0E0,0E0,0E0,0E0,0E0,0E0,0E0,0E0,0E0,0E0,0E0],"parents":[2147483647,0,0,1,1,2,2,3,3,4,4,5,5,6,6,7,7,8,8,9,9,10,10,11,11,13,13,14,14],"right_children":[2,4,6,8,10,12,14,16,18,20,22,24,-1,26,28,-1,-1,-1,-1,-1,-1,-1,-1,-1,-1,-1,-1,-1,-1],"split_conditions":[6.9309825E-1,6.0002875E-1,6.8E0,1E0,1E0,1E0,1.7533333E2,1E0,3.9841285E-1,1E0,1.646E2,5E-1,-5.6220777E-2,9.2E0,7.607272E-1,-3.0986084E-2,8.766368E-3,-3.992842E-3,-5.8890816E-2,-4.7671955E-2,6.190575E-3,-1.5227727E-2,3.191774E-2,6.400931E-2,2.239206E-2,-2.9740592E-2,1.615241E-2,-1.4808296E-2,7.369718E-2],"split_indices":[97,97,76,11,33,45,98,17,99,13,98,68,0,76,97,0,0,0,0,0,0,0,0,0,0,0,0,0,0],"split_type":[0,0,0,0,0,0,0,0,0,0,0,0,0,0,0,0,0,0,0,0,0,0,0,0,0,0,0,0,0],"sum_hessian":[1.9770935E2,9.396389E1,1.0374546E2,5.332426E1,4.063963E1,7.429616E1,2.9449303E1,7.301558E0,4.6022705E1,2.177252E1,1.886711E1,7.214892E1,2.1472375E0,1.9746794E1,9.702509E0,5.128331E0,2.1732266E0,1.3370758E0,4.4685627E1,1.363705E1,8.135469E0,1.1792466E1,7.074642E0,4.776676E1,2.4382158E1,1.5689197E1,4.057597E0,5.5346994E0,4.16781E0],"tree_param":{"num_deleted":"0","num_feature":"100","num_nodes":"29","size_leaf_vector":"1"}},{"base_weights":[-5.731385E-3,-8.2108307E-1,5.234734E-1,4.9411517E-2,-8.81553E-1,7.964712E-1,-1.984114E-1,-1.2456084E0,-6.551828E-1,8.663171E-1,-8.3801657E-1,-4.9064824E-1,3.570156E-1,-6.4902894E-2,-2.9318506E-2,-9.988805E-3,-4.6351068E-2,2.5536612E-2,5.7279516E-2,-8.997886E-3,-5.2552033E-2,-3.938484E-2,6.58691E-3,3.2334503E-2,-2.8741146E-2],"categories":[],"categories_nodes":[],"categories_segments":[],"categories_sizes":[],"default_left":[0,0,0,0,0,0,0,0,0,0,0,0,0,0,0,0,0,0,0,0,0,0,0,0,0],"id":8,"left_children":[1,3,5,-1,7,9,11,13,15,17,19,21,23,-1,-1,-1,-1,-1,-1,-1,-1,-1,-1,-1,-1],"loss_changes":[8.54746E1,9.401218E0,2.3832764E1,0E0,5.444832E0,1.0699993E1,5.655775E0,2.0763016E-1,5.8751354E0,7.784176E0,3.8402295E-1,4.271959E0,3.6701374E0,0E0,0E0,0E0,0E0,0E0,0E0,0E0,0E0,0E0,0E0,0E0,0E0],"parents":[2147483647,0,0,1,1,2,2,4,4,5,5,6,6,7,7,8,8,9,9,10,10,11,11,12,12],"right_children":[2,4,6,-1,8,10,12,14,16,18,20,22,24,-1,-1,-1,-1,-1,-1,-1,-1,-1,-1,-1,-1],"split_conditions":[6.631125E-1,1E0,7.1E0,4.9411517E-2,4.819454E-1,1E0,8.5E0,7E0,7.1E0,7.814196E-1,6.961304E-1,7.781526E-1,1E0,-6.4902894E-2,-2.9318506E-2,-9.988805E-3,-4.6351068E-2,2.5536612E-2,5.7279516E-2,-8.997886E-3,-5.2552033E-2,-3.938484E-2,6.58691E-3,3.2334503E-2,-2.8741146E-2],"split_indices":[97,1,76,0,97,45,76,79,76,97,97,97,55,0,0,0,0,0,0,0,0,0,0,0,0],"split_type":[0,0,0,0,0,0,0,0,0,0,0,0,0,0,0,0,0,0,0,0,0,0,0,0,0],"sum_hessian":[1.9609653E2,7.696467E1,1.1913187E2,1.992898E0,7.497177E1,8.6366875E1,3.276499E1,2.7018034E1,4.795374E1,8.327816E1,3.0887167E0,2.1545498E1,1.1219492E1,2.4129263E1,2.8887696E0,1.8573225E1,2.9380514E1,3.7878338E1,4.539982E1,1.20649E0,1.8822268E0,1.4404841E1,7.140656E0,8.792296E0,2.4271963E0],"tree_param":{"num_deleted":"0","num_feature":"100","num_nodes":"25","size_leaf_vector":"1"}},{"base_weights":[-6.0601155E-3,-6.685623E-1,5.954177E-1,-9.818502E-1,-2.5174746E-1,8.6477846E-1,-8.029434E-2,-3.5252938E-1,-1.0741215E0,-5.234274E-1,7.099305E-2,9.364059E-1,-5.3618472E-2,-3.7905735E-1,5.077171E-1,-5.0587053E-3,-4.9360797E-2,-2.7361177E-3,-5.5174537E-2,-4.4882115E-2,6.4777606E-3,-1.7284153E-2,2.8021455E-2,6.0282327E-2,1.9496717E-2,-2.8147334E-2,1.5060628E-2,-1.39678065E-2,7.060626E-2],"categories":[],"categories_nodes":[],"categories_segments":[],"categories_sizes":[],"default_left":[0,0,0,0,0,0,0,0,0,0,0,0,0,0,0,0,0,0,0,0,0,0,0,0,0,0,0,0,0],"id":9,"left_children":[1,3,5,7,9,11,13,15,17,19,21,23,-1,25,27,-1,-1,-1,-1,-1,-1,-1,-1,-1,-1,-1,-1,-1,-1],"loss_changes":[7.8283745E1,1.1959873E1,1.8812054E1,2.7003212E0,3.6722567E0,1.1231777E1,5.5092397E0,1.2192485E0,1.3094635E0,5.645791E0,4.237544E0,1.0066963E1,0E0,2.7516115E0,7.9569793E0,0E0,0E0,0E0,0E0,0E0,0E0,0E0,0E0,0E0,0E0,0E0,0E0,0E0,0E0],"parents":[2147483647,0,0,1,1,2,2,3,3,4,4,5,5,6,6,7,7,8,8,9,9,10,10,11,11,13,13,14,14],"right_children":[2,4,6,8,10,12,14,16,18,20,22,24,-1,26,28,-1,-1,-1,-1,-1,-1,-1,-1,-1,-1,-1,-1,-1,-1],"split_conditions":[6.9309825E-1,6.0002875E-1,6.8E0,1E0,1E0,1E0,1.7533333E2,1E0,3.9841285E-1,1E0,1E0,5E-1,-5.3618472E-2,9.2E0,7.607272E-1,-5.0587053E-3,-4.9360797E-2,-2.7361177E-3,-5.5174537E-2,-4.4882115E-2,6.4777606E-3,-1.7284153E-2,2.8021455E-2,6.0282327E-2,1.9496717E-2,-2.8147334E-2,1.5060628E-2,-1.39678065E-2,7.060626E-2],"split_indices":[97,97,76,11,33,45,98,38,99,13,48,68,0,76,97,0,0,0,0,0,0,0,0,0,0,0,0,0,0],"split_type":[0,0,0,0,0,0,0,0,0,0,0,0,0,0,0,0,0,0,0,0,0,0,0,0,0,0,0,0,0],"sum_hessian":[1.9445673E2,9.248115E1,1.0197558E2,5.2023476E1,4.0457676E1,7.271087E1,2.9264713E1,7.2687526E0,4.4754723E1,2.1628872E1,1.8828804E1,7.061638E1,2.0944865E0,1.9640778E1,9.623936E0,6.0372324E0,1.2315205E0,1.3334686E0,4.3421253E1,1.3511149E1,8.117723E0,1.0329018E1,8.499786E0,4.650006E1,2.411632E1,1.5597073E1,4.043706E0,5.5152946E0,4.108641E0],"tree_param":{"num_deleted":"0","num_feature":"100","num_nodes":"29","size_leaf_vector":"1"}},{"base_weights":[-6.1555714E-3,-7.676161E-1,4.776312E-1,4.8162714E-2,-8.2735723E-1,7.3870033E-1,-1.8891682E-1,-1.173723E0,-6.120876E-1,3.7720144E-1,1.0477456E0,-4.6864176E-1,3.4859216E-1,-6.128759E-2,-2.6810808E-2,-8.986088E-3,-4.388384E-2,-1.6665211E-3,5.007237E-2,5.677359E-2,-5.2212007E-2,-3.7287753E-2,6.4715333E-3,3.15027E-2,-2.828954E-2],"categories":[],"categories_nodes":[],"categories_segments":[],"categories_sizes":[],"default_left":[0,0,0,0,0,0,0,0,0,0,0,0,0,0,0,0,0,0,0,0,0,0,0,0,0],"id":10,"left_children":[1,3,5,-1,7,9,11,13,15,17,19,21,23,-1,-1,-1,-1,-1,-1,-1,-1,-1,-1,-1,-1],"loss_changes":[7.171338E1,8.617146E0,2.085556E1,0E0,4.7724876E0,9.184311E0,5.3206882E0,2.4281311E-1,5.2974167E0,1.0561539E1,9.566093E0,3.90624E0,3.5256834E0,0E0,0E0,0E0,0E0,0E0,0E0,0E0,0E0,0E0,0E0,0E0,0E0],"parents":[2147483647,0,0,1,1,2,2,4,4,5,5,6,6,7,7,8,8,9,9,10,10,11,11,12,12],"right_children":[2,4,6,-1,8,10,12,14,16,18,20,22,24,-1,-1,-1,-1,-1,-1,-1,-1,-1,-1,-1,-1],"split_conditions":[6.6117287E-1,1E0,7.1E0,4.8162714E-2,4.819454E-1,7.814196E-1,8.5E0,7E0,7.1E0,1E0,8E0,7.781526E-1,1E0,-6.128759E-2,-2.6810808E-2,-8.986088E-3,-4.388384E-2,-1.6665211E-3,5.007237E-2,5.677359E-2,-5.2212007E-2,-3.7287753E-2,6.4715333E-3,3.15027E-2,-2.828954E-2],"split_indices":[97,1,76,0,97,97,76,79,76,73,81,97,55,0,0,0,0,0,0,0,0,0,0,0,0],"split_type":[0,0,0,0,0,0,0,0,0,0,0,0,0,0,0,0,0,0,0,0,0,0,0,0,0],"sum_hessian":[1.9267462E2,7.462743E1,1.18047195E2,1.9852512E0,7.264218E1,8.474614E1,3.3301052E1,2.6136528E1,4.6505653E1,4.0081844E1,4.46643E1,2.198695E1,1.1314101E1,2.3311298E1,2.8252296E0,1.8334576E1,2.817108E1,2.4751055E1,1.5330788E1,4.330554E1,1.3587635E0,1.4856396E1,7.1305547E0,8.888905E0,2.4251966E0],"tree_param":{"num_deleted":"0","num_feature":"100","num_nodes":"25","size_leaf_vector":"1"}},{"base_weights":[-6.241436E-3,-6.338352E-1,5.366757E-1,5.325181E-2,-6.9390935E-1,8.1280583E-1,-1.1023346E-2,-9.6035874E-1,-3.0947888E-1,3.2819948E-1,1.154275E0,-9.34332E-1,3.1191248E-1,-5.1351767E-2,-1.6037358E-2,3.2701113E-3,-2.9767206E-2,4.1674506E-2,-2.1474747E-2,1.0488983E-2,5.935536E-2,-5.848002E-2,2.5638884E-2,2.779614E-2,-2.6570385E-2],"categories":[],"categories_nodes":[],"categories_segments":[],"categories_sizes":[],"default_left":[0,0,0,0,0,0,0,0,0,0,0,0,0,0,0,0,0,0,0,0,0,0,0,0,0],"id":11,"left_children":[1,3,5,-1,7,9,11,13,15,17,19,21,23,-1,-1,-1,-1,-1,-1,-1,-1,-1,-1,-1,-1],"loss_changes":[6.572954E1,9.870342E0,1.5652445E1,0E0,8.616474E0,1.1002876E1,1.0923158E1,1.8422661E0,4.0146866E0,1.1778086E1,9.898834E-1,3.8306656E0,5.885769E0,0E0,0E0,0E0,0E0,0E0,0E0,0E0,0E0,0E0,0E0,0E0,0E0],"parents":[2147483647,0,0,1,1,2,2,4,4,5,5,6,6,7,7,8,8,9,9,10,10,11,11,12,12],"right_children":[2,4,6,-1,8,10,12,14,16,18,20,22,24,-1,-1,-1,-1,-1,-1,-1,-1,-1,-1,-1,-1],"split_conditions":[6.8917745E-1,1E0,1E1,5.325181E-2,6.0002875E-1,7.781526E-1,1E0,1E0,7.1E0,1E0,1.16E2,1E0,1E0,-5.1351767E-2,-1.6037358E-2,3.2701113E-3,-2.9767206E-2,4.1674506E-2,-2.1474747E-2,1.0488983E-2,5.935536E-2,-5.848002E-2,2.5638884E-2,2.779614E-2,-2.6570385E-2],"split_indices":[97,1,78,0,97,97,70,36,76,34,98,19,55,0,0,0,0,0,0,0,0,0,0,0,0],"split_type":[0,0,0,0,0,0,0,0,0,0,0,0,0,0,0,0,0,0,0,0,0,0,0,0,0],"sum_hessian":[1.9090887E2,8.8471436E1,1.0243744E2,2.4502673E0,8.602117E1,6.778078E1,3.4656666E1,4.9922012E1,3.609916E1,2.8828733E1,3.895204E1,8.489894E0,2.6166775E1,4.4660625E1,5.261386E0,1.5951595E1,2.0147564E1,1.7235022E1,1.1593712E1,1.5567946E0,3.739525E1,7.467594E0,1.0222995E0,2.0558943E1,5.607831E0],"tree_param":{"num_deleted":"0","num_feature":"100","num_nodes":"25","size_leaf_vector":"1"}},{"base_weights":[-5.8717937E-3,-7.113961E-1,4.4003153E-1,4.5002036E-2,-7.6798785E-1,6.855445E-1,-1.7818382E-1,-1.1106151E0,-5.5984455E-1,7.4965805E-1,-7.258877E-1,-4.4481903E-1,3.3267996E-1,-5.815648E-2,-2.437759E-2,-7.701959E-3,-4.0643506E-2,-2.0477263E-2,4.097283E-2,5.4556364E-3,-5.280602E-2,-3.5402253E-2,5.9612296E-3,2.9876918E-2,-2.6355514E-2],"categories":[],"categories_nodes":[],"categories_segments":[],"categories_sizes":[],"default_left":[0,0,0,0,0,0,0,0,0,0,0,0,0,0,0,0,0,0,0,0,0,0,0,0,0],"id":12,"left_children":[1,3,5,-1,7,9,11,13,15,17,19,21,23,-1,-1,-1,-1,-1,-1,-1,-1,-1,-1,-1,-1],"loss_changes":[6.013756E1,7.441864E0,1.7901377E1,0E0,4.516739E0,8.149864E0,4.791527E0,2.9061127E-1,4.6842546E0,6.8803177E0,1.2623377E0,3.4735737E0,3.1075146E0,0E0,0E0,0E0,0E0,0E0,0E0,0E0,0E0,0E0,0E0,0E0,0E0],"parents":[2147483647,0,0,1,1,2,2,4,4,5,5,6,6,7,7,8,8,9,9,10,10,11,11,12,12],"right_children":[2,4,6,-1,8,10,12,14,16,18,20,22,24,-1,-1,-1,-1,-1,-1,-1,-1,-1,-1,-1,-1],"split_conditions":[6.6117287E-1,1E0,7.1E0,4.5002036E-2,4.819454E-1,1E0,8.5E0,7E0,7.1E0,1E0,6.854446E-1,7.781526E-1,1E0,-5.815648E-2,-2.437759E-2,-7.701959E-3,-4.0643506E-2,-2.0477263E-2,4.097283E-2,5.4556364E-3,-5.280602E-2,-3.5402253E-2,5.9612296E-3,2.9876918E-2,-2.6355514E-2],"split_indices":[97,1,76,0,97,45,76,79,76,87,97,97,55,0,0,0,0,0,0,0,0,0,0,0,0],"split_type":[0,0,0,0,0,0,0,0,0,0,0,0,0,0,0,0,0,0,0,0,0,0,0,0,0],"sum_hessian":[1.8916325E2,7.3025024E1,1.1613823E2,1.9718872E0,7.105314E1,8.304823E1,3.3089996E1,2.5213335E1,4.58398E1,7.9888214E1,3.1600158E0,2.182707E1,1.1262926E1,2.2454021E1,2.759312E0,1.8222742E1,2.761706E1,4.2606363E0,7.562758E1,1.0853285E0,2.0746875E0,1.4707924E1,7.119147E0,8.843657E0,2.4192698E0],"tree_param":{"num_deleted":"0","num_feature":"100","num_nodes":"25","size_leaf_vector":"1"}},{"base_weights":[-6.3929036E-3,-4.8513138E-1,6.056884E-1,-8.5836446E-1,-1.4856458E-1,1.2663137E0,3.6643833E-1,-6.2007774E-2,-6.8505263E-1,1.7862453E-1,-4.2861325E-1,1.3868824E-2,1.3033518E0,-4.6661247E-2,8.150115E-1,-1.631346E-2,-4.5663696E-2,-1.8056815E-2,2.644143E-2,-3.5210297E-2,5.2354233E-3,1.6463336E-2,6.720414E-2,2.8685495E-2,-1.6542183E-2,2.604868E-3,5.7763666E-2],"categories":[],"categories_nodes":[],"categories_segments":[],"categories_sizes":[],"default_left":[0,0,0,0,0,0,0,0,0,0,0,0,0,0,0,0,0,0,0,0,0,0,0,0,0,0,0],"id":13,"left_children":[1,3,5,7,9,11,13,-1,15,17,19,-1,21,23,25,-1,-1,-1,-1,-1,-1,-1,-1,-1,-1,-1,-1],"loss_changes":[5.5481895E1,1.3217556E1,1.2670692E1,2.469761E0,5.305909E0,4.3284988E-1,1.1603893E1,0E0,2.710083E0,5.299625E0,4.636699E0,0E0,3.7609482E-1,6.084912E0,7.72155E0,0E0,0E0,0E0,0E0,0E0,0E0,0E0,0E0,0E0,0E0,0E0,0E0],"parents":[2147483647,0,0,1,1,2,2,3,3,4,4,5,5,6,6,8,8,9,9,10,10,12,12,13,13,14,14],"right_children":[2,4,6,8,10,12,14,-1,16,18,20,-1,22,24,26,-1,-1,-1,-1,-1,-1,-1,-1,-1,-1,-1,-1],"split_conditions":[7.232433E-1,6.0002875E-1,5.1E0,4.205318E-1,7.1E0,1.20666664E2,1.7225E2,-6.2007774E-2,9.178188E-1,1.4966667E2,1E0,1.3868824E-2,1E0,2.25E-1,7.664731E-1,-1.631346E-2,-4.5663696E-2,-1.8056815E-2,2.644143E-2,-3.5210297E-2,5.2354233E-3,1.6463336E-2,6.720414E-2,2.8685495E-2,-1.6542183E-2,2.604868E-3,5.7763666E-2],"split_indices":[97,97,76,97,76,98,98,0,99,98,33,0,87,71,97,0,0,0,0,0,0,0,0,0,0,0,0],"split_type":[0,0,0,0,0,0,0,0,0,0,0,0,0,0,0,0,0,0,0,0,0,0,0,0,0,0,0],"sum_hessian":[1.8733789E2,1.052355E2,8.210239E1,4.916453E1,5.6070965E1,2.0687237E1,6.141515E1,1.3428055E1,3.5736477E1,2.6026089E1,3.0044878E1,1.0532722E0,1.9633965E1,3.2438183E1,2.8976965E1,1.4838579E1,2.0897898E1,1.0229067E1,1.5797022E1,1.9597502E1,1.0447376E1,1.1526281E0,1.8481337E1,9.870984E0,2.25672E1,9.293273E0,1.9683693E1],"tree_param":{"num_deleted":"0","num_feature":"100","num_nodes":"27","size_leaf_vector":"1"}},{"base_weights":[-5.9632007E-3,-5.529643E-1,4.9081254E-1,5.1863004E-2,-6.116049E-1,7.307882E-1,-8.823074E-2,-8.723462E-1,-2.7013868E-1,7.99452E-1,-5.1675435E-2,-3.5622582E-1,4.4511926E-1,-4.696736E-2,-1.2704228E-2,1.1765687E-3,-2.5359118E-2,5.31671E-2,1.4540168E-2,-2.6483772E-2,1.4016325E-2,-1.3787842E-2,6.489013E-2],"categories":[],"categories_nodes":[],"categories_segments":[],"categories_sizes":[],"default_left":[0,0,0,0,0,0,0,0,0,0,0,0,0,0,0,0,0,0,0,0,0,0,0],"id":14,"left_children":[1,3,5,-1,7,9,11,13,15,17,-1,19,21,-1,-1,-1,-1,-1,-1,-1,-1,-1,-1],"loss_changes":[5.0983696E1,8.960993E0,1.3728216E1,0E0,7.4876366E0,9.261154E0,4.4042645E0,1.7802544E0,2.7273216E0,8.762264E0,0E0,2.3925936E0,6.737253E0,0E0,0E0,0E0,0E0,0E0,0E0,0E0,0E0,0E0,0E0],"parents":[2147483647,0,0,1,1,2,2,4,4,5,5,6,6,7,7,8,8,9,9,11,11,12,12],"right_children":[2,4,6,-1,8,10,12,14,16,18,-1,20,22,-1,-1,-1,-1,-1,-1,-1,-1,-1,-1],"split_conditions":[6.9309825E-1,1E0,6.8E0,5.1863004E-2,6.0002875E-1,1E0,1.7533333E2,1E0,7.1E0,5E-1,-5.1675435E-2,9.2E0,7.607272E-1,-4.696736E-2,-1.2704228E-2,1.1765687E-3,-2.5359118E-2,5.31671E-2,1.4540168E-2,-2.6483772E-2,1.4016325E-2,-1.3787842E-2,6.489013E-2],"split_indices":[97,1,76,0,97,45,98,36,76,68,0,76,97,0,0,0,0,0,0,0,0,0,0],"split_type":[0,0,0,0,0,0,0,0,0,0,0,0,0,0,0,0,0,0,0,0,0,0,0],"sum_hessian":[1.8562279E2,8.829159E1,9.733121E1,2.5465126E0,8.574507E1,6.862752E1,2.8703688E1,4.7737976E1,3.80071E1,6.658308E1,2.0444436E0,1.9325302E1,9.378386E0,4.260188E1,5.136097E0,1.737821E1,2.062889E1,4.3121082E1,2.3461996E1,1.5319029E1,4.006273E0,5.448615E0,3.9297705E0],"tree_param":{"num_deleted":"0","num_feature":"100","num_nodes":"23","size_leaf_vector":"1"}},{"base_weights":[-5.5701104E-3,-4.491041E-1,5.637249E-1,-8.0197805E-1,-1.3811064E-1,1.209069E0,3.3638692E-1,-5.951307E-2,-6.296042E-1,1.6096209E-1,-3.949204E-1,1.2319133E-2,1.2466867E0,-5.3197086E-2,7.657064E-1,-1.3919043E-2,-4.287834E-2,1.74755E-2,-3.696958E-2,-3.2977637E-2,5.60977E-3,1.4821007E-2,6.440331E-2,2.7112557E-2,-1.6136615E-2,1.994671E-3,5.488425E-2],"categories":[],"categories_nodes":[],"categories_segments":[],"categories_sizes":[],"default_left":[0,0,0,0,0,0,0,0,0,0,0,0,0,0,0,0,0,0,0,0,0,0,0,0,0,0,0],"id":15,"left_children":[1,3,5,7,9,11,13,-1,15,17,19,-1,21,23,25,-1,-1,-1,-1,-1,-1,-1,-1,-1,-1,-1,-1],"loss_changes":[4.6879185E1,1.1340643E1,1.1521982E1,2.5084152E0,4.4163985E0,4.4592857E-1,1.03289585E1,0E0,2.6302547E0,4.823775E0,4.20478E0,0E0,3.9546204E-1,5.5007343E0,7.0230427E0,0E0,0E0,0E0,0E0,0E0,0E0,0E0,0E0,0E0,0E0,0E0,0E0],"parents":[2147483647,0,0,1,1,2,2,3,3,4,4,5,5,6,6,8,8,9,9,10,10,12,12,13,13,14,14],"right_children":[2,4,6,8,10,12,14,-1,16,18,20,-1,22,24,26,-1,-1,-1,-1,-1,-1,-1,-1,-1,-1,-1,-1],"split_conditions":[7.232433E-1,6.0002875E-1,5.1E0,4.205318E-1,7.1E0,1.20666664E2,1.7225E2,-5.951307E-2,9.178188E-1,6.333333E-1,1E0,1.2319133E-2,1E0,2.25E-1,7.664731E-1,-1.3919043E-2,-4.287834E-2,1.74755E-2,-3.696958E-2,-3.2977637E-2,5.60977E-3,1.4821007E-2,6.440331E-2,2.7112557E-2,-1.6136615E-2,1.994671E-3,5.488425E-2],"split_indices":[97,97,76,97,76,98,98,0,99,71,33,0,87,71,97,0,0,0,0,0,0,0,0,0,0,0,0],"split_type":[0,0,0,0,0,0,0,0,0,0,0,0,0,0,0,0,0,0,0,0,0,0,0,0,0,0,0],"sum_hessian":[1.8365625E2,1.0334891E2,8.0307335E1,4.7674957E1,5.5673954E1,1.9795496E1,6.051184E1,1.2842125E1,3.4832832E1,2.5892996E1,2.9780958E1,1.0283483E0,1.8767147E1,3.2183323E1,2.8328518E1,1.4584137E1,2.0248695E1,2.1915384E1,3.9776113E0,1.937155E1,1.0409409E1,1.1237625E0,1.7643385E1,9.713276E0,2.2470045E1,9.242209E0,1.9086308E1],"tree_param":{"num_deleted":"0","num_feature":"100","num_nodes":"27","size_leaf_vector":"1"}},{"base_weights":[-5.3268434E-3,-6.186971E-1,3.784139E-1,4.2510625E-2,-6.7265105E-1,6.540626E-1,-8.210129E-2,-4.678763E-1,-9.923765E-1,2.3937333E-1,1.0258969E0,-8.26873E-1,1.491867E-1,-4.3555856E-2,-5.0536883E-3,-1.846982E-2,-6.294186E-2,3.503058E-2,-2.4216352E-2,7.1857595E-3,5.2957382E-2,-5.0090786E-2,1.2976887E-2,2.0620506E-2,-3.337896E-2],"categories":[],"categories_nodes":[],"categories_segments":[],"categories_sizes":[],"default_left":[0,0,0,0,0,0,0,0,0,0,0,0,0,0,0,0,0,0,0,0,0,0,0,0,0],"id":16,"left_children":[1,3,5,-1,7,9,11,13,15,17,19,21,23,-1,-1,-1,-1,-1,-1,-1,-1,-1,-1,-1,-1],"loss_changes":[4.32826E1,6.18038E0,1.4414047E1,0E0,4.0412903E0,1.0683683E1,7.573042E0,6.396593E0,3.8469276E0,1.1959819E1,9.350548E-1,2.2367864E0,7.552089E0,0E0,0E0,0E0,0E0,0E0,0E0,0E0,0E0,0E0,0E0,0E0,0E0],"parents":[2147483647,0,0,1,1,2,2,4,4,5,5,6,6,7,7,8,8,9,9,10,10,11,11,12,12],"right_children":[2,4,6,-1,8,10,12,14,16,18,20,22,24,-1,-1,-1,-1,-1,-1,-1,-1,-1,-1,-1,-1],"split_conditions":[6.6117287E-1,1E0,1E1,4.2510625E-2,4E0,7.781526E-1,1E0,5E-1,1E0,1E0,1.16E2,1E0,1E0,-4.3555856E-2,-5.0536883E-3,-1.846982E-2,-6.294186E-2,3.503058E-2,-2.4216352E-2,7.1857595E-3,5.2957382E-2,-5.0090786E-2,1.2976887E-2,2.0620506E-2,-3.337896E-2],"split_indices":[97,1,78,0,77,97,70,69,73,34,98,19,55,0,0,0,0,0,0,0,0,0,0,0,0],"split_type":[0,0,0,0,0,0,0,0,0,0,0,0,0,0,0,0,0,0,0,0,0,0,0,0,0],"sum_hessian":[1.8189304E2,6.976637E1,1.1212667E2,1.9489045E0,6.781747E1,6.987912E1,4.224755E1,4.2841873E1,2.4975592E1,3.381292E1,3.6066196E1,9.400825E0,3.2846725E1,1.9752386E1,2.3089487E1,8.197138E0,1.6778456E1,2.06707E1,1.31422205E1,1.5033245E0,3.4562874E1,8.164049E0,1.2367752E0,2.5215473E1,7.6312537E0],"tree_param":{"num_deleted":"0","num_feature":"100","num_nodes":"25","size_leaf_vector":"1"}},{"base_weights":[-5.472635E-3,-4.174928E-1,5.253132E-1,-9.243578E-1,-2.2128423E-1,1.1629834E0,3.0683193E-1,-9.802953E-1,-2.875033E-1,9.782332E-2,-4.6259236E-1,1.202641E0,1.1838134E-2,-6.112134E-2,7.189335E-1,-5.1877286E-2,-1.2485872E-2,1.424032E-2,-3.318366E-2,1.4508888E-2,-4.3236308E-2,-3.809126E-2,1.615935E-3,1.3256264E-2,6.226472E-2,1.6085926E-2,-2.2622641E-2,1.615675E-3,5.215293E-2],"categories":[],"categories_nodes":[],"categories_segments":[],"categories_sizes":[],"default_left":[0,0,0,0,0,0,0,0,0,0,0,0,0,0,0,0,0,0,0,0,0,0,0,0,0,0,0,0,0],"id":17,"left_children":[1,3,5,7,9,11,13,15,17,19,21,23,-1,25,27,-1,-1,-1,-1,-1,-1,-1,-1,-1,-1,-1,-1,-1,-1],"loss_changes":[3.9826828E1,9.991079E0,1.0731571E1,7.2616196E-1,5.837695E0,4.4813728E-1,9.238714E0,8.1147194E-1,9.8549557E-1,6.4008336E0,6.3937798E0,4.2513275E-1,0E0,5.0830197E0,6.349352E0,0E0,0E0,0E0,0E0,0E0,0E0,0E0,0E0,0E0,0E0,0E0,0E0,0E0,0E0],"parents":[2147483647,0,0,1,1,2,2,3,3,4,4,5,5,6,6,7,7,8,8,9,9,10,10,11,11,13,13,14,14],"right_children":[2,4,6,8,10,12,14,16,18,20,22,24,-1,26,28,-1,-1,-1,-1,-1,-1,-1,-1,-1,-1,-1,-1,-1,-1],"split_conditions":[7.232433E-1,5.146147E-1,5.1E0,7E0,7.1E0,5.6666666E-1,1.7225E2,1E0,9.178188E-1,7.6666665E-1,1E0,1.2325E2,1.1838134E-2,1E0,7.664731E-1,-5.1877286E-2,-1.2485872E-2,1.424032E-2,-3.318366E-2,1.4508888E-2,-4.3236308E-2,-3.809126E-2,1.615935E-3,1.3256264E-2,6.226472E-2,1.6085926E-2,-2.2622641E-2,1.615675E-3,5.215293E-2],"split_indices":[97,97,76,79,76,71,98,36,99,71,33,98,0,13,97,0,0,0,0,0,0,0,0,0,0,0,0,0,0],"split_type":[0,0,0,0,0,0,0,0,0,0,0,0,0,0,0,0,0,0,0,0,0,0,0,0,0,0,0,0,0],"sum_hessian":[1.801089E2,1.01518814E2,7.8590096E1,2.7295458E1,7.422335E1,1.8952206E1,5.963789E1,2.4595829E1,2.6996288E0,3.2215702E1,4.2007652E1,1.7887869E1,1.064336E0,3.1956533E1,2.7681356E1,2.2418848E1,2.1769817E0,1.1670074E0,1.5326215E0,2.743222E1,4.7834816E0,2.5843098E1,1.6164555E1,1.0924219E0,1.6795448E1,1.6243446E1,1.5713087E1,9.229488E0,1.8451868E1],"tree_param":{"num_deleted":"0","num_feature":"100","num_nodes":"29","size_leaf_vector":"1"}},{"base_weights":[-5.2973386E-3,-5.7888037E-1,3.5184693E-1,4.1314926E-2,-6.316187E-1,6.121617E-1,-7.614109E-2,-4.3597808E-1,-9.432017E-1,2.187226E-1,9.745792E-1,-7.888809E-1,1.4537507E-1,-4.1307192E-2,-4.48724E-3,-1.6666623E-2,-6.0518075E-2,3.3158895E-2,-2.3513889E-2,6.8791583E-3,5.0356735E-2,-7.1294843E-3,-5.6651123E-2,1.9744858E-2,-3.1500023E-2],"categories":[],"categories_nodes":[],"categories_segments":[],"categories_sizes":[],"default_left":[0,0,0,0,0,0,0,0,0,0,0,0,0,0,0,0,0,0,0,0,0,0,0,0,0],"id":18,"left_children":[1,3,5,-1,7,9,11,13,15,17,19,21,23,-1,-1,-1,-1,-1,-1,-1,-1,-1,-1,-1,-1],"loss_changes":[3.694623E1,5.6503677E0,1.2430882E1,0E0,3.6892757E0,9.658115E0,6.8924675E0,5.7591286E0,3.6838703E0,1.0871643E1,8.3546066E-1,2.1369457E0,6.7484803E0,0E0,0E0,0E0,0E0,0E0,0E0,0E0,0E0,0E0,0E0,0E0,0E0],"parents":[2147483647,0,0,1,1,2,2,4,4,5,5,6,6,7,7,8,8,9,9,10,10,11,11,12,12],"right_children":[2,4,6,-1,8,10,12,14,16,18,20,22,24,-1,-1,-1,-1,-1,-1,-1,-1,-1,-1,-1,-1],"split_conditions":[6.6117287E-1,1E0,1E1,4.1314926E-2,4E0,7.781526E-1,1E0,5E-1,1E0,1E0,1.16E2,5E-1,1E0,-4.1307192E-2,-4.48724E-3,-1.6666623E-2,-6.0518075E-2,3.3158895E-2,-2.3513889E-2,6.8791583E-3,5.0356735E-2,-7.1294843E-3,-5.6651123E-2,1.9744858E-2,-3.1500023E-2],"split_indices":[97,1,78,0,77,97,70,69,73,34,98,68,55,0,0,0,0,0,0,0,0,0,0,0,0],"split_type":[0,0,0,0,0,0,0,0,0,0,0,0,0,0,0,0,0,0,0,0,0,0,0,0,0],"sum_hessian":[1.7836156E2,6.820373E1,1.1015784E2,1.9365897E0,6.6267136E1,6.822878E1,4.1929054E1,4.2181152E1,2.4085983E1,3.348313E1,3.4745647E1,9.3342705E0,3.2594784E1,1.9180643E1,2.3000511E1,8.021738E0,1.6064245E1,2.0376371E1,1.3106761E1,1.496518E0,3.324913E1,3.7347732E0,5.599498E0,2.5030476E1,7.5643067E0],"tree_param":{"num_deleted":"0","num_feature":"100","num_nodes":"25","size_leaf_vector":"1"}},{"base_weights":[-5.590638E-3,-2.9428926E-1,6.5236E-1,-7.133133E-1,-4.7384728E-2,2.370624E-1,1.0876006E0,-5.539264E-2,-5.4622996E-1,5.7026154E-1,-1.5216893E-1,6.5603364E-1,-5.098953E-1,1.137303E0,2.2175822E-3,-1.0125353E-2,-3.8823225E-2,4.865487E-2,-5.6100335E-2,-3.495382E-2,5.733207E-4,3.8406737E-2,-2.497878E-2,7.881138E-3,-3.7011635E-2,1.3648647E-2,6.0308833E-2],"categories":[],"categories_nodes":[],"categories_segments":[],"categories_sizes":[],"default_left":[0,0,0,0,0,0,0,0,0,0,0,0,0,0,0,0,0,0,0,0,0,0,0,0,0,0,0],"id":19,"left_children":[1,3,5,7,9,11,13,-1,15,17,19,21,23,25,-1,-1,-1,-1,-1,-1,-1,-1,-1,-1,-1,-1,-1],"loss_changes":[3.3920795E1,1.2805859E1,9.586664E0,2.4234314E0,5.2100677E0,9.456776E0,1.3140163E0,0E0,2.5529747E0,9.062685E0,6.1355276E0,2.8595705E0,1.8136947E0,1.1635818E0,0E0,0E0,0E0,0E0,0E0,0E0,0E0,0E0,0E0,0E0,0E0,0E0,0E0],"parents":[2147483647,0,0,1,1,2,2,3,3,4,4,5,5,6,6,8,8,9,9,10,10,11,11,12,12,13,13],"right_children":[2,4,6,8,10,12,14,-1,16,18,20,22,24,26,-1,-1,-1,-1,-1,-1,-1,-1,-1,-1,-1,-1,-1],"split_conditions":[7.688031E-1,6.0002875E-1,1.7233333E2,4.205318E-1,1E0,1E1,9E0,-5.539264E-2,9.178188E-1,5.6666666E-1,6E0,1.6975E2,9.178151E-1,3.9841247E-1,2.2175822E-3,-1.0125353E-2,-3.8823225E-2,4.865487E-2,-5.6100335E-2,-3.495382E-2,5.733207E-4,3.8406737E-2,-2.497878E-2,7.881138E-3,-3.7011635E-2,1.3648647E-2,6.0308833E-2],"split_indices":[97,97,98,97,74,78,81,0,99,71,80,98,99,99,0,0,0,0,0,0,0,0,0,0,0,0,0],"split_type":[0,0,0,0,0,0,0,0,0,0,0,0,0,0,0,0,0,0,0,0,0,0,0,0,0,0,0],"sum_hessian":[1.7656729E2,1.23103905E2,5.3463383E1,4.4942516E1,7.816139E1,2.8148924E1,2.5314459E1,1.169535E1,3.324717E1,1.0692519E1,6.746887E1,1.8111721E1,1.0037202E1,2.4077217E1,1.2372417E0,1.409057E1,1.9156597E1,8.979879E0,1.71264E0,1.4784262E1,5.268461E1,1.6815786E1,1.2959344E0,2.6559474E0,7.3812547E0,2.1432955E0,2.1933922E1],"tree_param":{"num_deleted":"0","num_feature":"100","num_nodes":"27","size_leaf_vector":"1"}},{"base_weights":[-5.791742E-3,-4.47305E-1,3.9579558E-1,4.8448086E-2,-5.0252914E-1,1.0137243E0,2.057633E-1,-6.906515E-1,-1.4337091E-1,-4.205449E-4,1.0842004E0,-5.5997175E-1,3.7225905E-1,-1.9141708E-2,-4.3700915E-2,4.4930737E-2,-1.1379807E-2,5.8312368E-2,2.6402336E-3,-4.007749E-2,2.1225525E-2,3.4670807E-2,-1.9609816E-3],"categories":[],"categories_nodes":[],"categories_segments":[],"categories_sizes":[],"default_left":[0,0,0,0,0,0,0,0,0,0,0,0,0,0,0,0,0,0,0,0,0,0,0],"id":20,"left_children":[1,3,5,-1,7,9,11,13,15,-1,17,19,21,-1,-1,-1,-1,-1,-1,-1,-1,-1,-1],"loss_changes":[3.1374321E1,7.078575E0,1.0673608E1,0E0,5.426134E0,1.5609112E0,9.404505E0,2.6796703E0,2.7821794E0,0E0,1.6444225E0,3.499065E0,7.9361706E0,0E0,0E0,0E0,0E0,0E0,0E0,0E0,0E0,0E0,0E0],"parents":[2147483647,0,0,1,1,2,2,4,4,5,5,6,6,7,7,8,8,10,10,11,11,12,12],"right_children":[2,4,6,-1,8,10,12,14,16,-1,18,20,22,-1,-1,-1,-1,-1,-1,-1,-1,-1,-1],"split_conditions":[6.9309825E-1,1E0,5.1E0,4.8448086E-2,6.262827E-1,1E0,6E0,9.178188E-1,3.984119E-1,-4.205449E-4,1E0,8.350187E-1,1E0,-1.9141708E-2,-4.3700915E-2,4.4930737E-2,-1.1379807E-2,5.8312368E-2,2.6402336E-3,-4.007749E-2,2.1225525E-2,3.4670807E-2,-1.9609816E-3],"split_indices":[97,1,76,0,97,87,80,99,99,0,16,97,13,0,0,0,0,0,0,0,0,0,0],"split_type":[0,0,0,0,0,0,0,0,0,0,0,0,0,0,0,0,0,0,0,0,0,0,0],"sum_hessian":[1.7495149E2,8.3279015E1,9.167248E1,2.5044503E0,8.077456E1,2.054188E1,7.11306E1,5.240339E1,2.8371172E1,1.381806E0,1.9160074E1,1.2281795E1,5.8848804E1,2.0715744E1,3.1687647E1,1.3986537E0,2.6972517E1,1.76271E1,1.5329732E0,1.0011043E1,2.2707517E0,3.266711E1,2.6181696E1],"tree_param":{"num_deleted":"0","num_feature":"100","num_nodes":"23","size_leaf_vector":"1"}},{"base_weights":[-4.9766856E-3,-2.7357167E-1,6.1397636E-1,-6.688319E-1,-4.639664E-2,2.0891528E-1,1.04863E0,-5.358207E-2,-5.025185E-1,-2.6139277E-1,2.412948E-1,6.1502135E-1,-4.978447E-1,1.0990139E0,1.7437962E-3,-1.0278217E-2,-3.954377E-2,-7.493503E-3,-5.6022394E-2,1.8190397E-2,-2.4293303E-2,3.628572E-2,-2.4472892E-2,7.0461906E-3,-3.5777647E-2,1.2116897E-2,5.8457863E-2],"categories":[],"categories_nodes":[],"categories_segments":[],"categories_sizes":[],"default_left":[0,0,0,0,0,0,0,0,0,0,0,0,0,0,0,0,0,0,0,0,0,0,0,0,0,0,0],"id":21,"left_children":[1,3,5,7,9,11,13,-1,15,17,19,21,23,25,-1,-1,-1,-1,-1,-1,-1,-1,-1,-1,-1,-1,-1],"loss_changes":[2.9155148E1,1.094951E1,9.125294E0,2.4465008E0,4.9326897E0,8.549744E0,1.2566357E0,0E0,2.6990957E0,4.19475E0,3.2228215E0,2.6399279E0,1.6352246E0,1.166048E0,0E0,0E0,0E0,0E0,0E0,0E0,0E0,0E0,0E0,0E0,0E0,0E0,0E0],"parents":[2147483647,0,0,1,1,2,2,3,3,4,4,5,5,6,6,8,8,9,9,10,10,11,11,12,12,13,13],"right_children":[2,4,6,8,10,12,14,-1,16,18,20,22,24,26,-1,-1,-1,-1,-1,-1,-1,-1,-1,-1,-1,-1,-1],"split_conditions":[7.688031E-1,6.0002875E-1,1.7233333E2,4.205318E-1,1E0,1E1,9E0,-5.358207E-2,7.5E0,1E0,2E0,1.6975E2,9.178151E-1,3.9841247E-1,1.7437962E-3,-1.0278217E-2,-3.954377E-2,-7.493503E-3,-5.6022394E-2,1.8190397E-2,-2.4293303E-2,3.628572E-2,-2.4472892E-2,7.0461906E-3,-3.5777647E-2,1.2116897E-2,5.8457863E-2],"split_indices":[97,97,98,97,33,78,81,0,76,19,96,98,99,99,0,0,0,0,0,0,0,0,0,0,0,0,0],"split_type":[0,0,0,0,0,0,0,0,0,0,0,0,0,0,0,0,0,0,0,0,0,0,0,0,0,0,0],"sum_hessian":[1.7336143E2,1.2128692E2,5.207451E1,4.3557465E1,7.7729454E1,2.7721252E1,2.4353256E1,1.1137951E1,3.2419514E1,4.45374E1,3.3192055E1,1.7687674E1,1.003358E1,2.3120077E1,1.2331796E0,1.6815525E1,1.560399E1,4.045941E1,4.07799E0,2.8833784E1,4.358271E0,1.6388155E1,1.2995178E0,2.6400917E0,7.393488E0,2.086923E0,2.1033154E1],"tree_param":{"num_deleted":"0","num_feature":"100","num_nodes":"27","size_leaf_vector":"1"}},{"base_weights":[-5.4101455E-3,-2.630461E-1,5.935649E-1,-5.918447E-1,-6.5508196E-3,1.9935636E-1,1.0239726E0,5.0138343E-2,-6.4927053E-1,9.937399E-1,-7.010989E-2,5.9174573E-1,-4.746754E-1,1.0744206E0,1.695997E-3,-1.7333003E-2,-4.1638028E-2,9.629211E-3,6.136317E-2,-4.420397E-2,3.0725156E-3,3.503365E-2,-2.3650037E-2,6.798103E-3,-3.410415E-2,1.1758665E-2,5.723033E-2],"categories":[],"categories_nodes":[],"categories_segments":[],"categories_sizes":[],"default_left":[0,0,0,0,0,0,0,0,0,0,0,0,0,0,0,0,0,0,0,0,0,0,0,0,0,0,0],"id":22,"left_children":[1,3,5,7,9,11,13,-1,15,17,19,21,23,25,-1,-1,-1,-1,-1,-1,-1,-1,-1,-1,-1,-1,-1],"loss_changes":[2.6825256E1,1.024582E1,8.667028E0,5.527233E0,4.474678E0,7.8270345E0,1.199873E0,0E0,2.5989742E0,5.5041695E-1,7.1305957E0,2.4745622E0,1.4926245E0,1.1162415E0,0E0,0E0,0E0,0E0,0E0,0E0,0E0,0E0,0E0,0E0,0E0,0E0,0E0],"parents":[2147483647,0,0,1,1,2,2,3,3,4,4,5,5,6,6,8,8,9,9,10,10,11,11,12,12,13,13],"right_children":[2,4,6,8,10,12,14,-1,16,18,20,22,24,26,-1,-1,-1,-1,-1,-1,-1,-1,-1,-1,-1,-1,-1],"split_conditions":[7.688031E-1,6.262827E-1,1.7233333E2,1E0,3.9841178E-1,1E1,9E0,5.0138343E-2,9.178188E-1,5E-1,3.984156E-1,1.6975E2,9.178151E-1,3.9841247E-1,1.695997E-3,-1.7333003E-2,-4.1638028E-2,9.629211E-3,6.136317E-2,-4.420397E-2,3.0725156E-3,3.503365E-2,-2.3650037E-2,6.798103E-3,-3.410415E-2,1.1758665E-2,5.723033E-2],"split_indices":[97,97,98,1,99,78,81,0,99,69,99,98,99,99,0,0,0,0,0,0,0,0,0,0,0,0,0],"split_type":[0,0,0,0,0,0,0,0,0,0,0,0,0,0,0,0,0,0,0,0,0,0,0,0,0,0,0],"sum_hessian":[1.7181981E2,1.2053511E2,5.128469E1,5.2249546E1,6.828557E1,2.7531702E1,2.3752987E1,1.244E0,5.1005547E1,3.205327E0,6.508024E1,1.747858E1,1.00531225E1,2.2520254E1,1.2327327E0,2.0343851E1,3.0661694E1,1.1352572E0,2.07007E0,8.259339E0,5.6820904E1,1.6166615E1,1.3119653E0,2.6362112E0,7.416911E0,2.0737813E0,2.0446472E1],"tree_param":{"num_deleted":"0","num_feature":"100","num_nodes":"27","size_leaf_vector":"1"}},{"base_weights":[-4.6950895E-3,-2.4937502E-1,5.788379E-1,-7.9929674E-1,-1.0299557E-1,1.9787468E-1,9.981003E-1,-5.1918413E-2,-5.5743927E-1,1.6339222E-1,-3.7008974E-1,5.902686E-1,-4.5277622E-1,1.0489206E0,1.649506E-3,-1.5650855E-2,-4.8869193E-2,4.8093338E-2,-8.910545E-4,-3.4336087E-3,-3.8985312E-2,3.509248E-2,-2.285896E-2,6.0419384E-3,-3.3468854E-2,1.1410663E-2,5.5981874E-2],"categories":[],"categories_nodes":[],"categories_segments":[],"categories_sizes":[],"default_left":[0,0,0,0,0,0,0,0,0,0,0,0,0,0,0,0,0,0,0,0,0,0,0,0,0,0,0],"id":23,"left_children":[1,3,5,7,9,11,13,-1,15,17,19,21,23,25,-1,-1,-1,-1,-1,-1,-1,-1,-1,-1,-1,-1,-1],"loss_changes":[2.4598825E1,9.687956E0,7.9326134E0,8.879757E-1,6.9625244E0,7.394516E0,1.1418056E0,0E0,1.2100644E0,7.144931E0,5.964806E0,2.4068651E0,1.4560227E0,1.0650101E0,0E0,0E0,0E0,0E0,0E0,0E0,0E0,0E0,0E0,0E0,0E0,0E0,0E0],"parents":[2147483647,0,0,1,1,2,2,3,3,4,4,5,5,6,6,8,8,9,9,10,10,11,11,12,12,13,13],"right_children":[2,4,6,8,10,12,14,-1,16,18,20,22,24,26,-1,-1,-1,-1,-1,-1,-1,-1,-1,-1,-1,-1,-1],"split_conditions":[7.705673E-1,5.146147E-1,1.7233333E2,4.205318E-1,7.1E0,1E1,9E0,-5.1918413E-2,9E0,4E0,9.1782063E-1,1.6975E2,1E-1,3.9841247E-1,1.649506E-3,-1.5650855E-2,-4.8869193E-2,4.8093338E-2,-8.910545E-4,-3.4336087E-3,-3.8985312E-2,3.509248E-2,-2.285896E-2,6.0419384E-3,-3.3468854E-2,1.1410663E-2,5.5981874E-2],"split_indices":[97,97,98,97,76,78,81,0,81,79,99,98,71,99,0,0,0,0,0,0,0,0,0,0,0,0,0],"split_type":[0,0,0,0,0,0,0,0,0,0,0,0,0,0,0,0,0,0,0,0,0,0,0,0,0,0,0],"sum_hessian":[1.7027525E2,1.203741E2,4.9901154E1,2.4367872E1,9.6006226E1,2.691593E1,2.2985226E1,1.0598325E1,1.37695465E1,4.8261063E1,4.7745163E1,1.6848036E1,1.0067894E1,2.1752928E1,1.2322966E0,9.806945E0,3.9626021E0,8.130032E0,4.013103E1,2.8177969E1,1.9567196E1,1.5524236E1,1.3237996E0,2.8808289E0,7.187065E0,2.0610023E0,1.9691927E1],"tree_param":{"num_deleted":"0","num_feature":"100","num_nodes":"27","size_leaf_vector":"1"}},{"base_weights":[-4.802999E-3,-4.7174907E-1,2.811913E-1,3.8627062E-2,-5.2167153E-1,8.7835586E-1,1.1742941E-1,-3.313975E-1,-8.3899486E-1,3.0131194E-1,1.0878723E0,-9.880274E-2,4.5707223E-1,-3.563597E-2,-7.569821E-4,-9.893598E-3,-5.6516588E-2,-2.3705747E-2,3.4212064E-2,1.0763718E-2,5.704949E-2,5.4704804E-2,-9.004852E-3,-2.9122299E-3,4.060704E-2],"categories":[],"categories_nodes":[],"categories_segments":[],"categories_sizes":[],"default_left":[0,0,0,0,0,0,0,0,0,0,0,0,0,0,0,0,0,0,0,0,0,0,0,0,0],"id":24,"left_children":[1,3,5,-1,7,9,11,13,15,17,19,21,23,-1,-1,-1,-1,-1,-1,-1,-1,-1,-1,-1,-1],"loss_changes":[2.2790924E1,4.4294987E0,1.0248134E1,0E0,3.5207596E0,2.4076805E0,6.230657E0,4.93184E0,4.059555E0,2.5246687E0,5.0598717E-1,5.2672462E0,6.074443E0,0E0,0E0,0E0,0E0,0E0,0E0,0E0,0E0,0E0,0E0,0E0,0E0],"parents":[2147483647,0,0,1,1,2,2,4,4,5,5,6,6,7,7,8,8,9,9,10,10,11,11,12,12],"right_children":[2,4,6,-1,8,10,12,14,16,18,20,22,24,-1,-1,-1,-1,-1,-1,-1,-1,-1,-1,-1,-1],"split_conditions":[6.6117287E-1,1E0,5.1E0,3.8627062E-2,4E0,7.384548E-1,7.814196E-1,5E-1,1E0,1E0,3.2E0,3.9841178E-1,1E0,-3.563597E-2,-7.569821E-4,-9.893598E-3,-5.6516588E-2,-2.3705747E-2,3.4212064E-2,1.0763718E-2,5.704949E-2,5.4704804E-2,-9.004852E-3,-2.9122299E-3,4.060704E-2],"split_indices":[97,1,76,0,77,97,97,69,73,33,76,99,70,0,0,0,0,0,0,0,0,0,0,0,0],"split_type":[0,0,0,0,0,0,0,0,0,0,0,0,0,0,0,0,0,0,0,0,0,0,0,0,0],"sum_hessian":[1.6866907E2,6.3819977E1,1.048491E2,1.903419E0,6.1916557E1,2.1625864E1,8.322323E1,3.998502E1,2.193154E1,6.409937E0,1.5215927E1,5.128314E1,3.1940094E1,1.7559448E1,2.2425571E1,7.376914E0,1.4554625E1,2.0402763E0,4.3696604E0,1.1630177E0,1.4052909E1,2.477038E0,4.88061E1,1.3370797E1,1.8569298E1],"tree_param":{"num_deleted":"0","num_feature":"100","num_nodes":"25","size_leaf_vector":"1"}},{"base_weights":[-4.0023304E-3,-5.3809285E-1,2.2834717E-1,4.8190515E-2,-5.942437E-1,4.6033847E-1,-1.3897003E-1,-2.9812685E-1,-7.781363E-1,-6.648534E-1,5.365643E-1,-6.782827E-1,2.270302E-2,-3.805365E-2,1.7745484E-2,-4.3422636E-2,-2.6405803E-3,2.5326107E-2,-6.8837546E-2,3.0530605E-2,-3.189134E-2,1.0582115E-2,-4.472164E-2,-1.9857096E-2,1.140765E-2],"categories":[],"categories_nodes":[],"categories_segments":[],"categories_sizes":[],"default_left":[0,0,0,0,0,0,0,0,0,0,0,0,0,0,0,0,0,0,0,0,0,0,0,0,0],"id":25,"left_children":[1,3,5,-1,7,9,11,13,15,17,19,21,23,-1,-1,-1,-1,-1,-1,-1,-1,-1,-1,-1,-1],"loss_changes":[2.0985828E1,4.8960094E0,1.0106981E1,0E0,2.4926243E0,6.5720377E0,4.0602403E0,6.5552697E0,1.935482E0,4.9038095E0,6.3394775E0,2.2536016E0,3.2526474E0,0E0,0E0,0E0,0E0,0E0,0E0,0E0,0E0,0E0,0E0,0E0,0E0],"parents":[2147483647,0,0,1,1,2,2,4,4,5,5,6,6,7,7,8,8,9,9,10,10,11,11,12,12],"right_children":[2,4,6,-1,8,10,12,14,16,18,20,22,24,-1,-1,-1,-1,-1,-1,-1,-1,-1,-1,-1,-1],"split_conditions":[6.262827E-1,1E0,6.8E0,4.8190515E-2,9.178188E-1,1E0,4E0,1E0,1E0,4.6666667E-1,1E0,1.6666667E-1,1E0,-3.805365E-2,1.7745484E-2,-4.3422636E-2,-2.6405803E-3,2.5326107E-2,-6.8837546E-2,3.0530605E-2,-3.189134E-2,1.0582115E-2,-4.472164E-2,-1.9857096E-2,1.140765E-2],"split_indices":[97,1,76,0,99,87,79,33,36,71,45,71,60,0,0,0,0,0,0,0,0,0,0,0,0],"split_type":[0,0,0,0,0,0,0,0,0,0,0,0,0,0,0,0,0,0,0,0,0,0,0,0,0],"sum_hessian":[1.6711995E2,5.02642E1,1.1685575E2,1.2289171E0,4.9035282E1,7.146587E1,4.538988E1,1.97897E1,2.924558E1,4.044319E0,6.7421555E1,9.731598E0,3.5658283E1,1.1483476E1,8.306224E0,2.5831724E1,3.413857E0,1.6378486E0,2.4064703E0,6.3874214E1,3.5473425E0,1.9058324E0,7.825765E0,1.1409499E1,2.4248783E1],"tree_param":{"num_deleted":"0","num_feature":"100","num_nodes":"25","size_leaf_vector":"1"}},{"base_weights":[-4.5128516E-3,-2.2406471E-1,5.2783775E-1,-8.074715E-1,-1.0455818E-1,1.5837175E-1,9.4908565E-1,-4.9584992E-2,-5.334118E-1,-3.2423565E-1,1.8856294E-1,5.394096E-1,-4.5251417E-1,1.0009477E0,1.1530326E-3,7.862258E-3,-3.178322E-2,1.0077302E-4,-3.0290702E-2,-2.6683811E-2,1.3089E-2,-2.6600314E-2,3.2115947E-2,1.1534715E-3,-3.5151348E-2,8.635419E-3,5.3769678E-2],"categories":[],"categories_nodes":[],"categories_segments":[],"categories_sizes":[],"default_left":[0,0,0,0,0,0,0,0,0,0,0,0,0,0,0,0,0,0,0,0,0,0,0,0,0,0,0],"id":26,"left_children":[1,3,5,7,9,11,13,-1,15,17,19,21,23,25,-1,-1,-1,-1,-1,-1,-1,-1,-1,-1,-1,-1,-1],"loss_changes":[1.957964E1,8.183875E0,7.4631186E0,4.8149776E-1,6.473158E0,6.5896516E0,1.0650291E0,0E0,8.209493E-1,5.2639427E0,2.4289076E0,2.2431455E0,1.3286443E0,1.1357269E0,0E0,0E0,0E0,0E0,0E0,0E0,0E0,0E0,0E0,0E0,0E0,0E0,0E0],"parents":[2147483647,0,0,1,1,2,2,3,3,4,4,5,5,6,6,8,8,9,9,10,10,11,11,12,12,13,13],"right_children":[2,4,6,8,10,12,14,-1,16,18,20,22,24,26,-1,-1,-1,-1,-1,-1,-1,-1,-1,-1,-1,-1,-1],"split_conditions":[7.705673E-1,4.819454E-1,1.7233333E2,4.205318E-1,1E0,1E1,9E0,-4.9584992E-2,1E0,7.1E0,1E0,1E0,1.3675E2,3.9841247E-1,1.1530326E-3,7.862258E-3,-3.178322E-2,1.0077302E-4,-3.0290702E-2,-2.6683811E-2,1.3089E-2,-2.6600314E-2,3.2115947E-2,1.1534715E-3,-3.5151348E-2,8.635419E-3,5.3769678E-2],"split_indices":[97,97,98,97,33,78,81,0,74,76,87,87,98,99,0,0,0,0,0,0,0,0,0,0,0,0,0],"split_type":[0,0,0,0,0,0,0,0,0,0,0,0,0,0,0,0,0,0,0,0,0,0,0,0,0,0,0],"sum_hessian":[1.6550932E2,1.1759141E2,4.7917908E1,1.901369E1,9.857772E1,2.6261E1,2.1656908E1,9.804417E0,9.209274E0,5.6287395E1,4.229032E1,1.624515E1,1.0015849E1,2.0431719E1,1.2251885E0,1.1182611E0,8.091013E0,2.6535204E1,2.9752193E1,3.3137136E0,3.897661E1,1.0582086E0,1.5186942E1,3.7688408E0,6.247008E0,1.9588326E0,1.8472887E1],"tree_param":{"num_deleted":"0","num_feature":"100","num_nodes":"27","size_leaf_vector":"1"}},{"base_weights":[-4.792827E-3,-5.078429E-1,2.1213236E-1,4.6997767E-2,-5.632226E-1,4.275106E-1,-1.24527015E-1,-2.7603835E-1,-7.4445504E-1,6.523953E-2,6.5985733E-1,-6.471755E-1,3.0296294E-2,-2.8268714E-2,3.365716E-2,-4.1729458E-2,-2.1171458E-3,4.090073E-2,-7.307069E-3,-1.92529E-2,3.651123E-2,1.0111956E-2,-4.283264E-2,-1.8670842E-2,1.1340867E-2],"categories":[],"categories_nodes":[],"categories_segments":[],"categories_sizes":[],"default_left":[0,0,0,0,0,0,0,0,0,0,0,0,0,0,0,0,0,0,0,0,0,0,0,0,0],"id":27,"left_children":[1,3,5,-1,7,9,11,13,15,17,19,21,23,-1,-1,-1,-1,-1,-1,-1,-1,-1,-1,-1,-1],"loss_changes":[1.8119516E1,4.5404015E0,8.466606E0,0E0,2.334815E0,5.932144E0,3.745438E0,6.003215E0,1.821085E0,4.7099133E0,3.4531288E0,2.0535207E0,2.9787242E0,0E0,0E0,0E0,0E0,0E0,0E0,0E0,0E0,0E0,0E0,0E0,0E0],"parents":[2147483647,0,0,1,1,2,2,4,4,5,5,6,6,7,7,8,8,9,9,10,10,11,11,12,12],"right_children":[2,4,6,-1,8,10,12,14,16,18,20,22,24,-1,-1,-1,-1,-1,-1,-1,-1,-1,-1,-1,-1],"split_conditions":[6.262827E-1,1E0,6.8E0,4.6997767E-2,9.178188E-1,1.595E2,4E0,6.581211E-1,1E0,4E0,1E0,1.6666667E-1,1E0,-2.8268714E-2,3.365716E-2,-4.1729458E-2,-2.1171458E-3,4.090073E-2,-7.307069E-3,-1.92529E-2,3.651123E-2,1.0111956E-2,-4.283264E-2,-1.8670842E-2,1.1340867E-2],"split_indices":[97,1,76,0,99,98,79,99,36,79,87,71,60,0,0,0,0,0,0,0,0,0,0,0,0],"split_type":[0,0,0,0,0,0,0,0,0,0,0,0,0,0,0,0,0,0,0,0,0,0,0,0,0],"sum_hessian":[1.6405763E2,4.9025734E1,1.150319E2,1.2177244E0,4.780801E1,6.998747E1,4.5044426E1,1.947333E1,2.8334682E1,2.7848051E1,4.213942E1,9.567298E0,3.5477127E1,1.5233965E1,4.239364E0,2.4943819E1,3.390863E0,5.476202E0,2.237185E1,2.376568E0,3.976285E1,1.8995047E0,7.6677938E0,1.1320759E1,2.4156368E1],"tree_param":{"num_deleted":"0","num_feature":"100","num_nodes":"25","size_leaf_vector":"1"}},{"base_weights":[-4.4960673E-3,-1.9230461E-1,5.522779E-1,-7.727946E-1,-8.407164E-2,3.1904617E-1,1.0776074E0,-8.3690864E-1,-2.0096122E-1,5.5142636E-3,-7.079837E-1,6.001807E-1,-2.2905378E-1,1.2910272E-2,5.7340898E-2,-4.4324856E-2,-7.1228123E-3,-1.4544519E-2,-2.6528374E-4,1.2070774E-2,-1.2091839E-2,2.8544126E-2,-4.8027556E-2,3.8172837E-2,6.2557976E-3,-4.859346E-2,1.883005E-2],"categories":[],"categories_nodes":[],"categories_segments":[],"categories_sizes":[],"default_left":[0,0,0,0,0,0,0,0,0,0,0,0,0,0,0,0,0,0,0,0,0,0,0,0,0,0,0],"id":28,"left_children":[1,3,5,7,9,11,13,15,17,19,21,23,25,-1,-1,-1,-1,-1,-1,-1,-1,-1,-1,-1,-1,-1,-1],"loss_changes":[1.7215153E1,7.6685E0,4.7443485E0,5.3652E-1,5.865355E0,4.7879257E0,4.0414715E-1,4.5802402E-1,5.5708423E-2,5.4670568E0,4.8038216E0,1.4732203E0,5.294872E0,0E0,0E0,0E0,0E0,0E0,0E0,0E0,0E0,0E0,0E0,0E0,0E0,0E0,0E0],"parents":[2147483647,0,0,1,1,2,2,3,3,4,4,5,5,6,6,7,7,8,8,9,9,10,10,11,11,12,12],"right_children":[2,4,6,8,10,12,14,16,18,20,22,24,26,-1,-1,-1,-1,-1,-1,-1,-1,-1,-1,-1,-1,-1,-1],"split_conditions":[7.814196E-1,4.819454E-1,1.8633333E2,7E0,1E0,1E1,3.9841247E-1,1E0,4.4516245E-1,7.1E0,1E-1,5E-1,1E0,1.2910272E-2,5.7340898E-2,-4.4324856E-2,-7.1228123E-3,-1.4544519E-2,-2.6528374E-4,1.2070774E-2,-1.2091839E-2,2.8544126E-2,-4.8027556E-2,3.8172837E-2,6.2557976E-3,-4.859346E-2,1.883005E-2],"split_indices":[97,97,98,79,19,78,99,36,97,76,71,68,70,0,0,0,0,0,0,0,0,0,0,0,0,0,0],"split_type":[0,0,0,0,0,0,0,0,0,0,0,0,0,0,0,0,0,0,0,0,0,0,0,0,0,0,0],"sum_hessian":[1.6261722E2,1.22089226E2,4.0527992E1,1.8221432E1,1.0386779E2,2.9180143E1,1.1347849E1,1.596759E1,2.2538419E0,9.169299E1,1.2174797E1,1.9224422E1,9.95572E0,1.252297E0,1.00955515E1,1.4645278E1,1.3223122E0,1.2106456E0,1.0431963E0,4.6945034E1,4.4747963E1,1.8000405E0,1.0374757E1,1.385538E1,5.3690434E0,4.1999555E0,5.7557645E0],"tree_param":{"num_deleted":"0","num_feature":"100","num_nodes":"27","size_leaf_vector":"1"}},{"base_weights":[-4.288097E-3,-1.8456197E-1,5.359137E-1,-7.543563E-1,-8.031148E-2,3.0715773E-1,1.0603503E0,-4.743592E-2,-4.7646937E-1,-2.8204036E-1,1.8967026E-1,5.810863E-1,-2.2111224E-1,1.2605533E-2,5.651581E-2,-1.1038486E-2,-4.392913E-2,3.2514267E-2,-1.7893793E-2,4.00762E-4,2.7713934E-2,3.465398E-2,-2.626076E-3,-4.6720684E-2,1.811014E-2],"categories":[],"categories_nodes":[],"categories_segments":[],"categories_sizes":[],"default_left":[0,0,0,0,0,0,0,0,0,0,0,0,0,0,0,0,0,0,0,0,0,0,0,0,0],"id":29,"left_children":[1,3,5,7,9,11,13,-1,15,17,19,21,23,-1,-1,-1,-1,-1,-1,-1,-1,-1,-1,-1,-1],"loss_changes":[1.589551E1,7.208101E0,4.574193E0,5.637131E-1,5.7481165E0,4.4475007E0,3.9344978E-1,0E0,8.084333E-1,4.49233E0,2.9967766E0,1.4506526E0,4.8804016E0,0E0,0E0,0E0,0E0,0E0,0E0,0E0,0E0,0E0,0E0,0E0,0E0],"parents":[2147483647,0,0,1,1,2,2,3,3,4,4,5,5,6,6,8,8,9,9,10,10,11,11,12,12],"right_children":[2,4,6,8,10,12,14,-1,16,18,20,22,24,-1,-1,-1,-1,-1,-1,-1,-1,-1,-1,-1,-1],"split_conditions":[7.814196E-1,4.819454E-1,1.8633333E2,4.205318E-1,1E0,1E1,3.9841247E-1,-4.743592E-2,7.1E0,3.9841175E-1,1.6975E2,1.806E2,1E0,1.2605533E-2,5.651581E-2,-1.1038486E-2,-4.392913E-2,3.2514267E-2,-1.7893793E-2,4.00762E-4,2.7713934E-2,3.465398E-2,-2.626076E-3,-4.6720684E-2,1.811014E-2],"split_indices":[97,97,98,97,33,78,99,0,76,99,98,98,70,0,0,0,0,0,0,0,0,0,0,0,0],"split_type":[0,0,0,0,0,0,0,0,0,0,0,0,0,0,0,0,0,0,0,0,0,0,0,0,0],"sum_hessian":[1.6120895E2,1.2136567E2,3.9843292E1,1.7806416E1,1.0355925E2,2.8846375E1,1.0996918E1,9.057383E0,8.749033E0,5.9246174E1,4.4313076E1,1.8930298E1,9.916076E0,1.2428591E0,9.754059E0,6.2950807E0,2.4539526E0,3.886793E0,5.5359383E1,3.025929E1,1.4053787E1,1.6007101E1,2.9231968E0,4.1902113E0,5.725864E0],"tree_param":{"num_deleted":"0","num_feature":"100","num_nodes":"25","size_leaf_vector":"1"}},{"base_weights":[-3.990493E-3,-3.1903413E-1,2.84057E-1,4.4522647E-2,-3.703951E-1,8.832059E-1,1.163572E-1,-4.6627324E-2,-2.8168276E-1,-4.4360296E-3,9.6109885E-1,-5.950447E-1,2.7737296E-1,-2.1495016E-3,-2.4835916E-2,5.2690577E-2,-1.8265313E-3,1.269386E-2,-4.0239345E-2,2.897196E-2,-4.5957984E-3],"categories":[],"categories_nodes":[],"categories_segments":[],"categories_sizes":[],"default_left":[0,0,0,0,0,0,0,0,0,0,0,0,0,0,0,0,0,0,0,0,0],"id":30,"left_children":[1,3,5,-1,7,9,11,-1,13,-1,15,17,19,-1,-1,-1,-1,-1,-1,-1,-1],"loss_changes":[1.469969E1,5.135504E0,8.400112E0,0E0,3.4733486E0,1.4748297E0,7.8706617E0,0E0,3.3733172E0,0E0,1.6180258E0,2.4715838E0,6.248378E0,0E0,0E0,0E0,0E0,0E0,0E0,0E0,0E0],"parents":[2147483647,0,0,1,1,2,2,4,4,5,5,6,6,8,8,10,10,11,11,12,12],"right_children":[2,4,6,-1,8,10,12,-1,14,-1,16,18,20,-1,-1,-1,-1,-1,-1,-1,-1],"split_conditions":[6.9309825E-1,1E0,5.1E0,4.4522647E-2,4.205318E-1,1E0,6E0,-4.6627324E-2,7.1E0,-4.4360296E-3,1E0,9.1781956E-1,1E0,-2.1495016E-3,-2.4835916E-2,5.2690577E-2,-1.8265313E-3,1.269386E-2,-4.0239345E-2,2.897196E-2,-4.5957984E-3],"split_indices":[97,1,76,0,97,87,80,0,76,0,16,99,13,0,0,0,0,0,0,0,0],"split_type":[0,0,0,0,0,0,0,0,0,0,0,0,0,0,0,0,0,0,0,0,0],"sum_hessian":[1.5998584E2,7.636082E1,8.362502E1,2.4450781E0,7.391574E1,1.7354652E1,6.627037E1,8.778187E0,6.513755E1,1.2773417E0,1.607731E1,1.1733538E1,5.453683E1,3.1439335E1,3.3698215E1,1.4658717E1,1.4185932E0,2.2829554E0,9.450582E0,2.9685774E1,2.4851059E1],"tree_param":{"num_deleted":"0","num_feature":"100","num_nodes":"21","size_leaf_vector":"1"}},{"base_weights":[-3.6891936E-3,-1.7197138E-1,5.080921E-1,-7.2417086E-1,-7.398605E-2,2.8363904E-1,1.0365955E0,-5.218784E-1,-5.067758E-2,1.2092517E-2,-6.759432E-1,5.503169E-1,-2.2045821E-1,1.1502381E-2,5.5454094E-2,-3.5644777E-2,-3.0170057E-3,1.1355012E-2,-1.0734231E-2,2.7519552E-2,-4.5947652E-2,3.304537E-2,-2.991764E-3,-4.4855606E-2,1.6898427E-2],"categories":[],"categories_nodes":[],"categories_segments":[],"categories_sizes":[],"default_left":[0,0,0,0,0,0,0,0,0,0,0,0,0,0,0,0,0,0,0,0,0,0,0,0,0],"id":31,"left_children":[1,3,5,7,9,11,13,15,-1,17,19,21,23,-1,-1,-1,-1,-1,-1,-1,-1,-1,-1,-1,-1],"loss_changes":[1.3838835E1,6.488415E0,4.422905E0,5.310488E-1,5.3866363E0,4.0584106E0,4.1582775E-1,1.0782948E0,0E0,4.524634E0,4.3810506E0,1.3513026E0,4.4018097E0,0E0,0E0,0E0,0E0,0E0,0E0,0E0,0E0,0E0,0E0,0E0,0E0],"parents":[2147483647,0,0,1,1,2,2,3,3,4,4,5,5,6,6,7,7,9,9,10,10,11,11,12,12],"right_children":[2,4,6,8,10,12,14,16,-1,18,20,22,24,-1,-1,-1,-1,-1,-1,-1,-1,-1,-1,-1,-1],"split_conditions":[7.814196E-1,4.819454E-1,1.8633333E2,7.1E0,1E0,1E1,3.9841247E-1,5E-1,-5.067758E-2,7.1E0,1E-1,1.806E2,1E0,1.1502381E-2,5.5454094E-2,-3.5644777E-2,-3.0170057E-3,1.1355012E-2,-1.0734231E-2,2.7519552E-2,-4.5947652E-2,3.304537E-2,-2.991764E-3,-4.4855606E-2,1.6898427E-2],"split_indices":[97,97,98,76,19,78,99,69,0,76,71,98,70,0,0,0,0,0,0,0,0,0,0,0,0],"split_type":[0,0,0,0,0,0,0,0,0,0,0,0,0,0,0,0,0,0,0,0,0,0,0,0,0],"sum_hessian":[1.5867104E2,1.19907455E2,3.8763584E1,1.7107422E1,1.0280003E2,2.828693E1,1.0476655E1,1.1718797E1,5.388625E0,9.079627E1,1.2003759E1,1.8440065E1,9.846864E0,1.208087E0,9.268568E0,7.9032626E0,3.8155346E0,4.660684E1,4.4189434E1,1.7760651E0,1.02276945E1,1.5540209E1,2.899857E0,4.1779184E0,5.6689453E0],"tree_param":{"num_deleted":"0","num_feature":"100","num_nodes":"25","size_leaf_vector":"1"}},{"base_weights":[-3.753297E-3,-4.407144E-1,1.8102346E-1,4.527026E-2,-4.9522832E-1,6.6068316E-1,6.338327E-2,-3.881476E-1,-5.2883845E-2,7.9967374E-1,-3.9929837E-2,-5.284612E-1,1.8423134E-1,-1.6298158E-5,-3.129294E-2,-1.3637813E-2,4.4974875E-2,-3.328313E-2,1.4002412E-2,2.121464E-2,-5.1892023E-3],"categories":[],"categories_nodes":[],"categories_segments":[],"categories_sizes":[],"default_left":[0,0,0,0,0,0,0,0,0,0,0,0,0,0,0,0,0,0,0,0,0],"id":32,"left_children":[1,3,5,-1,7,9,11,13,-1,15,-1,17,19,-1,-1,-1,-1,-1,-1,-1,-1],"loss_changes":[1.2867106E1,3.9237356E0,6.2789083E0,0E0,2.3697271E0,5.0918493E0,6.6103115E0,3.7205172E0,0E0,2.4448967E0,0E0,1.9279118E0,5.323766E0,0E0,0E0,0E0,0E0,0E0,0E0,0E0,0E0],"parents":[2147483647,0,0,1,1,2,2,4,4,5,5,6,6,7,7,9,9,11,11,12,12],"right_children":[2,4,6,-1,8,10,12,14,-1,16,-1,18,20,-1,-1,-1,-1,-1,-1,-1,-1],"split_conditions":[6.262827E-1,1E0,5.2E0,4.527026E-2,9.7E0,1E0,6E0,9.178188E-1,-5.2883845E-2,1E0,-3.9929837E-2,8.350187E-1,1E0,-1.6298158E-5,-3.129294E-2,-1.3637813E-2,4.4974875E-2,-3.328313E-2,1.4002412E-2,2.121464E-2,-5.1892023E-3],"split_indices":[97,1,76,0,76,21,80,99,0,87,0,97,13,0,0,0,0,0,0,0,0],"split_type":[0,0,0,0,0,0,0,0,0,0,0,0,0,0,0,0,0,0,0,0,0],"sum_hessian":[1.573761E2,4.6359585E1,1.1101652E2,1.1968529E0,4.516273E1,2.0955908E1,9.006061E1,3.935946E1,5.803274E0,1.9546217E1,1.4096912E0,1.4699238E1,7.5361374E1,1.533768E1,2.4021778E1,1.5169444E0,1.8029272E1,1.2717756E1,1.9814812E0,4.0844353E1,3.4517017E1],"tree_param":{"num_deleted":"0","num_feature":"100","num_nodes":"21","size_leaf_vector":"1"}},{"base_weights":[-3.912084E-3,-1.6220957E-1,4.8354274E-1,-6.9331485E-1,-7.072382E-2,2.6375616E-1,1.0148419E0,-8.9464855E-1,-4.214209E-1,1.1669081E-2,-6.497965E-1,5.228918E-1,-2.1754733E-1,1.0571583E-2,5.448739E-2,-4.8129115E-2,-1.6709467E-2,-8.772601E-3,-4.1532166E-2,8.312244E-3,-1.4176023E-2,2.6722645E-2,-4.426048E-2,3.4282755E-2,4.091693E-3,-4.3148525E-2,1.5911162E-2],"categories":[],"categories_nodes":[],"categories_segments":[],"categories_sizes":[],"default_left":[0,0,0,0,0,0,0,0,0,0,0,0,0,0,0,0,0,0,0,0,0,0,0,0,0,0,0],"id":33,"left_children":[1,3,5,7,9,11,13,15,17,19,21,23,25,-1,-1,-1,-1,-1,-1,-1,-1,-1,-1,-1,-1,-1,-1],"loss_changes":[1.220685E1,5.7523327E0,4.260951E0,5.7718086E-1,4.9202733E0,3.7038147E0,4.314127E-1,2.5725842E-2,7.910235E-1,4.2050157E0,4.053652E0,1.3081717E0,4.002326E0,0E0,0E0,0E0,0E0,0E0,0E0,0E0,0E0,0E0,0E0,0E0,0E0,0E0,0E0],"parents":[2147483647,0,0,1,1,2,2,3,3,4,4,5,5,6,6,7,7,8,8,9,9,10,10,11,11,12,12],"right_children":[2,4,6,8,10,12,14,16,18,20,22,24,26,-1,-1,-1,-1,-1,-1,-1,-1,-1,-1,-1,-1,-1,-1],"split_conditions":[7.814196E-1,4.819454E-1,1.8633333E2,4.205318E-1,1E0,1E1,3.9841247E-1,1E0,7.1E0,4E0,1E-1,5E-1,1E0,1.0571583E-2,5.448739E-2,-4.8129115E-2,-1.6709467E-2,-8.772601E-3,-4.1532166E-2,8.312244E-3,-1.4176023E-2,2.6722645E-2,-4.426048E-2,3.4282755E-2,4.091693E-3,-4.3148525E-2,1.5911162E-2],"split_indices":[97,97,98,97,19,78,99,16,76,77,71,68,70,0,0,0,0,0,0,0,0,0,0,0,0,0,0],"split_type":[0,0,0,0,0,0,0,0,0,0,0,0,0,0,0,0,0,0,0,0,0,0,0,0,0,0,0],"sum_hessian":[1.5617938E2,1.1839777E2,3.7781605E1,1.643114E1,1.0196664E2,2.7784298E1,9.997308E0,8.124575E0,8.306566E0,9.012335E1,1.1843282E1,1.8004303E1,9.779995E0,1.1786139E0,8.818694E0,6.606327E0,1.5182476E0,6.0805254E0,2.2260408E0,5.9436363E1,3.068699E1,1.7532501E0,1.0090032E1,1.2746063E1,5.2582393E0,4.1590414E0,5.6209536E0],"tree_param":{"num_deleted":"0","num_feature":"100","num_nodes":"27","size_leaf_vector":"1"}},{"base_weights":[-4.119799E-3,-1.7226444E-1,4.2488256E-1,-6.784016E-1,-8.099807E-2,8.558906E-2,8.4777814E-1,-4.7495395E-1,-4.9011808E-2,-2.7391696E-1,1.7500165E-1,4.2353845E-1,-4.156343E-1,6.2049357E-3,9.177506E-1,-3.3475995E-2,-1.2585922E-3,2.8103936E-4,-2.6100082E-2,-1.6092082E-2,1.40750995E-2,2.728532E-2,-2.8823256E-2,3.4702157E-3,-3.3768017E-2,4.917514E-2,-1.9671328E-3],"categories":[],"categories_nodes":[],"categories_segments":[],"categories_sizes":[],"default_left":[0,0,0,0,0,0,0,0,0,0,0,0,0,0,0,0,0,0,0,0,0,0,0,0,0,0,0],"id":34,"left_children":[1,3,5,7,9,11,13,15,-1,17,19,21,23,-1,25,-1,-1,-1,-1,-1,-1,-1,-1,-1,-1,-1,-1],"loss_changes":[1.1331844E1,5.1575756E0,6.2748337E0,5.8471155E-1,4.825562E0,4.5220227E0,8.776016E-1,1.0470204E0,0E0,3.8556614E0,2.3226461E0,2.2472544E0,1.412114E0,0E0,1.1524143E0,0E0,0E0,0E0,0E0,0E0,0E0,0E0,0E0,0E0,0E0,0E0,0E0],"parents":[2147483647,0,0,1,1,2,2,3,3,4,4,5,5,6,6,7,7,9,9,10,10,11,11,12,12,14,14],"right_children":[2,4,6,8,10,12,14,16,-1,18,20,22,24,-1,26,-1,-1,-1,-1,-1,-1,-1,-1,-1,-1,-1,-1],"split_conditions":[7.705673E-1,4.819454E-1,1.7233333E2,7.1E0,1E0,1E1,3.9841247E-1,5E-1,-4.9011808E-2,7.1E0,3.9841542E-1,1.6975E2,1.3675E2,6.2049357E-3,9E0,-3.3475995E-2,-1.2585922E-3,2.8103936E-4,-2.6100082E-2,-1.6092082E-2,1.40750995E-2,2.728532E-2,-2.8823256E-2,3.4702157E-3,-3.3768017E-2,4.917514E-2,-1.9671328E-3],"split_indices":[97,97,98,76,33,78,99,69,0,76,99,98,98,0,81,0,0,0,0,0,0,0,0,0,0,0,0],"split_type":[0,0,0,0,0,0,0,0,0,0,0,0,0,0,0,0,0,0,0,0,0,0,0,0,0,0,0],"sum_hessian":[1.550787E2,1.1184159E2,4.3237118E1,1.6103422E1,9.573817E1,2.4656965E1,1.8580153E1,1.1156851E1,4.9465714E0,5.4555607E1,4.118256E1,1.4819752E1,9.8372135E0,1.8826518E0,1.66975E1,7.4469295E0,3.7099216E0,2.6111237E1,2.844437E1,6.9125047E0,3.4270058E1,1.3611201E1,1.2085512E0,3.6861334E0,6.15108E0,1.5598306E1,1.0991951E0],"tree_param":{"num_deleted":"0","num_feature":"100","num_nodes":"27","size_leaf_vector":"1"}},{"base_weights":[-4.4959616E-3,-4.0808335E-1,1.6438477E-1,4.4252206E-2,-4.620161E-1,6.1999464E-1,5.5725913E-2,-3.5861698E-1,-5.1338296E-2,7.6010925E-1,-3.917143E-2,-5.067517E-1,1.7131637E-1,5.9760147E-4,-2.9583026E-2,-1.4576484E-2,4.313046E-2,-3.1523407E-2,1.2399905E-2,2.0010825E-2,-5.0320625E-3],"categories":[],"categories_nodes":[],"categories_segments":[],"categories_sizes":[],"default_left":[0,0,0,0,0,0,0,0,0,0,0,0,0,0,0,0,0,0,0,0,0],"id":35,"left_children":[1,3,5,-1,7,9,11,13,-1,15,-1,17,19,-1,-1,-1,-1,-1,-1,-1,-1],"loss_changes":[1.062262E1,3.6152215E0,5.4058833E0,0E0,2.247302E0,4.7373476E0,5.9273734E0,3.4092226E0,0E0,2.3705435E0,0E0,1.6098485E0,4.72561E0,0E0,0E0,0E0,0E0,0E0,0E0,0E0,0E0],"parents":[2147483647,0,0,1,1,2,2,4,4,5,5,6,6,7,7,9,9,11,11,12,12],"right_children":[2,4,6,-1,8,10,12,14,-1,16,-1,18,20,-1,-1,-1,-1,-1,-1,-1,-1],"split_conditions":[6.262827E-1,1E0,5.2E0,4.4252206E-2,9.7E0,1E0,6E0,9.178188E-1,-5.1338296E-2,1E0,-3.917143E-2,8.350187E-1,1E0,5.9760147E-4,-2.9583026E-2,-1.4576484E-2,4.313046E-2,-3.1523407E-2,1.2399905E-2,2.0010825E-2,-5.0320625E-3],"split_indices":[97,1,76,0,76,21,80,99,0,87,0,97,13,0,0,0,0,0,0,0,0],"split_type":[0,0,0,0,0,0,0,0,0,0,0,0,0,0,0,0,0,0,0,0,0],"sum_hessian":[1.5386835E2,4.4974026E1,1.0889432E2,1.1836607E0,4.3790367E1,2.006313E1,8.883119E1,3.8395584E1,5.3947825E0,1.8658678E1,1.4044515E0,1.4566201E1,7.426499E1,1.5190097E1,2.3205486E1,1.4933075E0,1.716537E1,1.2656285E1,1.9099157E0,4.0068604E1,3.4196384E1],"tree_param":{"num_deleted":"0","num_feature":"100","num_nodes":"21","size_leaf_vector":"1"}},{"base_weights":[-4.6300287E-3,-1.4745177E-1,4.4610095E-1,-6.490757E-1,-6.495407E-2,2.3376521E-1,9.8137206E-1,-8.598184E-1,-3.7528867E-1,1.4294962E-2,-6.251826E-1,-6.6704977E-1,3.5036752E-1,9.5536355E-3,5.298942E-2,-4.6592988E-2,-1.4749542E-2,-6.785991E-3,-3.9690405E-2,1.1735369E-2,-8.476296E-3,2.5876293E-2,-4.265838E-2,1.0676827E-2,-5.714804E-2,2.9610703E-2,-1.6580254E-2],"categories":[],"categories_nodes":[],"categories_segments":[],"categories_sizes":[],"default_left":[0,0,0,0,0,0,0,0,0,0,0,0,0,0,0,0,0,0,0,0,0,0,0,0,0,0,0],"id":36,"left_children":[1,3,5,7,9,11,13,15,17,19,21,23,25,-1,-1,-1,-1,-1,-1,-1,-1,-1,-1,-1,-1,-1,-1],"loss_changes":[9.962482E0,4.8201647E0,4.0032897E0,6.2837934E-1,4.538066E0,3.1722755E0,4.336195E-1,7.258701E-2,7.8900814E-1,3.7003806E0,3.74092E0,1.7320689E0,4.3899245E0,0E0,0E0,0E0,0E0,0E0,0E0,0E0,0E0,0E0,0E0,0E0,0E0,0E0,0E0],"parents":[2147483647,0,0,1,1,2,2,3,3,4,4,5,5,6,6,7,7,8,8,9,9,10,10,11,11,12,12],"right_children":[2,4,6,8,10,12,14,16,18,20,22,24,26,-1,-1,-1,-1,-1,-1,-1,-1,-1,-1,-1,-1,-1,-1],"split_conditions":[7.814196E-1,4.819454E-1,1.8633333E2,4.205318E-1,1E0,1E0,3.9841247E-1,1E0,7.1E0,9.178188E-1,1E-1,5E-1,8E0,9.5536355E-3,5.298942E-2,-4.6592988E-2,-1.4749542E-2,-6.785991E-3,-3.9690405E-2,1.1735369E-2,-8.476296E-3,2.5876293E-2,-4.265838E-2,1.0676827E-2,-5.714804E-2,2.9610703E-2,-1.6580254E-2],"split_indices":[97,97,98,97,19,87,99,16,76,99,71,68,81,0,0,0,0,0,0,0,0,0,0,0,0,0,0],"split_type":[0,0,0,0,0,0,0,0,0,0,0,0,0,0,0,0,0,0,0,0,0,0,0,0,0,0,0],"sum_hessian":[1.5273715E2,1.1649621E2,3.6240936E1,1.5483233E1,1.0101298E2,2.6976427E1,9.264509E0,7.5394287E0,7.9438047E0,8.934838E1,1.1664596E1,2.5506408E0,2.4425787E1,1.1464946E0,8.118014E0,6.1102767E0,1.4291523E0,5.8941574E0,2.0496469E0,4.0504364E1,4.884402E1,1.7289141E0,9.935681E0,1.0882827E0,1.4623582E0,1.8128523E1,6.2972636E0],"tree_param":{"num_deleted":"0","num_feature":"100","num_nodes":"27","size_leaf_vector":"1"}},{"base_weights":[-5.0058197E-3,-2.6037827E-1,2.3003393E-1,4.220989E-2,-3.0936828E-1,7.968719E-1,8.429624E-2,-8.4626704E-1,-2.3468792E-1,1.7430787E-1,9.551141E-1,-5.363463E-1,2.290364E-1,-4.59404E-2,-1.440783E-2,-1.1041489E-3,-2.1548769E-2,-3.8950805E-2,3.3419196E-2,5.0954264E-2,8.908777E-3,-4.594991E-2,-4.192745E-3,2.4982296E-2,-4.45106E-3],"categories":[],"categories_nodes":[],"categories_segments":[],"categories_sizes":[],"default_left":[0,0,0,0,0,0,0,0,0,0,0,0,0,0,0,0,0,0,0,0,0,0,0,0,0],"id":37,"left_children":[1,3,5,-1,7,9,11,13,15,17,19,21,23,-1,-1,-1,-1,-1,-1,-1,-1,-1,-1,-1,-1],"loss_changes":[9.228625E0,4.2482095E0,6.5477777E0,0E0,2.6595163E0,1.4352655E0,5.945387E0,7.210636E-2,2.659716E0,2.6488814E0,4.5164585E-1,2.0970502E0,4.6284943E0,0E0,0E0,0E0,0E0,0E0,0E0,0E0,0E0,0E0,0E0,0E0,0E0],"parents":[2147483647,0,0,1,1,2,2,4,4,5,5,6,6,7,7,8,8,9,9,10,10,11,11,12,12],"right_children":[2,4,6,-1,8,10,12,14,16,18,20,22,24,-1,-1,-1,-1,-1,-1,-1,-1,-1,-1,-1,-1],"split_conditions":[6.9309825E-1,1E0,5.1E0,4.220989E-2,4.205318E-1,7.384548E-1,6E0,1E0,7.1E0,1.382E2,1E0,1E0,1E0,-4.59404E-2,-1.440783E-2,-1.1041489E-3,-2.1548769E-2,-3.8950805E-2,3.3419196E-2,5.0954264E-2,8.908777E-3,-4.594991E-2,-4.192745E-3,2.4982296E-2,-4.45106E-3],"split_indices":[97,1,76,0,97,97,80,16,76,98,35,68,13,0,0,0,0,0,0,0,0,0,0,0,0],"split_type":[0,0,0,0,0,0,0,0,0,0,0,0,0,0,0,0,0,0,0,0,0,0,0,0,0],"sum_hessian":[1.5175443E2,7.267964E1,7.907478E1,2.3972356E0,7.028241E1,1.525879E1,6.381599E1,7.3206058E0,6.2961803E1,3.5183315E0,1.17404585E1,1.1556481E1,5.225951E1,5.9066052E0,1.4140003E0,3.075866E1,3.2203144E1,1.0041338E0,2.5141978E0,1.055936E1,1.1810989E0,5.702856E0,5.8536253E0,2.7927408E1,2.4332102E1],"tree_param":{"num_deleted":"0","num_feature":"100","num_nodes":"25","size_leaf_vector":"1"}},{"base_weights":[-4.8547005E-3,-1.3785364E-1,4.217102E-1,-6.236925E-1,-6.012291E-2,2.1320383E-1,9.615999E-1,-4.1930708E-1,-4.7085773E-2,1.5498025E-2,-5.9859174E-1,-6.613301E-1,3.2805905E-1,8.588648E-3,5.2154183E-2,-3.374171E-2,-2.0871132E-3,7.759458E-3,-1.2603775E-2,2.5057618E-2,-4.095363E-2,9.549862E-3,-5.5336244E-2,2.8210787E-2,-1.5972685E-2],"categories":[],"categories_nodes":[],"categories_segments":[],"categories_sizes":[],"default_left":[0,0,0,0,0,0,0,0,0,0,0,0,0,0,0,0,0,0,0,0,0,0,0,0,0],"id":38,"left_children":[1,3,5,7,9,11,13,15,-1,17,19,21,23,-1,-1,-1,-1,-1,-1,-1,-1,-1,-1,-1,-1],"loss_changes":[8.660415E0,4.3561277E0,3.8796983E0,6.412163E-1,4.138339E0,2.9753046E0,4.5311356E-1,1.081934E0,0E0,3.3990054E0,3.4443583E0,1.5474548E0,3.9942122E0,0E0,0E0,0E0,0E0,0E0,0E0,0E0,0E0,0E0,0E0,0E0,0E0],"parents":[2147483647,0,0,1,1,2,2,3,3,4,4,5,5,6,6,7,7,9,9,10,10,11,11,12,12],"right_children":[2,4,6,8,10,12,14,16,-1,18,20,22,24,-1,-1,-1,-1,-1,-1,-1,-1,-1,-1,-1,-1],"split_conditions":[7.814196E-1,4.819454E-1,1.8633333E2,7.1E0,1E0,1E0,3.9841247E-1,5.8E0,-4.7085773E-2,4E0,1E-1,5E-1,8E0,8.588648E-3,5.2154183E-2,-3.374171E-2,-2.0871132E-3,7.759458E-3,-1.2603775E-2,2.5057618E-2,-4.095363E-2,9.549862E-3,-5.5336244E-2,2.8210787E-2,-1.5972685E-2],"split_indices":[97,97,98,76,19,87,99,76,0,77,71,68,81,0,0,0,0,0,0,0,0,0,0,0,0],"split_type":[0,0,0,0,0,0,0,0,0,0,0,0,0,0,0,0,0,0,0,0,0,0,0,0,0],"sum_hessian":[1.5062831E2,1.15342445E2,3.5285862E1,1.4939929E1,1.0040252E2,2.6461348E1,8.824517E0,1.0506282E1,4.433646E0,8.889026E1,1.151226E1,2.5194829E0,2.3941864E1,1.1159192E0,7.7085977E0,5.79621E0,4.7100725E0,5.8676987E1,3.0213268E1,1.7099823E0,9.8022785E0,1.0607525E0,1.4587303E0,1.7637772E1,6.304092E0],"tree_param":{"num_deleted":"0","num_feature":"100","num_nodes":"25","size_leaf_vector":"1"}},{"base_weights":[-5.1300554E-3,-3.6688182E-1,1.4407465E-1,4.2258598E-2,-4.1890857E-1,5.6858647E-1,4.6915617E-2,-3.1777456E-1,-4.9767207E-2,7.1165943E-1,-3.8632154E-2,-4.6004543E-1,1.5198374E-1,1.636343E-3,-2.727518E-2,-1.5937304E-2,4.0933106E-2,-3.753485E-2,-6.0779382E-3,2.328973E-2,-1.084221E-3],"categories":[],"categories_nodes":[],"categories_segments":[],"categories_sizes":[],"default_left":[0,0,0,0,0,0,0,0,0,0,0,0,0,0,0,0,0,0,0,0,0],"id":39,"left_children":[1,3,5,-1,7,9,11,13,-1,15,-1,17,19,-1,-1,-1,-1,-1,-1,-1,-1],"loss_changes":[8.182811E0,3.1454196E0,4.4013376E0,0E0,2.1970477E0,4.369527E0,4.781422E0,3.0626876E0,0E0,2.3014555E0,0E0,1.4270957E0,4.044113E0,0E0,0E0,0E0,0E0,0E0,0E0,0E0,0E0],"parents":[2147483647,0,0,1,1,2,2,4,4,5,5,6,6,7,7,9,9,11,11,12,12],"right_children":[2,4,6,-1,8,10,12,14,-1,16,-1,18,20,-1,-1,-1,-1,-1,-1,-1,-1],"split_conditions":[6.262827E-1,1E0,5.2E0,4.2258598E-2,9.7E0,1E0,6E0,9.178188E-1,-4.9767207E-2,1E0,-3.8632154E-2,1E0,6.3E0,1.636343E-3,-2.727518E-2,-1.5937304E-2,4.0933106E-2,-3.753485E-2,-6.0779382E-3,2.328973E-2,-1.084221E-3],"split_indices":[97,1,76,0,76,21,80,99,0,87,0,68,76,0,0,0,0,0,0,0,0],"split_type":[0,0,0,0,0,0,0,0,0,0,0,0,0,0,0,0,0,0,0,0,0],"sum_hessian":[1.4962424E2,4.3265842E1,1.0635839E2,1.1532776E0,4.2112564E1,1.8905123E1,8.745326E1,3.7146576E1,4.9659886E0,1.7506996E1,1.398126E0,1.4433255E1,7.302001E1,1.4966968E1,2.217961E1,1.4608237E0,1.6046173E1,7.1101294E0,7.3231263E0,2.5414682E1,4.7605328E1],"tree_param":{"num_deleted":"0","num_feature":"100","num_nodes":"21","size_leaf_vector":"1"}},{"base_weights":[-5.35425E-3,-1.4398529E-1,3.6102036E-1,-8.137782E-1,-9.1523685E-2,4.1159093E-2,7.8517914E-1,-4.4538323E-2,-1.2591279E-2,-2.526803E-1,1.3898471E-1,3.6271814E-1,-4.111719E-1,2.8124664E-3,8.616933E-1,9.4363204E-4,-2.606537E-2,-1.3137138E-2,1.3659655E-2,2.427861E-2,-2.8958812E-2,3.7868961E-3,-3.355536E-2,4.653853E-2,-2.0228538E-3],"categories":[],"categories_nodes":[],"categories_segments":[],"categories_sizes":[],"default_left":[0,0,0,0,0,0,0,0,0,0,0,0,0,0,0,0,0,0,0,0,0,0,0,0,0],"id":40,"left_children":[1,3,5,7,9,11,13,-1,-1,15,17,19,21,-1,23,-1,-1,-1,-1,-1,-1,-1,-1,-1,-1],"loss_changes":[7.6466327E0,3.7624683E0,5.575355E0,1.1334562E-1,3.8387153E0,3.729947E0,9.3949795E-1,0E0,0E0,4.4315042E0,2.3780172E0,2.007783E0,1.4048189E0,0E0,1.0323381E0,0E0,0E0,0E0,0E0,0E0,0E0,0E0,0E0,0E0,0E0],"parents":[2147483647,0,0,1,1,2,2,3,3,4,4,5,5,6,6,9,9,10,10,11,11,12,12,14,14],"right_children":[2,4,6,8,10,12,14,-1,-1,16,18,20,22,-1,24,-1,-1,-1,-1,-1,-1,-1,-1,-1,-1],"split_conditions":[7.705673E-1,4.205318E-1,1.7233333E2,1E0,1E0,1E1,3.9841247E-1,-4.4538323E-2,-1.2591279E-2,7.1E0,1E0,1.6975E2,1.3675E2,2.8124664E-3,9E0,9.4363204E-4,-2.606537E-2,-1.3137138E-2,1.3659655E-2,2.427861E-2,-2.8958812E-2,3.7868961E-3,-3.355536E-2,4.653853E-2,-2.0228538E-3],"split_indices":[97,97,98,16,33,78,99,0,0,76,73,98,98,0,81,0,0,0,0,0,0,0,0,0,0],"split_type":[0,0,0,0,0,0,0,0,0,0,0,0,0,0,0,0,0,0,0,0,0,0,0,0,0],"sum_hessian":[1.4852783E2,1.0819526E2,4.0332577E1,6.8047757E0,1.0139048E2,2.3618631E1,1.6713945E1,5.470221E0,1.3345546E0,5.9615192E1,4.1775288E1,1.3920649E1,9.697982E0,1.7525951E0,1.496135E1,3.0108501E1,2.950669E1,1.0221484E1,3.1553804E1,1.2743013E1,1.1776358E0,3.6219628E0,6.0760193E0,1.3867776E1,1.0935745E0],"tree_param":{"num_deleted":"0","num_feature":"100","num_nodes":"25","size_leaf_vector":"1"}}]},"name":"gbtree"},"learner_model_param":{"base_score":"5E-1","boost_from_average":"1","num_class":"0","num_feature":"100","num_target":"1"},"objective":{"name":"binary:logistic","reg_loss_param":{"scale_pos_weight":"0.472286373"}}},"version":[2,1,3]}