{"learner":{"attributes":{"best_iteration":"5","best_score":"0.6750847373902797","scikit_learn":"{\"_estimator_type\": \"classifier\"}"},"feature_names":[],"feature_types":[],"gradient_booster":{"model":{"gbtree_model_param":{"num_parallel_tree":"1","num_trees":"26"},"iteration_indptr":[0,1,2,3,4,5,6,7,8,9,10,11,12,13,14,15,16,17,18,19,20,21,22,23,24,25,26],"tree_info":[0,0,0,0,0,0,0,0,0,0,0,0,0,0,0,0,0,0,0,0,0,0,0,0,0,0],"trees":[{"base_weights":[-1.40004E-8,-1.1234226E0,6.390651E-1,-7.9888016E-1,-8.880933E-2,1.125689E0,-3.859439E-1,-1.1862822E0,-3.2756522E-1,9.4369894E-1,1.6473984E0,-7.4362415E-1,1.9417933E-1,-8.007571E-2,-4.0247012E-2,-7.237127E-2,-7.2610728E-3,6.9433235E-2,3.5914242E-2,8.852147E-2,4.2252894E-2,-5.3000655E-2,-1.2551623E-2,2.605398E-2,-4.4578515E-2],"categories":[],"categories_nodes":[],"categories_segments":[],"categories_sizes":[],"default_left":[0,0,0,0,0,0,0,0,0,0,0,0,0,0,0,0,0,0,0,0,0,0,0,0,0],"id":0,"left_children":[1,3,5,7,-1,9,11,13,15,17,19,21,23,-1,-1,-1,-1,-1,-1,-1,-1,-1,-1,-1,-1],"loss_changes":[2.0856161E2,2.0895828E1,9.2794525E1,1.2789127E1,0E0,1.0390808E1,1.2667662E1,4.9228745E0,6.7205477E0,8.593048E0,1.5834045E0,5.584778E0,8.916177E0,0E0,0E0,0E0,0E0,0E0,0E0,0E0,0E0,0E0,0E0,0E0,0E0],"parents":[2147483647,0,0,1,1,2,2,3,3,5,5,6,6,7,7,8,8,9,9,10,10,11,11,12,12],"right_children":[2,4,6,8,-1,10,12,14,16,18,20,22,24,-1,-1,-1,-1,-1,-1,-1,-1,-1,-1,-1,-1],"split_conditions":[3.750023E-1,7.8E0,8E0,3.0261183E-1,-8.880933E-2,6.005955E-1,9.4E0,5E-1,1E0,1E0,6.3E0,1E0,1E0,-8.007571E-2,-4.0247012E-2,-7.237127E-2,-7.2610728E-3,6.9433235E-2,3.5914242E-2,8.852147E-2,4.2252894E-2,-5.3000655E-2,-1.2551623E-2,2.605398E-2,-4.4578515E-2],"split_indices":[97,76,82,97,0,97,76,69,87,70,76,17,55,0,0,0,0,0,0,0,0,0,0,0,0],"split_type":[0,0,0,0,0,0,0,0,0,0,0,0,0,0,0,0,0,0,0,0,0,0,0,0,0],"sum_hessian":[2.885E2,1.0433317E2,1.8416682E2,7.117172E1,3.316145E1,1.24813354E2,5.9353474E1,3.8230675E1,3.2941048E1,9.4616684E1,3.0196672E1,3.6541584E1,2.2811888E1,1.6770304E1,2.1460371E1,3.6411448E0,2.9299902E1,3.00795E1,6.453718E1,2.5135763E1,5.0609097E0,2.1548923E1,1.4992661E1,1.793273E1,4.8791585E0],"tree_param":{"num_deleted":"0","num_feature":"100","num_nodes":"25","size_leaf_vector":"1"}},{"base_weights":[-4.746771E-4,-1.0710981E0,6.083713E-1,-7.621495E-1,-1.6932703E0,1.0722262E0,-3.6817354E-1,-1.131081E0,-3.1358412E-1,-8.933428E-2,-1.0740098E0,1.1356003E0,-1.5164715E-1,-7.084928E-1,1.8373425E-1,-7.641473E-2,-3.8339343E-2,-6.960506E-2,-6.910089E-3,-6.8193726E-2,8.285224E-4,4.819147E-2,7.804264E-2,-5.9652574E-2,5.760801E-2,-5.0502606E-2,-1.196374E-2,2.4824152E-2,-4.2746633E-2],"categories":[],"categories_nodes":[],"categories_segments":[],"categories_sizes":[],"default_left":[0,0,0,0,0,0,0,0,0,0,0,0,0,0,0,0,0,0,0,0,0,0,0,0,0,0,0,0,0],"id":1,"left_children":[1,3,5,7,9,11,13,15,17,-1,19,21,23,25,27,-1,-1,-1,-1,-1,-1,-1,-1,-1,-1,-1,-1,-1,-1],"loss_changes":[1.8920709E2,1.8936157E1,8.421198E1,1.1582264E1,5.3482056E-2,9.922134E0,1.1462078E1,4.4997597E0,6.2266803E0,0E0,2.2279282E0,7.2343903E0,1.0975439E1,5.068119E0,8.157781E0,0E0,0E0,0E0,0E0,0E0,0E0,0E0,0E0,0E0,0E0,0E0,0E0,0E0,0E0],"parents":[2147483647,0,0,1,1,2,2,3,3,4,4,5,5,6,6,7,7,8,8,10,10,11,11,12,12,13,13,14,14],"right_children":[2,4,6,8,10,12,14,16,18,-1,20,22,24,26,28,-1,-1,-1,-1,-1,-1,-1,-1,-1,-1,-1,-1,-1,-1],"split_conditions":[3.750023E-1,7.8E0,8E0,3.0261183E-1,3.4229767E-1,1E0,9.4E0,5E-1,1E0,-8.933428E-2,1E0,5.919883E-1,1E0,1E0,1E0,-7.641473E-2,-3.8339343E-2,-6.960506E-2,-6.910089E-3,-6.8193726E-2,8.285224E-4,4.819147E-2,7.804264E-2,-5.9652574E-2,5.760801E-2,-5.0502606E-2,-1.196374E-2,2.4824152E-2,-4.2746633E-2],"split_indices":[97,76,82,97,97,45,76,69,87,0,33,97,73,17,55,0,0,0,0,0,0,0,0,0,0,0,0,0,0],"split_type":[0,0,0,0,0,0,0,0,0,0,0,0,0,0,0,0,0,0,0,0,0,0,0,0,0,0,0,0,0],"sum_hessian":[2.8826434E2,1.0422717E2,1.8403717E2,7.113103E1,3.3096146E1,1.2470489E2,5.933229E1,3.8195133E1,3.2935898E1,2.7119925E1,5.976222E0,1.1863395E2,6.070938E0,3.6525867E1,2.2806423E1,1.6743448E1,2.1451683E1,3.636381E0,2.9299515E1,4.5233645E0,1.4528574E0,8.682817E1,3.1805777E1,3.4223306E0,2.6486075E0,2.1533798E1,1.4992069E1,1.7929688E1,4.876735E0],"tree_param":{"num_deleted":"0","num_feature":"100","num_nodes":"29","size_leaf_vector":"1"}},{"base_weights":[-1.516171E-3,-1.0238112E0,5.793533E-1,-7.278957E-1,-1.6219597E0,1.0221037E0,-3.5146102E-1,-1.284657E0,-4.4449756E-1,-8.55273E-2,-1.0328385E0,1.0826143E0,-1.4441794E-1,-6.7555344E-1,1.7390586E-1,-6.851541E-2,9.2148234E-4,-6.747893E-2,-1.4811002E-2,-6.563112E-2,8.039673E-4,4.588913E-2,7.459863E-2,5.626144E-2,-5.7908077E-2,-3.765171E-2,3.9290935E-2,2.365946E-2,-4.1022044E-2],"categories":[],"categories_nodes":[],"categories_segments":[],"categories_sizes":[],"default_left":[0,0,0,0,0,0,0,0,0,0,0,0,0,0,0,0,0,0,0,0,0,0,0,0,0,0,0,0,0],"id":2,"left_children":[1,3,5,7,9,11,13,15,17,-1,19,21,23,25,27,-1,-1,-1,-1,-1,-1,-1,-1,-1,-1,-1,-1,-1,-1],"loss_changes":[1.7197629E2,1.739267E1,7.646855E1,1.0792122E1,3.3111572E-3,9.008331E0,1.0379964E1,2.6774902E0,6.2101927E0,0E0,2.0628924E0,6.6831207E0,1.0398628E1,4.8357315E0,7.468221E0,0E0,0E0,0E0,0E0,0E0,0E0,0E0,0E0,0E0,0E0,0E0,0E0,0E0,0E0],"parents":[2147483647,0,0,1,1,2,2,3,3,4,4,5,5,6,6,7,7,8,8,10,10,11,11,12,12,13,13,14,14],"right_children":[2,4,6,8,10,12,14,16,18,-1,20,22,24,26,28,-1,-1,-1,-1,-1,-1,-1,-1,-1,-1,-1,-1,-1,-1],"split_conditions":[3.750023E-1,7.8E0,8E0,2.631482E-1,3.4229767E-1,1E0,9.4E0,2E0,1E0,-8.55273E-2,1E0,5.919883E-1,4.7210696E-1,1E0,1E0,-6.851541E-2,9.2148234E-4,-6.747893E-2,-1.4811002E-2,-6.563112E-2,8.039673E-4,4.588913E-2,7.459863E-2,5.626144E-2,-5.7908077E-2,-3.765171E-2,3.9290935E-2,2.365946E-2,-4.1022044E-2],"split_indices":[97,76,82,97,97,45,76,96,87,0,33,97,97,36,55,0,0,0,0,0,0,0,0,0,0,0,0,0,0],"split_type":[0,0,0,0,0,0,0,0,0,0,0,0,0,0,0,0,0,0,0,0,0,0,0,0,0,0,0,0,0],"sum_hessian":[2.8761124E2,1.03932976E2,1.8367828E2,7.101661E1,3.2916363E1,1.24405556E2,5.927272E1,2.2763197E1,4.825341E1,2.695898E1,5.9573846E0,1.1833893E2,6.066629E0,3.648172E1,2.2790998E1,2.1310858E1,1.45234E0,5.6520123E0,4.26014E1,4.5044737E0,1.4529107E0,8.667892E1,3.1660015E1,2.6445417E0,3.4220874E0,3.5105183E1,1.3765397E0,1.792113E1,4.8698688E0],"tree_param":{"num_deleted":"0","num_feature":"100","num_nodes":"29","size_leaf_vector":"1"}},{"base_weights":[-2.1434303E-3,-9.797295E-1,5.526717E-1,-6.951789E-1,-7.792483E-2,9.7573984E-1,-3.3461994E-1,-1.0380502E0,-2.8053826E-1,1.0336099E0,-1.3763626E-1,-6.427456E-1,1.646444E-1,-7.094036E-2,-3.4624074E-2,-6.473791E-2,-5.8610863E-3,6.1026584E-2,3.5445787E-2,4.1945886E-2,-6.859581E-2,-4.664321E-2,-9.748991E-3,2.2555223E-2,-3.939427E-2],"categories":[],"categories_nodes":[],"categories_segments":[],"categories_sizes":[],"default_left":[0,0,0,0,0,0,0,0,0,0,0,0,0,0,0,0,0,0,0,0,0,0,0,0,0],"id":3,"left_children":[1,3,5,7,-1,9,11,13,15,17,19,21,23,-1,-1,-1,-1,-1,-1,-1,-1,-1,-1,-1,-1],"loss_changes":[1.5653885E2,1.6125526E1,6.944336E1,9.9247055E0,0E0,8.191734E0,9.365413E0,4.1441193E0,5.4625983E0,6.3496323E0,9.654867E0,4.679715E0,6.8405147E0,0E0,0E0,0E0,0E0,0E0,0E0,0E0,0E0,0E0,0E0,0E0,0E0],"parents":[2147483647,0,0,1,1,2,2,3,3,5,5,6,6,7,7,8,8,9,9,10,10,11,11,12,12],"right_children":[2,4,6,8,-1,10,12,14,16,18,20,22,24,-1,-1,-1,-1,-1,-1,-1,-1,-1,-1,-1,-1],"split_conditions":[3.750023E-1,7.8E0,8E0,3.0261183E-1,-7.792483E-2,1E0,9.4E0,5E-1,1E0,5.8E0,5.1652116E-1,1E0,1E0,-7.094036E-2,-3.4624074E-2,-6.473791E-2,-5.8610863E-3,6.1026584E-2,3.5445787E-2,4.1945886E-2,-6.859581E-2,-4.664321E-2,-9.748991E-3,2.2555223E-2,-3.939427E-2],"split_indices":[97,76,82,97,0,45,76,69,87,76,97,17,55,0,0,0,0,0,0,0,0,0,0,0,0],"split_type":[0,0,0,0,0,0,0,0,0,0,0,0,0,0,0,0,0,0,0,0,0,0,0,0,0],"sum_hessian":[2.8661667E2,1.03494E2,1.8312265E2,7.0857895E1,3.2636112E1,1.2393142E2,5.919124E1,3.7962643E1,3.289525E1,1.178762E2,6.0552173E0,3.642427E1,2.2766966E1,1.6584106E1,2.1378536E1,3.6014996E0,2.9293749E1,7.305846E1,4.481774E1,3.5593789E0,2.4958384E0,2.14457E1,1.4978572E1,1.7907845E1,4.85912E0],"tree_param":{"num_deleted":"0","num_feature":"100","num_nodes":"25","size_leaf_vector":"1"}},{"base_weights":[-2.9679225E-3,-9.3864423E-1,5.271624E-1,-6.650413E-1,-1.4994692E0,9.3215954E-1,-3.1975514E-1,-1.1844549E0,-4.0292686E-1,-7.9318486E-2,-9.3526745E-1,7.721746E-1,1.3975785E0,-6.1355615E-1,1.5590666E-1,-6.334563E-2,2.1047804E-3,-6.294057E-2,-1.32062975E-2,-6.0604062E-2,3.0918939E-3,5.9669893E-2,2.8062833E-2,7.578089E-2,3.3041153E-2,-3.444058E-2,3.918036E-2,2.1507299E-2,-3.7854247E-2],"categories":[],"categories_nodes":[],"categories_segments":[],"categories_sizes":[],"default_left":[0,0,0,0,0,0,0,0,0,0,0,0,0,0,0,0,0,0,0,0,0,0,0,0,0,0,0,0,0],"id":4,"left_children":[1,3,5,7,9,11,13,15,17,-1,19,21,23,25,27,-1,-1,-1,-1,-1,-1,-1,-1,-1,-1,-1,-1,-1,-1],"loss_changes":[1.4251149E2,1.4946556E1,6.3204075E1,9.275324E0,1.4767456E-1,8.17807E0,8.491114E0,2.4310303E0,5.5033245E0,0E0,1.9731736E0,7.748661E0,1.6569061E0,4.46577E0,6.2685165E0,0E0,0E0,0E0,0E0,0E0,0E0,0E0,0E0,0E0,0E0,0E0,0E0,0E0,0E0],"parents":[2147483647,0,0,1,1,2,2,3,3,4,4,5,5,6,6,7,7,8,8,10,10,11,11,12,12,13,13,14,14],"right_children":[2,4,6,8,10,12,14,16,18,-1,20,22,24,26,28,-1,-1,-1,-1,-1,-1,-1,-1,-1,-1,-1,-1,-1,-1],"split_conditions":[3.750023E-1,7.8E0,8E0,2.631482E-1,3.4229767E-1,6.005955E-1,9.4E0,2E0,1E0,-7.9318486E-2,1E0,1E0,6.3E0,1E0,1E0,-6.334563E-2,2.1047804E-3,-6.294057E-2,-1.32062975E-2,-6.0604062E-2,3.0918939E-3,5.9669893E-2,2.8062833E-2,7.578089E-2,3.3041153E-2,-3.444058E-2,3.918036E-2,2.1507299E-2,-3.7854247E-2],"split_indices":[97,76,82,97,97,97,76,96,87,0,33,70,76,36,55,0,0,0,0,0,0,0,0,0,0,0,0,0,0],"split_type":[0,0,0,0,0,0,0,0,0,0,0,0,0,0,0,0,0,0,0,0,0,0,0,0,0,0,0,0,0],"sum_hessian":[2.8530637E2,1.029065E2,1.8239987E2,7.06333E1,3.22732E1,1.2332502E2,5.9074852E1,2.2509321E1,4.812398E1,2.6395899E1,5.8773026E0,9.3756035E1,2.9568981E1,3.633932E1,2.273553E1,2.106057E1,1.4487519E0,5.589348E0,4.2534634E1,4.431454E0,1.4458488E0,2.9728085E1,6.4027954E1,2.4574612E1,4.9943705E0,3.4963097E1,1.3762256E0,1.7890533E1,4.8449974E0],"tree_param":{"num_deleted":"0","num_feature":"100","num_nodes":"29","size_leaf_vector":"1"}},{"base_weights":[-3.1660947E-3,-9.0054214E-1,5.042143E-1,-6.057566E-1,-1.3916259E0,8.9236754E-1,-3.0464926E-1,-9.5248944E-1,-1.6080585E-1,-4.4424912E-1,-7.416501E-2,7.37507E-1,1.3462102E0,-5.842413E-1,1.4765336E-1,-6.7555115E-2,-2.9385349E-2,-6.059609E-2,1.2006134E-3,-4.7209393E-2,9.599489E-3,6.414097E-2,2.9018119E-2,7.304935E-2,3.177462E-2,-4.3228045E-2,-7.7903196E-3,2.0511923E-2,-3.6394108E-2],"categories":[],"categories_nodes":[],"categories_segments":[],"categories_sizes":[],"default_left":[0,0,0,0,0,0,0,0,0,0,0,0,0,0,0,0,0,0,0,0,0,0,0,0,0,0,0,0,0],"id":5,"left_children":[1,3,5,7,9,11,13,15,17,19,-1,21,23,25,27,-1,-1,-1,-1,-1,-1,-1,-1,-1,-1,-1,-1,-1,-1],"loss_changes":[1.3011803E2,1.4099342E1,5.7589825E1,1.0071077E1,2.636757E0,7.695343E0,7.666872E0,4.592304E0,5.9013157E0,1.7002962E0,0E0,7.343193E0,1.5381966E0,4.3385925E0,5.7467847E0,0E0,0E0,0E0,0E0,0E0,0E0,0E0,0E0,0E0,0E0,0E0,0E0,0E0,0E0],"parents":[2147483647,0,0,1,1,2,2,3,3,4,4,5,5,6,6,7,7,8,8,9,9,11,11,12,12,13,13,14,14],"right_children":[2,4,6,8,10,12,14,16,18,20,-1,22,24,26,28,-1,-1,-1,-1,-1,-1,-1,-1,-1,-1,-1,-1,-1,-1],"split_conditions":[3.750023E-1,7.5E0,8E0,3.0261183E-1,1E0,6.005955E-1,9.4E0,5E-1,1E0,3.1169048E-1,-7.416501E-2,4.9E0,6.3E0,1E0,1E0,-6.7555115E-2,-2.9385349E-2,-6.059609E-2,1.2006134E-3,-4.7209393E-2,9.599489E-3,6.414097E-2,2.9018119E-2,7.304935E-2,3.177462E-2,-4.3228045E-2,-7.7903196E-3,2.0511923E-2,-3.6394108E-2],"split_indices":[97,76,82,97,11,97,76,69,87,97,0,76,76,17,55,0,0,0,0,0,0,0,0,0,0,0,0,0,0],"split_type":[0,0,0,0,0,0,0,0,0,0,0,0,0,0,0,0,0,0,0,0,0,0,0,0,0,0,0,0,0],"sum_hessian":[2.8378107E2,1.0221828E2,1.8156279E2,6.5271126E1,3.6947155E1,1.2261818E2,5.894461E1,3.6043312E1,2.9227814E1,3.7755883E0,3.3171566E1,9.3380005E1,2.923817E1,3.6246834E1,2.2697777E1,1.5930996E1,2.0112316E1,3.539611E0,2.5688204E1,1.8432215E0,1.9323667E0,1.9287289E1,7.409272E1,2.4264025E1,4.9741464E0,2.1295502E1,1.4951333E1,1.7869816E1,4.8279595E0],"tree_param":{"num_deleted":"0","num_feature":"100","num_nodes":"29","size_leaf_vector":"1"}},{"base_weights":[-3.533067E-3,-7.8268623E-1,5.343905E-1,-4.0994275E-1,-1.2141541E0,8.536152E-1,-1.9684954E-1,-8.978412E-1,1.7063507E-1,3.9840247E-2,-1.2763953E0,9.1387373E-1,-2.6737893E-1,-5.5996746E-1,3.0982128E-1,-5.125593E-2,1.4809995E-2,-5.7592507E-2,1.810477E-2,-7.1652085E-2,-3.92645E-2,4.7019813E-2,-3.9149586E-2,-6.137661E-2,4.95562E-2,1.3718626E-2,-3.9788056E-2,-1.1645551E-2,3.4326844E-2],"categories":[],"categories_nodes":[],"categories_segments":[],"categories_sizes":[],"default_left":[0,0,0,0,0,0,0,0,0,0,0,0,0,0,0,0,0,0,0,0,0,0,0,0,0,0,0,0,0],"id":6,"left_children":[1,3,5,7,9,11,13,15,17,-1,19,21,23,25,27,-1,-1,-1,-1,-1,-1,-1,-1,-1,-1,-1,-1,-1,-1],"loss_changes":[1.19046036E2,1.8158875E1,3.939186E1,1.8210453E1,7.6829224E0,8.158211E0,9.717674E0,5.5920563E0,8.000327E0,0E0,2.878273E0,5.7501907E0,9.373138E0,6.2334213E0,4.7194366E0,0E0,0E0,0E0,0E0,0E0,0E0,0E0,0E0,0E0,0E0,0E0,0E0,0E0,0E0],"parents":[2147483647,0,0,1,1,2,2,3,3,4,4,5,5,6,6,7,7,8,8,10,10,11,11,12,12,13,13,14,14],"right_children":[2,4,6,8,10,12,14,16,18,-1,20,22,24,26,28,-1,-1,-1,-1,-1,-1,-1,-1,-1,-1,-1,-1,-1,-1],"split_conditions":[4.0254113E-1,7.1E0,8E0,3.0261183E-1,4.5E-1,1E0,8.5E0,2E0,1E0,3.9840247E-2,1E0,1E0,1E0,4.0464348E-1,1E0,-5.125593E-2,1.4809995E-2,-5.7592507E-2,1.810477E-2,-7.1652085E-2,-3.92645E-2,4.7019813E-2,-3.9149586E-2,-6.137661E-2,4.95562E-2,1.3718626E-2,-3.9788056E-2,-1.1645551E-2,3.4326844E-2],"split_indices":[97,76,82,97,0,45,76,87,87,0,33,88,73,99,13,0,0,0,0,0,0,0,0,0,0,0,0,0,0],"split_type":[0,0,0,0,0,0,0,0,0,0,0,0,0,0,0,0,0,0,0,0,0,0,0,0,0,0,0,0,0],"sum_hessian":[2.8203687E2,1.1500432E2,1.6703253E2,6.274729E1,5.2257027E1,1.1615668E2,5.087586E1,3.3798058E1,2.8949234E1,1.2145357E0,5.1042492E1,1.1040659E2,5.7500844E0,2.9575016E1,2.1300842E1,3.0670265E1,3.1277905E0,3.0266871E0,2.5922546E1,3.724468E1,1.37978115E1,1.0914641E2,1.2601895E0,3.2756176E0,2.4744668E0,6.4805193E0,2.3094496E1,8.88377E0,1.2417071E1],"tree_param":{"num_deleted":"0","num_feature":"100","num_nodes":"29","size_leaf_vector":"1"}},{"base_weights":[-3.961288E-3,-8.3277124E-1,4.6231577E-1,-5.83226E-1,-1.3605345E0,8.1981754E-1,-2.7648503E-1,-1.0634191E0,-3.4546596E-1,-7.243349E-2,-8.1269443E-1,6.6965E-1,1.266498E0,9.806853E-1,-3.5738426E-1,-5.7098515E-2,3.1441615E-3,-5.7175912E-2,-1.095047E-2,-5.4419138E-2,5.920829E-3,5.369786E-2,2.3500394E-2,6.9043554E-2,2.8794987E-2,6.1100423E-3,6.277024E-2,-3.9484814E-2,-5.5030393E-3],"categories":[],"categories_nodes":[],"categories_segments":[],"categories_sizes":[],"default_left":[0,0,0,0,0,0,0,0,0,0,0,0,0,0,0,0,0,0,0,0,0,0,0,0,0,0,0,0,0],"id":7,"left_children":[1,3,5,7,9,11,13,15,17,-1,19,21,23,25,27,-1,-1,-1,-1,-1,-1,-1,-1,-1,-1,-1,-1,-1,-1],"loss_changes":[1.0904985E2,1.258638E1,4.7924725E1,7.7077084E0,3.6123657E-1,7.3321E0,6.4159093E0,2.1014957E0,4.673065E0,0E0,1.8471532E0,7.03347E0,1.5396881E0,7.5995445E-1,5.9824734E0,0E0,0E0,0E0,0E0,0E0,0E0,0E0,0E0,0E0,0E0,0E0,0E0,0E0,0E0],"parents":[2147483647,0,0,1,1,2,2,3,3,4,4,5,5,6,6,7,7,8,8,10,10,11,11,12,12,13,13,14,14],"right_children":[2,4,6,8,10,12,14,16,18,-1,20,22,24,26,28,-1,-1,-1,-1,-1,-1,-1,-1,-1,-1,-1,-1,-1,-1],"split_conditions":[3.750023E-1,7.8E0,8E0,2.631482E-1,3.4229767E-1,6.005955E-1,1E0,2E0,1E0,-7.243349E-2,1E0,1E0,6.3E0,1.6666667E-1,1E0,-5.7098515E-2,3.1441615E-3,-5.7175912E-2,-1.095047E-2,-5.4419138E-2,5.920829E-3,5.369786E-2,2.3500394E-2,6.9043554E-2,2.8794987E-2,6.1100423E-3,6.277024E-2,-3.9484814E-2,-5.5030393E-3],"split_indices":[97,76,82,97,97,97,1,96,87,0,33,70,76,71,60,0,0,0,0,0,0,0,0,0,0,0,0,0,0],"split_type":[0,0,0,0,0,0,0,0,0,0,0,0,0,0,0,0,0,0,0,0,0,0,0,0,0,0,0,0,0],"sum_hessian":[2.8018365E2,1.0059302E2,1.7959062E2,6.972816E1,3.0864857E1,1.2095264E2,5.8637993E1,2.1941423E1,4.778674E1,2.517107E1,5.693786E0,9.239122E1,2.8561417E1,2.8727818E0,5.5765213E1,2.0497932E1,1.4434906E0,5.4362755E0,4.235046E1,4.262743E0,1.4310433E0,2.9093279E1,6.329794E1,2.3645802E1,4.9156156E0,1.0467042E0,1.8260777E0,1.9495262E1,3.626995E1],"tree_param":{"num_deleted":"0","num_feature":"100","num_nodes":"29","size_leaf_vector":"1"}},{"base_weights":[-3.9686924E-3,-8.0109024E-1,4.4300205E-1,-5.586502E-1,-1.3208615E0,7.8657407E-1,-2.627328E-1,-1.0240629E0,-3.3027977E-1,-7.038214E-2,-7.863477E-1,6.4054775E-1,1.2254213E0,-5.158823E-1,1.4427777E-1,-5.5033512E-2,3.0508135E-3,-5.534778E-2,-1.0422825E-2,-5.28226E-2,5.743936E-3,5.8304556E-2,2.4584187E-2,6.6900544E-2,2.771832E-2,-8.2120085E-3,-4.2543292E-2,1.9286014E-2,-3.3373885E-2],"categories":[],"categories_nodes":[],"categories_segments":[],"categories_sizes":[],"default_left":[0,0,0,0,0,0,0,0,0,0,0,0,0,0,0,0,0,0,0,0,0,0,0,0,0,0,0,0,0],"id":8,"left_children":[1,3,5,7,9,11,13,15,17,-1,19,21,23,25,27,-1,-1,-1,-1,-1,-1,-1,-1,-1,-1,-1,-1,-1,-1],"loss_changes":[9.98354E1,1.1947861E1,4.3740414E1,7.142462E0,3.444023E-1,6.96949E0,6.2087665E0,1.9533882E0,4.37624E0,0E0,1.7366972E0,6.693779E0,1.4581108E0,4.209797E0,4.885191E0,0E0,0E0,0E0,0E0,0E0,0E0,0E0,0E0,0E0,0E0,0E0,0E0,0E0,0E0],"parents":[2147483647,0,0,1,1,2,2,3,3,4,4,5,5,6,6,7,7,8,8,10,10,11,11,12,12,13,13,14,14],"right_children":[2,4,6,8,10,12,14,16,18,-1,20,22,24,26,28,-1,-1,-1,-1,-1,-1,-1,-1,-1,-1,-1,-1,-1,-1],"split_conditions":[3.750023E-1,7.8E0,8E0,2.631482E-1,3.4229767E-1,6.005955E-1,9.4E0,2E0,1E0,-7.038214E-2,1E0,4.9E0,6.3E0,2.6666668E-1,1E0,-5.5033512E-2,3.0508135E-3,-5.534778E-2,-1.0422825E-2,-5.28226E-2,5.743936E-3,5.8304556E-2,2.4584187E-2,6.6900544E-2,2.771832E-2,-8.2120085E-3,-4.2543292E-2,1.9286014E-2,-3.3373885E-2],"split_indices":[97,76,82,97,97,97,76,96,87,0,33,76,76,71,55,0,0,0,0,0,0,0,0,0,0,0,0,0,0],"split_type":[0,0,0,0,0,0,0,0,0,0,0,0,0,0,0,0,0,0,0,0,0,0,0,0,0,0,0,0,0],"sum_hessian":[2.7821222E2,9.966994E1,1.7854227E2,6.938232E1,3.0287619E1,1.2000556E2,5.8536705E1,2.1691471E1,4.7690845E1,2.4651766E1,5.6358514E0,9.188909E1,2.811647E1,3.59249E1,2.2611805E1,2.0247608E1,1.4438632E0,5.3697586E0,4.2321087E1,4.2037253E0,1.4321264E0,1.8774632E1,7.311446E1,2.3225763E1,4.8907075E0,1.8253721E1,1.767118E1,1.783263E1,4.779174E0],"tree_param":{"num_deleted":"0","num_feature":"100","num_nodes":"29","size_leaf_vector":"1"}},{"base_weights":[-4.2662383E-3,-7.780724E-1,4.207749E-1,-4.7392166E-1,-1.1671976E0,7.5979847E-1,-2.6609528E-1,-6.5133494E-1,6.221384E-1,-1.3473864E0,-6.3305444E-1,6.196688E-1,1.1872253E0,9.507922E-1,-3.4363845E-1,-5.6794353E-2,-7.319609E-3,5.4143984E-2,-3.6688805E-2,-2.1664621E-2,-6.968911E-2,-4.854145E-2,8.958534E-3,5.0848138E-2,2.1177912E-2,6.6942774E-2,3.240047E-2,5.885187E-3,6.090745E-2,-3.72566E-2,-5.753668E-3],"categories":[],"categories_nodes":[],"categories_segments":[],"categories_sizes":[],"default_left":[0,0,0,0,0,0,0,0,0,0,0,0,0,0,0,0,0,0,0,0,0,0,0,0,0,0,0,0,0,0,0],"id":9,"left_children":[1,3,5,7,9,11,13,15,17,19,21,23,25,27,29,-1,-1,-1,-1,-1,-1,-1,-1,-1,-1,-1,-1,-1,-1,-1,-1],"loss_changes":[9.1456505E1,1.1114616E1,4.199869E1,1.1492637E1,3.2439651E0,6.477646E0,5.993634E0,1.19603195E1,6.076561E0,7.083931E-1,3.6372366E0,6.7988243E0,1.4742966E0,7.1705675E-1,5.162644E0,0E0,0E0,0E0,0E0,0E0,0E0,0E0,0E0,0E0,0E0,0E0,0E0,0E0,0E0,0E0,0E0],"parents":[2147483647,0,0,1,1,2,2,3,3,4,4,5,5,6,6,7,7,8,8,9,9,10,10,11,11,12,12,13,13,14,14],"right_children":[2,4,6,8,10,12,14,16,18,20,22,24,26,28,30,-1,-1,-1,-1,-1,-1,-1,-1,-1,-1,-1,-1,-1,-1,-1,-1],"split_conditions":[3.7371102E-1,7.1E0,8E0,2E0,1E0,6.005955E-1,1E0,4E0,1E0,6E0,3.4501162E-1,1E0,1E0,1.6666667E-1,1E0,-5.6794353E-2,-7.319609E-3,5.4143984E-2,-3.6688805E-2,-2.1664621E-2,-6.968911E-2,-4.854145E-2,8.958534E-3,5.0848138E-2,2.1177912E-2,6.6942774E-2,3.240047E-2,5.885187E-3,6.090745E-2,-3.72566E-2,-5.753668E-3],"split_indices":[97,76,82,87,33,97,1,77,45,80,97,70,13,71,60,0,0,0,0,0,0,0,0,0,0,0,0,0,0,0,0],"split_type":[0,0,0,0,0,0,0,0,0,0,0,0,0,0,0,0,0,0,0,0,0,0,0,0,0,0,0,0,0,0,0],"sum_hessian":[2.7607285E2,9.758481E1,1.7848804E2,5.6017746E1,4.1567066E1,1.19432625E2,5.9055405E1,4.8562885E1,7.4548597E0,2.9943388E1,1.1623676E1,9.178964E1,2.7642982E1,2.8631072E0,5.61923E1,2.4144169E1,2.4418716E1,5.714449E0,1.7404108E0,1.9458135E0,2.7997576E1,8.071688E0,3.5519884E0,2.8951693E1,6.283795E1,2.0418297E1,7.224686E0,1.0455148E0,1.8175924E0,1.9564894E1,3.6627403E1],"tree_param":{"num_deleted":"0","num_feature":"100","num_nodes":"31","size_leaf_vector":"1"}},{"base_weights":[-4.043237E-3,-6.712858E-1,4.524889E-1,-3.3247048E-1,-1.0758559E0,7.2184825E-1,-1.5027559E-1,-7.7867657E-1,1.861516E-1,3.9707333E-2,-1.1375573E0,7.7981293E-1,-3.1634447E-1,-4.8223338E-1,3.0877644E-1,-4.49409E-2,1.5370594E-2,-5.2488502E-2,1.7928295E-2,-6.95968E-2,-4.0938403E-2,4.031767E-2,-4.123042E-2,-6.166883E-2,4.591041E-2,1.5600353E-2,-3.5534393E-2,-1.0383457E-2,3.331232E-2],"categories":[],"categories_nodes":[],"categories_segments":[],"categories_sizes":[],"default_left":[0,0,0,0,0,0,0,0,0,0,0,0,0,0,0,0,0,0,0,0,0,0,0,0,0,0,0,0,0],"id":10,"left_children":[1,3,5,7,9,11,13,15,17,-1,19,21,23,25,27,-1,-1,-1,-1,-1,-1,-1,-1,-1,-1,-1,-1,-1,-1],"loss_changes":[8.406076E1,1.5008907E1,2.6711838E1,1.459831E1,6.747101E0,7.0720863E0,7.986825E0,4.6821594E0,6.7034464E0,0E0,2.869587E0,5.251442E0,8.727924E0,5.7086835E0,4.2358427E0,0E0,0E0,0E0,0E0,0E0,0E0,0E0,0E0,0E0,0E0,0E0,0E0,0E0,0E0],"parents":[2147483647,0,0,1,1,2,2,3,3,4,4,5,5,6,6,7,7,8,8,10,10,11,11,12,12,13,13,14,14],"right_children":[2,4,6,8,10,12,14,16,18,-1,20,22,24,26,28,-1,-1,-1,-1,-1,-1,-1,-1,-1,-1,-1,-1,-1,-1],"split_conditions":[4.0254113E-1,7.1E0,8E0,3.0261183E-1,4.5E-1,1E0,8.5E0,2E0,1E0,3.9707333E-2,1E0,1E0,1E0,4.0464348E-1,1E0,-4.49409E-2,1.5370594E-2,-5.2488502E-2,1.7928295E-2,-6.95968E-2,-4.0938403E-2,4.031767E-2,-4.123042E-2,-6.166883E-2,4.591041E-2,1.5600353E-2,-3.5534393E-2,-1.0383457E-2,3.331232E-2],"split_indices":[97,76,82,97,0,45,76,87,87,0,68,88,73,99,13,0,0,0,0,0,0,0,0,0,0,0,0,0,0],"split_type":[0,0,0,0,0,0,0,0,0,0,0,0,0,0,0,0,0,0,0,0,0,0,0,0,0,0,0,0,0],"sum_hessian":[2.7395782E2,1.1110394E2,1.628539E2,6.1457176E1,4.9646763E1,1.1241919E2,5.04347E1,3.2765415E1,2.8691763E1,1.2066185E0,4.8440144E1,1.0671019E2,5.7090044E0,2.92398E1,2.1194899E1,2.9657207E1,3.1082077E0,2.889591E0,2.5802172E1,2.5069529E1,2.3370615E1,1.05463036E2,1.2471561E0,3.2763026E0,2.4327018E0,6.450028E0,2.2789772E1,8.841061E0,1.2353838E1],"tree_param":{"num_deleted":"0","num_feature":"100","num_nodes":"29","size_leaf_vector":"1"}},{"base_weights":[-4.4629048E-3,-7.229542E-1,3.8754568E-1,-4.3745503E-1,-1.0962502E0,7.0118165E-1,-2.4045005E-1,-6.0410523E-1,5.7720923E-1,-1.2774047E0,-5.7376456E-1,5.642913E-1,1.1265085E0,9.153829E-1,-3.143599E-1,-5.3901374E-2,-5.8307154E-3,5.097301E-2,-3.6101174E-2,-1.9557728E-2,-6.618565E-2,-4.551068E-2,1.0588693E-2,5.4107584E-2,2.0950848E-2,6.2160373E-2,2.3233632E-2,5.95089E-3,5.8424532E-2,-3.5050716E-2,-4.793079E-3],"categories":[],"categories_nodes":[],"categories_segments":[],"categories_sizes":[],"default_left":[0,0,0,0,0,0,0,0,0,0,0,0,0,0,0,0,0,0,0,0,0,0,0,0,0,0,0,0,0,0,0],"id":11,"left_children":[1,3,5,7,9,11,13,15,17,19,21,23,25,27,29,-1,-1,-1,-1,-1,-1,-1,-1,-1,-1,-1,-1,-1,-1,-1,-1],"loss_changes":[7.70822E1,9.816292E0,3.5045727E1,9.886328E0,3.1668396E0,6.255089E0,5.389861E0,1.1180077E1,5.601932E0,7.043686E-1,3.4760628E0,6.4331436E0,1.5704536E0,6.359868E-1,4.738147E0,0E0,0E0,0E0,0E0,0E0,0E0,0E0,0E0,0E0,0E0,0E0,0E0,0E0,0E0,0E0,0E0],"parents":[2147483647,0,0,1,1,2,2,3,3,4,4,5,5,6,6,7,7,8,8,9,9,10,10,11,11,12,12,13,13,14,14],"right_children":[2,4,6,8,10,12,14,16,18,20,22,24,26,28,30,-1,-1,-1,-1,-1,-1,-1,-1,-1,-1,-1,-1,-1,-1,-1,-1],"split_conditions":[3.7371102E-1,7.1E0,8E0,2E0,1E0,6.005955E-1,1E0,4E0,1E0,6E0,3.4501162E-1,4.9E0,6.3E0,1.6666667E-1,1E0,-5.3901374E-2,-5.8307154E-3,5.097301E-2,-3.6101174E-2,-1.9557728E-2,-6.618565E-2,-4.551068E-2,1.0588693E-2,5.4107584E-2,2.0950848E-2,6.2160373E-2,2.3233632E-2,5.95089E-3,5.8424532E-2,-3.5050716E-2,-4.793079E-3],"split_indices":[97,76,82,87,33,97,1,77,45,80,97,76,76,71,60,0,0,0,0,0,0,0,0,0,0,0,0,0,0,0,0],"split_type":[0,0,0,0,0,0,0,0,0,0,0,0,0,0,0,0,0,0,0,0,0,0,0,0,0,0,0,0,0,0,0],"sum_hessian":[2.7168143E2,9.560604E1,1.7607538E2,5.5404327E1,4.0201717E1,1.17350975E2,5.87244E1,4.793588E1,7.468446E0,2.8778776E1,1.1422939E1,9.05382E1,2.681277E1,2.8451788E0,5.587922E1,2.369197E1,2.424391E1,5.732481E0,1.735965E0,1.8981812E0,2.6880596E1,7.8864365E0,3.5365028E0,1.8421593E1,7.211661E1,2.20469E1,4.765871E0,1.0407724E0,1.8044063E0,1.9378578E1,3.6500645E1],"tree_param":{"num_deleted":"0","num_feature":"100","num_nodes":"31","size_leaf_vector":"1"}},{"base_weights":[-4.2267214E-3,-6.9632876E-1,3.7194014E-1,-4.837232E-1,-1.1873927E0,6.739301E-1,-2.2857465E-1,-9.51931E-1,-2.565266E-1,-1.2831713E0,-5.819789E-1,8.55383E-1,3.7639913E-1,8.892964E-1,-3.000433E-1,-5.7719983E-2,-1.045005E-2,-5.245459E-2,-6.061976E-3,-6.615546E-2,-2.4491912E-2,-4.2410076E-2,6.2010842E-3,2.36444E-2,5.8531076E-2,5.127423E-2,-4.094835E-3,5.798222E-3,5.680721E-2,-4.101346E-2,-6.794588E-3],"categories":[],"categories_nodes":[],"categories_segments":[],"categories_sizes":[],"default_left":[0,0,0,0,0,0,0,0,0,0,0,0,0,0,0,0,0,0,0,0,0,0,0,0,0,0,0,0,0,0,0],"id":12,"left_children":[1,3,5,7,9,11,13,15,17,19,21,23,25,27,29,-1,-1,-1,-1,-1,-1,-1,-1,-1,-1,-1,-1,-1,-1,-1,-1],"loss_changes":[7.065894E1,9.40308E0,3.2043003E1,7.0297203E0,8.8765717E-1,6.0084686E0,5.027315E0,3.063696E0,4.9561005E0,9.66835E-2,1.1727978E0,8.134083E0,1.3829034E1,5.999224E-1,4.7350163E0,0E0,0E0,0E0,0E0,0E0,0E0,0E0,0E0,0E0,0E0,0E0,0E0,0E0,0E0,0E0,0E0],"parents":[2147483647,0,0,1,1,2,2,3,3,4,4,5,5,6,6,7,7,8,8,9,9,10,10,11,11,12,12,13,13,14,14],"right_children":[2,4,6,8,10,12,14,16,18,20,22,24,26,28,30,-1,-1,-1,-1,-1,-1,-1,-1,-1,-1,-1,-1,-1,-1,-1,-1],"split_conditions":[3.7371102E-1,7.8E0,8E0,5E-1,3.4229767E-1,1E0,1E0,3.171748E-1,1E0,1E0,1E0,5.107337E-1,5.6E0,1.6666667E-1,4.1668865E-1,-5.7719983E-2,-1.045005E-2,-5.245459E-2,-6.061976E-3,-6.615546E-2,-2.4491912E-2,-4.2410076E-2,6.2010842E-3,2.36444E-2,5.8531076E-2,5.127423E-2,-4.094835E-3,5.798222E-3,5.680721E-2,-4.101346E-2,-6.794588E-3],"split_indices":[97,76,82,69,97,13,1,97,87,36,33,97,76,71,97,0,0,0,0,0,0,0,0,0,0,0,0,0,0,0,0],"split_type":[0,0,0,0,0,0,0,0,0,0,0,0,0,0,0,0,0,0,0,0,0,0,0,0,0,0,0,0,0,0,0],"sum_hessian":[2.6940936E2,9.456674E1,1.748426E2,6.73798E1,2.7186945E1,1.1625662E2,5.8585987E1,2.0971577E1,4.640822E1,2.2506798E1,4.6801486E0,7.1050606E1,4.5206017E1,2.8328612E0,5.5753128E1,1.6045023E1,4.9265532E0,5.7817693E0,4.062645E1,2.0792286E1,1.7145116E0,3.2523263E0,1.4278224E0,3.3230473E1,3.7820133E1,1.819657E1,2.7009449E1,1.0410888E0,1.7917725E0,1.2413975E1,4.3339153E1],"tree_param":{"num_deleted":"0","num_feature":"100","num_nodes":"31","size_leaf_vector":"1"}},{"base_weights":[-4.471408E-3,-8.149457E-1,2.9435787E-1,-5.600266E-1,-1.1829177E0,6.3834876E-1,-1.9104369E-1,-6.961179E-1,4.6000722E-1,-1.2397642E0,-4.511086E-1,5.0331426E-1,1.1842911E0,1.0477319E0,-2.6382342E-1,-5.1709265E-2,-1.735243E-2,4.8356228E-2,-3.6367804E-2,-6.7168586E-2,-4.04845E-2,-4.1016903E-2,4.8462073E-3,-2.7131176E-2,2.7845968E-2,2.03936E-2,6.2766925E-2,6.361767E-3,6.543234E-2,-3.4846976E-2,-3.0872829E-3],"categories":[],"categories_nodes":[],"categories_segments":[],"categories_sizes":[],"default_left":[0,0,0,0,0,0,0,0,0,0,0,0,0,0,0,0,0,0,0,0,0,0,0,0,0,0,0,0,0,0,0],"id":13,"left_children":[1,3,5,7,9,11,13,15,17,19,21,23,25,27,29,-1,-1,-1,-1,-1,-1,-1,-1,-1,-1,-1,-1,-1,-1,-1,-1],"loss_changes":[6.517706E1,6.1376076E0,3.295367E1,6.528738E0,6.375351E-1,7.9044724E0,7.6983156E0,4.3446293E0,4.236005E0,7.6309204E-2,8.172095E-1,5.5827045E0,7.084904E-1,9.7893286E-1,6.832083E0,0E0,0E0,0E0,0E0,0E0,0E0,0E0,0E0,0E0,0E0,0E0,0E0,0E0,0E0,0E0,0E0],"parents":[2147483647,0,0,1,1,2,2,3,3,4,4,5,5,6,6,7,7,8,8,9,9,10,10,11,11,12,12,13,13,14,14],"right_children":[2,4,6,8,10,12,14,16,18,20,22,24,26,28,30,-1,-1,-1,-1,-1,-1,-1,-1,-1,-1,-1,-1,-1,-1,-1,-1],"split_conditions":[3.3845714E-1,7.1E0,6.8E0,2E0,1E0,6.005955E-1,1E0,4E0,1E0,1E0,5E-1,1E0,4.0463707E-1,5E0,4.1668865E-1,-5.1709265E-2,-1.735243E-2,4.8356228E-2,-3.6367804E-2,-6.7168586E-2,-4.04845E-2,-4.1016903E-2,4.8462073E-3,-2.7131176E-2,2.7845968E-2,2.03936E-2,6.2766925E-2,6.361767E-3,6.543234E-2,-3.4846976E-2,-3.0872829E-3],"split_indices":[97,76,76,87,36,97,1,77,45,33,71,87,99,79,97,0,0,0,0,0,0,0,0,0,0,0,0,0,0,0,0],"split_type":[0,0,0,0,0,0,0,0,0,0,0,0,0,0,0,0,0,0,0,0,0,0,0,0,0,0,0,0,0,0,0],"sum_hessian":[2.6712112E2,7.149306E1,1.9562807E2,4.3724243E1,2.7768814E1,1.1430684E2,8.1321236E1,3.885749E1,4.8667507E0,2.5123154E1,2.645661E0,9.318114E1,2.1125696E1,3.7692552E0,7.755198E1,1.874276E1,2.011473E1,3.5402236E0,1.3265272E0,1.85345E1,6.588652E0,1.2838244E0,1.3618368E0,4.098033E0,8.908311E1,2.336192E0,1.8789505E1,1.1609888E0,2.6082664E0,2.3892973E1,5.365901E1],"tree_param":{"num_deleted":"0","num_feature":"100","num_nodes":"31","size_leaf_vector":"1"}},{"base_weights":[-4.6229498E-3,-7.880845E-1,2.8203234E-1,-5.916435E-1,-6.342409E-2,6.202053E-1,-1.7470342E-1,-9.848353E-1,-3.734703E-1,1.8323797E-1,7.9785746E-1,-2.5658628E-1,1.0292097E0,-5.4252505E-2,-6.9458634E-3,-2.3212207E-2,1.5524678E-2,1.6076555E-2,-2.4613407E-2,4.3752834E-2,-3.3267923E-2,5.5635452E-2,-1.6104182E-2,6.320165E-2,1.5651723E-2],"categories":[],"categories_nodes":[],"categories_segments":[],"categories_sizes":[],"default_left":[0,0,0,0,0,0,0,0,0,0,0,0,0,0,0,0,0,0,0,0,0,0,0,0,0],"id":14,"left_children":[1,3,5,7,-1,9,11,13,15,17,19,21,23,-1,-1,-1,-1,-1,-1,-1,-1,-1,-1,-1,-1],"loss_changes":[5.995167E1,5.9975204E0,3.0296776E1,4.1467247E0,0E0,8.5886E0,8.537834E0,1.3895721E0,2.3455358E0,3.3178253E0,9.584988E0,7.4780498E0,5.3674173E-1,0E0,0E0,0E0,0E0,0E0,0E0,0E0,0E0,0E0,0E0,0E0,0E0],"parents":[2147483647,0,0,1,1,2,2,3,3,5,5,6,6,7,7,8,8,9,9,10,10,11,11,12,12],"right_children":[2,4,6,8,-1,10,12,14,16,18,20,22,24,-1,-1,-1,-1,-1,-1,-1,-1,-1,-1,-1,-1],"split_conditions":[3.3845714E-1,9E0,1E1,5E-1,-6.342409E-2,4.4416824E-1,7E0,3.171748E-1,6.333333E-1,8E0,1E0,4.0463632E-1,1.1E1,-5.4252505E-2,-6.9458634E-3,-2.3212207E-2,1.5524678E-2,1.6076555E-2,-2.4613407E-2,4.3752834E-2,-3.3267923E-2,5.5635452E-2,-1.6104182E-2,6.320165E-2,1.5651723E-2],"split_indices":[97,81,78,69,0,97,79,97,71,81,45,99,78,0,0,0,0,0,0,0,0,0,0,0,0],"split_type":[0,0,0,0,0,0,0,0,0,0,0,0,0,0,0,0,0,0,0,0,0,0,0,0,0],"sum_hessian":[2.6495648E2,7.050609E1,1.944504E2,5.162677E1,1.8879316E1,1.1152095E2,8.292944E1,1.7169638E1,3.445713E1,3.2821655E1,7.86993E1,7.838504E1,4.5444016E0,1.5098274E1,2.0713625E0,3.0703493E1,3.753639E0,2.7679066E1,5.1425877E0,7.513704E1,3.5622642E0,2.848356E0,7.553668E1,2.846198E0,1.6982033E0],"tree_param":{"num_deleted":"0","num_feature":"100","num_nodes":"25","size_leaf_vector":"1"}},{"base_weights":[-4.4906912E-3,-6.2749183E-1,3.2944563E-1,-4.2807022E-1,-1.1121527E0,6.025692E-1,-2.0170972E-1,-8.659146E-1,-2.2192816E-1,-1.2084692E0,-5.3477263E-1,4.7383276E-1,1.0216944E0,-5.0584865E-1,5.838467E-2,-5.3185172E-2,-8.742795E-3,-4.4082757E-2,-3.445983E-3,-6.2442627E-2,-2.2399468E-2,-4.8945006E-2,-1.3846806E-3,4.330003E-2,1.4343803E-2,5.8942284E-2,2.4855366E-2,4.0360846E-2,-3.2104086E-2,-3.2860525E-2,1.581416E-2],"categories":[],"categories_nodes":[],"categories_segments":[],"categories_sizes":[],"default_left":[0,0,0,0,0,0,0,0,0,0,0,0,0,0,0,0,0,0,0,0,0,0,0,0,0,0,0,0,0,0,0],"id":15,"left_children":[1,3,5,7,9,11,13,15,17,19,21,23,25,27,29,-1,-1,-1,-1,-1,-1,-1,-1,-1,-1,-1,-1,-1,-1,-1,-1],"loss_changes":[5.5087383E1,8.454472E0,2.5131208E1,5.863158E0,8.168831E-1,5.6725197E0,4.7198834E0,2.702238E0,4.67938E0,1.08631134E-1,1.2239825E0,6.2883453E0,1.5530529E0,5.4260693E0,6.2716856E0,0E0,0E0,0E0,0E0,0E0,0E0,0E0,0E0,0E0,0E0,0E0,0E0,0E0,0E0,0E0,0E0],"parents":[2147483647,0,0,1,1,2,2,3,3,4,4,5,5,6,6,7,7,8,8,9,9,10,10,11,11,12,12,13,13,14,14],"right_children":[2,4,6,8,10,12,14,16,18,20,22,24,26,28,30,-1,-1,-1,-1,-1,-1,-1,-1,-1,-1,-1,-1,-1,-1,-1,-1],"split_conditions":[3.7371102E-1,7.8E0,8E0,5E-1,3.4229767E-1,6.005955E-1,3E0,3.171748E-1,5.1E0,1E0,4.046462E-1,1E0,1E0,4.0463877E-1,4.1668865E-1,-5.3185172E-2,-8.742795E-3,-4.4082757E-2,-3.445983E-3,-6.2442627E-2,-2.2399468E-2,-4.8945006E-2,-1.3846806E-3,4.330003E-2,1.4343803E-2,5.8942284E-2,2.4855366E-2,4.0360846E-2,-3.2104086E-2,-3.2860525E-2,1.581416E-2],"split_indices":[97,76,82,69,97,97,94,97,76,36,99,70,13,99,97,0,0,0,0,0,0,0,0,0,0,0,0,0,0,0,0],"split_type":[0,0,0,0,0,0,0,0,0,0,0,0,0,0,0,0,0,0,0,0,0,0,0,0,0,0,0,0,0,0,0],"sum_hessian":[2.6279514E2,9.139916E1,1.7139597E2,6.6089005E1,2.5310162E1,1.1310314E2,5.829283E1,2.0130783E1,4.595822E1,2.0754885E1,4.5552773E0,8.8156075E1,2.4947065E1,2.6435665E1,3.1857166E1,1.5231979E1,4.898804E0,7.755724E0,3.8202496E1,1.9098518E1,1.6563667E0,1.9323506E0,2.622927E0,2.7286581E1,6.0869495E1,1.8236687E1,6.710378E0,2.0219615E0,2.4413704E1,8.029434E0,2.3827732E1],"tree_param":{"num_deleted":"0","num_feature":"100","num_nodes":"31","size_leaf_vector":"1"}},{"base_weights":[-4.7627324E-3,-7.388514E-1,2.5994238E-1,-4.9278E-1,-1.1106122E0,5.714625E-1,-1.7149757E-1,-6.2516344E-1,4.739598E-1,-1.1668407E0,-4.1986632E-1,4.4339228E-1,1.1128534E0,1.0146923E0,-2.4122284E-1,-4.753035E-2,-1.4988606E-2,4.7602694E-2,-3.391767E-2,-6.390856E-2,-3.6487337E-2,-3.9324168E-2,5.4154345E-3,5.042586E-3,3.0481244E-2,1.7261192E-2,5.933056E-2,6.0853395E-3,6.338086E-2,-3.2136198E-2,-2.7734563E-3],"categories":[],"categories_nodes":[],"categories_segments":[],"categories_sizes":[],"default_left":[0,0,0,0,0,0,0,0,0,0,0,0,0,0,0,0,0,0,0,0,0,0,0,0,0,0,0,0,0,0,0],"id":16,"left_children":[1,3,5,7,9,11,13,15,17,19,21,23,25,27,29,-1,-1,-1,-1,-1,-1,-1,-1,-1,-1,-1,-1,-1,-1,-1,-1],"loss_changes":[5.1000668E1,5.8157654E0,2.6026306E1,5.8828077E0,5.5509186E-1,7.290081E0,6.998484E0,3.8264608E0,3.8556452E0,2.5063324E-1,7.7984333E-1,5.2024555E0,7.6875687E-1,9.130187E-1,5.7765746E0,0E0,0E0,0E0,0E0,0E0,0E0,0E0,0E0,0E0,0E0,0E0,0E0,0E0,0E0,0E0,0E0],"parents":[2147483647,0,0,1,1,2,2,3,3,4,4,5,5,6,6,7,7,8,8,9,9,10,10,11,11,12,12,13,13,14,14],"right_children":[2,4,6,8,10,12,14,16,18,20,22,24,26,28,30,-1,-1,-1,-1,-1,-1,-1,-1,-1,-1,-1,-1,-1,-1,-1,-1],"split_conditions":[3.3845714E-1,7.1E0,6.8E0,2E0,1E0,6.005955E-1,1E0,4E0,1E0,1E0,5E-1,2.1475E2,4.0463707E-1,5E0,4.1668865E-1,-4.753035E-2,-1.4988606E-2,4.7602694E-2,-3.391767E-2,-6.390856E-2,-3.6487337E-2,-3.9324168E-2,5.4154345E-3,5.042586E-3,3.0481244E-2,1.7261192E-2,5.933056E-2,6.0853395E-3,6.338086E-2,-3.2136198E-2,-2.7734563E-3],"split_indices":[97,76,76,87,36,97,1,77,45,33,71,98,99,79,97,0,0,0,0,0,0,0,0,0,0,0,0,0,0,0,0],"split_type":[0,0,0,0,0,0,0,0,0,0,0,0,0,0,0,0,0,0,0,0,0,0,0,0,0,0,0,0,0,0,0],"sum_hessian":[2.6047272E2,6.8557014E1,1.9191573E2,4.2651295E1,2.5905714E1,1.1125778E2,8.065794E1,3.782495E1,4.8263445E0,2.3318296E1,2.5874183E0,9.144479E1,1.981299E1,3.7255142E0,7.693243E1,1.7950321E1,1.987463E1,3.5339143E0,1.2924302E0,1.7051043E1,6.2672544E0,1.2386132E0,1.3488051E0,3.0402918E1,6.104187E1,2.2348132E0,1.7578176E1,1.1492234E0,2.5762906E0,2.3556236E1,5.337619E1],"tree_param":{"num_deleted":"0","num_feature":"100","num_nodes":"31","size_leaf_vector":"1"}},{"base_weights":[-4.7285375E-3,-7.1521926E-1,2.4935043E-1,-4.733957E-1,-1.0864601E0,5.58042E-1,-1.5991907E-1,-6.012275E-1,4.5324698E-1,-1.1424414E0,-4.1045284E-1,1.5502751E-1,7.257707E-1,-2.365132E-1,9.7322977E-1,-5.2016556E-2,-1.8128688E-2,4.572949E-2,-3.3115856E-2,-6.279126E-2,-3.5340037E-2,-3.859317E-2,5.254038E-3,-2.035015E-2,1.5146539E-2,4.0104512E-2,-3.3172578E-2,5.3444214E-2,-1.495847E-2,6.0370978E-2,1.3929429E-2],"categories":[],"categories_nodes":[],"categories_segments":[],"categories_sizes":[],"default_left":[0,0,0,0,0,0,0,0,0,0,0,0,0,0,0,0,0,0,0,0,0,0,0,0,0,0,0,0,0,0,0],"id":17,"left_children":[1,3,5,7,9,11,13,15,17,19,21,23,25,27,29,-1,-1,-1,-1,-1,-1,-1,-1,-1,-1,-1,-1,-1,-1,-1,-1],"loss_changes":[4.698369E1,5.640251E0,2.4311253E1,5.399933E0,5.252304E-1,7.2902985E0,7.452193E0,3.6540556E0,3.5998478E0,2.8302383E-1,7.4623084E-1,2.9043021E0,8.702255E0,6.7605205E0,5.5248165E-1,0E0,0E0,0E0,0E0,0E0,0E0,0E0,0E0,0E0,0E0,0E0,0E0,0E0,0E0,0E0,0E0],"parents":[2147483647,0,0,1,1,2,2,3,3,4,4,5,5,6,6,7,7,8,8,9,9,10,10,11,11,12,12,13,13,14,14],"right_children":[2,4,6,8,10,12,14,16,18,20,22,24,26,28,30,-1,-1,-1,-1,-1,-1,-1,-1,-1,-1,-1,-1,-1,-1,-1,-1],"split_conditions":[3.3845714E-1,7.1E0,1E1,2E0,1E0,4.4416824E-1,7E0,2.464409E-1,1E0,1E0,5E-1,3E0,1E0,4.0463632E-1,1.1E1,-5.2016556E-2,-1.8128688E-2,4.572949E-2,-3.3115856E-2,-6.279126E-2,-3.5340037E-2,-3.859317E-2,5.254038E-3,-2.035015E-2,1.5146539E-2,4.0104512E-2,-3.3172578E-2,5.3444214E-2,-1.495847E-2,6.0370978E-2,1.3929429E-2],"split_indices":[97,76,78,87,36,97,79,97,45,33,71,77,45,99,78,0,0,0,0,0,0,0,0,0,0,0,0,0,0,0,0],"split_type":[0,0,0,0,0,0,0,0,0,0,0,0,0,0,0,0,0,0,0,0,0,0,0,0,0,0,0,0,0,0,0],"sum_hessian":[2.582796E2,6.755579E1,1.9072382E2,4.2286106E1,2.5269691E1,1.0851378E2,8.221004E1,3.7468452E1,4.817654E0,2.2699888E1,2.5698023E0,3.245528E1,7.6058495E1,7.774614E1,4.4638987E0,1.20106535E1,2.5457798E1,3.5356407E0,1.2820134E0,1.6518047E1,6.1818423E0,1.218424E0,1.3513783E0,6.3965716E0,2.605871E1,7.24983E1,3.560196E0,2.8252175E0,7.492092E1,2.7863302E0,1.6775686E0],"tree_param":{"num_deleted":"0","num_feature":"100","num_nodes":"31","size_leaf_vector":"1"}},{"base_weights":[-4.836394E-3,-6.9265026E-1,2.3902076E-1,-5.0751764E-1,-5.9245314E-2,5.352653E-1,-1.5080345E-1,-8.8459903E-1,-3.0691552E-1,1.4724158E-1,6.9874567E-1,-2.2446351E-1,9.4625336E-1,-4.9243115E-2,-4.952714E-3,-1.7981159E-2,3.4915656E-2,1.3652186E-2,-2.3109457E-2,3.8658954E-2,-3.1853985E-2,5.1761426E-2,-1.4234239E-2,5.8788013E-2,1.3520497E-2],"categories":[],"categories_nodes":[],"categories_segments":[],"categories_sizes":[],"default_left":[0,0,0,0,0,0,0,0,0,0,0,0,0,0,0,0,0,0,0,0,0,0,0,0,0],"id":18,"left_children":[1,3,5,7,-1,9,11,13,15,17,19,21,23,-1,-1,-1,-1,-1,-1,-1,-1,-1,-1,-1,-1],"loss_changes":[4.329491E1,5.5555916E0,2.2089273E1,3.5745945E0,0E0,6.780117E0,6.925363E0,1.2512178E0,2.0907226E0,2.689279E0,8.056725E0,6.261364E0,5.225301E-1,0E0,0E0,0E0,0E0,0E0,0E0,0E0,0E0,0E0,0E0,0E0,0E0],"parents":[2147483647,0,0,1,1,2,2,3,3,5,5,6,6,7,7,8,8,9,9,10,10,11,11,12,12],"right_children":[2,4,6,8,-1,10,12,14,16,18,20,22,24,-1,-1,-1,-1,-1,-1,-1,-1,-1,-1,-1,-1],"split_conditions":[3.3845714E-1,9E0,1E1,5E-1,-5.9245314E-2,4.4416824E-1,7E0,3.171748E-1,1E0,8E0,1E0,4.0463632E-1,1.1E1,-4.9243115E-2,-4.952714E-3,-1.7981159E-2,3.4915656E-2,1.3652186E-2,-2.3109457E-2,3.8658954E-2,-3.1853985E-2,5.1761426E-2,-1.4234239E-2,5.8788013E-2,1.3520497E-2],"split_indices":[97,81,78,69,0,97,79,97,41,81,45,99,78,0,0,0,0,0,0,0,0,0,0,0,0],"split_type":[0,0,0,0,0,0,0,0,0,0,0,0,0,0,0,0,0,0,0,0,0,0,0,0,0],"sum_hessian":[2.5613812E2,6.6560326E1,1.895778E2,4.984509E1,1.6715239E1,1.075061E2,8.20717E1,1.6124805E1,3.3720284E1,3.243105E1,7.507506E1,7.7653206E1,4.418501E0,1.4074651E1,2.0501542E0,3.2650547E1,1.0697347E0,2.7339453E1,5.091596E0,7.1511566E1,3.5634925E0,2.8042498E0,7.484895E1,2.7462277E0,1.6722734E0],"tree_param":{"num_deleted":"0","num_feature":"100","num_nodes":"25","size_leaf_vector":"1"}},{"base_weights":[-4.6084938E-3,-5.484958E-1,2.815592E-1,-3.0157456E-1,-9.03333E-1,5.2083147E-1,-1.705117E-1,-4.4883192E-1,5.47526E-1,-1.1047717E0,-3.8395756E-1,3.981237E-1,9.391E-1,-3.8899142E-1,1.6848119E-1,-4.4830624E-2,-9.2615746E-4,-2.5312522E-2,5.235814E-2,-1.2991837E-2,-5.7788786E-2,8.486073E-3,-4.484046E-2,3.9330196E-2,1.0860154E-2,5.273365E-2,1.1800451E-2,-2.9322468E-3,-3.5671014E-2,1.917623E-2,-2.8124308E-2],"categories":[],"categories_nodes":[],"categories_segments":[],"categories_sizes":[],"default_left":[0,0,0,0,0,0,0,0,0,0,0,0,0,0,0,0,0,0,0,0,0,0,0,0,0,0,0,0,0,0,0],"id":19,"left_children":[1,3,5,7,9,11,13,15,17,19,21,23,25,27,29,-1,-1,-1,-1,-1,-1,-1,-1,-1,-1,-1,-1,-1,-1,-1,-1],"loss_changes":[3.9836624E1,7.4586563E0,1.8230652E1,6.9391675E0,3.3114128E0,5.2676716E0,4.420487E0,8.879526E0,4.932893E0,7.854481E-1,3.4207985E0,5.924325E0,1.7172527E0,3.8226585E0,3.947783E0,0E0,0E0,0E0,0E0,0E0,0E0,0E0,0E0,0E0,0E0,0E0,0E0,0E0,0E0,0E0,0E0],"parents":[2147483647,0,0,1,1,2,2,3,3,4,4,5,5,6,6,7,7,8,8,9,9,10,10,11,11,12,12,13,13,14,14],"right_children":[2,4,6,8,10,12,14,16,18,20,22,24,26,28,30,-1,-1,-1,-1,-1,-1,-1,-1,-1,-1,-1,-1,-1,-1,-1,-1],"split_conditions":[3.7371102E-1,7.1E0,8E0,2E0,1E0,6.005955E-1,9.4E0,4E0,1.935E2,6E0,9.24044E-1,1E0,7.1467E-1,2.6666668E-1,1E0,-4.4830624E-2,-9.2615746E-4,-2.5312522E-2,5.235814E-2,-1.2991837E-2,-5.7788786E-2,8.486073E-3,-4.484046E-2,3.9330196E-2,1.0860154E-2,5.273365E-2,1.1800451E-2,-2.9322468E-3,-3.5671014E-2,1.917623E-2,-2.8124308E-2],"split_indices":[97,76,82,87,33,97,76,77,98,80,99,70,97,71,55,0,0,0,0,0,0,0,0,0,0,0,0,0,0,0,0],"split_type":[0,0,0,0,0,0,0,0,0,0,0,0,0,0,0,0,0,0,0,0,0,0,0,0,0,0,0,0,0,0,0],"sum_hessian":[2.5395647E2,8.723736E1,1.667191E2,5.2531822E1,3.4705536E1,1.0891855E2,5.7800552E1,4.516958E1,7.362242E0,2.4194597E1,1.0510939E1,8.5722046E1,2.3196503E1,3.5058186E1,2.2742369E1,2.1604364E1,2.3565214E1,2.3637197E0,4.9985228E0,1.7242913E0,2.2470304E1,5.3760123E0,5.134926E0,2.6173487E1,5.954856E1,1.9492334E1,3.7041688E0,1.7955717E1,1.7102468E1,1.7939936E1,4.8024335E0],"tree_param":{"num_deleted":"0","num_feature":"100","num_nodes":"31","size_leaf_vector":"1"}},{"base_weights":[-4.6836785E-3,-6.520418E-1,2.2165532E-1,-4.7243845E-1,-5.754595E-2,4.9415454E-1,-1.466768E-1,-8.401732E-1,-2.8106913E-1,3.7315282E-1,1.0361438E0,9.7576785E-1,-2.1277305E-1,-4.709621E-2,-3.7738036E-3,-1.836065E-2,1.7293805E-2,-2.9789126E-2,2.1250324E-2,1.2962076E-2,5.579082E-2,5.2624987E-3,6.1308116E-2,-2.9272694E-2,-2.1298833E-3],"categories":[],"categories_nodes":[],"categories_segments":[],"categories_sizes":[],"default_left":[0,0,0,0,0,0,0,0,0,0,0,0,0,0,0,0,0,0,0,0,0,0,0,0,0],"id":20,"left_children":[1,3,5,7,-1,9,11,13,15,17,19,21,23,-1,-1,-1,-1,-1,-1,-1,-1,-1,-1,-1,-1],"loss_changes":[3.716531E1,5.3437233E0,1.893753E1,3.2832642E0,0E0,6.713228E0,6.194303E0,1.2216892E0,1.984642E0,4.778305E0,8.988972E-1,8.881283E-1,4.8602667E0,0E0,0E0,0E0,0E0,0E0,0E0,0E0,0E0,0E0,0E0,0E0,0E0],"parents":[2147483647,0,0,1,1,2,2,3,3,5,5,6,6,7,7,8,8,9,9,10,10,11,11,12,12],"right_children":[2,4,6,8,-1,10,12,14,16,18,20,22,24,-1,-1,-1,-1,-1,-1,-1,-1,-1,-1,-1,-1],"split_conditions":[3.3845714E-1,9E0,6.8E0,5E-1,-5.754595E-2,6.005955E-1,1E0,3.171748E-1,6.333333E-1,1E0,4.0463707E-1,5E0,4.1668865E-1,-4.709621E-2,-3.7738036E-3,-1.836065E-2,1.7293805E-2,-2.9789126E-2,2.1250324E-2,1.2962076E-2,5.579082E-2,5.2624987E-3,6.1308116E-2,-2.9272694E-2,-2.1298833E-3],"split_indices":[97,81,76,69,0,97,1,97,71,87,99,79,97,0,0,0,0,0,0,0,0,0,0,0,0],"split_type":[0,0,0,0,0,0,0,0,0,0,0,0,0,0,0,0,0,0,0,0,0,0,0,0,0],"sum_hessian":[2.5166296E2,6.470828E1,1.8695467E2,4.90107E1,1.5697587E1,1.0726003E2,7.969464E1,1.5614877E1,3.339582E1,8.906445E1,1.819558E1,3.666551E0,7.602808E1,1.3576605E1,2.038272E0,2.9725716E1,3.6701066E0,3.9914103E0,8.5073044E1,2.0880878E0,1.6107492E1,1.1363319E0,2.530219E0,2.3068413E1,5.2959675E1],"tree_param":{"num_deleted":"0","num_feature":"100","num_nodes":"25","size_leaf_vector":"1"}},{"base_weights":[-4.567404E-3,-6.3051397E-1,2.1248735E-1,-4.5376468E-1,-5.6687254E-2,4.828945E-1,-1.3690895E-1,-8.1591153E-1,-2.6803818E-1,1.2533896E-1,6.3702625E-1,-2.0639658E-1,9.0393525E-1,-4.5837097E-2,-3.6485225E-3,-1.5972598E-2,3.4304403E-2,-2.0858599E-2,1.3439282E-2,3.5553977E-2,-3.186413E-2,5.023686E-2,-1.321794E-2,5.6576647E-2,1.2412231E-2],"categories":[],"categories_nodes":[],"categories_segments":[],"categories_sizes":[],"default_left":[0,0,0,0,0,0,0,0,0,0,0,0,0,0,0,0,0,0,0,0,0,0,0,0,0],"id":21,"left_children":[1,3,5,7,-1,9,11,13,15,17,19,21,23,-1,-1,-1,-1,-1,-1,-1,-1,-1,-1,-1,-1],"loss_changes":[3.4175743E1,5.246109E0,1.7714027E1,3.1172628E0,0E0,5.735386E0,6.1369767E0,1.1559639E0,1.9004707E0,2.6825476E0,7.3881207E0,5.736826E0,5.152221E-1,0E0,0E0,0E0,0E0,0E0,0E0,0E0,0E0,0E0,0E0,0E0,0E0],"parents":[2147483647,0,0,1,1,2,2,3,3,5,5,6,6,7,7,8,8,9,9,10,10,11,11,12,12],"right_children":[2,4,6,8,-1,10,12,14,16,18,20,22,24,-1,-1,-1,-1,-1,-1,-1,-1,-1,-1,-1,-1],"split_conditions":[3.3845714E-1,9E0,1E1,5E-1,-5.6687254E-2,4.4416824E-1,7E0,3.171748E-1,1E0,3E0,1E0,4.0463632E-1,1.1E1,-4.5837097E-2,-3.6485225E-3,-1.5972598E-2,3.4304403E-2,-2.0858599E-2,1.3439282E-2,3.5553977E-2,-3.186413E-2,5.023686E-2,-1.321794E-2,5.6576647E-2,1.2412231E-2],"split_indices":[97,81,78,69,0,97,79,97,41,77,45,99,78,0,0,0,0,0,0,0,0,0,0,0,0],"split_type":[0,0,0,0,0,0,0,0,0,0,0,0,0,0,0,0,0,0,0,0,0,0,0,0,0],"sum_hessian":[2.495564E2,6.376496E1,1.8579143E2,4.8597736E1,1.5167222E1,1.0451917E2,8.127226E1,1.5324168E1,3.327357E1,3.202971E1,7.248946E1,7.6937546E1,4.334713E0,1.3286955E1,2.0372133E0,3.2203453E1,1.0701174E0,6.298976E0,2.5730734E1,6.892599E1,3.563474E0,2.7678726E0,7.416968E1,2.6790667E0,1.6556461E0],"tree_param":{"num_deleted":"0","num_feature":"100","num_nodes":"25","size_leaf_vector":"1"}},{"base_weights":[-4.331402E-3,-6.0947657E-1,2.037454E-1,-3.8126802E-1,-9.896421E-1,4.631642E-1,-1.2900074E-1,5.238839E-1,-4.9918708E-1,-1.0494848E0,-3.3760953E-1,3.5539013E-1,9.971674E-1,-1.9586146E-1,8.803672E-1,-2.1333538E-2,6.653592E-2,-1.512448E-2,-5.1704068E-2,-5.8915615E-2,-3.0078325E-2,-3.615972E-2,8.531834E-3,3.422035E-2,1.0956551E-2,7.6182373E-3,5.4460883E-2,4.494713E-2,-1.2784406E-2,5.5225562E-2,1.20492475E-2],"categories":[],"categories_nodes":[],"categories_segments":[],"categories_sizes":[],"default_left":[0,0,0,0,0,0,0,0,0,0,0,0,0,0,0,0,0,0,0,0,0,0,0,0,0,0,0,0,0,0,0],"id":22,"left_children":[1,3,5,7,9,11,13,15,17,19,21,23,25,27,29,-1,-1,-1,-1,-1,-1,-1,-1,-1,-1,-1,-1,-1,-1,-1,-1],"loss_changes":[3.1413376E1,5.160494E0,1.6086033E1,4.692509E0,5.5550766E-1,5.662239E0,5.7142715E0,4.6117334E0,3.605443E0,4.9619484E-1,7.9644656E-1,3.8194418E0,1.1562061E0,5.327826E0,4.9102926E-1,0E0,0E0,0E0,0E0,0E0,0E0,0E0,0E0,0E0,0E0,0E0,0E0,0E0,0E0,0E0,0E0],"parents":[2147483647,0,0,1,1,2,2,3,3,4,4,5,5,6,6,7,7,8,8,9,9,10,10,11,11,12,12,13,13,14,14],"right_children":[2,4,6,8,10,12,14,16,18,20,22,24,26,28,30,-1,-1,-1,-1,-1,-1,-1,-1,-1,-1,-1,-1,-1,-1,-1,-1],"split_conditions":[3.3845714E-1,7.1E0,1E1,4E0,1E0,6.1427677E-1,7E0,1E0,1E0,1E0,5E-1,1E-1,4.0463707E-1,4.046364E-1,1.1E1,-2.1333538E-2,6.653592E-2,-1.512448E-2,-5.1704068E-2,-5.8915615E-2,-3.0078325E-2,-3.615972E-2,8.531834E-3,3.422035E-2,1.0956551E-2,7.6182373E-3,5.4460883E-2,4.494713E-2,-1.2784406E-2,5.5225562E-2,1.20492475E-2],"split_indices":[97,76,78,79,36,97,79,87,33,33,71,71,99,99,78,0,0,0,0,0,0,0,0,0,0,0,0,0,0,0,0],"split_type":[0,0,0,0,0,0,0,0,0,0,0,0,0,0,0,0,0,0,0,0,0,0,0,0,0,0,0,0,0,0,0],"sum_hessian":[2.474913E2,6.2831306E1,1.8466E2,4.0514103E1,2.2317204E1,1.0354291E2,8.111709E1,4.272841E0,3.624126E1,1.9882822E1,2.4343817E0,8.754071E1,1.6002197E1,7.683357E1,4.2835145E0,2.178026E0,2.0948148E0,2.7641956E1,8.599305E0,1.41751995E1,5.7076216E0,1.1437474E0,1.2906344E0,2.445876E1,6.3081955E1,1.8331817E0,1.4169016E1,3.2543545E0,7.3579216E1,2.6330109E0,1.6505035E0],"tree_param":{"num_deleted":"0","num_feature":"100","num_nodes":"31","size_leaf_vector":"1"}},{"base_weights":[-3.884332E-3,-5.900201E-1,1.9584656E-1,-4.180507E-1,-5.5177767E-2,4.42056E-1,-1.3063227E-1,-7.766352E-1,-2.3725712E-1,3.2679752E-1,9.844777E-1,9.407273E-1,-1.9355436E-1,-4.3560117E-2,1.2304822E-2,-2.2666704E-2,8.4849616E-4,5.3712295E-4,2.4192436E-2,1.1187385E-2,5.334991E-2,4.5930576E-3,5.9492566E-2,-2.6501626E-2,-9.3844096E-4],"categories":[],"categories_nodes":[],"categories_segments":[],"categories_sizes":[],"default_left":[0,0,0,0,0,0,0,0,0,0,0,0,0,0,0,0,0,0,0,0,0,0,0,0,0],"id":23,"left_children":[1,3,5,7,-1,9,11,13,15,17,19,21,23,-1,-1,-1,-1,-1,-1,-1,-1,-1,-1,-1,-1],"loss_changes":[2.89791E1,5.094473E0,1.48994875E1,2.9754515E0,0E0,6.2732315E0,5.5853004E0,1.7518854E0,1.8667138E0,4.387557E0,8.9058685E-1,8.670516E-1,4.4911947E0,0E0,0E0,0E0,0E0,0E0,0E0,0E0,0E0,0E0,0E0,0E0,0E0],"parents":[2147483647,0,0,1,1,2,2,3,3,5,5,6,6,7,7,8,8,9,9,10,10,11,11,12,12],"right_children":[2,4,6,8,-1,10,12,14,16,18,20,22,24,-1,-1,-1,-1,-1,-1,-1,-1,-1,-1,-1,-1],"split_conditions":[3.3845714E-1,9E0,6.8E0,2.513467E-1,-5.5177767E-2,6.005955E-1,1E0,1E0,4E0,2.1475E2,4.0463707E-1,5E0,1E0,-4.3560117E-2,1.2304822E-2,-2.2666704E-2,8.4849616E-4,5.3712295E-4,2.4192436E-2,1.1187385E-2,5.334991E-2,4.5930576E-3,5.9492566E-2,-2.6501626E-2,-9.3844096E-4],"split_indices":[97,81,76,97,0,97,1,36,77,98,99,79,60,0,0,0,0,0,0,0,0,0,0,0,0],"split_type":[0,0,0,0,0,0,0,0,0,0,0,0,0,0,0,0,0,0,0,0,0,0,0,0,0],"sum_hessian":[2.4555067E2,6.1910965E1,1.8363971E2,4.7738625E1,1.4172341E1,1.0448773E2,7.915197E1,1.4896778E1,3.2841846E1,8.7497894E1,1.6989838E1,3.6169167E0,7.553506E1,1.3771549E1,1.1252288E0,1.7329597E1,1.5512249E1,2.940025E1,5.809764E1,2.0258229E0,1.4964015E1,1.1311995E0,2.4857173E0,2.5128302E1,5.0406754E1],"tree_param":{"num_deleted":"0","num_feature":"100","num_nodes":"25","size_leaf_vector":"1"}},{"base_weights":[-3.6618575E-3,-4.638142E-1,2.3257709E-1,-2.9519984E-1,-9.464275E-1,4.3652335E-1,-1.4003566E-1,-8.4618527E-1,-1.5634587E-1,-7.3686726E-3,-1.0054125E0,8.844744E-1,3.1231037E-1,-3.5222384E-1,1.8693364E-1,8.513839E-4,-6.1853386E-2,-3.396722E-2,3.497401E-3,-2.9052166E-2,-5.574384E-2,5.0336994E-2,-4.577293E-3,-7.690022E-2,2.0934654E-2,-1.6543465E-3,-3.3431534E-2,-2.7270824E-2,1.8980674E-2],"categories":[],"categories_nodes":[],"categories_segments":[],"categories_sizes":[],"default_left":[0,0,0,0,0,0,0,0,0,0,0,0,0,0,0,0,0,0,0,0,0,0,0,0,0,0,0,0,0],"id":24,"left_children":[1,3,5,7,9,11,13,15,17,-1,19,21,23,25,27,-1,-1,-1,-1,-1,-1,-1,-1,-1,-1,-1,-1,-1,-1],"loss_changes":[2.6698235E1,6.500271E0,1.2394416E1,4.7025485E0,8.4716415E-1,5.573305E0,4.1013265E0,4.236582E0,6.1664786E0,0E0,2.577896E-1,2.7505589E0,1.7149559E1,3.5747862E0,3.5294228E0,0E0,0E0,0E0,0E0,0E0,0E0,0E0,0E0,0E0,0E0,0E0,0E0,0E0,0E0],"parents":[2147483647,0,0,1,1,2,2,3,3,4,4,5,5,6,6,7,7,8,8,10,10,11,11,12,12,13,13,14,14],"right_children":[2,4,6,8,10,12,14,16,18,-1,20,22,24,26,28,-1,-1,-1,-1,-1,-1,-1,-1,-1,-1,-1,-1,-1,-1],"split_conditions":[3.7371102E-1,7.8E0,8E0,5.1E0,1E0,4.0464342E-1,9.4E0,2.0466667E2,3.3333334E-1,-7.3686726E-3,4E0,1.1E1,5.777692E-1,2.6666668E-1,4.0927014E-1,8.513839E-4,-6.1853386E-2,-3.396722E-2,3.497401E-3,-2.9052166E-2,-5.574384E-2,5.0336994E-2,-4.577293E-3,-7.690022E-2,2.0934654E-2,-1.6543465E-3,-3.3431534E-2,-2.7270824E-2,1.8980674E-2],"split_indices":[97,76,82,76,11,99,76,98,71,0,77,78,99,71,97,0,0,0,0,0,0,0,0,0,0,0,0,0,0],"split_type":[0,0,0,0,0,0,0,0,0,0,0,0,0,0,0,0,0,0,0,0,0,0,0,0,0,0,0,0,0],"sum_hessian":[2.4360826E2,8.231319E1,1.6129507E2,6.2195225E1,2.011796E1,1.0412931E2,5.716577E1,1.1493577E1,5.070165E1,1.6234876E0,1.8494473E1,2.1277029E1,8.285228E1,3.4621048E1,2.2544724E1,3.8804798E0,7.6130967E0,1.4707773E1,3.5993874E1,5.0858397E0,1.3408632E1,1.8880417E1,2.3966126E0,3.7729025E0,7.9079384E1,1.7786076E1,1.6834972E1,4.3146467E0,1.8230076E1],"tree_param":{"num_deleted":"0","num_feature":"100","num_nodes":"29","size_leaf_vector":"1"}},{"base_weights":[-4.499884E-3,-5.5633825E-1,1.8107632E-1,-3.9038435E-1,-5.3835034E-2,4.187489E-1,-1.1911617E-1,-7.4345064E-1,-2.1530773E-1,3.1691667E-1,9.480707E-1,-1.819345E-1,8.400603E-1,-4.1901723E-2,1.2541111E-2,-3.585108E-2,-5.5073793E-3,2.9748982E-2,8.2909465E-3,5.5477703E-3,5.2229047E-2,4.7245163E-2,-1.1769551E-2,5.297908E-2,1.1331476E-2],"categories":[],"categories_nodes":[],"categories_segments":[],"categories_sizes":[],"default_left":[0,0,0,0,0,0,0,0,0,0,0,0,0,0,0,0,0,0,0,0,0,0,0,0,0],"id":25,"left_children":[1,3,5,7,-1,9,11,13,15,17,19,21,23,-1,-1,-1,-1,-1,-1,-1,-1,-1,-1,-1,-1],"loss_changes":[2.4956146E1,4.875492E0,1.3062534E1,2.8110275E0,0E0,5.198271E0,5.055735E0,1.6702747E0,1.6905843E0,3.5589886E0,1.1732702E0,4.8721676E0,4.573555E-1,0E0,0E0,0E0,0E0,0E0,0E0,0E0,0E0,0E0,0E0,0E0,0E0],"parents":[2147483647,0,0,1,1,2,2,3,3,5,5,6,6,7,7,8,8,9,9,10,10,11,11,12,12],"right_children":[2,4,6,8,-1,10,12,14,16,18,20,22,24,-1,-1,-1,-1,-1,-1,-1,-1,-1,-1,-1,-1],"split_conditions":[3.3845714E-1,9E0,1E1,2.513467E-1,-5.3835034E-2,6.1427677E-1,7E0,1E0,5.1E0,2E-1,4.0463707E-1,4.0463632E-1,1.1E1,-4.1901723E-2,1.2541111E-2,-3.585108E-2,-5.5073793E-3,2.9748982E-2,8.2909465E-3,5.5477703E-3,5.2229047E-2,4.7245163E-2,-1.1769551E-2,5.297908E-2,1.1331476E-2],"split_indices":[97,81,78,97,0,97,79,36,76,71,99,99,78,0,0,0,0,0,0,0,0,0,0,0,0],"split_type":[0,0,0,0,0,0,0,0,0,0,0,0,0,0,0,0,0,0,0,0,0,0,0,0,0],"sum_hessian":[2.4170946E2,6.032531E1,1.8138414E2,4.7065426E1,1.3259883E1,1.0101345E2,8.03707E1,1.4525769E1,3.2539658E1,8.605643E1,1.4957023E1,7.619112E1,4.179582E0,1.3407474E1,1.1182958E0,4.630308E0,2.790935E1,2.9264212E1,5.6792213E1,1.7683451E0,1.3188678E1,2.695484E0,7.3495636E1,2.5424435E0,1.6371387E0],"tree_param":{"num_deleted":"0","num_feature":"100","num_nodes":"25","size_leaf_vector":"1"}}]},"name":"gbtree"},"learner_model_param":{"base_score":"5E-1","boost_from_average":"1","num_class":"0","num_feature":"100","num_target":"1"},"objective":{"name":"binary:logistic","reg_loss_param":{"scale_pos_weight":"0.564579248"}}},"version":[2,1,3]}